svm_type c_svc
kernel_type sigmoid
gamma 0.0625
coef0 0
nr_class 26
total_sv 12913
rho -0.131707 0.788298 0.825095 -0.149964 0.370369 0.528659 0.353407 1.03686 0.27292 -0.328274 0.568228 0.829203 0.487849 0.734856 -0.816055 0.697488 0.00334937 -1.80467 0.257341 0.516442 0.643348 -0.0271374 0.461898 1.19006 -0.793097 0.638794 1.41235 0.0672055 0.461054 0.942476 0.221845 1.34156 -0.729018 -0.515967 0.39491 0.534815 1.07647 0.32122 0.0462078 0.1632 0.153062 -1.14265 -0.114615 0.416524 0.213886 0.0437093 0.582537 1.18488 -0.324798 1.36737 -0.925203 0.385643 0.828454 0.125231 1.2798 0.0144315 -0.437077 0.538816 0.466649 0.81715 0.579576 -0.878472 0.490957 -0.0558326 -2.84623 0.149677 0.788139 0.17492 -0.231488 0.621233 1.88281 -1.69829 -1.52118 -1.37234 -0.88366 -0.926566 -0.553786 -1.5352 -2.16571 -1.37086 -0.642109 -0.29242 -0.843447 -1.73309 -2.15884 -1.1078 -3.11989 -1.43534 -0.446954 -1.10795 -1.06122 -0.811608 -0.293719 -2.27219 0.59955 0.840401 0.49244 1.18349 -0.201759 -0.126711 0.591702 0.717121 0.85203 0.421225 0.0864149 0.380354 -0.0585285 -1.60512 0.102348 1.11359 0.474243 0.306886 0.839251 1.30824 -0.487592 0.442657 0.211356 0.734565 -0.759327 -1.47544 0.367535 0.140034 0.856165 0.0272274 -0.641294 -0.29778 -0.691679 -1.37214 -1.35504 1.04162 -0.405724 -0.0230877 0.368181 0.387428 -0.595775 -0.53278 0.511403 -0.828325 -2.08836 -0.816274 -0.188238 0.0752776 -0.323433 -1.4624 -1.17099 -0.31273 -2.26974 -0.430637 -0.0489353 -0.263137 -0.699342 -0.103809 0.811551 -1.38556 0.388943 -0.655668 -1.04451 0.234735 0.22124 0.365388 0.0565272 -0.382688 -0.359563 -0.470771 -0.867484 -1.87022 -0.0953425 -0.157306 -0.460219 0.390434 0.510863 -0.423968 -0.638236 -1.70977 -0.54093 -0.557084 -0.271361 -0.48825 -1.65557 -1.43802 -0.77266 -2.62699 -0.38148 -0.167564 -0.831714 -0.817978 -0.490514 0.198455 -2.33973 -0.208692 0.6827 0.706207 0.875388 0.44515 0.028108 0.179932 -0.692382 -0.708416 -0.512431 1.54957 0.393226 0.166381 0.870889 0.969087 -0.0672887 1.39926 0.498024 1.72155 1.70931 0.518175 1.08712 0.630359 -0.0315323 0.342047 1.34046 0.405901 0.370499 1.45482 1.46925 0.63313 0.300783 1.11715 0.319584 -2.09916 -0.464743 -0.560387 -2.07688 -0.496216 0.969266 -0.300017 -0.453966 1.02118 0.784499 -0.968555 0.344256 -0.00707272 -1.70118 -0.612507 -0.604396 -2.8943 -0.178226 0.157417 -0.388279 -0.992677 0.312841 0.878908 -1.41667 -0.505008 -1.26221 -1.49985 -0.702572 -2.5479 -0.478436 -0.364594 -0.575753 -1.16585 -0.510015 0.128142 -1.45918 -1.67182 -1.11011 -0.298044 -2.35902 -0.213478 0.149465 0.00109475 -0.596872 0.130023 0.78362 -1.88312 1.42153 0.162401 -0.762481 0.199876 0.939454 0.692067 0.648941 1.85007 1.44137 0.131458 -0.639512 -3.76033 -0.0914028 1.22292 -0.422209 0.115172 1.08886 1.40706 -1.50256 -0.833137 -0.0705926 1.32641 1.14585 0.190205 0.48094 0.609139 -0.0612534 0.338996 1.93302 1.59998 1.46014 2.41085 2.49149 1.2679 0.787936 0.31695 -0.0765568 0.558765 0.549123 -0.0548185 -0.827139 -1.07791 0.00129164 0.22184 -0.787233 -0.4474 0.245996 0.424916 -0.59978 0.900826 0.953195 -0.562796 0.727799 -0.982665 -1.77991
label 26 16 19 8 6 14 18 13 4 22 1 11 5 15 17 12 24 25 9 23 21 20 3 7 2 10
nr_sv 413 427 559 538 503 565 503 428 534 525 359 560 546 574 523 356 579 578 437 395 460 514 453 547 548 489
SV
0 1 0 0 0 0 0 1 0 0 0 1 0 0 0 1 1 1 0 0 1 0 0 0 1 1:-0.733333 2:-0.466667 3:-0.466667 4:-0.6 5:-0.733333 6:-0.0666667 7:0.0666667 8:-0.733333 9:0.2 10:0.466667 11:-0.0666667 12:-0.0666667 13:-0.866667 14:0.0666667 15:-0.333333 16:-0.2 
0 1 1 0 0 0 0 1 0 0 0 0.5480596368871076 0 0 0 1 1 1 0 0 1 0 0 0 1 1:-0.733333 2:-0.466667 3:-0.333333 4:-0.6 5:-0.733333 6:-0.0666667 7:0.0666667 8:-0.733333 9:0.2 10:0.466667 11:-0.0666667 12:-0.0666667 13:-0.866667 14:0.0666667 15:-0.333333 16:-0.2 
1 1 1 1 0 1 0 1 0.7181058436978348 1 0 1 0 1 0 0 0 0 0 0 0 1 1 1 1 1:-0.466667 2:0.0666667 3:-0.333333 4:-0.2 5:-0.466667 6:0.2 7:0.2 8:-0.2 9:-0.466667 10:-0.0666667 11:-0.333333 12:0.0666667 13:-0.6 14:0.0666667 15:0.333333 16:-0.0666667 
0 1 0 0 0 0 0 0 0 0 0 1 0 0 0 1 0 1 0 0 0 0 0 0 1 1:-0.866667 2:-0.6 3:-0.6 4:-0.733333 5:-0.866667 6:-0.0666667 7:0.0666667 8:-0.733333 9:0.2 10:0.466667 11:-0.2 12:0.0666667 13:-0.866667 14:0.0666667 15:-0.333333 16:-0.0666667 
0 1 0 0 0 0 0 0 0 0 0 1 0 0 0 0 0 0 0 0 0 0 0 1 0 1:-0.733333 2:-0.2 3:-0.6 4:-0.466667 5:-0.6 6:0.0666667 7:-0.0666667 8:-0.333333 9:0.2 10:-0.0666667 11:-0.0666667 12:-0.0666667 13:-0.866667 14:0.0666667 15:-0.0666667 16:0.0666667 
0 1 0 0 0 0 0 0 0 0 0 1 0 0 0 1 0 1 0 0 0 0 0 0 1 1:-0.866667 2:-0.466667 3:-0.6 4:-0.6 5:-0.866667 6:-0.0666667 7:-0.0666667 8:-0.733333 9:0.2 10:0.466667 11:-0.2 12:0.0666667 13:-0.866667 14:0.0666667 15:-0.333333 16:0.0666667 
0 1 0 0 0 0 0 0 0 0 0 0 0 1 0 0 0 0 0 0 0 0 0 0 1 1:0.2 2:0.333333 3:-0.0666667 4:0.866667 5:-0.2 6:0.0666667 7:-0.0666667 8:-0.466667 9:-0.733333 10:0.6 11:-0.2 12:0.0666667 13:-0.6 14:0.2 15:0.733333 16:-0.2 
1 1 1 0.6424211305758183 1 1 1 1 0 1 1 0 1 1 1 1 0 1 0.5369697785544947 0 0 0 1 1 1 1:-0.333333 2:0.0666667 3:-0.0666667 4:0.333333 5:-0.0666667 6:0.333333 7:-0.333333 8:-0.466667 9:-0.466667 10:0.0666667 11:-0.6 12:-0.2 13:-0.6 14:-0.333333 15:0.0666667 16:0.0666667 
1 1 0 1 0 0 0 0 0 0 0 0 0 1 0 0 1 0 0 0 1 0.4904543043438296 0 1 1 1:-0.0666667 2:0.2 3:-0.333333 4:0.733333 5:-0.333333 6:-0.0666667 7:0.0666667 8:-0.333333 9:-0.6 10:0.466667 11:-0.0666667 12:-0.0666667 13:-0.6 14:0.2 15:0.466667 16:-0.2 
0 0 0 0 0 0 0 0 0 0 0 1 0 1 0 0 0 0 0 0 0 0 0 1 0 1:-0.2 2:0.333333 3:0.0666667 4:0.0666667 5:-0.333333 6:0.0666667 7:-0.2 8:-0.6 9:0.2 10:0.6 11:-0.466667 12:0.2 13:-0.6 14:-0.2 15:0.0666667 16:0.2 
1 1 1 1 0.9866404632467815 1 1 1 0 1 1 1 1 1 1 1 0 1 0 0 0 0 1 1 1 1:-0.6 2:-0.333333 3:-0.333333 4:0.0666667 5:-0.6 6:0.466667 7:-0.333333 8:-0.6 9:-0.333333 10:0.333333 11:-0.733333 12:-0.0666667 13:-0.733333 14:-0.0666667 15:-0.333333 16:0.466667 
0 1 0 0 0 0 0 0 0 0 0 0 0 0 0 0 0 0 0 0 0 0 0 0 0 1:-0.466667 2:0.0666667 3:-0.333333 4:-0.2 5:-0.333333 6:0.0666667 7:0.0666667 8:-0.6 9:0.0666667 10:-0.0666667 11:-0.0666667 12:-0.0666667 13:-1 14:0.0666667 15:0.466667 16:0.0666667 
0 1 0 0 0 0 0 0 0 0 0 1 0 0 0 1 0 1 0 0 0 0 0 0 0 1:-0.733333 2:-0.6 3:-0.466667 4:-0.733333 5:-0.866667 6:-0.0666667 7:-0.0666667 8:-0.733333 9:0.2 10:0.466667 11:-0.2 12:0.0666667 13:-0.866667 14:0.0666667 15:-0.333333 16:-0.0666667 
1 1 1 1 0 1 0 1 0 0 0 0 0 0 0 1 1 1 0 0 1 0 0 1 1 1:-0.733333 2:-0.466667 3:-0.333333 4:-0.6 5:-0.733333 6:-0.0666667 7:0.0666667 8:-0.733333 9:0.2 10:0.466667 11:-0.0666667 12:-0.2 13:-0.866667 14:0.0666667 15:-0.333333 16:-0.0666667 
0 0 1 1 1 1 1 1 1 1 1 1 0.3199671342553836 0 0 1 1 0 1 1 1 0 0 0 0 1:0.0666667 2:0.733333 3:0.2 4:-0.0666667 5:-0.2 6:-0.333333 7:0.2 8:-0.733333 9:0.2 10:0.6 11:0.0666667 12:0.0666667 13:-0.2 14:-0.333333 15:0.0666667 16:-0.733333 
0 0 0 0 0 0 0 0 0 0 1 1 0 1 1 0 0 0 0 0 0 1 0 0 0 1:-0.2 2:0.333333 3:0.0666667 4:0.0666667 5:-0.333333 6:0.0666667 7:-0.2 8:-0.733333 9:0.2 10:0.6 11:-0.466667 12:0.466667 13:-0.6 14:-0.0666667 15:0.0666667 16:0.2 
0 1 0 0 0 0 0 0 0 0 0 1 0 0 1 1 0 0 0 0 1 1 1 0 0 1:-0.6 2:-0.0666667 3:-0.466667 4:-0.333333 5:-0.6 6:-0.2 7:0.0666667 8:-0.333333 9:0.333333 10:-0.0666667 11:-0.0666667 12:0.333333 13:-0.733333 14:0.2 15:0.0666667 16:0.0666667 
0 0 0 0 0 0 0 0 0 0 1 1 0 1 1 0 0 0 0 0 0 0 0 0 0 1:-0.466667 2:0.2 3:-0.2 4:-0.0666667 5:-0.466667 6:0.0666667 7:-0.333333 8:-0.733333 9:0.2 10:0.466667 11:-0.466667 12:0.333333 13:-0.733333 14:-0.0666667 15:-0.0666667 16:0.2 
0 1 1 0 1 1 1 1 1 1 1 1 1 1 1 1 1 1 1 1 1 1 1 1 1 1:-0.866667 2:-0.6 3:-0.733333 4:-0.733333 5:-0.866667 6:-0.0666667 7:-0.0666667 8:-0.333333 9:0.0666667 10:-0.2 11:-0.2 12:0.0666667 13:-0.733333 14:0.0666667 15:-0.2 16:0.0666667 
0 1 0 0 0 0 0 0 0 0 0 1 0 0 0 1 0 1 0 0 0 0 0 0 1 1:-0.733333 2:-0.6 3:-0.6 4:-0.733333 5:-0.866667 6:-0.0666667 7:0.0666667 8:-0.733333 9:0.2 10:0.466667 11:-0.2 12:0.0666667 13:-0.866667 14:0.0666667 15:-0.333333 16:-0.0666667 
1 1 1 1 1 1 1 1 1 1 1 1 1 1 1 1 1 1 1 1 1 1 1 0 1 1:-0.333333 2:0.2 3:-0.333333 4:-0.466667 5:-0.6 6:-0.333333 7:0.0666667 8:-0.733333 9:0.0666667 10:0.466667 11:0.2 12:0.2 13:-0.6 14:0.2 15:-0.333333 16:-0.333333 
0 0 0 0 0 0 0 1 0 0 0 0 0 0 0 0 0 1 0 0 1 0 0 0 1 1:-0.733333 2:-0.466667 3:-0.466667 4:-0.6 5:-0.733333 6:-0.0666667 7:0.0666667 8:-0.733333 9:0.2 10:0.6 11:-0.0666667 12:-0.0666667 13:-0.866667 14:0.0666667 15:-0.333333 16:-0.2 
0 1 0 0 0 0 0 0 0 0 0 0 0 0 0 0 0 0 0 0 0 0 0 0 0 1:-0.6 2:0.2 3:-0.466667 4:-0.2 5:-0.6 6:-0.0666667 7:-0.0666667 8:-0.2 9:0.466667 10:-0.2 11:-0.2 12:0.0666667 13:-0.866667 14:0.0666667 15:0.0666667 16:0.0666667 
0 1 0 0 0 0 0 0 0 0 0 0 0 0 0 0 0 0 0 0 0 0 0 0 0 1:-0.6 2:0.0666667 3:-0.466667 4:-0.2 5:-0.6 6:-0.0666667 7:0.0666667 8:-0.6 9:0.466667 10:0.0666667 11:-0.2 12:0.0666667 13:-1 14:0.0666667 15:-0.0666667 16:-0.0666667 
0 1 0 0 0 0 0 0 0 0 0 1 0 0 0 0 0 0 0 0 0 1 0 0 0 1:-0.733333 2:-0.0666667 3:-0.6 4:-0.333333 5:-0.6 6:-0.2 7:0.0666667 8:-0.333333 9:0.333333 10:-0.0666667 11:-0.2 12:0.333333 13:-0.866667 14:0.2 15:0.0666667 16:-0.0666667 
0 1 0 0 0 0 0 0 0 0 0 0 0 0 0 1 0 0 0 0 0 0 0 0 0 1:-0.866667 2:-1 3:-0.733333 4:-1 5:-1 6:-0.0666667 7:-0.0666667 8:-0.733333 9:0.333333 10:0.0666667 11:-0.2 12:0.0666667 13:-1 14:0.0666667 15:-0.2 16:0.0666667 
0 1 1 0 0 1 0 1 0 0.4808070313363204 0 1 1 1 1 1 1 1 0 1 0 0 1 1 1 1:-0.733333 2:-0.6 3:-0.733333 4:-0.866667 5:-0.866667 6:0.0666667 7:-0.0666667 8:-0.333333 9:0.0666667 10:-0.2 11:-0.2 12:-0.0666667 13:-0.866667 14:0.0666667 15:-0.2 16:0.0666667 
0 1 1 0 0 1 0 0 0 0 1 1 1 1 0 1 0 0 0 0 0 0.8949758207585145 1 1 0 1:-0.733333 2:-0.733333 3:-0.6 4:-0.6 5:-0.733333 6:-0.0666667 7:-0.0666667 8:-0.333333 9:0.2 10:-0.2 11:-0.2 12:0.0666667 13:-0.733333 14:0.0666667 15:-0.0666667 16:0.0666667 
0 0 0 0 0 0 0 0 0 0 1 1 0 0.1882372842935903 1 1 0 0 0 0 0 1 0 0 0 1:-0.333333 2:-0.0666667 3:-0.2 4:-0.333333 5:-0.6 6:0.0666667 7:-0.0666667 8:-0.733333 9:0.2 10:0.6 11:-0.333333 12:0.333333 13:-0.733333 14:0.2 15:-0.2 16:0.2 
0 1 1 0 0 0 0 0 0 0 1 1 0 0 0 1 0 1 0 0 0 0 0 1 1 1:-0.733333 2:-0.466667 3:-0.466667 4:-0.6 5:-0.733333 6:-0.0666667 7:-0.0666667 8:-0.733333 9:0.2 10:0.466667 11:-0.2 12:0.0666667 13:-0.866667 14:0.0666667 15:-0.333333 16:0.0666667 
0 1 0 0 0 0 0 0 0 0 0 1 0 0 0 1 0 1 0 0 0 0 0 0 0 1:-0.6 2:-0.2 3:-0.466667 4:-0.466667 5:-0.733333 6:0.0666667 7:-0.0666667 8:-0.733333 9:0.2 10:0.466667 11:-0.333333 12:0.0666667 13:-0.733333 14:0.0666667 15:-0.2 16:0.0666667 
0 1 0 0 0 0 0 0 0 0 0 0 0 0 1 1 0 1 0 0 0 0 0 0 0 1:-0.466667 2:0.466667 3:-0.2 4:0.0666667 5:-0.0666667 6:0.0666667 7:-0.0666667 8:-0.733333 9:0.0666667 10:-0.0666667 11:-0.2 12:0.0666667 13:-1 14:0.0666667 15:0.2 16:0.0666667 
1 1 1 1 1 1 1 1 1 1 1 0 0 1 0 1 1 1 1 1 1 0 0.07363271432184484 1 1 1:-0.2 2:0.466667 3:0.0666667 4:0.0666667 5:0.0666667 6:0.333333 7:0.2 8:-0.333333 9:-0.466667 10:-0.0666667 11:-0.333333 12:-0.0666667 13:-0.6 14:0.0666667 15:0.2 16:-0.333333 
0 0 0 0 0 0 0 0 0 0 0 1 0 0 0 0 0 0 0 0 1 0 0 0 0 1:-0.2 2:0.466667 3:0.0666667 4:0.2 5:-0.333333 6:-0.0666667 7:0.0666667 8:-0.6 9:0.466667 10:0.6 11:-0.0666667 12:0.0666667 13:-0.733333 14:0.2 15:-0.0666667 16:0.0666667 
0 1 0 0 0 0 0 0 0 0 0 0 0 0 0 0 0 0 0 0 0 0 0 0 0 1:-0.733333 2:-0.866667 3:-0.733333 4:-0.866667 5:-0.866667 6:-0.0666667 7:-0.0666667 8:-0.6 9:0.466667 10:0.0666667 11:-0.2 12:0.0666667 13:-1 14:0.0666667 15:-0.2 16:0.0666667 
0 1 0 0 0 0 0 0 0 0 0 0 0 0 0 0 0 0 0 0 0 0 0 0.6691278201301062 0 1:-0.6 2:0.0666667 3:-0.466667 4:-0.2 5:-0.6 6:0.2 7:-0.2 8:-0.333333 9:0.333333 10:-0.0666667 11:-0.333333 12:-0.2 13:-0.866667 14:-0.0666667 15:0.0666667 16:0.0666667 
0 0 0 0 0 0 0 0 0 0 1 1 0 1 1 1 0 0 0 0 0 0 1 0 0 1:-0.2 2:0.2 3:0.0666667 4:-0.0666667 5:-0.333333 6:0.2 7:-0.333333 8:-0.6 9:0.2 10:0.466667 11:-0.6 12:0.466667 13:-0.6 14:-0.2 15:-0.0666667 16:0.2 
0 1 1 0 0 1 1 1 0 1 1 1 1 1 1 1 0 0 0 0 0 1 1 1 1 1:0.0666667 2:0.6 3:0.0666667 4:-0.2 5:-0.333333 6:0.333333 7:-0.6 8:-0.466667 9:-0.0666667 10:0.6 11:-0.6 12:0.466667 13:-0.6 14:-0.2 15:-0.0666667 16:0.466667 
1 1 0 1 0 0 0 1 0 0 0 0 0 0 0 1 1 1 0 0 1 0 0 0 1 1:-0.466667 2:0.0666667 3:-0.2 4:-0.2 5:-0.466667 6:-0.0666667 7:0.2 8:-0.733333 9:0.2 10:0.466667 11:-0.0666667 12:-0.2 13:-0.866667 14:0.0666667 15:-0.2 16:-0.2 
1 1 1 1 1 1 1 1 0 1 1 0 1 1 1 1 0 1 0 0 0 0 1 1 1 1:-0.333333 2:-0.0666667 3:-0.0666667 4:0.2 5:-0.2 6:0.333333 7:-0.333333 8:-0.466667 9:-0.466667 10:0.0666667 11:-0.733333 12:-0.2 13:-0.733333 14:-0.0666667 15:-0.0666667 16:0.0666667 
1 1 1 1 1 1 1 1 1 1 1 0 1 0 0 1 1 1 1 1 1 0 0 1 1 1:-0.466667 2:0.0666667 3:-0.333333 4:-0.2 5:-0.333333 6:0.0666667 7:0.333333 8:-0.333333 9:-0.466667 10:-0.2 11:-0.333333 12:-0.2 13:-0.6 14:0.0666667 15:0.0666667 16:-0.6 
1 1 0 1 0 0 0 0 0 0 0 1 0 0 0 0 0 1 0 0 1 0 0 1 0 1:-0.333333 2:0.2 3:-0.0666667 4:-0.2 5:-0.333333 6:-0.0666667 7:0.0666667 8:-0.733333 9:0.2 10:0.6 11:-0.2 12:0.0666667 13:-0.866667 14:0.2 15:-0.2 16:0.0666667 
0 1 0 0 0 0 0 0 0 0 0 0 0 0 0 0 0 0 0 0 0 0 0 0 0 1:-0.6 2:0.2 3:-0.333333 4:-0.0666667 5:-0.333333 6:0.0666667 7:-0.2 8:-0.733333 9:-0.0666667 10:0.0666667 11:-0.2 12:0.0666667 13:-0.866667 14:-0.0666667 15:0.466667 16:0.333333 
1 1 0 1 0 0 0 0 1 0 0 1 0 0 0 0 1 1 0 0 1 1 0 0 1 1:0.2 2:0.466667 3:-0.2 4:1 5:-0.2 6:-0.333333 7:0.466667 8:-0.6 9:-0.6 10:0.6 11:0.0666667 12:-0.2 13:-0.6 14:0.2 15:0.466667 16:-0.333333 
0 1 0 0 0 1 0 0 0 0 1 1 0 1 1 1 0 0 0 0 0 1 1 1 0 1:-0.333333 2:-0.0666667 3:-0.2 4:-0.333333 5:-0.466667 6:0.0666667 7:-0.333333 8:-0.733333 9:0.2 10:0.466667 11:-0.466667 12:0.333333 13:-0.733333 14:0.0666667 15:-0.2 16:0.333333 
0 1 0 0 0 0 0 0 0 0 0 0 0 0 0 0 0 0 0 0 0 0 0 0 0 1:-0.6 2:0.333333 3:-0.466667 4:-0.0666667 5:-0.6 6:-0.0666667 7:0.0666667 8:-0.6 9:0.466667 10:0.2 11:-0.2 12:0.0666667 13:-1 14:0.0666667 15:-0.0666667 16:0.0666667 
0 1 0 0 0 0 0 0 0 0 0 1 0 0 0 1 0 1 0 0 0 0 0 0 1 1:-0.733333 2:-0.466667 3:-0.466667 4:-0.6 5:-0.866667 6:-0.0666667 7:0.0666667 8:-0.733333 9:0.2 10:0.466667 11:-0.2 12:0.0666667 13:-0.866667 14:0.0666667 15:-0.333333 16:-0.0666667 
0 0 0 0 0 0 0 0 0 0 1 1 0 0 1 1 0 1 0 0 0 0 0 0 0 1:-0.733333 2:-0.466667 3:-0.466667 4:-0.6 5:-0.733333 6:0.0666667 7:-0.2 8:-0.733333 9:0.2 10:0.466667 11:-0.333333 12:0.2 13:-0.866667 14:0.0666667 15:-0.333333 16:0.2 
0 1 0 0 0 0 0 0 0 0 0 0 0 0 0 0 0 0 0 0 0 0 0 0 1 1:-0.6 2:-0.0666667 3:-0.333333 4:-0.333333 5:-0.733333 6:0.2 7:-0.2 8:-0.6 9:0.2 10:0.466667 11:-0.6 12:0.2 13:-0.866667 14:-0.0666667 15:-0.2 16:0.2 
0 1 0 0 0 1 0 1 0 0 1 1 1 1 1 1 0 0 0 0 0 1 1 1 0 1:-0.733333 2:-0.333333 3:-0.6 4:-0.466667 5:-0.733333 6:-0.0666667 7:-0.0666667 8:-0.333333 9:0.2 10:-0.2 11:-0.2 12:0.0666667 13:-0.733333 14:0.0666667 15:-0.0666667 16:0.0666667 
1 1 1 1 1 1 1 1 1 1 0 1 1 1 1 1 1 0 1 1 1 1 1 1 1 1:-0.466667 2:0.2 3:-0.333333 4:-0.0666667 5:-0.333333 6:0.2 7:0.2 8:-0.2 9:-0.466667 10:-0.0666667 11:-0.333333 12:0.0666667 13:-0.466667 14:0.2 15:0.333333 16:-0.2 
0 1 0 0 0 0 0 0 0 0 0 0 0 0 0 0 0 0 0 0 0 0 0 0 0 1:-0.466667 2:-0.0666667 3:-0.466667 4:-0.333333 5:-0.6 6:-0.0666667 7:-0.0666667 8:-0.333333 9:0.466667 10:-0.0666667 11:-0.2 12:0.2 13:-0.866667 14:0.0666667 15:0.0666667 16:0.0666667 
0 1 0 1 0 0 0 0 0 0 0 1 0 0 0 1 1 1 0 0 1 0 0 0 0 1:-0.333333 2:0.0666667 3:-0.2 4:-0.2 5:-0.466667 6:-0.0666667 7:0.0666667 8:-0.733333 9:0.2 10:0.466667 11:-0.0666667 12:0.0666667 13:-0.866667 14:0.2 15:-0.2 16:-0.0666667 
0 1 0 0 0 0 0 0 0 0 0 1 0.995682234829385 0 0 1 0 0 0 0 0 0 1 1 0 1:-0.733333 2:-0.866667 3:-0.6 4:-0.733333 5:-0.866667 6:-0.0666667 7:-0.0666667 8:-0.333333 9:0.2 10:-0.2 11:-0.2 12:0.0666667 13:-0.866667 14:0.0666667 15:-0.0666667 16:0.0666667 
0 1 1 1 1 1 0 1 0 1 1 1 1 0 1 1 1 1 0 1 1 1 0 0 1 1:-0.333333 2:0.333333 3:-0.333333 4:-0.333333 5:-0.6 6:-0.333333 7:0.0666667 8:-0.733333 9:0.2 10:0.466667 11:0.0666667 12:0.0666667 13:-0.6 14:-0.2 15:-0.2 16:-0.333333 
0 1 0 0 0 1 0 1 0 0 0 1 0 1 0 1 0 0 0 0 0 0 0 1 0 1:-0.733333 2:-0.333333 3:-0.6 4:-0.466667 5:-0.6 6:0.0666667 7:-0.0666667 8:-0.333333 9:0.2 10:-0.2 11:-0.2 12:-0.0666667 13:-0.733333 14:0.0666667 15:-0.0666667 16:0.0666667 
0 1 0 0 0 0 0 0 0 0 0 1 0 0 0 1 0 0 0 0 0 0 0 0 0 1:-0.6 2:-0.733333 3:-0.466667 4:-0.466667 5:-0.733333 6:-0.0666667 7:-0.0666667 8:-0.333333 9:0.333333 10:-0.2 11:-0.2 12:0.0666667 13:-0.866667 14:0.0666667 15:-0.0666667 16:0.0666667 
0 1 0 0 0 0 0 0 0 0 0 1 0 0 0 1 0 0 0 0 0 0 0 0 0 1:-0.466667 2:-0.0666667 3:-0.333333 4:-0.333333 5:-0.333333 6:0.0666667 7:0.0666667 8:-0.733333 9:-0.0666667 10:-0.0666667 11:-0.2 12:0.0666667 13:-1 14:0.2 15:0.2 16:0.2 
0 1 0 0 0 0 0 1 0 0 0 0 0 0 0 0 0 0 0 0 0 0 0 1 0 1:-0.333333 2:0.466667 3:-0.0666667 4:0.2 5:-0.333333 6:0.0666667 7:-0.2 8:-0.2 9:0.466667 10:-0.0666667 11:-0.333333 12:-0.2 13:-0.733333 14:-0.0666667 15:0.0666667 16:0.0666667 
0 1 0 0 0 0 0 0 0 0 0 0 0 0 0 1 0 0 0 0 0 0 0 0 0 1:-0.466667 2:0.0666667 3:-0.2 4:-0.2 5:-0.2 6:0.0666667 7:0.0666667 8:-0.733333 9:0.0666667 10:-0.0666667 11:-0.2 12:-0.0666667 13:-1 14:0.0666667 15:0.2 16:0.0666667 
0 1 0 0 0 0 0 0 0 0 0 0 0 0 0 1 0 0 0 0 0 0 0 0 0 1:-0.866667 2:-1 3:-0.866667 4:-0.866667 5:-1 6:-0.0666667 7:-0.0666667 8:-0.733333 9:0.2 10:0.2 11:-0.2 12:0.0666667 13:-1 14:0.0666667 15:-0.2 16:0.0666667 
1 1 1 1 0 1 0 1 1 0 0 1 1 1 0 0 0 0 0 0 0 1 1 1 1 1:-0.333333 2:-0.2 3:-0.466667 4:0.0666667 5:-0.6 6:0.0666667 7:-0.2 8:-0.333333 9:-0.333333 10:0.333333 11:-0.2 12:-0.0666667 13:-0.6 14:0.2 15:0.2 16:0.2 
1 1 1 1 1 1 1 1 1 1 1 1 1 1 1 1 0 1 0.8164164035858638 1 1 1 1 1 1 1:-0.0666667 2:0.866667 3:-0.0666667 4:0.0666667 5:-0.466667 6:0.333333 7:-0.466667 8:-0.6 9:0.0666667 10:0.6 11:-0.466667 12:0.333333 13:-0.6 14:0.2 15:-0.466667 16:0.466667 
0 1 0 0 0 0 0 0 0 0 0 0 0 0 0 0 0 1 0 0 0 0 0 0.6595744164265579 1 1:-0.6 2:-0.0666667 3:-0.333333 4:-0.333333 5:-0.6 6:0.0666667 7:-0.0666667 8:-0.733333 9:0.2 10:0.466667 11:-0.333333 12:-0.0666667 13:-0.866667 14:-0.0666667 15:-0.2 16:0.0666667 
1 1 1 0 0 1 0 1 0 1 1 0 0 1 1 1 0 1 0 0 0 0 1 1 1 1:-0.466667 2:-0.2 3:-0.2 4:0.0666667 5:-0.466667 6:0.733333 7:-0.466667 8:-0.6 9:-0.0666667 10:0.333333 11:-0.733333 12:-0.0666667 13:-0.733333 14:-0.0666667 15:-0.333333 16:0.6 
0 1 0 1 0 0 0 0 0 0 0 0 0 0 0 0 1 0 0 0 0.3001852966458862 0 0 1 1 1:0.2 2:0.2 3:-0.2 4:0.6 5:-0.2 6:-0.2 7:0.2 8:-0.466667 9:-0.733333 10:0.6 11:-0.0666667 12:-0.0666667 13:-0.6 14:0.0666667 15:0.733333 16:-0.2 
0 1 0 0 0 1 0 0 0 0 0 1 1 1 1 1 0 0 0 0 0 1 1 1 0 1:-0.866667 2:-0.6 3:-0.733333 4:-0.733333 5:-0.866667 6:-0.0666667 7:-0.0666667 8:-0.333333 9:0.0666667 10:-0.2 11:-0.2 12:0.0666667 13:-0.866667 14:0.0666667 15:-0.0666667 16:0.0666667 
1 1 1 1 1 0 0 1 1 0 0 1 1 0 0 1 1 0 0 1 1 1 0 0 0 1:-0.2 2:0.333333 3:0.2 4:-0.0666667 5:-0.333333 6:-0.333333 7:0.333333 8:-0.466667 9:0.333333 10:0.466667 11:0.333333 12:-0.2 13:-0.866667 14:0.2 15:-0.2 16:-0.333333 
0 1 1 0 0 1 0 1 0 0 1 1 1 1 1 1 0 0 0 1 1 1 1 1 0 1:-0.733333 2:-0.6 3:-0.733333 4:-0.733333 5:-0.733333 6:-0.0666667 7:-0.0666667 8:-0.333333 9:0.2 10:-0.2 11:-0.2 12:0.0666667 13:-0.866667 14:0.0666667 15:-0.2 16:0.0666667 
0 1 1 0 0 1 0 1 0 1 1 1 1 1 1 0 0 1 0 0 0 1 1 1 1 1:-0.0666667 2:1 3:-0.0666667 4:0.2 5:-0.333333 6:0.466667 7:-0.6 8:-0.466667 9:-0.2 10:0.6 11:-0.6 12:0.333333 13:-0.6 14:-0.0666667 15:-0.0666667 16:0.466667 
0 1 0 0 0 0 0 0 0 0 0 0 0 0 0 1 0 0 0 0 0 0 0 1 0 1:-0.466667 2:0.0666667 3:-0.2 4:-0.2 5:-0.2 6:0.0666667 7:0.0666667 8:-0.6 9:0.0666667 10:-0.0666667 11:-0.0666667 12:-0.0666667 13:-0.866667 14:0.0666667 15:0.2 16:0.0666667 
0 0 0 0 0 0 0 1 0 0 0 1 0 0 0 0 0 0 0 0 0 0 0 0 0 1:-0.733333 2:-0.466667 3:-0.466667 4:-0.733333 5:-0.733333 6:-0.0666667 7:-0.0666667 8:-0.733333 9:0.2 10:0.6 11:-0.2 12:0.0666667 13:-0.866667 14:0.0666667 15:-0.333333 16:-0.0666667 
0 1 0 0 0 0 0 0 0 0 0 1 0 -0 0 0 0 0 0 0 0 0 0 0 0 1:-0.6 2:0.333333 3:-0.466667 4:0.0666667 5:-0.466667 6:-0.0666667 7:-0.0666667 8:-0.2 9:0.333333 10:-0.2 11:-0.2 12:0.0666667 13:-0.866667 14:0.0666667 15:0.0666667 16:0.0666667 
0 1 1 0 0 1 0 1 0 1 0 0 0 1 1 1 0 1 0 0 0 0 0 1 1 1:-0.466667 2:-0.0666667 3:-0.2 4:0.2 5:-0.466667 6:0.466667 7:-0.466667 8:-0.733333 9:-0.2 10:0.2 11:-0.733333 12:-0.2 13:-0.866667 14:0.0666667 15:-0.2 16:0.2 
0 0 0 1 0 0 0 0 0 0 0 1 0 0 0 1 0 1 0 0 0 0 0 0 1 1:-0.866667 2:-0.6 3:-0.6 4:-0.733333 5:-0.866667 6:-0.0666667 7:0.0666667 8:-0.866667 9:0.2 10:0.466667 11:-0.0666667 12:-0.0666667 13:-0.866667 14:0.0666667 15:-0.333333 16:-0.0666667 
1 1 0.7809813809665801 1 1 0 0 1 1 0 0 0 0 0 0 0 1 0 0 1 1 0 0 0 0 1:-0.466667 2:-0.2 3:-0.2 4:-0.466667 5:-0.6 6:-0.2 7:0.2 8:-0.6 9:0.2 10:0.466667 11:0.2 12:-0.2 13:-0.866667 14:0.2 15:-0.2 16:-0.333333 
1 1 0 1 0 0 0 0 0 0 0 1 0 0 0 1 1 1 0 0 1 0 0 0 0 1:-0.466667 2:0.333333 3:-0.2 4:0.0666667 5:-0.466667 6:-0.2 7:0.2 8:-0.733333 9:0.2 10:0.466667 11:0.0666667 12:-0.0666667 13:-0.733333 14:0.333333 15:-0.0666667 16:-0.2 
0 0 0 0 0 0 0 0 0 0 0 1 0 0 0 0 0 1 0 0 0 0 0 0 1 1:-0.733333 2:-0.466667 3:-0.466667 4:-0.6 5:-0.733333 6:-0.0666667 7:-0.0666667 8:-0.733333 9:0.2 10:0.6 11:-0.2 12:0.0666667 13:-0.866667 14:0.0666667 15:-0.333333 16:-0.0666667 
0 0 0 0 0 0 0 0 0 0 0 1 0 0 0 0 0 0 0 0 0 0 0 0 0 1:-0.6 2:-0.333333 3:-0.2 4:-0.466667 5:-0.6 6:-0.0666667 7:-0.0666667 8:-0.733333 9:0.333333 10:0.6 11:-0.2 12:0.0666667 13:-0.866667 14:0.0666667 15:-0.2 16:0.0666667 
0 1 0 0 0 0 0 0 0 0 0 1 0 0 1 0 0 0 0 0 0 0 0 0 0 1:-0.6 2:-0.0666667 3:-0.466667 4:-0.333333 5:-0.466667 6:-0.2 7:-0.2 8:-0.6 9:-0.0666667 10:-0.0666667 11:-0.2 12:0.333333 13:-0.866667 14:-0.0666667 15:0.333333 16:-0.0666667 
1 1 1 1 0 1 0 1 0 1 0.4019339387187263 1 0 1 1 1 0 1 0 0 0 0 1 1 1 1:-0.333333 2:-0.2 3:-0.466667 4:0.0666667 5:-0.6 6:0.466667 7:-0.466667 8:-0.6 9:-0.333333 10:0.466667 11:-0.466667 12:0.0666667 13:-0.6 14:0.2 15:-0.0666667 16:0.333333 
0 1 0 0 0 0 0 0 0 0 0 1 0 0 0 0 0 0 0 0 1 1 1 0 0 1:-0.6 2:-0.2 3:-0.466667 4:-0.466667 5:-0.6 6:-0.0666667 7:0.0666667 8:-0.333333 9:0.333333 10:-0.0666667 11:-0.0666667 12:0.2 13:-0.866667 14:0.2 15:-0.0666667 16:0.0666667 
0 0 1 1 0 0 0 0 0 0 0 1 0 0 0 0 0 1 0 0 1 0 0 0 1 1:-0.6 2:-0.333333 3:-0.333333 4:-0.466667 5:-0.6 6:-0.0666667 7:0.0666667 8:-0.733333 9:0.2 10:0.6 11:-0.2 12:0.0666667 13:-0.866667 14:0.0666667 15:-0.333333 16:-0.0666667 
0 0 0 0 0 0 0 0 0 0 0 1 0 0 0 0 0 1 0 0 0 0 0 0 1 1:-0.733333 2:-0.466667 3:-0.466667 4:-0.6 5:-0.733333 6:-0.0666667 7:0.0666667 8:-0.733333 9:0.2 10:0.6 11:-0.2 12:0.0666667 13:-0.866667 14:0.0666667 15:-0.333333 16:-0.0666667 
0 0 0 0 0 0 0 0 0 0 0 1 0 0 0 0 0 0 0 0 0 0 0 0 0 1:-0.733333 2:-0.466667 3:-0.466667 4:-0.6 5:-0.866667 6:0.0666667 7:-0.2 8:-0.733333 9:0.333333 10:0.466667 11:-0.333333 12:0.2 13:-0.866667 14:0.0666667 15:-0.2 16:0.2 
0 1 1 0 0 1 0 1 1 0 1 1 1 1 1 1 0 0 0 1 1 1 1 1 0 1:-0.733333 2:-0.466667 3:-0.733333 4:-0.6 5:-0.733333 6:-0.0666667 7:0.0666667 8:-0.333333 9:0.0666667 10:-0.2 11:-0.2 12:0.2 13:-0.733333 14:0.0666667 15:-0.0666667 16:0.0666667 
0 1 1 0 1 1 0 1 0 1 1 1 1 1 1 1 0 1 0 1 0.61246338391595 1 1 1 0 1:-0.866667 2:-0.6 3:-0.733333 4:-0.866667 5:-0.866667 6:-0.0666667 7:-0.0666667 8:-0.333333 9:0.0666667 10:-0.2 11:-0.2 12:0.0666667 13:-0.866667 14:0.0666667 15:-0.2 16:0.0666667 
0 1 0 0 0 0 0 0 0 0 0 0 0 0 0 0 0 0 0 0 0 0 0 0 0 1:-0.6 2:-0.0666667 3:-0.466667 4:-0.333333 5:-0.6 6:-0.0666667 7:-0.0666667 8:-0.6 9:0.466667 10:0.0666667 11:-0.2 12:0.0666667 13:-1 14:0.0666667 15:-0.0666667 16:0.0666667 
0 1 0 0 0 0 0 0 0 0 0 1 0 1 0 0 0 0 0 0 0 0 1 1 1 1:-0.2 2:-0.0666667 3:-0.466667 4:0.466667 5:-0.466667 6:0.0666667 7:-0.333333 8:-0.466667 9:-0.466667 10:0.466667 11:-0.2 12:0.0666667 13:-0.6 14:0.2 15:0.333333 16:0.0666667 
1 1 1 1 1 1 0 1 1 1 0.6100839868492171 0 0 1 0 1 1 0 0 0 1 0 0.281487198556562 1 1 1:-0.2 2:0.333333 3:0.2 4:0.0666667 5:-0.0666667 6:0.2 7:0.2 8:-0.333333 9:-0.466667 10:-0.0666667 11:-0.333333 12:-0.0666667 13:-0.6 14:0.2 15:0.333333 16:-0.333333 
0 1 0 0 0 0 0 0 0 0 0 1 0 1 1 0 0 0 0 0 1 1 1 0 0 1:-0.466667 2:0.2 3:-0.466667 4:-0.2 5:-0.6 6:-0.2 7:0.0666667 8:-0.2 9:0.333333 10:-0.0666667 11:-0.0666667 12:0.333333 13:-0.866667 14:0.2 15:0.0666667 16:0.0666667 
0 0 0 0 0 0 0 0 0 0 0 1 0 0 0 0 0 0 0 0 0 0 0 0 0 1:-0.466667 2:-0.2 3:-0.333333 4:-0.466667 5:-0.6 6:0.0666667 7:-0.2 8:-0.733333 9:0.333333 10:0.6 11:-0.333333 12:0.333333 13:-0.866667 14:0.2 15:-0.2 16:0.2 
1 1 1 1 0 1 0 1 1 0 1 1 0 1 1 1 0 0 0 0 1 1 0 1 0 1:-0.0666667 2:0.466667 3:0.2 4:0.0666667 5:-0.0666667 6:-0.0666667 7:-0.0666667 8:-0.733333 9:0.2 10:0.6 11:-0.2 12:0.2 13:-0.733333 14:0.2 15:-0.2 16:0.0666667 
0 1 1 0 0 1 0 1 0.9176223998809756 1 0 0 0 1 1 1 1 0 0 0 0 0 1 1 1 1:-0.333333 2:-0.0666667 3:-0.2 4:-0.333333 5:-0.333333 6:0.2 7:-0.2 8:-0.333333 9:-0.466667 10:-0.0666667 11:-0.333333 12:-0.0666667 13:-0.6 14:0.0666667 15:0.333333 16:-0.2 
0 1 0 0 0 0 0 0 0 0 0 1 0 0 0 0 0 0 0 0 0 0 0 0 0 1:-0.2 2:0.333333 3:0.0666667 4:-0.0666667 5:-0.333333 6:0.0666667 7:-0.2 8:-0.6 9:0.333333 10:0.6 11:-0.466667 12:0.2 13:-0.866667 14:-0.0666667 15:-0.2 16:0.2 
1 1 1 1 0 1 0 1 1 1 0 1 0 1 0 1 0.4904482859565261 0 0 0 1 0 1 1 1 1:-0.333333 2:0.2 3:-0.0666667 4:-0.0666667 5:-0.2 6:0.333333 7:0.2 8:-0.2 9:-0.466667 10:-0.0666667 11:-0.333333 12:0.0666667 13:-0.6 14:0.0666667 15:0.333333 16:-0.0666667 
0 1 0 0 0 0 0 0 0 0 0 0.3486787686450115 0 0 0 0 0 0 0 0 0 0 1 0 0 1:-0.6 2:0.0666667 3:-0.466667 4:-0.2 5:-0.6 6:-0.0666667 7:-0.0666667 8:-0.2 9:0.333333 10:-0.2 11:-0.2 12:0.0666667 13:-0.866667 14:0.0666667 15:0.0666667 16:0.0666667 
0 1 0 1 0 0 0 0 0 0 0 1 0 0 0 1 0 1 0 0 1 0 0 0 1 1:-0.733333 2:-0.333333 3:-0.333333 4:-0.6 5:-0.733333 6:-0.0666667 7:0.0666667 8:-0.733333 9:0.2 10:0.6 11:-0.2 12:0.0666667 13:-0.866667 14:0.2 15:-0.333333 16:-0.0666667 
0 0.2843219025877843 0 0 0 0 0 0 0 0 0 1 0 0 0 1 0 0 0 0 0 0 0 0 0 1:-0.466667 2:-0.0666667 3:-0.2 4:-0.333333 5:-0.6 6:-0.0666667 7:-0.0666667 8:-0.733333 9:0.333333 10:0.466667 11:-0.2 12:0.0666667 13:-0.866667 14:0.0666667 15:-0.2 16:0.0666667 
0 1 0 0 0 0 0 0 0 0 0 0 0 0 0 0 0 0 0 0 0 0 0 0 0 1:-0.6 2:0.333333 3:-0.466667 4:-0.0666667 5:-0.6 6:-0.0666667 7:0.0666667 8:-0.6 9:0.466667 10:0.2 11:-0.2 12:0.0666667 13:-1 14:0.0666667 15:-0.0666667 16:0.0666667 
0 1 0 0 0 0 0 1 0 0 0 0 0 0 0 1 0 0 0 0 0 0 0 1 0 1:-0.6 2:-0.333333 3:-0.6 4:-0.6 5:-0.733333 6:0.0666667 7:-0.0666667 8:-0.333333 9:0.333333 10:-0.2 11:-0.2 12:-0.0666667 13:-0.733333 14:0.0666667 15:-0.0666667 16:0.0666667 
0 1 0 0 0 0 0 1 0 0 0 0 0 0 0 0 0 0 0 0 0 0 0 0 1 1:-0.333333 2:0.0666667 3:-0.0666667 4:-0.2 5:-0.333333 6:0.0666667 7:-0.0666667 8:-0.733333 9:0.2 10:0.6 11:-0.2 12:-0.0666667 13:-0.866667 14:-0.0666667 15:-0.2 16:-0.0666667 
0 1 0 1 0 0 0 1 0 0 0 0 0 0 0 1 0 1 0 0 1 0 0 0 1 1:-0.466667 2:0.2 3:-0.2 4:-0.0666667 5:-0.466667 6:-0.0666667 7:0.2 8:-0.733333 9:0.2 10:0.466667 11:-0.0666667 12:-0.2 13:-0.866667 14:-0.0666667 15:-0.2 16:-0.2 
0 1 0 0 0 0 0 0 0 0 0 1 0 0 0 1 0 0 0 0 0 1 1 0 0 1:-0.733333 2:-0.866667 3:-0.6 4:-0.6 5:-0.733333 6:-0.0666667 7:0.0666667 8:-0.333333 9:0.2 10:-0.2 11:-0.2 12:0.2 13:-0.866667 14:0.2 15:-0.0666667 16:0.0666667 
0 0 0 0 0 0 0 0 0 0 0 1 0 0 0 0 0 1 0 0 0 0 0 1 0 1:-0.733333 2:-0.466667 3:-0.466667 4:-0.733333 5:-0.733333 6:-0.0666667 7:-0.0666667 8:-0.733333 9:0.2 10:0.6 11:-0.2 12:0.0666667 13:-0.866667 14:0.0666667 15:-0.333333 16:0.0666667 
1 1 1 1 1 1 1 1 1 1 1 1 1 1 1 1 0 1 1 1 0 1 1 1 1 1:-0.333333 2:0.2 3:-0.2 4:-0.466667 5:-0.6 6:0.333333 7:-0.6 8:-0.6 9:-0.0666667 10:0.6 11:-0.466667 12:0.333333 13:-0.733333 14:0.2 15:-0.466667 16:0.466667 
0 1 1 0 0 1 0 1 0 0 1 1 1 1 1 1 0 0 0 1 0 1 1 1 0 1:-0.866667 2:-0.6 3:-0.733333 4:-0.733333 5:-0.866667 6:-0.0666667 7:-0.0666667 8:-0.333333 9:0.0666667 10:-0.2 11:-0.2 12:0.0666667 13:-0.733333 14:0.0666667 15:-0.0666667 16:0.0666667 
0 0 0 0 0 0 0 0 0 0 0 1 0 0 0 1 0 1 0 0 0 0 0 0 1 1:-0.866667 2:-0.6 3:-0.6 4:-0.733333 5:-0.866667 6:-0.0666667 7:-0.0666667 8:-0.733333 9:0.2 10:0.466667 11:-0.2 12:0.0666667 13:-0.866667 14:0.0666667 15:-0.333333 16:-0.0666667 
1 1 0 1 1 0 0 0 1 0 0 1 0 0 0 0.883710143220542 1 0 0 1 1 0 0 0 0 1:-0.333333 2:0.0666667 3:-0.0666667 4:-0.2 5:-0.466667 6:-0.333333 7:0.333333 8:-0.6 9:0.333333 10:0.466667 11:0.2 12:-0.2 13:-0.866667 14:0.2 15:-0.2 16:-0.333333 
1 1 1 1 1 1 1 1 1 1 1 1 1 1 1 1 1 1 1 1 1 0 1 1 1 1:-0.466667 2:-0.0666667 3:-0.333333 4:-0.333333 5:-0.466667 6:0.2 7:0.0666667 8:-0.333333 9:-0.6 10:-0.0666667 11:-0.333333 12:-0.0666667 13:-0.6 14:-0.0666667 15:0.0666667 16:-0.466667 
0 0.3900668042060024 0 0 0 0 0 0 0 0 0 0 0 0 0 0 0 0 0 0 0 0 0 0 0 1:-0.466667 2:0.0666667 3:-0.2 4:-0.2 5:-0.6 6:0.2 7:-0.333333 8:-0.6 9:0.333333 10:0.466667 11:-0.466667 12:0.2 13:-0.866667 14:-0.0666667 15:-0.2 16:0.2 
1 0 1 1 0 0 0 1 0 0 0 1 0 0 0 0 0 0 0 0 1 0 0 1 1 1:-0.733333 2:-0.6 3:-0.466667 4:-0.733333 5:-0.733333 6:-0.0666667 7:0.0666667 8:-0.733333 9:0.2 10:0.6 11:-0.0666667 12:-0.0666667 13:-0.866667 14:0.0666667 15:-0.333333 16:-0.0666667 
0 1 0 0 0 1 0 1 0 1 1 1 1 1 1 1 0 0.1283553814414899 0 0 0 0 1 1 1 1:-0.0666667 2:0.466667 3:-0.0666667 4:-0.2 5:-0.466667 6:0.2 7:-0.333333 8:-0.6 9:0.0666667 10:0.466667 11:-0.466667 12:0.2 13:-0.6 14:-0.2 15:-0.0666667 16:0.2 
0 0 1 0 0 0 0 0 0 0 1 1 0 0 0 1 0 0.3418711342017489 0 0 0 0 0 1 0 1:-0.733333 2:-0.466667 3:-0.333333 4:-0.6 5:-0.733333 6:-0.0666667 7:-0.0666667 8:-0.733333 9:0.2 10:0.6 11:-0.2 12:0.0666667 13:-0.866667 14:0.0666667 15:-0.333333 16:0.0666667 
0 1 0 0 0 0 0 0 0 0 0 1 1 0 0 1 0 0 0 0 0 1 1 0 0 1:-0.733333 2:-0.866667 3:-0.6 4:-0.733333 5:-0.866667 6:-0.0666667 7:-0.0666667 8:-0.333333 9:0.2 10:-0.2 11:-0.2 12:0.2 13:-0.866667 14:0.0666667 15:-0.0666667 16:0.0666667 
1 1 1 1 1 1 1 1 1 1 0 0 0 1 1 1 1 0 1 1 1 0 0 1 1 1:-0.2 2:0.466667 3:0.0666667 4:0.2 5:0.0666667 6:0.333333 7:-0.0666667 8:-0.333333 9:-0.466667 10:-0.0666667 11:-0.333333 12:-0.0666667 13:-0.466667 14:0.0666667 15:0.333333 16:-0.333333 
0 1 0 0 0 0 0 0 0 0 0 0 0 0 0 1 0.1420106752091769 0 0 0 0 0 0 1 0 1:-0.466667 2:0.0666667 3:-0.2 4:-0.2 5:-0.2 6:0.0666667 7:0.0666667 8:-0.6 9:-0.0666667 10:-0.0666667 11:-0.0666667 12:-0.0666667 13:-0.866667 14:0.2 15:0.333333 16:0.0666667 
0 1 0 1 0 0 0 0 0 0 0 0.7848478472877651 0 1 0 0 1 0 0 0 0 1 0.338323433863921 1 1 1:0.0666667 2:0.0666667 3:-0.2 4:0.466667 5:-0.333333 6:-0.0666667 7:-0.0666667 8:-0.466667 9:-0.6 10:0.466667 11:-0.2 12:0.0666667 13:-0.6 14:0.2 15:0.466667 16:-0.2 
0 0 0 0 0 0 0 0 0 0 1 1 0 0 1 0 0 0 0 0 0 0 0 0 0 1:-0.466667 2:0.0666667 3:-0.2 4:-0.2 5:-0.466667 6:0.0666667 7:-0.2 8:-0.733333 9:0.2 10:0.466667 11:-0.466667 12:0.333333 13:-0.733333 14:-0.0666667 15:-0.0666667 16:0.2 
0 1 1 0 0 1 1 1 0 1 1 1 1 1 1 1 0 1 0 0 0 0 1 1 1 1:-0.466667 2:-0.333333 3:-0.333333 4:-0.0666667 5:-0.466667 6:0.466667 7:-0.333333 8:-0.466667 9:-0.333333 10:0.333333 11:-0.6 12:0.2 13:-0.733333 14:-0.2 15:-0.2 16:0.333333 
0 1 1 1 1 1 0 1 1 1 1 1 1 1 1 1 1 1 0 1 1 1 1 1 1 1:-0.866667 2:-0.6 3:-0.733333 4:-0.733333 5:-0.866667 6:-0.0666667 7:-0.0666667 8:-0.466667 9:-0.0666667 10:-0.2 11:-0.2 12:0.0666667 13:-0.866667 14:0.0666667 15:-0.2 16:0.0666667 
0 1 0 0 0 0 0 1 0 0 0 0 0 0 0 1 0 0 0 0 0 0 0 1 0 1:-0.6 2:-0.333333 3:-0.6 4:-0.6 5:-0.733333 6:0.0666667 7:-0.0666667 8:-0.333333 9:0.333333 10:-0.2 11:-0.2 12:-0.0666667 13:-0.733333 14:0.0666667 15:-0.0666667 16:0.0666667 
0 1 0 0 0 0 0 0 0 0 0 1 0 0 1 1 0 1 0 0 0 0 0 0 1 1:-0.733333 2:-0.2 3:-0.466667 4:-0.466667 5:-0.733333 6:0.0666667 7:-0.0666667 8:-0.733333 9:0.2 10:0.466667 11:-0.333333 12:0.2 13:-0.866667 14:0.0666667 15:-0.333333 16:0.0666667 
0 0 0 0 0 1 0 1 0 0 1 1 0 0 1 1 0 0 0 0 0 0 0 0 0 1:-0.333333 2:0.2 3:-0.0666667 4:-0.0666667 5:-0.333333 6:0.2 7:-0.2 8:-0.733333 9:0.2 10:0.466667 11:-0.466667 12:0.2 13:-0.6 14:-0.0666667 15:-0.0666667 16:0.2 
0 1 0 0 0 0 0 0 0 0 0 1 1 1 1 1 0 0 0 0 0 1 1 1 0 1:-0.6 2:-0.333333 3:-0.466667 4:-0.466667 5:-0.6 6:-0.0666667 7:-0.0666667 8:-0.333333 9:0.2 10:-0.2 11:-0.2 12:0.0666667 13:-0.866667 14:0.0666667 15:-0.0666667 16:0.0666667 
0 1 0 0 0 0 0 0 0 0 0 1 0 0 0 1 0 0 0 0 1 0 0 0 0 1:-0.333333 2:0.2 3:-0.2 4:-0.0666667 5:-0.333333 6:0.0666667 7:-0.0666667 8:-0.333333 9:0.333333 10:-0.0666667 11:-0.2 12:0.0666667 13:-0.866667 14:0.0666667 15:-0.0666667 16:0.0666667 
0 0 0 0 0 0 0 0 0 0 0 1 0 0 0 1 0 1 0 0 0 0 0 0 1 1:-0.733333 2:-0.466667 3:-0.466667 4:-0.6 5:-0.733333 6:0.0666667 7:-0.0666667 8:-0.733333 9:0.2 10:0.466667 11:-0.333333 12:0.2 13:-0.866667 14:0.0666667 15:-0.333333 16:0.0666667 
0 1 0 0 0 1 0 0 0 0 0 1 1 1 1 1 0 0 0 0 0 1 1 1 0 1:-0.866667 2:-0.6 3:-0.733333 4:-0.733333 5:-0.866667 6:-0.0666667 7:-0.0666667 8:-0.333333 9:0.0666667 10:-0.2 11:-0.2 12:0.0666667 13:-0.866667 14:0.0666667 15:-0.0666667 16:0.0666667 
0 1 0 1 0 0 0 0 0 0 0 1 0 0 0 0 0 0 0 0 1 1 0 0 0 1:-0.333333 2:0.2 3:-0.2 4:-0.0666667 5:-0.466667 6:-0.2 7:0.0666667 8:-0.6 9:0.333333 10:0.6 11:-0.0666667 12:0.0666667 13:-0.866667 14:0.2 15:-0.2 16:-0.0666667 
0 1 1 0 0 1 0 1 0 1 0 0 0 1 1 1 0 1 0 0 0 0 0 1 1 1:-0.6 2:-0.2 3:-0.333333 4:0.2 5:-0.466667 6:0.466667 7:-0.6 8:-0.733333 9:-0.2 10:0.0666667 11:-0.733333 12:-0.2 13:-0.866667 14:0.0666667 15:-0.2 16:0.2 
0 1 0 0 0 0 0 1 0 0 0 0 0 1 0 0 0 0 0 0 0 0 0 1 1 1:-0.333333 2:0.333333 3:-0.2 4:0.0666667 5:-0.2 6:0.2 7:-0.2 8:-0.333333 9:0.2 10:0.0666667 11:-0.333333 12:-0.0666667 13:-0.866667 14:-0.0666667 15:-0.0666667 16:0.0666667 
0 1 0 1 1 1 0 0 1 0 1 1 1 1 1 1 1 1 0 1 1 1 1 1 0 1:-0.6 2:0.333333 3:-0.466667 4:0.0666667 5:-0.333333 6:-0.2 7:0.0666667 8:-0.333333 9:0.2 10:-0.0666667 11:-0.0666667 12:0.2 13:-0.733333 14:0.2 15:-0.0666667 16:0.0666667 
0 1 0 0 0 0 0 0 0 0 0 1 0 0 0 1 0 0 0 0 0 0 0 0 0 1:-0.733333 2:-0.733333 3:-0.6 4:-0.466667 5:-0.733333 6:0.0666667 7:-0.0666667 8:-0.333333 9:0.2 10:-0.2 11:-0.2 12:0.0666667 13:-0.866667 14:0.0666667 15:-0.0666667 16:0.0666667 
0 1 0 0 0 0 0 0 0 0 0 1 0 1 1 0 0 0 0 0 0 0 0 0 0 1:-0.333333 2:0.333333 3:-0.2 4:0.0666667 5:-0.466667 6:0.2 7:-0.333333 8:-0.6 9:0.333333 10:0.466667 11:-0.6 12:0.333333 13:-0.866667 14:0.0666667 15:-0.2 16:0.333333 
1 1 1 0 1 1 1 1 0 1 1 0 1 1 1 1 0 1 0 0 0 0 0.9017883175399971 1 1 1:-0.733333 2:-0.466667 3:-0.466667 4:-0.2 5:-0.6 6:0.466667 7:-0.333333 8:-0.6 9:-0.466667 10:0.2 11:-0.6 12:-0.0666667 13:-0.733333 14:-0.0666667 15:-0.2 16:0.0666667 
0 0 0 0 0 0 0 0 0 0 0 0 0 0 0 1 0 0 0 0 0 0 0 0 0 1:-0.866667 2:-1 3:-0.733333 4:-0.866667 5:-1 6:-0.0666667 7:-0.0666667 8:-0.733333 9:0.333333 10:0.2 11:-0.2 12:0.0666667 13:-1 14:0.0666667 15:-0.2 16:0.0666667 
0 1 0 0 0 0 0 0 0 0 0 0 0 1 0 0 0 0 0 0 0 0 0 0.3990028240943814 1 1:-0.2 2:-0.0666667 3:-0.333333 4:0.466667 5:-0.466667 6:0.2 7:-0.2 8:-0.466667 9:-0.6 10:0.466667 11:-0.2 12:0.0666667 13:-0.6 14:0.2 15:0.466667 16:-0.0666667 
0 1 0 0 0 0 0 0 0 0 0 0 0 0 0 0 0 0 0 0 0 0 0 1 0 1:-0.466667 2:0.333333 3:-0.333333 4:0.0666667 5:-0.333333 6:0.0666667 7:-0.0666667 8:-0.2 9:0.333333 10:-0.0666667 11:-0.333333 12:-0.0666667 13:-0.866667 14:-0.0666667 15:0.0666667 16:0.0666667 
1 1 1 1 1 1 0 1 0 1 1 1 1 1 1 1 0 1 0 0 0 0 1 1 1 1:-0.333333 2:0.0666667 3:-0.0666667 4:0.333333 5:-0.2 6:0.466667 7:-0.333333 8:-0.6 9:-0.333333 10:0.2 11:-0.733333 12:-0.0666667 13:-0.733333 14:-0.0666667 15:-0.2 16:0.2 
0 1 0 0 0 0 0 0 0 0 0 0 0 0 0 0 0 0 0 0 0 0 0 0 0 1:-0.6 2:0.0666667 3:-0.466667 4:-0.2 5:-0.6 6:-0.0666667 7:0.0666667 8:-0.6 9:0.466667 10:0.0666667 11:-0.2 12:0.0666667 13:-1 14:0.0666667 15:-0.0666667 16:-0.0666667 
0 1 0 0 0 0 0 0 0 0 0 0 0 0 1 1 0 0 0 0 0 0 0 0 0 1:-0.466667 2:-0.0666667 3:-0.333333 4:-0.333333 5:-0.333333 6:-0.0666667 7:-0.2 8:-0.733333 9:-0.0666667 10:-0.0666667 11:-0.2 12:0.2 13:-0.866667 14:-0.0666667 15:0.333333 16:0.0666667 
0 1 0 0 0 0 0 0 0 0 0 0 0 0 0 1 0 0 0 0 0 0 0 0 0 1:-0.866667 2:-1 3:-0.733333 4:-1 5:-1 6:-0.0666667 7:-0.0666667 8:-0.6 9:0.333333 10:0.0666667 11:-0.2 12:0.0666667 13:-1 14:0.0666667 15:-0.2 16:0.0666667 
0 0 0 0 0 0 0 0 0 0 0 1 0 0 0 0 0 0 0 0 0 0 0 0 0 1:-0.6 2:-0.333333 3:-0.2 4:-0.466667 5:-0.6 6:0.0666667 7:-0.0666667 8:-0.733333 9:0.333333 10:0.6 11:-0.2 12:0.2 13:-0.866667 14:0.0666667 15:-0.2 16:0.0666667 
0 0 0 0 0 0 0 0 0 0 0 1 0 0 0 0 0 0 0 0 0 0 0 0 0 1:-0.466667 2:-0.0666667 3:-0.2 4:-0.333333 5:-0.6 6:-0.0666667 7:-0.0666667 8:-0.733333 9:0.333333 10:0.6 11:-0.2 12:0.0666667 13:-0.866667 14:0.2 15:-0.2 16:0.0666667 
0 1 0 0 0 0 0 0 0 0 1 1 0 1 1 1 0 0 0 0 1 1 1 0 0 1:-0.6 2:-0.2 3:-0.466667 4:-0.466667 5:-0.6 6:-0.2 7:0.0666667 8:-0.333333 9:0.333333 10:-0.0666667 11:-0.0666667 12:0.333333 13:-0.866667 14:0.2 15:-0.0666667 16:0.0666667 
0 1 0 0 0 0 0 0 0 0 0 0 0 0 0 0 0 0 0 0 0 0 0 1 0 1:-0.333333 2:0.2 3:-0.2 4:-0.0666667 5:-0.466667 6:0.0666667 7:-0.2 8:-0.2 9:0.466667 10:-0.0666667 11:-0.333333 12:-0.2 13:-0.866667 14:-0.0666667 15:0.0666667 16:0.0666667 
0 1 0 0 0 0 0 0 0 0 0 0 0 0 0 1 0 0 0 0 0 0 0 0 0 1:-0.866667 2:-1 3:-0.733333 4:-0.866667 5:-1 6:-0.0666667 7:-0.0666667 8:-0.733333 9:0.333333 10:0.0666667 11:-0.2 12:0.0666667 13:-1 14:0.0666667 15:-0.2 16:0.0666667 
1 1 1 1 1 1 1 1 0 1 0 0 1 1 1 1 1 1 0 1 0 0 1 1 1 1:-0.733333 2:-0.333333 3:-0.466667 4:-0.2 5:-0.466667 6:0.2 7:-0.2 8:-0.333333 9:-0.466667 10:-0.0666667 11:-0.6 12:-0.2 13:-0.733333 14:-0.0666667 15:-0.0666667 16:-0.2 
0 1 1 1 1 1 0 1 0 0 1 1 1 0 0 1 0 0 0 1 1 0 0 0 0 1:-0.0666667 2:0.2 3:-0.0666667 4:-0.333333 5:-0.466667 6:-0.0666667 7:-0.0666667 8:-0.733333 9:0.2 10:0.6 11:-0.2 12:0.0666667 13:-0.6 14:-0.0666667 15:-0.2 16:-0.2 
0 1 0 0 0 0 0 0 0 0 0 1 0 1 1 0 0 0 0 0 1 1 1 0 0 1:-0.466667 2:0.333333 3:-0.333333 4:0.0666667 5:-0.466667 6:-0.2 7:0.0666667 8:-0.2 9:0.333333 10:-0.0666667 11:-0.0666667 12:0.333333 13:-0.866667 14:0.2 15:0.0666667 16:0.0666667 
0 1 0 0 0 0 0 0 0 0 0 0 0 0 0 1 0 0 0 0 0 0 0 0 0 1:-0.466667 2:0.2 3:-0.2 4:-0.0666667 5:-0.0666667 6:0.0666667 7:-0.0666667 8:-0.733333 9:0.0666667 10:-0.0666667 11:-0.2 12:0.0666667 13:-1 14:0.0666667 15:0.2 16:0.0666667 
0 1 1 1 0 1 0 1 0 1 1 1 1 1 1 1 0 1 0 1 1 1 1 0 1 1:-0.0666667 2:0.333333 3:-0.0666667 4:-0.2 5:-0.466667 6:0.0666667 7:-0.2 8:-0.733333 9:0.0666667 10:0.6 11:-0.2 12:0.2 13:-0.6 14:0.0666667 15:-0.2 16:-0.0666667 
1 1 1 1 0 0 0 0 0 0 1 1 0 0 0 1 0 1 0 0 0 0 0 1 1 1:-0.733333 2:-0.333333 3:-0.333333 4:-0.6 5:-0.733333 6:-0.0666667 7:0.0666667 8:-0.733333 9:0.2 10:0.6 11:-0.2 12:0.0666667 13:-0.866667 14:0.2 15:-0.333333 16:0.0666667 
1 1 1 1 1 1 0 1 1 1 0 0 1 1 0 1 1 1 0.9480111032502315 1 1 0 0 1 1 1:-0.6 2:-0.0666667 3:-0.466667 4:-0.333333 5:-0.466667 6:0.2 7:0.2 8:-0.333333 9:-0.6 10:-0.0666667 11:-0.333333 12:-0.0666667 13:-0.6 14:0.0666667 15:0.2 16:-0.466667 
0 1 0 0 0 0 0 0 0 0 0 0 0 0 0 0 0 0 0 0 0 0 0 0 0 1:-0.733333 2:-0.866667 3:-0.733333 4:-0.866667 5:-0.866667 6:-0.0666667 7:-0.0666667 8:-0.6 9:0.466667 10:0.0666667 11:-0.2 12:0.0666667 13:-1 14:0.0666667 15:-0.2 16:0.0666667 
0 0 0 1 0 0 0 0 0 0 1 1 0 0 1 1 0 1 0 0 0 0 0 0 1 1:-0.866667 2:-0.6 3:-0.733333 4:-0.733333 5:-0.866667 6:-0.0666667 7:-0.0666667 8:-0.866667 9:0.0666667 10:0.466667 11:-0.2 12:0.2 13:-0.866667 14:0.2 15:-0.333333 16:0.0666667 
0 1 0 0 0 0.9426252263118369 0 0 0 0 0 1 0 1 1 1 1 1 0 0 1 1 1 1 0 1:-0.466667 2:0.2 3:-0.333333 4:-0.0666667 5:-0.333333 6:-0.0666667 7:0.0666667 8:-0.333333 9:0.2 10:-0.0666667 11:-0.0666667 12:0.0666667 13:-0.866667 14:0.0666667 15:-0.0666667 16:0.0666667 
0 0 0 1 0 0 0 0 0 0 1 1 0 0 0 1 0 0 0 0 1 1 0 0 0 1:-0.333333 2:0.2 3:-0.0666667 4:-0.0666667 5:-0.466667 6:-0.0666667 7:0.0666667 8:-0.733333 9:0.333333 10:0.6 11:-0.2 12:0.2 13:-0.733333 14:0.333333 15:-0.2 16:0.0666667 
0 1 0 0 0 0 0 0 0 0 0 1 0 0 1 0 0 0 0 0 0 0 0 0 0 1:-0.466667 2:0.2 3:-0.2 4:-0.0666667 5:-0.2 6:-0.0666667 7:-0.0666667 8:-0.6 9:-0.0666667 10:-0.0666667 11:-0.2 12:0.2 13:-1 14:0.0666667 15:0.2 16:-0.0666667 
0 1 0 0 0 0 0 0 0 0 0 1 0 0 0 1 0 0 0 0 0 0 0 0 0 1:-0.866667 2:-1 3:-0.866667 4:-1 5:-1 6:-0.0666667 7:-0.0666667 8:-0.733333 9:0.2 10:0.0666667 11:-0.2 12:0.0666667 13:-1 14:0.0666667 15:-0.2 16:0.0666667 
0 1 0 0 0 1 0 1 0 0 1 1 1 1 1 1 0 0 0 0 0 1 1 1 0 1:-0.733333 2:-0.333333 3:-0.6 4:-0.466667 5:-0.733333 6:-0.0666667 7:-0.0666667 8:-0.333333 9:0.2 10:-0.2 11:-0.2 12:0.0666667 13:-0.733333 14:0.0666667 15:-0.0666667 16:0.0666667 
1 1 1 1 1 1 1 1 0 1 1 1 1 1 1 1 0 1 1 1 0 1 1 1 1 1:-0.466667 2:-0.466667 3:-0.2 4:-0.2 5:-0.6 6:0.6 7:-0.466667 8:-0.466667 9:-0.466667 10:0.466667 11:-0.733333 12:0.2 13:-0.733333 14:-0.0666667 15:-0.466667 16:0.466667 
0 1 0 0 0 0 0 0 0 0 0 1 0 0 0 1 0 0 0 0 0 0 1 1 0 1:-0.6 2:-0.733333 3:-0.466667 4:-0.466667 5:-0.6 6:-0.0666667 7:-0.0666667 8:-0.333333 9:0.2 10:-0.2 11:-0.2 12:0.0666667 13:-0.866667 14:0.0666667 15:-0.0666667 16:0.0666667 
0 1 0 0 0 0 0 0 0 0 0 1 0 1 1 1 1 0 0 0 1 1 1 1 0 1:-0.466667 2:-0.0666667 3:-0.466667 4:-0.333333 5:-0.466667 6:-0.0666667 7:0.0666667 8:-0.333333 9:0.2 10:-0.0666667 11:-0.0666667 12:0.2 13:-0.866667 14:0.2 15:-0.0666667 16:0.0666667 
0 0 0 0 0 0 0 0 0 0 0 0 0 0 0 1 0 0 0 0 0 0 0 0 0 1:-0.866667 2:-1 3:-0.866667 4:-0.866667 5:-1 6:-0.0666667 7:-0.0666667 8:-0.733333 9:0.333333 10:0.0666667 11:-0.2 12:0.0666667 13:-1 14:0.0666667 15:-0.2 16:0.0666667 
0 0 0 0 0 0 0 0 0 0 0 0 0 0 0 1 0 0 0 0 0 0 0 0 0 1:-0.866667 2:-1 3:-0.866667 4:-0.866667 5:-1 6:-0.0666667 7:-0.0666667 8:-0.733333 9:0.333333 10:0.0666667 11:-0.2 12:0.0666667 13:-1 14:0.0666667 15:-0.2 16:0.0666667 
0 1 0 0 0 0 0 0 0 0 0.09394670686458423 1 0 0 0 1 0 0 0 0 0 1 1 1 0 1:-0.733333 2:-0.6 3:-0.6 4:-0.733333 5:-0.733333 6:-0.0666667 7:0.0666667 8:-0.333333 9:0.2 10:-0.2 11:-0.2 12:0.2 13:-0.866667 14:0.0666667 15:-0.0666667 16:0.0666667 
1 1 0 1 0 0 0 1 1 0 0 0 0 0 0 0 1 0 0 0 1 0 0 1 0 1:-0.333333 2:0.2 3:-0.0666667 4:-0.0666667 5:-0.333333 6:-0.2 7:0.2 8:-0.6 9:0.2 10:0.6 11:0.0666667 12:-0.2 13:-0.6 14:0.333333 15:0.0666667 16:-0.2 
0 1 0 0 0 0 0 0 0 0 0 1 0 1 1 0 0 0 0 0 0 1 1 1 1 1:0.0666667 2:0.0666667 3:-0.333333 4:0.6 5:-0.333333 6:0.333333 7:-0.6 8:-0.466667 9:-0.333333 10:0.6 11:-0.333333 12:0.2 13:-0.6 14:0.0666667 15:0.2 16:0.466667 
0 1 0 0 0 0 0 0 0 0 0 0 0 0 0 0 1 0 0 0 1 0 0 0 0 1:-0.2 2:0.333333 3:0.0666667 4:0.0666667 5:-0.333333 6:-0.0666667 7:0.0666667 8:-0.6 9:0.333333 10:0.6 11:0.0666667 12:-0.0666667 13:-0.733333 14:0.0666667 15:-0.0666667 16:-0.2 
0 1 0 0 0 0 0 0 0 0 0 1 0 0 0 1 0 1 0 0 0 0 0 0 0 1:-0.733333 2:-0.6 3:-0.466667 4:-0.733333 5:-0.866667 6:-0.0666667 7:-0.0666667 8:-0.733333 9:0.2 10:0.466667 11:-0.2 12:0.0666667 13:-0.866667 14:0.0666667 15:-0.333333 16:-0.0666667 
1 1 0 1 0 0 0 1 0 0 0 1 0.9403458678269665 1 0 0 0 0 0 0 0 0 1 1 1 1:-0.2 2:-0.0666667 3:-0.333333 4:0.333333 5:-0.466667 6:0.0666667 7:-0.333333 8:-0.333333 9:-0.333333 10:0.466667 11:-0.2 12:-0.0666667 13:-0.6 14:0.2 15:0.2 16:0.0666667 
1 1 1 1 1 1 0.1389146421286514 1 1 1 1 1 1 1 0.02100817453969646 1 1 0 1 0 1 1 1 1 1 1:-0.333333 2:0.0666667 3:-0.0666667 4:-0.2 5:-0.333333 6:0.2 7:0.0666667 8:-0.2 9:-0.466667 10:-0.0666667 11:-0.333333 12:0.0666667 13:-0.6 14:0.0666667 15:0.333333 16:-0.0666667 
0 1 0 0 0 1 0 1 0 0 0 1 0 1 0 1 0 0 0 0 0 0 1 1 0 1:-0.733333 2:-0.333333 3:-0.6 4:-0.6 5:-0.6 6:0.0666667 7:-0.0666667 8:-0.333333 9:0.2 10:-0.2 11:-0.2 12:-0.0666667 13:-0.733333 14:0.0666667 15:-0.0666667 16:0.0666667 
0 0 0 0 0 0 0 0 0 0 0 1 0 0 0 0 0 0 0 0 0 0 0 0 0 1:-0.6 2:-0.333333 3:-0.333333 4:-0.466667 5:-0.733333 6:-0.0666667 7:-0.0666667 8:-0.733333 9:0.333333 10:0.6 11:-0.2 12:0.0666667 13:-0.866667 14:0.0666667 15:-0.2 16:0.0666667 
0 1 0 0 0 0 0 0 0 0 0 0 0 0 0 0 0 1 0 0 0 0 0 1 1 1:-0.466667 2:0.0666667 3:-0.2 4:-0.2 5:-0.466667 6:0.0666667 7:-0.0666667 8:-0.733333 9:0.2 10:0.6 11:-0.2 12:-0.0666667 13:-0.866667 14:-0.0666667 15:-0.2 16:0.0666667 
0 1 0 0 0 1 0 1 0 0 1 1 1 1 1 1 0 1 0 1 1 1 1 1 0 1:-0.733333 2:-0.333333 3:-0.733333 4:-0.466667 5:-0.733333 6:-0.0666667 7:-0.0666667 8:-0.333333 9:0.0666667 10:-0.2 11:-0.2 12:0.0666667 13:-0.733333 14:0.0666667 15:-0.0666667 16:0.0666667 
0 0 0 0 0 0 0 0 0 0 0 1 0 0 0 0 0 0 0 0 1 0 0 0 0 1:-0.333333 2:0.0666667 3:-0.0666667 4:-0.2 5:-0.466667 6:-0.0666667 7:0.0666667 8:-0.733333 9:0.333333 10:0.6 11:-0.0666667 12:0.0666667 13:-0.866667 14:0.2 15:-0.2 16:-0.0666667 
1 1 0 1 1 0 0 1 0 0 0 0 0 0 0 1 1 0 0 1 1 0 0 0 0 1:-0.2 2:0.466667 3:0.0666667 4:0.0666667 5:-0.333333 6:-0.2 7:0.2 8:-0.6 9:0.466667 10:0.466667 11:0.2 12:-0.2 13:-0.733333 14:0.0666667 15:-0.2 16:-0.333333 
0 1 1 0 0 1 1 1 0 1 1 1 1 1 1 1 0 1 0 1 1 1 0.6011912100552227 1 1 1:-0.333333 2:0.2 3:-0.333333 4:-0.466667 5:-0.6 6:0.0666667 7:-0.2 8:-0.733333 9:0.0666667 10:0.466667 11:-0.2 12:0.2 13:-0.6 14:-0.0666667 15:-0.2 16:-0.0666667 
1 1 0 1 0 0 0 1 0 0 0 0 0 0 0 0 1 0 0 0 1 0 0 0 0 1:-0.333333 2:0.0666667 3:-0.0666667 4:-0.2 5:-0.466667 6:-0.2 7:0.2 8:-0.6 9:0.333333 10:0.466667 11:0.2 12:-0.333333 13:-0.866667 14:0.0666667 15:-0.2 16:-0.333333 
0 1 0 1 0 0 0 0 0 0 0 0 0 0 0 0 0 0 0 0 0 0 0 0 0 1:-0.0666667 2:0.333333 3:-0.333333 4:0.866667 5:-0.333333 6:-0.0666667 7:0.333333 8:-0.6 9:-0.6 10:0.466667 11:-0.0666667 12:-0.0666667 13:-0.6 14:0.0666667 15:0.866667 16:-0.0666667 
0 1 0 0 0 1 0 1 0 0 0 1 0 1 1 1 0 0 0 0 1 1 1 1 0 1:-0.466667 2:0.2 3:-0.333333 4:-0.2 5:-0.333333 6:-0.0666667 7:-0.0666667 8:-0.333333 9:0.2 10:-0.0666667 11:-0.2 12:0.0666667 13:-0.866667 14:0.0666667 15:-0.0666667 16:0.0666667 
1 1 1 1 1 0 0 1 1 0 0 1 1 0 0 1 1 1 1 1 1 0 0 1 1 1:-0.466667 2:-0.2 3:-0.333333 4:-0.466667 5:-0.6 6:-0.2 7:0.2 8:-0.6 9:0.0666667 10:0.466667 11:0.2 12:-0.2 13:-0.733333 14:0.2 15:-0.2 16:-0.333333 
1 1 1 1 0 0 0 0 0 0 1 1 0 0 0 1 0 1 0 0 0 0 0 1 1 1:-0.733333 2:-0.333333 3:-0.333333 4:-0.6 5:-0.733333 6:-0.0666667 7:0.0666667 8:-0.733333 9:0.2 10:0.6 11:-0.2 12:0.0666667 13:-0.866667 14:0.2 15:-0.333333 16:0.0666667 
1 1 1 1 1 1 1 1 0 1 1 1 1 1 1 1 0 1 1 1 0 0 1 1 1 1:-0.6 2:-0.466667 3:-0.333333 4:-0.2 5:-0.466667 6:0.2 7:-0.0666667 8:-0.333333 9:-0.2 10:0.0666667 11:-0.6 12:-0.0666667 13:-0.6 14:-0.2 15:-0.2 16:0.0666667 
0 1 0 0 0 0 0 0 0 0 0 1 0 0 0 0 0 0 0 0 0 1 1 0 0 1:-0.466667 2:0.0666667 3:-0.333333 4:-0.2 5:-0.6 6:-0.2 7:0.0666667 8:-0.2 9:0.466667 10:-0.0666667 11:-0.0666667 12:0.333333 13:-0.866667 14:0.2 15:0.0666667 16:0.0666667 
0 0 0 0 0 0 0 0 0 0 0 1 0 0 0 0 0 0 0 0 1 0 0 0 0 1:-0.6 2:-0.333333 3:-0.2 4:-0.466667 5:-0.6 6:-0.0666667 7:0.0666667 8:-0.733333 9:0.333333 10:0.6 11:-0.2 12:0.0666667 13:-0.866667 14:0.2 15:-0.333333 16:-0.0666667 
0 1 0 1 0 0 0 0 0 0 0 1 0 0 0 0 1 1 0 0 1 0 0 0 0 1:-0.466667 2:0.0666667 3:-0.333333 4:-0.2 5:-0.466667 6:-0.0666667 7:0.0666667 8:-0.733333 9:0.2 10:0.466667 11:-0.0666667 12:0.0666667 13:-0.866667 14:0.2 15:-0.2 16:-0.0666667 
0 0 0 0 0 0 0 0 0 0 0.4839039026317546 1 0 0 1 1 0 0 0 0 0 0 0 0 0 1:-0.333333 2:0.333333 3:-0.0666667 4:0.0666667 5:-0.333333 6:0.0666667 7:-0.2 8:-0.733333 9:0.2 10:0.466667 11:-0.333333 12:0.333333 13:-0.733333 14:-0.0666667 15:-0.0666667 16:0.0666667 
0 1 1 0 0 0 0 0 0 1 1 1 0 0 1 1 0 1 0 0 0 0 0 0 1 1:-0.733333 2:-0.6 3:-0.466667 4:-0.733333 5:-0.866667 6:0.0666667 7:-0.2 8:-0.733333 9:0.0666667 10:0.466667 11:-0.333333 12:0.2 13:-0.866667 14:0.0666667 15:-0.333333 16:0.0666667 
0 1 0 0 0 0 0 0 0 0 0 1 0 0 0 1 0 0 0 0 0 0 0 0 0 1:-0.733333 2:-0.733333 3:-0.6 4:-0.466667 5:-0.733333 6:0.0666667 7:-0.0666667 8:-0.333333 9:0.2 10:-0.2 11:-0.2 12:0.0666667 13:-0.866667 14:0.0666667 15:-0.0666667 16:0.0666667 
0 1 0 0 0 0 0 0 0 0 0 1 0 0 1 0 0 0 0 0 0 0 0 0 0 1:-0.6 2:0.0666667 3:-0.466667 4:-0.2 5:-0.466667 6:-0.2 7:-0.0666667 8:-0.6 9:-0.0666667 10:0.0666667 11:-0.2 12:0.2 13:-1 14:0.2 15:0.2 16:-0.0666667 
0 1 0 0 0 0 0 0 0 0 0 1 0 0 0 1 0 1 0 0 1 1 0 0 0 1:-0.466667 2:0.2 3:-0.2 4:-0.2 5:-0.6 6:-0.0666667 7:0.0666667 8:-0.733333 9:0.333333 10:0.466667 11:-0.0666667 12:0.2 13:-0.866667 14:0.2 15:-0.2 16:0.0666667 
0 1 0 0 0 0 0 0 0 0 0 0 0 0 0 0 0 0 0 0 0 0 0 0 0 1:-0.466667 2:0.466667 3:-0.2 4:0.0666667 5:-0.0666667 6:0.0666667 7:-0.0666667 8:-0.6 9:0.2 10:-0.0666667 11:-0.2 12:-0.0666667 13:-0.866667 14:-0.0666667 15:0.466667 16:0.2 
1 1 0 1 0 0 0 0 0 0 0 1 0 0 0 0 1 0 0 0 1 1 0 1 1 1:-0.333333 2:-0.2 3:-0.466667 4:0.2 5:-0.6 6:-0.2 7:0.2 8:-0.333333 9:-0.6 10:0.6 11:-0.0666667 12:-0.0666667 13:-0.733333 14:0.2 15:0.333333 16:-0.2 
0 1 0 1 0 0 0 0 0 0 0 0 0 0 0 0 1 1 0 0 1 0 0 0 1 1:-0.6 2:0.0666667 3:-0.333333 4:-0.2 5:-0.6 6:-0.0666667 7:0.2 8:-0.733333 9:0.2 10:0.466667 11:-0.0666667 12:-0.0666667 13:-0.866667 14:0.2 15:-0.2 16:-0.2 
1 1 1 1 1 1 1 1 1 1 1 0 1 1 1 1 1 1 1 1 1 0 1 1 1 1:-0.466667 2:-0.333333 3:-0.2 4:-0.0666667 5:-0.333333 6:0.333333 7:-0.333333 8:-0.6 9:-0.333333 10:-0.0666667 11:-0.6 12:-0.2 13:-0.6 14:-0.0666667 15:-0.2 16:-0.0666667 
0 1 0 0 0 0 0 0 0 0 0 1 0 0 0 1 0 0 0 0 0 1 1 1 0 1:-0.866667 2:-0.866667 3:-0.733333 4:-0.6 5:-0.866667 6:-0.0666667 7:0.0666667 8:-0.333333 9:0.0666667 10:-0.2 11:-0.2 12:0.2 13:-0.866667 14:0.2 15:-0.0666667 16:0.0666667 
0 1 0 0 0 0 0 0 0 0 1 1 1 1 1 1 0 0 0 1 1 1 1 0 0 1:-0.6 2:-0.0666667 3:-0.466667 4:-0.333333 5:-0.6 6:-0.2 7:0.0666667 8:-0.333333 9:0.2 10:-0.0666667 11:-0.0666667 12:0.333333 13:-0.866667 14:0.2 15:-0.0666667 16:0.0666667 
0 1 0 0 0 0 0 0 0.537466025548207 0 0 1 0 1 1 1 1 1 0 1 1 1 1 0 0 1:-0.333333 2:0.466667 3:-0.2 4:0.0666667 5:-0.2 6:-0.0666667 7:0.0666667 8:-0.333333 9:0.2 10:-0.0666667 11:-0.0666667 12:0.2 13:-0.866667 14:0.2 15:-0.0666667 16:-0.0666667 
0 1 0 0 0 0 0 1 0 0 1 1 0 1 0.8350470941145335 1 0 0 0 0 1 0 0 0 0 1:0.2 2:0.733333 3:0.2 4:-0.0666667 5:-0.2 6:-0.0666667 7:-0.2 8:-0.733333 9:0.2 10:0.6 11:-0.0666667 12:0.2 13:-0.466667 14:-0.2 15:0.0666667 16:-0.2 
0 1 0 0 0 1 0 1 0 0 1 1 0 0 1 1 0 0 0 0 1 0 0 0 0 1:-0.0666667 2:0.733333 3:-0.0666667 4:-0.0666667 5:-0.333333 6:-0.2 7:-0.0666667 8:-0.733333 9:0.2 10:0.466667 11:-0.2 12:0.0666667 13:-0.466667 14:-0.333333 15:0.0666667 16:-0.2 
0 1 0 0 0 0 0 0 0 0 0 0 0 0 0 0 0 0 0 0 0 0 0 0 0 1:-0.466667 2:0.2 3:-0.2 4:-0.0666667 5:-0.2 6:-0.0666667 7:0.2 8:-0.6 9:0.0666667 10:-0.0666667 11:-0.2 12:0.0666667 13:-0.733333 14:0.333333 15:0.733333 16:-0.2 
1 1 1 1 0 1 0 1 1 1 0 1 1 1 0 0.3142906730936377 1 0 0 0 1 1 1 1 1 1:-0.466667 2:-0.0666667 3:-0.333333 4:-0.333333 5:-0.466667 6:0.2 7:0.2 8:-0.2 9:-0.466667 10:-0.0666667 11:-0.333333 12:0.0666667 13:-0.6 14:0.2 15:0.333333 16:-0.0666667 
0 1 0 0 0 0 0 0 0 0 1 1 0 0 1 1 0 0 0 0 0 1 0 0 0 1:-0.6 2:-0.2 3:-0.333333 4:-0.466667 5:-0.466667 6:-0.2 7:-0.0666667 8:-0.6 9:-0.0666667 10:-0.0666667 11:-0.2 12:0.2 13:-1 14:0.0666667 15:0.0666667 16:-0.0666667 
0 1 0 0 0 0 0 0 0 0 0 1 0 0 0 1 0 0 0 0 0 0 1 1 0 1:-0.733333 2:-0.733333 3:-0.6 4:-0.6 5:-0.733333 6:-0.0666667 7:-0.0666667 8:-0.333333 9:0.2 10:-0.2 11:-0.2 12:0.0666667 13:-0.866667 14:0.0666667 15:-0.0666667 16:0.0666667 
0 1 0 0 0 0.7003930753695504 0 0 0 0 1 1 1 0 0 1 0 0 0 0 0 0 1 1 0 1:-0.733333 2:-0.733333 3:-0.6 4:-0.466667 5:-0.733333 6:-0.0666667 7:-0.0666667 8:-0.333333 9:0.2 10:-0.2 11:-0.2 12:0.0666667 13:-0.733333 14:0.0666667 15:-0.0666667 16:0.0666667 
0 1 0 0 0 1 0 1 0 0 0 1 1 1 0 1 0 0 0 0.6112709438533922 0 0 1 1 0 1:-0.733333 2:-0.866667 3:-0.733333 4:-0.866667 5:-0.866667 6:0.0666667 7:-0.0666667 8:-0.333333 9:0.2 10:-0.2 11:-0.2 12:0.0666667 13:-0.866667 14:0.0666667 15:-0.2 16:0.0666667 
0 1 0 0 0 0 0 0 0 0 0 1 0 0 0 0 0 1 0 0 0 0 0 0 1 1:-0.6 2:0.0666667 3:-0.333333 4:-0.2 5:-0.6 6:0.0666667 7:-0.0666667 8:-0.733333 9:0.2 10:0.466667 11:-0.333333 12:0.2 13:-0.866667 14:0.0666667 15:-0.2 16:0.0666667 
0 1 1 0 0 1 0 1 0 0 1 1 0 1 1 1 0 1 0 0 0 0 1 1 1 1:-0.466667 2:-0.2 3:-0.333333 4:-0.466667 5:-0.6 6:0.2 7:-0.333333 8:-0.6 9:0.0666667 10:0.466667 11:-0.466667 12:0.2 13:-0.733333 14:-0.0666667 15:-0.2 16:0.333333 
1 1 1 1 0 0 0 1 1 0 0 1 1 1 0 0 1 0 0 1 1 1 1 1 1 1:-0.0666667 2:0.0666667 3:-0.333333 4:0.466667 5:-0.466667 6:-0.0666667 7:-0.2 8:-0.2 9:-0.333333 10:0.333333 11:-0.0666667 12:-0.0666667 13:-0.6 14:0.2 15:0.2 16:-0.0666667 
1 1 0 1 0 0 0 1 0 0 0 0 0 0 0 0 0 0 0 0 1 0 0 1 0 1:-0.2 2:0.333333 3:0.2 4:-0.0666667 5:-0.333333 6:-0.0666667 7:0.0666667 8:-0.6 9:0.333333 10:0.6 11:-0.0666667 12:-0.2 13:-0.866667 14:0.0666667 15:-0.2 16:-0.0666667 
0 0 0 0 0 0 0 0 0 0 0 1 0 0 0 0 0 1 0 0 0 0 0 0 0 1:-0.866667 2:-0.6 3:-0.6 4:-0.733333 5:-0.866667 6:0.0666667 7:-0.0666667 8:-0.733333 9:0.2 10:0.466667 11:-0.2 12:0.2 13:-0.866667 14:0.0666667 15:-0.333333 16:-0.0666667 
0 1 1 0 0 1 0 1 0 0 1 1 1 0 0 1 0 0 0.3326903025572386 1 0 0 1 1 0 1:-0.733333 2:-0.866667 3:-0.6 4:-0.733333 5:-0.733333 6:-0.0666667 7:-0.0666667 8:-0.333333 9:0.2 10:-0.2 11:-0.2 12:0.0666667 13:-0.733333 14:0.0666667 15:-0.0666667 16:0.0666667 
1 1 1 0 0 1 0 1 0 1 1 0 0 1 1 1 0 1 0 0 0 0 0 1 1 1:-0.466667 2:-0.333333 3:-0.2 4:0.0666667 5:-0.333333 6:0.466667 7:-0.466667 8:-0.733333 9:-0.333333 10:0.0666667 11:-0.6 12:-0.2 13:-0.866667 14:0.0666667 15:-0.2 16:0.2 
1 1 1 1 0 1 0 0 0 0 1 1 0 0 0 1 0 1 0 0 1 0 0 1 0 1:-0.6 2:-0.466667 3:-0.333333 4:-0.6 5:-0.733333 6:-0.0666667 7:0.0666667 8:-0.733333 9:0.2 10:0.466667 11:-0.2 12:0.0666667 13:-0.866667 14:0.2 15:-0.333333 16:0.0666667 
0 1 0 0 0 0 0 0 0 0 0 0 0 0 0 0 0 0 0 0 0 0 0 0 0 1:-0.466667 2:0.2 3:-0.2 4:-0.2 5:-0.2 6:-0.0666667 7:-0.0666667 8:-0.6 9:0.0666667 10:0.0666667 11:-0.2 12:0.2 13:-0.866667 14:0.0666667 15:0.466667 16:-0.0666667 
1 1 1 1 0 0 0 1 0 0 0 0 0 0 0 1 1 1 0 0 1 0 0 0 0 1:-0.466667 2:-0.0666667 3:-0.2 4:-0.333333 5:-0.466667 6:-0.2 7:0.2 8:-0.733333 9:0.2 10:0.466667 11:0.0666667 12:-0.2 13:-0.866667 14:0.0666667 15:-0.2 16:-0.2 
0 1 1 0 1 1 1 1 0 1 0 0 0 1 1 1 1 0 1 0 0 0 1 1 0 1:-0.333333 2:-0.0666667 3:-0.0666667 4:-0.333333 5:-0.2 6:0.2 7:-0.333333 8:-0.333333 9:-0.466667 10:-0.0666667 11:-0.333333 12:-0.0666667 13:-0.6 14:-0.0666667 15:0.333333 16:-0.333333 
1 1 1 0.03010794132608019 0 1 0 1 0 1 1 -0 0 1 1 1 0 1 0 0 0 0 1 1 1 1:-0.6 2:-0.333333 3:-0.333333 4:0.0666667 5:-0.466667 6:0.6 7:-0.466667 8:-0.733333 9:-0.333333 10:0.2 11:-0.6 12:-0.0666667 13:-0.866667 14:0.0666667 15:-0.333333 16:0.333333 
1 1 0 1 0 0 0 1 0 0 0 1 0 0 0 1 0 0 0 0 1 0 0 1 0 1:-0.333333 2:0.0666667 3:-0.0666667 4:-0.2 5:-0.466667 6:-0.0666667 7:0.0666667 8:-0.733333 9:0.333333 10:0.6 11:-0.2 12:-0.0666667 13:-0.733333 14:0.0666667 15:-0.2 16:0.0666667 
1 1 1 1 0.06892229937650035 1 0 0 1 0 1 1 1 1 1 1 1 1 0.7209470645944822 1 1 1 1 1 1 1:-0.466667 2:0.466667 3:-0.333333 4:0.0666667 5:-0.2 6:-0.2 7:0.0666667 8:-0.333333 9:0.0666667 10:0.0666667 11:0.0666667 12:0.2 13:-0.866667 14:0.333333 15:-0.0666667 16:0.0666667 
0 1 1 1 0 0 0 0 0 0 1 1 0 0 1 1 0 0 0 0 1 1 0 0 0 1:-0.2 2:0.333333 3:0.0666667 4:-0.0666667 5:-0.2 6:-0.0666667 7:-0.0666667 8:-0.733333 9:0.2 10:0.6 11:-0.2 12:0.2 13:-0.866667 14:0.2 15:-0.2 16:0.0666667 
0 1 0 0 0 1 0 1 0 0 1 1 1 1 1 1 0 0 0 0 0 1 1 1 0 1:-0.733333 2:-0.333333 3:-0.6 4:-0.6 5:-0.733333 6:-0.0666667 7:-0.0666667 8:-0.333333 9:0.2 10:-0.2 11:-0.2 12:0.0666667 13:-0.733333 14:0.0666667 15:-0.0666667 16:0.0666667 
0 0 0 1 0 0 0 0 0 0 1 1 0 0 0 1 0 0 0 0 0 1 0 0 0 1:-0.466667 2:0.0666667 3:-0.2 4:-0.2 5:-0.6 6:-0.0666667 7:-0.0666667 8:-0.733333 9:0.333333 10:0.6 11:-0.333333 12:0.2 13:-0.733333 14:0.333333 15:-0.2 16:0.2 
0 1 0 0 0 0 0 0 0 0 0 1 0 0 0 1 0 1 0 0 0 0 0 0 1 1:-0.6 2:0.0666667 3:-0.333333 4:-0.2 5:-0.6 6:0.0666667 7:-0.0666667 8:-0.733333 9:0.2 10:0.466667 11:-0.2 12:0.0666667 13:-0.733333 14:0.0666667 15:-0.2 16:0.0666667 
0 1 1 1 0 0 0 1 0 0 1 1 0 0 0 1 0 1 0 0 0 0 0 1 1 1:-0.466667 2:-0.2 3:-0.2 4:-0.466667 5:-0.466667 6:0.0666667 7:-0.0666667 8:-0.733333 9:0.2 10:0.6 11:-0.2 12:0.0666667 13:-0.866667 14:0.0666667 15:-0.333333 16:0.0666667 
1 1 1 1 1 1 1 1 1 1 1 1 1 1 1 1 1 1 1 1 1 1 1 1 1 1:-0.466667 2:-0.2 3:-0.2 4:-0.466667 5:-0.466667 6:0.2 7:0.333333 8:-0.333333 9:-0.333333 10:-0.2 11:-0.333333 12:-0.0666667 13:-0.6 14:0.0666667 15:-0.2 16:-0.333333 
0 1 0 0 0 0 0 0 0 0 0 0 0 0 0 1 0 0 0 0 0 0 0 0 0 1:-0.866667 2:-1 3:-0.733333 4:-0.866667 5:-1 6:-0.0666667 7:-0.0666667 8:-0.733333 9:0.333333 10:0.0666667 11:-0.2 12:0.0666667 13:-1 14:0.0666667 15:-0.2 16:0.0666667 
0 0 0 0 0 0 0 0 0 0 0 0 0 0 0 1 0 0 0 0 0 0 0 0 0 1:-0.866667 2:-1 3:-0.866667 4:-0.866667 5:-1 6:-0.0666667 7:-0.0666667 8:-0.733333 9:0.333333 10:0.0666667 11:-0.2 12:0.0666667 13:-1 14:0.0666667 15:-0.2 16:0.0666667 
0 1 0 0 0 0 0 1 0 0 0 0 0 0 0 0 0 0 0 0 1 0 0 0 1 1:-0.733333 2:-0.466667 3:-0.333333 4:-0.6 5:-0.733333 6:-0.0666667 7:0.0666667 8:-0.733333 9:0.2 10:0.6 11:-0.0666667 12:-0.0666667 13:-0.866667 14:0.0666667 15:-0.333333 16:-0.2 
0 0 0 0 0 0 0 0 0 0 0 0 0 0 0 1 0 0 0 0 0 0 0 0 0 1:-0.866667 2:-1 3:-0.733333 4:-0.866667 5:-1 6:-0.0666667 7:-0.0666667 8:-0.733333 9:0.466667 10:0.0666667 11:-0.2 12:0.0666667 13:-1 14:0.0666667 15:-0.2 16:0.0666667 
0 0 0 1 0 0 0 0 0 0 0 1 0 0 0 0 0 0 0 0 1 0 0 0 0 1:-0.466667 2:0.2 3:-0.2 4:-0.2 5:-0.466667 6:-0.0666667 7:0.0666667 8:-0.733333 9:0.333333 10:0.6 11:-0.0666667 12:0.0666667 13:-0.866667 14:0.2 15:-0.2 16:0.0666667 
0 1 1 0 0.7352705668752789 1 0 1 0 1 1 1 1 1 1 1 0 1 0 1 1 1 1 1 0 1:-0.733333 2:-0.6 3:-0.733333 4:-0.866667 5:-0.866667 6:-0.0666667 7:-0.0666667 8:-0.333333 9:0.0666667 10:-0.2 11:-0.2 12:0.0666667 13:-0.866667 14:0.0666667 15:-0.2 16:0.0666667 
1 1 1 1 0 0 0 0 0 0 1 1 0 0 0 1 0 1 0 0 1 0 0 1 0 1:-0.2 2:0.333333 3:0.0666667 4:-0.0666667 5:-0.2 6:-0.0666667 7:-0.0666667 8:-0.733333 9:0.2 10:0.6 11:-0.2 12:0.0666667 13:-0.866667 14:0.0666667 15:-0.2 16:0.0666667 
0 1 0 0 0 0 0 1 0 1 1 1 1 1 1 1 0 1 0 0.7832104879814582 1 1 0 0 1 1:0.0666667 2:0.866667 3:0.0666667 4:0.0666667 5:-0.333333 6:0.0666667 7:-0.333333 8:-0.733333 9:0.2 10:0.6 11:-0.2 12:0.2 13:-0.6 14:-0.0666667 15:-0.2 16:-0.0666667 
0 1 1 0 0 0 0 1 0 0 1 1 0 0 0 1 0 0 0 0 1 0 0 1 0 1:-0.0666667 2:0.466667 3:0.2 4:0.0666667 5:-0.2 6:0.0666667 7:-0.0666667 8:-0.6 9:0.333333 10:0.6 11:-0.2 12:0.0666667 13:-0.733333 14:-0.0666667 15:-0.2 16:0.0666667 
0 1 0 0 0 0.8129061233373259 0 0 0 0 1 1 0 1 1 1 0 1 0 0 0 1 0 0 1 1:-0.466667 2:0.0666667 3:-0.333333 4:-0.2 5:-0.466667 6:0.0666667 7:-0.2 8:-0.733333 9:0.2 10:0.466667 11:-0.333333 12:0.2 13:-0.866667 14:0.0666667 15:-0.333333 16:0.2 
0 1 0 0 0 0 0 0 0 0 0 1 0 0 0 0.8411853680914078 0 0 0 0 1 0 0 0 0 1:-0.2 2:0.2 3:0.0666667 4:-0.0666667 5:-0.333333 6:-0.0666667 7:-0.0666667 8:-0.733333 9:0.2 10:0.6 11:-0.2 12:0.0666667 13:-0.866667 14:0.0666667 15:-0.2 16:-0.0666667 
0 1 0 0.2344349973720832 0 1 0 0 0 0 1 1 0 0 0 1 0 1 0 0 0 0 0 1 1 1:-0.733333 2:-0.333333 3:-0.466667 4:-0.6 5:-0.733333 6:-0.0666667 7:-0.0666667 8:-0.733333 9:0.2 10:0.466667 11:-0.2 12:0.0666667 13:-0.866667 14:0.0666667 15:-0.333333 16:0.0666667 
0 0 0 0 0 0 0 0 0 0 0 0 0 0 0 0 0 1 0 0 1 0 0 0 0.1995293467444178 1:-0.733333 2:-0.333333 3:-0.466667 4:-0.466667 5:-0.733333 6:-0.0666667 7:0.0666667 8:-0.733333 9:0.333333 10:0.6 11:-0.0666667 12:-0.0666667 13:-0.866667 14:0.0666667 15:-0.333333 16:-0.2 
0 1 0 1 0 0 0 0 0 0 0 1 0 0 0 1 0 1 0 0 0.7462044581535385 0 0 0 1 1:-0.466667 2:0.0666667 3:-0.2 4:-0.2 5:-0.466667 6:-0.0666667 7:0.0666667 8:-0.733333 9:0.2 10:0.466667 11:-0.2 12:0.0666667 13:-0.866667 14:0.0666667 15:-0.2 16:0.0666667 
0 1 0 0 0 0 0 0 0 0 0 0 0 0 0 1 1 1 0 0 1 0 0 0 1 1:-0.733333 2:-0.466667 3:-0.466667 4:-0.6 5:-0.866667 6:-0.0666667 7:0.0666667 8:-0.733333 9:0.2 10:0.466667 11:-0.0666667 12:-0.0666667 13:-0.866667 14:0.0666667 15:-0.333333 16:-0.2 
0 1 0 0 0 0 0 0 0 0 0 0 0 0 0 1 0 0 0 0 0 0 0 0 0 1:-0.866667 2:-1 3:-0.733333 4:-0.866667 5:-1 6:-0.0666667 7:-0.0666667 8:-0.733333 9:0.333333 10:0.0666667 11:-0.2 12:0.0666667 13:-1 14:0.0666667 15:-0.2 16:0.0666667 
1 1 1 1 0 0 0 0 0 0 1 1 0 0 0 1 0 1 0 0 1 0 0 1 1 1:-0.0666667 2:0.333333 3:0.2 4:0.0666667 5:-0.2 6:-0.0666667 7:0.0666667 8:-0.733333 9:0.2 10:0.6 11:-0.0666667 12:-0.0666667 13:-0.866667 14:0.0666667 15:-0.2 16:0.0666667 
0 1 0 1 0 0 0 0 0 0 0 0 0 0 0 0 0.6135131481772556 0 0 0 0 0 0 1 0 1:0.2 2:0.333333 3:-0.2 4:0.866667 5:-0.2 6:-0.2 7:0.333333 8:-0.466667 9:-0.733333 10:0.6 11:-0.0666667 12:-0.2 13:-0.6 14:0.2 15:0.866667 16:-0.2 
0 0 0 0 0 0 0 0 0 0 0 1 0 0 0 0 0 1 0 0 0 0 0 0 0 1:-0.6 2:-0.0666667 3:-0.466667 4:-0.333333 5:-0.733333 6:-0.0666667 7:0.0666667 8:-0.733333 9:0.333333 10:0.466667 11:-0.0666667 12:0.0666667 13:-0.866667 14:0.2 15:-0.2 16:-0.0666667 
0 1 0 0 0 0 0 1 0 0 0 0 0 0 0 1 0 0 0 0 1 0 0 1 0 1:-0.333333 2:0.333333 3:-0.2 4:0.0666667 5:-0.2 6:0.0666667 7:-0.0666667 8:-0.333333 9:0.333333 10:-0.0666667 11:-0.2 12:-0.0666667 13:-0.866667 14:0.0666667 15:-0.0666667 16:0.0666667 
0 1 0 0 0 0 0 0 0 0 0 1 0 1 1 1 0.7024397183941247 1 0 0 1 1 1 0 0 1:-0.466667 2:0.333333 3:-0.333333 4:-0.0666667 5:-0.333333 6:-0.0666667 7:0.0666667 8:-0.333333 9:0.2 10:-0.0666667 11:-0.2 12:0.2 13:-0.866667 14:0.2 15:-0.0666667 16:-0.0666667 
0 1 0 0 0 1 0 1 0 0 0 0 0 0 0 1 0 1 0 0 0 0 1 1 0 1:-0.866667 2:-0.6 3:-0.733333 4:-0.733333 5:-0.866667 6:0.0666667 7:-0.0666667 8:-0.333333 9:0.0666667 10:-0.2 11:-0.2 12:-0.0666667 13:-0.866667 14:0.0666667 15:-0.0666667 16:0.0666667 
0 0 0 0 0 0 0 0 0 0 0 1 0 0 1 1 0 0 0 0 0 0 0 0 0 1:-0.466667 2:0.0666667 3:-0.333333 4:-0.2 5:-0.6 6:0.0666667 7:-0.2 8:-0.733333 9:0.333333 10:0.466667 11:-0.466667 12:0.2 13:-0.733333 14:0.0666667 15:-0.2 16:0.2 
0 1 1 0 0 1 0 0.6337434504316305 0 0 1 1 1 1 0 1 0 0 0 0 0 0 1 1 0 1:-0.733333 2:-0.733333 3:-0.6 4:-0.6 5:-0.733333 6:-0.0666667 7:-0.0666667 8:-0.333333 9:0.2 10:-0.2 11:-0.2 12:0.0666667 13:-0.733333 14:0.0666667 15:-0.0666667 16:0.0666667 
0 1 0 0 0 1 0 1 0 0 1 1 1 1 1 1 0 0 0 0 0 1 1 1 0 1:-0.733333 2:-0.466667 3:-0.6 4:-0.6 5:-0.733333 6:-0.0666667 7:-0.0666667 8:-0.333333 9:0.2 10:-0.2 11:-0.2 12:0.0666667 13:-0.733333 14:0.0666667 15:-0.0666667 16:0.0666667 
0 1 0 0 0 1 0 1 0 1 0 0 0 1 0 0 0 0 0 0 0 0 1 1 0 1:-0.2 2:0.333333 3:0.0666667 4:-0.0666667 5:-0.2 6:0.333333 7:-0.2 8:-0.333333 9:-0.466667 10:0.0666667 11:-0.333333 12:-0.0666667 13:-0.6 14:-0.0666667 15:0.466667 16:-0.0666667 
0 1 0 0 0 0 0 0 0 0 0 1 1 0 0 1 0 0 0 0 0 1 1 0 0 1:-0.866667 2:-0.866667 3:-0.733333 4:-0.733333 5:-0.866667 6:-0.0666667 7:0.0666667 8:-0.333333 9:0.0666667 10:-0.2 11:-0.2 12:0.2 13:-0.866667 14:0.0666667 15:-0.0666667 16:-0.0666667 
0 1 0 0 0 0 0 0 0 0.3416372821056242 0 1 0 1 1 0 0 0 0 0 0 0 1 1 1 1:-0.0666667 2:-0.0666667 3:-0.333333 4:0.333333 5:-0.333333 6:0.2 7:-0.466667 8:-0.466667 9:-0.6 10:0.466667 11:-0.2 12:0.2 13:-0.6 14:0.2 15:0.466667 16:0.0666667 
1 1 1 1 1 1 1 1 1 1 1 1 1 1 1 1 0 1 0.1914695562953187 1 1 1 1 1 1 1:-0.0666667 2:0.733333 3:-0.0666667 4:-0.0666667 5:-0.466667 6:0.0666667 7:-0.333333 8:-0.733333 9:0.0666667 10:0.466667 11:-0.333333 12:0.2 13:-0.6 14:0.2 15:-0.333333 16:0.2 
0 1 1 0 0 1 0 1 0 0 1 1 1 1 1 1 1 0 0 1 0 1 1 1 0 1:-0.733333 2:-0.866667 3:-0.733333 4:-0.866667 5:-0.866667 6:-0.0666667 7:-0.0666667 8:-0.333333 9:0.0666667 10:-0.2 11:-0.2 12:0.0666667 13:-0.866667 14:0.0666667 15:-0.2 16:0.0666667 
1 1 1 1 1 1 1 1 1 1 1 0 0 1 1 1 1 0 1 1 1 0 1 1 1 1:-0.333333 2:0.0666667 3:-0.0666667 4:-0.2 5:-0.2 6:0.2 7:-0.0666667 8:-0.333333 9:-0.466667 10:-0.0666667 11:-0.333333 12:-0.0666667 13:-0.466667 14:0.0666667 15:0.333333 16:-0.333333 
0 1 0 0 0 0 0 0 0 0 0 1 0 0 0 0 0 1 0 0 0 0 0 0 1 1:-0.2 2:0.333333 3:0.0666667 4:0.0666667 5:-0.2 6:0.0666667 7:-0.0666667 8:-0.733333 9:0.2 10:0.6 11:-0.333333 12:0.0666667 13:-0.866667 14:0.0666667 15:-0.2 16:0.0666667 
0 1 0 0 0 1 1 1 0 0 1 1 1 1 1 0 0 0 0 0 0 1 1 1 1 1:0.0666667 2:0.866667 3:0.0666667 4:0.0666667 5:-0.333333 6:0.466667 7:-0.466667 8:-0.333333 9:0.0666667 10:0.6 11:-0.6 12:0.333333 13:-0.466667 14:-0.466667 15:0.0666667 16:0.6 
0 0 0 0 0 0 0 0 0 0 1 1 0 1 1 1 0 1 0 0 0 0 0 0 1 1:-0.466667 2:0.0666667 3:-0.333333 4:-0.2 5:-0.466667 6:0.0666667 7:-0.2 8:-0.733333 9:0.2 10:0.466667 11:-0.333333 12:0.2 13:-0.733333 14:0.0666667 15:-0.2 16:0.2 
0 1 0 1 0 0 0 1 0 0 0 1 0 0 0 1 0 1 0 0 1 0 0 0 1 1:-0.733333 2:-0.333333 3:-0.466667 4:-0.466667 5:-0.733333 6:-0.0666667 7:0.0666667 8:-0.733333 9:0.2 10:0.466667 11:-0.0666667 12:-0.0666667 13:-0.866667 14:0.0666667 15:-0.333333 16:-0.0666667 
0 1 0 0 0 0 0 0 0 0 0 1 0 0 0 1 0 0 0 0 0 0 1 1 0 1:-0.733333 2:-0.866667 3:-0.6 4:-0.733333 5:-0.733333 6:-0.0666667 7:-0.0666667 8:-0.333333 9:0.2 10:-0.2 11:-0.2 12:0.0666667 13:-0.866667 14:0.0666667 15:-0.0666667 16:0.0666667 
0 1 0 0 0 1 0 1 0 0 0 1 0 0 0 1 0 0 0 0 0 0 1 1 0 1:-0.733333 2:-0.466667 3:-0.6 4:-0.6 5:-0.733333 6:0.0666667 7:-0.0666667 8:-0.333333 9:0.2 10:-0.2 11:-0.2 12:-0.0666667 13:-0.733333 14:0.0666667 15:-0.0666667 16:0.0666667 
0 0 0 0 0 0 0 0 0 0 0 1 0 0 0 0 0 0 0 0 0 0 0 0 0 1:-0.733333 2:-0.466667 3:-0.466667 4:-0.6 5:-0.733333 6:0.0666667 7:-0.2 8:-0.733333 9:0.2 10:0.466667 11:-0.333333 12:0.2 13:-0.866667 14:0.0666667 15:-0.2 16:0.2 
1 1 1 0 1 1 1 1 0 1 1 0 1 1 1 1 0 1 0 0 0 0 1 1 1 1:-0.333333 2:0.0666667 3:-0.0666667 4:0.333333 5:-0.2 6:0.466667 7:-0.466667 8:-0.6 9:-0.333333 10:0.2 11:-0.733333 12:-0.0666667 13:-0.733333 14:-0.0666667 15:-0.2 16:0.2 
1 1 1 1 1 1 1 1 1 1 1 0 1 1 0 1 1 0 1 1 1 0 1 1 1 1:-0.466667 2:-0.2 3:-0.2 4:-0.466667 5:-0.466667 6:0.2 7:0.2 8:-0.333333 9:-0.466667 10:-0.0666667 11:-0.333333 12:-0.0666667 13:-0.6 14:0.0666667 15:0.2 16:-0.333333 
0 0 0 0 0 0 0 0 0 0 0 1 0 0 0 1 0 0 0 0 0 0 0 0 1 1:-0.733333 2:-0.466667 3:-0.333333 4:-0.6 5:-0.733333 6:0.0666667 7:-0.0666667 8:-0.733333 9:0.2 10:0.6 11:-0.2 12:0.0666667 13:-0.866667 14:0.0666667 15:-0.333333 16:0.0666667 
0 1 0 0 0 0 0 0 0 0 0 1 0 0 1 0 0 0 0 0 0 0 0 0 0 1:-0.466667 2:0.333333 3:-0.2 4:-0.0666667 5:-0.466667 6:0.2 7:-0.333333 8:-0.6 9:0.333333 10:0.466667 11:-0.466667 12:0.2 13:-0.866667 14:-0.0666667 15:-0.2 16:0.2 
0 1 0 0 0 0 0 0 0 0 0 1 0 0 0 0 0 1 0 0 0 0 0 0 1 1:-0.2 2:0.333333 3:0.0666667 4:0.0666667 5:-0.2 6:0.0666667 7:-0.0666667 8:-0.733333 9:0.2 10:0.6 11:-0.333333 12:0.0666667 13:-0.866667 14:-0.0666667 15:-0.2 16:0.0666667 
1 1 1 1 1 1 1 1 1 1 0.8411895220621631 0 1 1 1 1 1 1 1 1 1 0 1 1 1 1:-0.466667 2:-0.0666667 3:-0.333333 4:-0.333333 5:-0.466667 6:0.2 7:-0.0666667 8:-0.333333 9:-0.6 10:-0.0666667 11:-0.333333 12:-0.0666667 13:-0.6 14:0.0666667 15:0.2 16:-0.333333 
0 1 0 0 0 0 0 0 0 0 0 1 1 0 1 1 1 0 0 1 1 1 1 0 0 1:-0.6 2:-0.0666667 3:-0.466667 4:-0.333333 5:-0.6 6:-0.2 7:0.0666667 8:-0.333333 9:0.2 10:-0.0666667 11:-0.0666667 12:0.2 13:-0.866667 14:0.2 15:-0.0666667 16:-0.0666667 
0 0 0 0 0 0 0 0 0 0 0 1 0 0 0 0 0 1 0 0 0 0 0 0 0 1:-0.733333 2:-0.466667 3:-0.466667 4:-0.6 5:-0.733333 6:0.0666667 7:-0.2 8:-0.733333 9:0.2 10:0.6 11:-0.333333 12:0.2 13:-0.866667 14:0.0666667 15:-0.333333 16:0.2 
1 1 1 1 1 1 1 1 1 1 1 1 1 1 1 1 1 1 1 1 1 1 1 1 1 1:-0.466667 2:0.0666667 3:-0.333333 4:-0.2 5:-0.333333 6:0.0666667 7:0.466667 8:-0.2 9:-0.333333 10:-0.2 11:-0.333333 12:-0.0666667 13:-0.6 14:0.2 15:-0.2 16:-0.466667 
1 1 1 1 1 1 1 1 1 1 1 1 1 1 1 1 0 1 0 0 0 1 1 1 1 1:-0.333333 2:0.6 3:-0.2 4:-0.2 5:-0.466667 6:0.2 7:-0.333333 8:-0.6 9:0.0666667 10:0.6 11:-0.466667 12:0.2 13:-0.6 14:0.2 15:-0.333333 16:0.466667 
0 1 0 0 0 0 0 0 0 0 0 1 0 0 0 1 0 0 0 0 0 1 1 0 0 1:-0.733333 2:-0.733333 3:-0.6 4:-0.6 5:-0.733333 6:-0.0666667 7:0.0666667 8:-0.333333 9:0.2 10:-0.2 11:-0.2 12:0.2 13:-0.866667 14:0.2 15:-0.0666667 16:0.0666667 
0 1 0 0 0 0 0 0 0 0 0 1 0 0 0 1 0 1 0 0 0 0 0 0 1 1:-0.866667 2:-0.6 3:-0.6 4:-0.733333 5:-0.866667 6:-0.0666667 7:0.0666667 8:-0.733333 9:0.2 10:0.466667 11:-0.2 12:0.0666667 13:-0.866667 14:0.0666667 15:-0.333333 16:-0.0666667 
1 1 1 1 1 1 1 1 1 1 1 1 1 1 1 1 0 1 0 0 0 1 1 1 1 1:-0.333333 2:0.333333 3:-0.333333 4:-0.333333 5:-0.6 6:0.466667 7:-0.466667 8:-0.6 9:-0.0666667 10:0.466667 11:-0.466667 12:0.2 13:-0.733333 14:0.2 15:-0.466667 16:0.466667 
1 1 0 1 0 0 0 0 0 0 0 1 0 0 0 0 1 0 0 1 1 0 0 0 0 1:-0.466667 2:-0.0666667 3:-0.2 4:-0.333333 5:-0.6 6:-0.2 7:0.2 8:-0.6 9:0.2 10:0.6 11:0.2 12:-0.0666667 13:-0.866667 14:0.2 15:-0.2 16:-0.333333 
0 1 1 0 0 1 0 0 0 0 1 1 0 1 1 1 0 1 0 0 0 1 1 1 1 1:-0.466667 2:-0.0666667 3:-0.2 4:-0.333333 5:-0.466667 6:0.2 7:-0.2 8:-0.733333 9:0.0666667 10:0.466667 11:-0.466667 12:0.333333 13:-0.733333 14:-0.0666667 15:-0.2 16:0.333333 
0 1 0 1 0.1833671382698065 1 0 1 0 1 1 1 0 1 1 1 0 1 0 1 1 1 0 0 1 1:-0.0666667 2:0.866667 3:-0.0666667 4:0.0666667 5:-0.333333 6:-0.2 7:-0.0666667 8:-0.733333 9:0.2 10:0.6 11:-0.0666667 12:0.0666667 13:-0.466667 14:-0.2 15:-0.0666667 16:-0.2 
0 1 0 0 0 0 0.5911444472358829 1 0 1 1 1 0 1 1 1 0 0 0 0 1 1 1 1 0 1:0.0666667 2:0.6 3:0.0666667 4:-0.2 5:-0.333333 6:0.0666667 7:-0.333333 8:-0.733333 9:0.0666667 10:0.6 11:-0.2 12:0.333333 13:-0.6 14:-0.0666667 15:-0.0666667 16:0.0666667 
0 1 0 0 0 0 0 1 0 0 1 1 1 0.04090895277010816 0 1 0 0 0 0 1 1 1 1 0 1:-0.6 2:-0.333333 3:-0.466667 4:-0.466667 5:-0.6 6:-0.0666667 7:-0.0666667 8:-0.333333 9:0.333333 10:-0.2 11:-0.2 12:0.0666667 13:-0.733333 14:0.0666667 15:-0.0666667 16:0.0666667 
0 1 0 0 0 0 0 0 0 0 0 0 0 0 0 0 0 0 0 0 0 0 0 0 0 1:-0.466667 2:0.2 3:-0.466667 4:-0.2 5:-0.6 6:-0.0666667 7:0.333333 8:-0.6 9:0.466667 10:0.0666667 11:-0.2 12:-0.0666667 13:-1 14:0.0666667 15:-0.0666667 16:-0.0666667 
0 1 0 0 0 0 0 0 0 0 0 0 0 0 0 0 0 0.06665787934530408 0 0 0 0 0 0 1 1:-0.333333 2:0.466667 3:-0.0666667 4:0.0666667 5:-0.466667 6:0.2 7:-0.2 8:-0.6 9:0.333333 10:0.6 11:-0.466667 12:0.0666667 13:-0.866667 14:-0.0666667 15:-0.2 16:0.2 
0 0 0 0 0 0 0 0 0 0 0 1 0 0 0 0 0 0 0 0 0 0 0 1 0 1:-0.733333 2:-0.6 3:-0.466667 4:-0.733333 5:-0.733333 6:0.0666667 7:-0.0666667 8:-0.733333 9:0.2 10:0.6 11:-0.2 12:0.0666667 13:-0.866667 14:0.0666667 15:-0.333333 16:0.0666667 
1 1 1 1 1 1 0.801866394364998 1 1 1 0 0 1 0.5200871661534379 0 1 1 1 1 1 1 0 0 1 1 1:-0.466667 2:-0.0666667 3:-0.2 4:-0.333333 5:-0.333333 6:0.2 7:0.2 8:-0.333333 9:-0.466667 10:-0.2 11:-0.333333 12:-0.0666667 13:-0.6 14:0.2 15:0.2 16:-0.466667 
0 1 1 0 0 1 0 1 0 0.595007889611599 0 1 1 1 1 1 0 1 0 0 0 0 1 1 0 1:-0.866667 2:-0.466667 3:-0.733333 4:-0.6 5:-0.733333 6:0.0666667 7:-0.0666667 8:-0.333333 9:0.0666667 10:-0.2 11:-0.2 12:-0.0666667 13:-0.733333 14:0.0666667 15:-0.0666667 16:0.0666667 
0 0.548992528069821 1 1 1 1 1 1 0 1 1 1 0 1 0 1 0 0 0 1 1 0 0 0 0.04753797650526728 1:0.0666667 2:1 3:0.0666667 4:0.0666667 5:-0.2 6:-0.0666667 7:-0.0666667 8:-0.733333 9:0.2 10:0.6 11:-0.0666667 12:0.0666667 13:-0.2 14:-0.333333 15:0.0666667 16:-0.333333 
0 1 1 0 0 1 0 0 0 0 1 1 1 1 0 1 0 0 0 1 0 1 1 1 0 1:-0.733333 2:-0.866667 3:-0.733333 4:-0.733333 5:-0.866667 6:-0.0666667 7:-0.0666667 8:-0.333333 9:0.2 10:-0.2 11:-0.2 12:0.0666667 13:-0.866667 14:0.0666667 15:-0.2 16:0.0666667 
0 1 0 0 0 0 0 0 0 0 0 0 0 0 0 0 0 0 0 0 0 0 0 1 0 1:-0.466667 2:0.0666667 3:-0.333333 4:-0.2 5:-0.333333 6:0.0666667 7:0.0666667 8:-0.6 9:-0.0666667 10:-0.0666667 11:-0.2 12:-0.0666667 13:-0.866667 14:0.2 15:0.333333 16:0.0666667 
1 1 1 1 1 1 1 1 1 1 1 0 1 1 1 1 1 1 1 1 1 0 1 1 1 1:-0.466667 2:-0.2 3:-0.333333 4:-0.466667 5:-0.466667 6:0.2 7:0.2 8:-0.333333 9:-0.466667 10:-0.2 11:-0.333333 12:-0.0666667 13:-0.6 14:0.0666667 15:0.0666667 16:-0.466667 
0 1 0 0 0 0 0 0 0 0 0 1 0 0 0 1 0 1 0 0 0 0 0 -0 0 1:-0.866667 2:-1 3:-0.866667 4:-1 5:-1 6:-0.0666667 7:-0.0666667 8:-0.733333 9:0.2 10:0.0666667 11:-0.2 12:0.0666667 13:-1 14:0.0666667 15:-0.333333 16:0.0666667 
0 1 0 0 0 0 0 0 0 0 0 1 0 0 0 1 0 1 0 0 0 0 0 0 0 1:-0.866667 2:-1 3:-0.866667 4:-1 5:-1 6:0.0666667 7:-0.0666667 8:-0.733333 9:0.2 10:0.0666667 11:-0.2 12:0.0666667 13:-1 14:0.0666667 15:-0.333333 16:0.0666667 
0 1 0 0 0 1 0 1 0 0 1 1 0 1 0 1 0 0 0 0 1 0 -0 0.4030507146626914 0 1:0.333333 2:1 3:0.333333 4:0.2 5:-0.0666667 6:0.0666667 7:-0.2 8:-0.6 9:0.2 10:0.6 11:-0.2 12:0.2 13:-0.466667 14:-0.333333 15:0.0666667 16:-0.0666667 
0 1 0 0 0 0 0 0 0 0 0 0 0 0 0 0 0 0 0 0 0 0 0 0 0 1:-0.333333 2:0.466667 3:-0.0666667 4:0.0666667 5:0.0666667 6:-0.2 7:-0.0666667 8:-0.6 9:0.2 10:-0.0666667 11:-0.2 12:0.333333 13:-0.866667 14:0.0666667 15:0.466667 16:-0.333333 
0 0 0 0 0 0 0 0 0 0 1 1 0 0 0 1 0 0 0 0 0 0 0 0.8372809636882012 0 1:-0.6 2:-0.466667 3:-0.333333 4:-0.6 5:-0.733333 6:0.0666667 7:-0.2 8:-0.733333 9:0.2 10:0.6 11:-0.333333 12:0.2 13:-0.866667 14:0.0666667 15:-0.333333 16:0.2 
1 1 1 1 0 1 0 1 0 1 1 1 1 1 1 1 0 1 0 0 1 1 1 1 1 1:-0.2 2:0.333333 3:-0.2 4:-0.333333 5:-0.6 6:0.2 7:-0.333333 8:-0.733333 9:0.0666667 10:0.466667 11:-0.333333 12:0.2 13:-0.733333 14:0.2 15:-0.333333 16:0.2 
1 1 0 1 0 0 0 0 0 0 0 0 0 1 0 0 1 1 0 0 1 1 1 1 1 1:-0.0666667 2:-0.0666667 3:-0.333333 4:0.466667 5:-0.466667 6:-0.0666667 7:0.0666667 8:-0.333333 9:-0.6 10:0.466667 11:-0.0666667 12:-0.0666667 13:-0.733333 14:0.2 15:0.333333 16:-0.2 
0.1142205849947168 1 0 1 0 0 0 0 0 1 0 0 0 0 0 0 1 0 0 0 0 0 0 1 1 1:-0.333333 2:-0.0666667 3:-0.466667 4:0.466667 5:-0.466667 6:-0.0666667 7:0.0666667 8:-0.466667 9:-0.733333 10:0.6 11:-0.0666667 12:-0.0666667 13:-0.6 14:0.2 15:0.466667 16:-0.333333 
1 1 0 1 0 0 0 0 0 0 0 1 0 1 0 0 1 1 0 0 0 0 1 1 1 1:-0.2 2:-0.0666667 3:-0.466667 4:0.333333 5:-0.466667 6:0.0666667 7:-0.2 8:-0.466667 9:-0.466667 10:0.466667 11:-0.2 12:-0.0666667 13:-0.733333 14:0.333333 15:0.2 16:0.0666667 
0 0 0 0 0 0 0 0 0 0 0 1 0 0 0 0 0 0 0 0 0 0 0 0 0 1:-0.333333 2:0.466667 3:-0.0666667 4:0.0666667 5:-0.466667 6:-0.0666667 7:-0.0666667 8:-0.733333 9:0.333333 10:0.6 11:-0.333333 12:0.2 13:-0.866667 14:0.2 15:-0.0666667 16:0.0666667 
0 1 1 0 1 1 0 1 0.1907049052330362 0 0 1 1 1 0 1 1 1 0 1 0 0 1 1 0 1:-0.733333 2:-0.866667 3:-0.733333 4:-0.733333 5:-0.733333 6:0.0666667 7:-0.0666667 8:-0.333333 9:0.0666667 10:-0.2 11:-0.2 12:-0.0666667 13:-0.866667 14:0.0666667 15:-0.2 16:0.0666667 
0 1 1 0 0 1 1 0 1 0 1 1 1 1 1 1 0 0 1 1 0 1 1 1 0 1:-0.733333 2:-0.866667 3:-0.6 4:-0.733333 5:-0.733333 6:-0.0666667 7:-0.0666667 8:-0.333333 9:0.0666667 10:-0.2 11:-0.2 12:0.2 13:-0.733333 14:0.0666667 15:-0.0666667 16:0.0666667 
0 0 0 0 0 0 0 0 0 0 0 1 0 0 0 0 0 0 0 0 0 0 0 0 1 1:-0.6 2:-0.333333 3:-0.333333 4:-0.466667 5:-0.6 6:0.0666667 7:-0.0666667 8:-0.733333 9:0.2 10:0.6 11:-0.2 12:0.2 13:-0.866667 14:0.0666667 15:-0.333333 16:-0.0666667 
0 1 0 1 0 1 0 0 0 0 1 0 0 0 0.300604442860866 1 1 0.313324595293074 0 0 1 0 0 1 0 1:-0.466667 2:0.0666667 3:-0.2 4:-0.2 5:-0.2 6:-0.0666667 7:0.0666667 8:-0.733333 9:-0.0666667 10:-0.0666667 11:-0.2 12:-0.0666667 13:-0.866667 14:0.2 15:0.2 16:0.0666667 
0 0.7958940495213659 0 0 0 0 0 0 0 0 0 0 0 0 0 0 0 0 0 0 0 0 0 0 0 1:-0.733333 2:-0.466667 3:-0.466667 4:-0.6 5:-0.733333 6:-0.0666667 7:0.0666667 8:-0.733333 9:0.2 10:0.466667 11:-0.0666667 12:-0.0666667 13:-0.866667 14:0.0666667 15:-0.2 16:-0.2 
0.8523462328499967 0 1 1 0 0 0 0 0 0 0 1 0 0 0 0 0 1 0 0 1 0 0 0 1 1:-0.6 2:-0.333333 3:-0.333333 4:-0.466667 5:-0.6 6:-0.0666667 7:0.0666667 8:-0.733333 9:0.2 10:0.6 11:-0.2 12:0.0666667 13:-0.866667 14:0.2 15:-0.333333 16:-0.0666667 
0 1 0 0 0 0 0 0 0 0 0 1 0 0 0 0 0 0 0 0 0 1 0 0 0 1:-0.466667 2:0.333333 3:-0.333333 4:-0.0666667 5:-0.466667 6:-0.0666667 7:0.0666667 8:-0.2 9:0.466667 10:-0.0666667 11:-0.2 12:0.2 13:-0.866667 14:0.2 15:0.0666667 16:-0.0666667 
0 1 0 0 0 0 0 0 0 0 1 1 0 0 0 1 0 0 0 0 0 0 1 1 0 1:-0.6 2:-0.6 3:-0.466667 4:-0.466667 5:-0.6 6:-0.0666667 7:-0.0666667 8:-0.333333 9:0.333333 10:-0.2 11:-0.2 12:0.0666667 13:-0.733333 14:0.0666667 15:-0.0666667 16:0.0666667 
0 0 0 0 0 0 0 0 0 0 0 1 0 0 0 0 0 0 0 0 0 0 0 0 0 1:-0.2 2:0.2 3:0.0666667 4:-0.0666667 5:-0.466667 6:0.0666667 7:-0.2 8:-0.6 9:0.466667 10:0.6 11:-0.333333 12:0.333333 13:-0.866667 14:0.0666667 15:-0.2 16:0.0666667 
0 1 0 0 0 0 0 0 0 0 0 1 0 0 0 1 0 0 0 0 0 0 1 1 0 1:-0.733333 2:-0.6 3:-0.6 4:-0.733333 5:-0.733333 6:-0.0666667 7:-0.0666667 8:-0.333333 9:0.2 10:-0.2 11:-0.2 12:0.0666667 13:-0.866667 14:0.0666667 15:-0.0666667 16:0.0666667 
0.09291899008378611 1 0 1 0 0 0 0 0 0 0 0 0 0 0 1 1 1 0 0 1 0 0 0 0 1:-0.466667 2:-0.2 3:-0.333333 4:-0.466667 5:-0.6 6:-0.0666667 7:0.0666667 8:-0.733333 9:0.2 10:0.466667 11:0.0666667 12:-0.2 13:-0.866667 14:0.0666667 15:-0.2 16:-0.2 
0 1 0 0 0 0 0 0 0 0 0 0 0 1 0 0 0 0 0 0 0 0 1 1 0 1:0.0666667 2:0.0666667 3:-0.2 4:0.6 5:-0.333333 6:0.0666667 7:-0.333333 8:-0.333333 9:-0.466667 10:0.466667 11:-0.2 12:0.0666667 13:-0.6 14:0.2 15:0.466667 16:-0.0666667 
0 1 0 0 0 0 0 0 0 0 1 1 1 1 1 1 1 0 0 1 1 1 1 1 0 1:-0.6 2:-0.0666667 3:-0.466667 4:-0.333333 5:-0.6 6:-0.2 7:-0.0666667 8:-0.333333 9:0.2 10:-0.0666667 11:-0.0666667 12:0.2 13:-0.866667 14:0.2 15:-0.0666667 16:0.0666667 
1 1 1 1 1 1 1 1 1 1 1 1 1 1 0 1 1 1 1 1 1 0.9192373879284372 1 1 1 1:-0.333333 2:-0.0666667 3:-0.2 4:-0.333333 5:-0.333333 6:0.2 7:0.466667 8:-0.333333 9:-0.466667 10:-0.2 11:-0.333333 12:-0.0666667 13:-0.6 14:0.0666667 15:0.0666667 16:-0.333333 
0 1 0 0 0 0 0 0 0 0 1 1 0 1 1 1 0 0 0 0 0 1 0 0 0 1:-0.0666667 2:0.466667 3:0.2 4:0.0666667 5:-0.2 6:0.0666667 7:-0.2 8:-0.733333 9:0.2 10:0.6 11:-0.333333 12:0.333333 13:-0.733333 14:0.0666667 15:-0.0666667 16:0.2 
0 1 1 1 1 1 1 1 1 1 1 1 1 1 0 1 1 0 1 1 1 1 1 1 1 1:-0.333333 2:0.0666667 3:-0.2 4:-0.2 5:-0.333333 6:0.2 7:0.466667 8:-0.2 9:-0.2 10:-0.2 11:-0.333333 12:0.2 13:-0.6 14:0.0666667 15:0.0666667 16:-0.333333 
1 1 0 1 0 0 0 1 0 0 0 0 0 0 0 1 1 0 0 0 1 0 0 0 0 1:-0.2 2:0.333333 3:0.0666667 4:0.0666667 5:-0.466667 6:-0.2 7:0.2 8:-0.6 9:0.333333 10:0.466667 11:0.2 12:-0.333333 13:-0.733333 14:0.0666667 15:-0.0666667 16:-0.333333 
0 1 0 0 0 0 0 0 0 0 0 0 0 0 0 1 0 0 0 0 0 0 0 0 0 1:-0.466667 2:0.333333 3:-0.2 4:-0.0666667 5:-0.2 6:0.0666667 7:0.0666667 8:-0.733333 9:0.0666667 10:-0.0666667 11:-0.0666667 12:-0.0666667 13:-0.866667 14:0.0666667 15:0.333333 16:0.0666667 
0 1 1 0 0 1 1 1 0 1 1 1 1 1 1 1 0 1 0 0 0 0 1 1 1 1:-0.466667 2:-0.333333 3:-0.2 4:-0.0666667 5:-0.466667 6:0.466667 7:-0.466667 8:-0.466667 9:-0.333333 10:0.333333 11:-0.6 12:0.2 13:-0.733333 14:-0.0666667 15:-0.2 16:0.333333 
1 1 0 1 0 0 0 0 0 0 1 1 0 0 0 1 0 0 0 0 1 0 0 0 0 1:-0.2 2:0.2 3:0.0666667 4:-0.0666667 5:-0.333333 6:-0.0666667 7:-0.0666667 8:-0.733333 9:0.2 10:0.6 11:-0.2 12:0.0666667 13:-0.866667 14:0.2 15:-0.2 16:0.0666667 
1 1 1 1 0 1 0 1 1 1 0 1 0 1 0 0 0 0 0 0 1 1 1 1 0 1:-0.466667 2:0.0666667 3:-0.2 4:-0.2 5:-0.333333 6:0.2 7:0.333333 8:-0.2 9:-0.333333 10:-0.0666667 11:-0.333333 12:0.0666667 13:-0.6 14:0.2 15:0.333333 16:-0.0666667 
0 1 0 0 0 1 0 1 0 0 1 1 1 1 1 1 0 0 0 1 0 1 1 1 0 1:-0.733333 2:-0.466667 3:-0.6 4:-0.733333 5:-0.733333 6:-0.0666667 7:-0.0666667 8:-0.333333 9:0.2 10:-0.2 11:-0.2 12:0.0666667 13:-0.733333 14:0.0666667 15:-0.0666667 16:0.0666667 
1 1 0 1 0 0 0 1 0 0 0 0 0 0 0 1 1 1 0 0 1 0 0 0 1 1:-0.466667 2:-0.0666667 3:-0.2 4:-0.333333 5:-0.466667 6:-0.0666667 7:0.2 8:-0.733333 9:0.2 10:0.466667 11:0.0666667 12:-0.333333 13:-0.866667 14:0.0666667 15:-0.2 16:-0.333333 
1 1 1 1 0 1 0 1 0 1 1 0 1 1 1 1 0 1 0 0 0 0 1 1 1 1:-0.6 2:-0.466667 3:-0.466667 4:-0.2 5:-0.6 6:0.466667 7:-0.333333 8:-0.6 9:-0.466667 10:0.2 11:-0.6 12:-0.0666667 13:-0.866667 14:-0.0666667 15:-0.2 16:0.2 
1 1 1 1 0 0 0 0 0 0 0 1 0 0 0 0 1 0 0 0 1 0 0 1 0 1:-0.466667 2:-0.2 3:-0.2 4:-0.466667 5:-0.466667 6:-0.0666667 7:0.0666667 8:-0.733333 9:0.0666667 10:0.6 11:-0.0666667 12:0.0666667 13:-0.866667 14:0.2 15:-0.2 16:-0.0666667 
0 1 1 0 0 1 0 0 0 0 1 1 0 1 1 1 0 1 0 0 0 1 0 1 1 1:-0.466667 2:-0.2 3:-0.2 4:-0.466667 5:-0.6 6:0.0666667 7:-0.2 8:-0.733333 9:0.2 10:0.466667 11:-0.333333 12:0.2 13:-0.866667 14:0.0666667 15:-0.333333 16:0.2 
1 1 1 1 1 1 0 1 0 1 1 0 1 1 1 1 1 1 0 0 0 0 1 1 1 1:-0.6 2:-0.333333 3:-0.333333 4:-0.0666667 5:-0.466667 6:0.2 7:-0.333333 8:-0.466667 9:-0.466667 10:-0.0666667 11:-0.6 12:-0.2 13:-0.733333 14:0.0666667 15:-0.0666667 16:-0.2 
0 1 0 1 0 0 0 0 0 0 0 1 0 0 0 1 0 1 0 0 0 0 0 0 0 1:-0.466667 2:-0.2 3:-0.333333 4:-0.466667 5:-0.6 6:-0.0666667 7:-0.0666667 8:-0.733333 9:0.2 10:0.466667 11:-0.2 12:0.0666667 13:-0.866667 14:0.2 15:-0.2 16:0.0666667 
0.6054469992971838 1 1 1 1 1 0 1 0 1 1 1 1 0.3371431963126661 1 1 1 1 0 1 1 1 0 0 1 1:-0.2 2:0.6 3:-0.2 4:-0.2 5:-0.466667 6:-0.2 7:-0.0666667 8:-0.733333 9:0.2 10:0.466667 11:-0.0666667 12:0.0666667 13:-0.6 14:-0.0666667 15:-0.2 16:-0.2 
0 1 0 1 0 0 0 0 0 0 0 0 0 0 0 0 1 0 0 0 1 0 0 0 1 1:0.333333 2:0.333333 3:-0.0666667 4:0.866667 5:-0.2 6:-0.0666667 7:0.0666667 8:-0.466667 9:-0.733333 10:0.466667 11:-0.0666667 12:-0.0666667 13:-0.6 14:0.0666667 15:0.733333 16:-0.333333 
1 1 1 1 0 1 1 1 0 1 1 1 1 1 1 1 0 1 0 0 0 1 1 1 1 1:-0.0666667 2:0.6 3:-0.0666667 4:-0.2 5:-0.466667 6:0.333333 7:-0.6 8:-0.466667 9:-0.0666667 10:0.6 11:-0.466667 12:0.333333 13:-0.6 14:0.0666667 15:-0.2 16:0.333333 
1 1 1 1 1 1 1 1 0 1 1 -0 1 1 0 1 0 -0 1 0 0 0 1 1 1 1:-0.2 2:-0.0666667 3:0.0666667 4:0.2 5:0.0666667 6:0.2 7:0.0666667 8:-0.2 9:-0.333333 10:0.2 11:-0.6 12:-0.2 13:-0.6 14:-0.333333 15:0.0666667 16:-0.0666667 
0 1 1 0 0 1 0 1 0 0 1 1 1 0 0 1 0 0 0.5174789024762497 1 0 0 1 1 0 1:-0.733333 2:-0.866667 3:-0.6 4:-0.733333 5:-0.733333 6:-0.0666667 7:-0.0666667 8:-0.333333 9:0.2 10:-0.2 11:-0.2 12:0.0666667 13:-0.733333 14:0.0666667 15:-0.0666667 16:0.0666667 
0 1 0 0 0 0 0 0 0 0 0 1 0 0 1 0 0 1 0 0 0 0 0 0 0.3204434970780672 1:-0.466667 2:0.2 3:-0.2 4:-0.2 5:-0.466667 6:0.0666667 7:-0.0666667 8:-0.733333 9:0.2 10:0.466667 11:-0.333333 12:0.2 13:-0.866667 14:0.0666667 15:-0.2 16:0.0666667 
0 1 0 1 0 0 0 0 0 0 0 1 0 0 0 0 0.6195010224777522 1 0 0 1 0 0 0 1 1:-0.333333 2:0.333333 3:-0.0666667 4:0.0666667 5:-0.333333 6:-0.0666667 7:0.0666667 8:-0.733333 9:0.2 10:0.6 11:-0.0666667 12:0.0666667 13:-0.866667 14:0.2 15:-0.2 16:-0.0666667 
0 1 0 0 0 0 0 0 0 0 0 1 0 1 1 0 0 1 0 0 0 1 1 1 0 1:-0.733333 2:-0.0666667 3:-0.6 4:-0.333333 5:-0.6 6:-0.0666667 7:-0.0666667 8:-0.333333 9:0.2 10:-0.0666667 11:-0.2 12:0.0666667 13:-0.866667 14:0.0666667 15:-0.0666667 16:0.0666667 
0 1 0 0 0 0 0 0 0 0 0 1 0 0 0 1 0 0 0 0 0 0 1 1 0 1:-0.733333 2:-0.866667 3:-0.6 4:-0.6 5:-0.733333 6:-0.0666667 7:-0.0666667 8:-0.333333 9:0.2 10:-0.2 11:-0.2 12:0.0666667 13:-0.866667 14:0.0666667 15:-0.0666667 16:0.0666667 
0 1 0 0 0 0 0 0 0 0 0 1 0 0 0 1 0 0 0 0 0 0 1 1 0 1:-0.733333 2:-0.733333 3:-0.6 4:-0.6 5:-0.733333 6:-0.0666667 7:-0.0666667 8:-0.333333 9:0.2 10:-0.2 11:-0.2 12:0.0666667 13:-0.866667 14:0.0666667 15:-0.0666667 16:0.0666667 
0 0 0 0 0 0 0 0 0 0 0 1 0 0 0 0 0 0 0 0 0 0 0 0 0 1:-0.6 2:-0.2 3:-0.2 4:-0.466667 5:-0.6 6:-0.0666667 7:-0.0666667 8:-0.733333 9:0.333333 10:0.6 11:-0.2 12:0.0666667 13:-0.866667 14:0.0666667 15:-0.2 16:0.0666667 
1 1 1 1 1 1 1 1 1 1 1 1 1 1 0 1 1 0 1 1 1 1 1 1 0.6670386750609335 1:-0.2 2:0.333333 3:0.2 4:0.0666667 5:-0.0666667 6:0.333333 7:0.2 8:-0.2 9:-0.333333 10:-0.0666667 11:-0.2 12:0.0666667 13:-0.466667 14:0.2 15:0.333333 16:-0.0666667 
0 1 0 0 0 0 0 0 0 0 0 1 0 0 0 1 1 0 0 0 0 1 1 0 0 1:-0.733333 2:-0.733333 3:-0.6 4:-0.6 5:-0.733333 6:-0.0666667 7:0.0666667 8:-0.333333 9:0.2 10:-0.2 11:-0.0666667 12:0.2 13:-0.866667 14:0.2 15:-0.0666667 16:0.0666667 
0 1 0 0 0 0 0 1 0 0 0 0 0 0 0 1 0 0 0 0 0 0 0 1 0 1:-0.733333 2:-0.466667 3:-0.733333 4:-0.6 5:-0.733333 6:0.0666667 7:-0.0666667 8:-0.333333 9:0.2 10:-0.2 11:-0.2 12:-0.0666667 13:-0.866667 14:0.0666667 15:-0.0666667 16:0.0666667 
0 1 0 0.9604835967816812 0 0 0 0 0 0 1 1 0 1 1 0 0 1 0 1 1 1 1 0 0 1:-0.466667 2:0.333333 3:-0.466667 4:-0.0666667 5:-0.333333 6:-0.2 7:0.0666667 8:-0.333333 9:0.2 10:0.0666667 11:-0.0666667 12:0.333333 13:-0.866667 14:0.2 15:-0.0666667 16:0.0666667 
0 1 0 0 0 0 0 0 0 0 0 1 0 0 0 0.2608971524250072 0 1 0 0 1 0 0 0 0 1:-0.466667 2:-0.0666667 3:-0.333333 4:-0.333333 5:-0.6 6:-0.0666667 7:0.0666667 8:-0.733333 9:0.2 10:0.466667 11:-0.0666667 12:0.0666667 13:-0.866667 14:0.0666667 15:-0.2 16:-0.0666667 
1 1 1 1 1 1 1 1 1 1 1 0 1 1 1 1 1 1 1 1 1 0 1 1 1 1:-0.6 2:-0.0666667 3:-0.333333 4:-0.333333 5:-0.333333 6:0.0666667 7:0.0666667 8:-0.2 9:-0.6 10:-0.2 11:-0.466667 12:-0.2 13:-0.6 14:0.2 15:0.0666667 16:-0.6 
0 1 0 0 0 0 0 0 0 0 0 0 0 0 0 0 0 0 0 0 0 0 0 0 0 1:-0.2 2:0.2 3:0.0666667 4:-0.0666667 5:-0.466667 6:0.2 7:-0.2 8:-0.6 9:0.333333 10:0.466667 11:-0.466667 12:0.2 13:-0.866667 14:-0.0666667 15:-0.2 16:0.0666667 
0 1 0 1 1 0 0 1 0 1 1 1 0 1 1 1 1 0 0 1 1 1 0 0 0 1:0.0666667 2:0.866667 3:0.0666667 4:0.0666667 5:-0.333333 6:-0.0666667 7:-0.0666667 8:-0.733333 9:0.2 10:0.466667 11:-0.0666667 12:0.2 13:-0.466667 14:-0.0666667 15:-0.0666667 16:-0.333333 
0 1 0 0 0 0 0 1 0 0 0 1 0 0 0 0 0 1 0 0 0 0 0 1 1 1:-0.733333 2:-0.466667 3:-0.466667 4:-0.6 5:-0.733333 6:0.0666667 7:-0.0666667 8:-0.733333 9:0.2 10:0.6 11:-0.2 12:-0.0666667 13:-0.866667 14:0.0666667 15:-0.333333 16:0.0666667 
0 1 1 0 1 1 0.9293366219616173 1 0 1 0 0 0 1 0.8544547232249885 1 1 0 0 0 0.8030191604194579 0 0 1 1 1:-0.2 2:0.466667 3:0.0666667 4:0.0666667 5:-0.0666667 6:0.333333 7:-0.333333 8:-0.333333 9:-0.333333 10:0.0666667 11:-0.333333 12:-0.0666667 13:-0.466667 14:-0.0666667 15:0.333333 16:-0.333333 
0 1 0 0 0 0 0 0 0 0 0 1 0 0 0 0 0 0 0 0 1 1 1 0 0 1:-0.333333 2:0.466667 3:-0.2 4:0.0666667 5:-0.333333 6:-0.2 7:0.0666667 8:-0.2 9:0.466667 10:-0.0666667 11:-0.0666667 12:0.333333 13:-0.866667 14:0.2 15:0.0666667 16:-0.0666667 
1 1 0 1 0 0 0 0 0 0 0 1 0 0 0 1 1 1 0 0 1 0 0 0 1 1:-0.333333 2:0.333333 3:-0.0666667 4:0.0666667 5:-0.333333 6:-0.0666667 7:0.0666667 8:-0.733333 9:0.2 10:0.466667 11:-0.0666667 12:-0.0666667 13:-0.866667 14:0.0666667 15:-0.2 16:-0.0666667 
0 1 0 0 0 0 0 1 0 0 0 0 0 0 0 0 0 0 0 0 0 0 0 0 1 1:-0.2 2:0.466667 3:0.0666667 4:0.0666667 5:-0.333333 6:0.2 7:-0.2 8:-0.6 9:0.333333 10:0.6 11:-0.466667 12:0.0666667 13:-0.733333 14:-0.0666667 15:-0.2 16:0.0666667 
1 1 1 1 1 1 1 1 0.6622766617442796 1 1 1 1 1 1 1 0 1 1 1 0 0 1 1 1 1:-0.466667 2:-0.333333 3:-0.2 4:-0.0666667 5:-0.466667 6:0.466667 7:-0.333333 8:-0.466667 9:-0.466667 10:0.2 11:-0.6 12:0.0666667 13:-0.733333 14:-0.2 15:-0.333333 16:0.2 
0 1 0 1 0 1 0 0 0 0 0 1 0 0 0 1 0 1 0 0 0 0 0 1 1 1:-0.866667 2:-0.6 3:-0.733333 4:-0.866667 5:-0.866667 6:0.0666667 7:-0.0666667 8:-0.866667 9:0.0666667 10:0.466667 11:-0.2 12:0.0666667 13:-0.866667 14:0.0666667 15:-0.333333 16:0.0666667 
0 1 0 0 0 0 0 0 0 0 0 0 0 0 0 0 0 0 0 0 0 0 0 0.4182482141985059 0 1:-0.6 2:0.0666667 3:-0.466667 4:-0.2 5:-0.6 6:0.2 7:-0.2 8:-0.333333 9:0.333333 10:-0.0666667 11:-0.333333 12:-0.2 13:-0.866667 14:-0.0666667 15:0.0666667 16:0.0666667 
1 1 1 1 0.7200275892498508 0 0 1 0 0 0 1 0 0 0 1 1 0 0 0 1 0 0 1 0 1:-0.466667 2:-0.2 3:-0.2 4:-0.466667 5:-0.6 6:-0.2 7:0.2 8:-0.6 9:0.2 10:0.466667 11:0.0666667 12:-0.2 13:-0.866667 14:0.2 15:-0.2 16:-0.2 
1 1 1 1 0 0 0 1 1 1 0 1 1 1 1 0 1 1 1 0.4015619520169168 0 1 1 1 1 1:-0.333333 2:-0.2 3:-0.466667 4:0.2 5:-0.466667 6:0.2 7:-0.466667 8:-0.466667 9:-0.6 10:0.466667 11:-0.2 12:0.2 13:-0.733333 14:0.333333 15:0.0666667 16:0.0666667 
1 1 1 1 1 1 1 1 1 1 1 1 1 1 1 1 1 1 1 1 1 1 1 1 1 1:-0.0666667 2:0.466667 3:-0.0666667 4:-0.2 5:-0.466667 6:0.0666667 7:-0.2 8:-0.733333 9:0.0666667 10:0.466667 11:-0.2 12:0.2 13:-0.6 14:0.2 15:-0.333333 16:0.0666667 
0 0 0 0 0 0 0 0 0 0 1 1 0 1 1 1 0 0 0 0 0 0 0 0 0 1:-0.466667 2:0.0666667 3:-0.2 4:-0.2 5:-0.466667 6:0.0666667 7:-0.2 8:-0.733333 9:0.2 10:0.466667 11:-0.466667 12:0.333333 13:-0.733333 14:-0.0666667 15:-0.0666667 16:0.333333 
0 1 0 0 0 1 0 1 0 0 0 0 0 0 0 0.7882200108605883 0 1 0 0 0 0 0 1 0.2354714782657397 1:-0.466667 2:0.2 3:-0.333333 4:-0.0666667 5:-0.333333 6:0.0666667 7:-0.0666667 8:-0.333333 9:0.2 10:-0.0666667 11:-0.333333 12:-0.0666667 13:-0.866667 14:-0.0666667 15:-0.0666667 16:0.0666667 
1 1 1 1 1 1 1 1 1 1 1 1 1 1 1 1 1 1 1 1 1 1 1 0 1 1:-0.333333 2:0.2 3:-0.333333 4:-0.466667 5:-0.6 6:-0.2 7:-0.0666667 8:-0.733333 9:0.0666667 10:0.466667 11:0.0666667 12:0.2 13:-0.6 14:0.0666667 15:-0.333333 16:-0.333333 
0 1 0 0 0 0 0 0 0 0 0 0 0 0 0 1 0 0 0 0 0 0 0 1 0 1:-0.6 2:-0.0666667 3:-0.333333 4:-0.333333 5:-0.466667 6:0.0666667 7:0.0666667 8:-0.6 9:-0.0666667 10:-0.0666667 11:-0.2 12:0.0666667 13:-0.866667 14:0.0666667 15:0.333333 16:0.2 
0 1 0 0 0 0 0 1 0 1 0 0 0 0 1 1 0 1 0 0 0 0 0 0 1 1:-0.6 2:-0.333333 3:-0.333333 4:-0.2 5:-0.6 6:0.333333 7:-0.6 8:-0.733333 9:-0.2 10:-0.0666667 11:-0.6 12:-0.2 13:-0.866667 14:0.0666667 15:-0.0666667 16:-0.0666667 
0 0 0 0 0 0 0 0 0 0 0 1 0 0 0 0 0 0 0 0 0 0 0 0 0 1:-0.466667 2:0.0666667 3:-0.2 4:-0.2 5:-0.6 6:0.0666667 7:-0.2 8:-0.6 9:0.333333 10:0.6 11:-0.466667 12:0.333333 13:-0.866667 14:0.0666667 15:-0.2 16:0.2 
0 0 1 0 0 0 0 0 0 0 1 1 0 0 0 1 0 1 0 0 0 0 0 1 0.3076210811365921 1:-0.733333 2:-0.466667 3:-0.333333 4:-0.6 5:-0.733333 6:-0.0666667 7:-0.0666667 8:-0.733333 9:0.2 10:0.6 11:-0.2 12:0.0666667 13:-0.866667 14:0.0666667 15:-0.333333 16:0.0666667 
0 0 0 0 0 0 0 0 0 0 0 0 0 0 0 0 0 0 0 0 1 0 0 0 0 1:-0.333333 2:0.0666667 3:-0.2 4:-0.2 5:-0.466667 6:-0.0666667 7:0.0666667 8:-0.733333 9:0.333333 10:0.6 11:-0.0666667 12:-0.2 13:-0.866667 14:-0.0666667 15:-0.2 16:-0.2 
0 1 0 0 0 1 0 0 0 0 0 1 1 1 1 1 0 0 0 0 0 1 1 1 0 1:-0.866667 2:-0.6 3:-0.733333 4:-0.733333 5:-0.866667 6:-0.0666667 7:-0.0666667 8:-0.333333 9:0.0666667 10:-0.2 11:-0.2 12:0.0666667 13:-0.866667 14:0.0666667 15:-0.0666667 16:0.0666667 
0 1 0 0 0 0 0 0 0 0 1 1 0 0 1 1 0 1 0 0 0 1 0 0 0 1:-0.6 2:-0.0666667 3:-0.333333 4:-0.333333 5:-0.6 6:0.0666667 7:-0.0666667 8:-0.733333 9:0.2 10:0.466667 11:-0.333333 12:0.333333 13:-0.866667 14:0.2 15:-0.2 16:0.333333 
1 1 1 1 1 1 1 1 1 1 1 0 0 0 0 1 1 0 1 0.3114523204197774 1 0 0 1 1 1:-0.2 2:0.2 3:0.0666667 4:-0.0666667 5:0.0666667 6:0.2 7:0.0666667 8:-0.466667 9:-0.466667 10:-0.2 11:-0.466667 12:-0.2 13:-0.466667 14:0.0666667 15:0.333333 16:-0.466667 
0 1 0 0 0 0 0 0 0 0 0 0 0 0 0 1 0 0 0 0 0 0 0 0 0 1:-0.866667 2:-1 3:-0.733333 4:-0.866667 5:-1 6:-0.0666667 7:-0.0666667 8:-0.6 9:0.333333 10:0.0666667 11:-0.2 12:0.0666667 13:-1 14:0.0666667 15:-0.2 16:0.0666667 
0 1 0 0 0 1 0 1 0 0 0 0 0 0 0 1 0 0 0 0 0 0 0 1 0 1:-0.733333 2:-0.733333 3:-0.6 4:-0.6 5:-0.733333 6:0.0666667 7:-0.0666667 8:-0.333333 9:0.2 10:-0.2 11:-0.2 12:-0.0666667 13:-0.733333 14:0.0666667 15:-0.0666667 16:0.0666667 
0 1 0 0 0 0 0 0 0 0 0 1 0 0 0 1 0 1 0 0 0 0 0 0 1 1:-0.733333 2:-0.333333 3:-0.466667 4:-0.466667 5:-0.733333 6:-0.0666667 7:-0.0666667 8:-0.733333 9:0.2 10:0.466667 11:-0.2 12:0.0666667 13:-0.866667 14:0.0666667 15:-0.333333 16:0.0666667 
0 1 0 0 0 1 0 0 0 0 1 1 0 0 1 1 0 1 0 0 0 0 0 1 0 1:-0.6 2:-0.2 3:-0.333333 4:-0.466667 5:-0.333333 6:-0.0666667 7:0.0666667 8:-0.733333 9:-0.0666667 10:-0.0666667 11:-0.2 12:0.0666667 13:-1 14:0.0666667 15:0.0666667 16:0.0666667 
1 1 1 1 1 0 0 1 1 0 1 1 0 0 0 1 1 0 0.4216018172147786 1 1 0 0 1 0 1:-0.0666667 2:0.333333 3:0.2 4:0.0666667 5:-0.2 6:-0.2 7:0.2 8:-0.6 9:0.2 10:0.6 11:0.0666667 12:-0.2 13:-0.6 14:0.333333 15:-0.0666667 16:-0.2 
0 1 1 0 0 1 0 0 0 1 1 1 1 1 1 1 1 1 0 1 0 1 1 1 0 1:-0.866667 2:-0.866667 3:-0.733333 4:-0.733333 5:-0.866667 6:-0.0666667 7:-0.0666667 8:-0.466667 9:0.0666667 10:-0.2 11:-0.2 12:0.0666667 13:-0.866667 14:0.0666667 15:-0.2 16:0.0666667 
1 1 1 0 1 1 0 1 0 1 1 0 1 1 1 1 0 1 0 0 0 0 0 1 1 1:-0.2 2:0.0666667 3:0.0666667 4:0.333333 5:-0.0666667 6:0.466667 7:-0.333333 8:-0.466667 9:-0.333333 10:0.0666667 11:-0.733333 12:-0.2 13:-0.733333 14:-0.0666667 15:-0.0666667 16:0.0666667 
0 1 0 0 0 0 0 0 0 0 0 1 1 0 1 1 0 0 0 0 0 1 1 1 0 1:-0.866667 2:-0.466667 3:-0.733333 4:-0.733333 5:-0.866667 6:-0.0666667 7:0.0666667 8:-0.333333 9:0.0666667 10:-0.2 11:-0.2 12:0.2 13:-0.866667 14:0.0666667 15:-0.0666667 16:-0.0666667 
1 1 1 1 0 1 0 1 1 1 0 1 1 1 0 0 1 1 1 0 1 1 1 1 1 1:-0.2 2:-0.2 3:-0.333333 4:0.2 5:-0.466667 6:-0.0666667 7:0.0666667 8:-0.333333 9:-0.6 10:0.466667 11:-0.0666667 12:-0.0666667 13:-0.733333 14:0.2 15:0.2 16:-0.0666667 
0 1 0 0 0 0 0 0 0 0 0 0 0 0 0 0 0 0 0 0 0 0 0 0 0 1:-0.333333 2:0.333333 3:-0.2 4:0.0666667 5:-0.0666667 6:0.0666667 7:0.2 8:-0.6 9:-0.0666667 10:0.0666667 11:-0.2 12:0.0666667 13:-0.733333 14:0.333333 15:0.733333 16:-0.0666667 
0 0 0 0 0 0 0 0 0 0 0 0 0 0 0 1 0 1 0 0 0 0 0 0 1 1:-0.866667 2:-0.6 3:-0.6 4:-0.733333 5:-0.866667 6:0.0666667 7:-0.0666667 8:-0.866667 9:0.2 10:0.466667 11:-0.2 12:0.0666667 13:-0.866667 14:0.0666667 15:-0.333333 16:-0.0666667 
0 1 0 0 0 0 0 0 0 0 0 1 0 1 1 0 0 0 0 0 0 0 0 0.2558500845302895 1 1:-0.6 2:-0.0666667 3:-0.333333 4:-0.333333 5:-0.733333 6:0.2 7:-0.333333 8:-0.6 9:0.2 10:0.466667 11:-0.466667 12:0.2 13:-0.733333 14:-0.0666667 15:-0.2 16:0.2 
1 1 1 1 1 1 0 1 1 0 1 1 0 0 0 1 1 1 0 1 1 1 0 1 1 1:-0.466667 2:-0.2 3:-0.2 4:-0.466667 5:-0.6 6:-0.0666667 7:0.0666667 8:-0.733333 9:0.0666667 10:0.466667 11:-0.0666667 12:0.0666667 13:-0.866667 14:0.2 15:-0.333333 16:-0.0666667 
1 1 1 1 1 1 1 1 0 1 1 1 1 1 1 1 0 1 0 0 0 0 1 1 1 1:-0.466667 2:-0.2 3:-0.2 4:0.0666667 5:-0.466667 6:0.466667 7:-0.466667 8:-0.6 9:-0.333333 10:0.333333 11:-0.733333 12:0.0666667 13:-0.733333 14:-0.0666667 15:-0.333333 16:0.466667 
0 0 1 0 0 1 0.3018636591510201 1 0 0.9729481550929019 1 1 0 1 1 1 0 0 0 0 0 0 0 0 0 1:-0.2 2:0.2 3:0.2 4:-0.0666667 5:-0.2 6:0.0666667 7:-0.2 8:-0.733333 9:0.2 10:0.466667 11:-0.333333 12:0.2 13:-0.6 14:-0.333333 15:-0.0666667 16:0.0666667 
1 0 1 1 0 0 0 0 0 0 0 1 0 0 0 0 0 0 0 0 0 0 0 1 0 1:-0.733333 2:-0.6 3:-0.466667 4:-0.733333 5:-0.733333 6:-0.0666667 7:0.0666667 8:-0.733333 9:0.2 10:0.6 11:-0.2 12:0.0666667 13:-0.866667 14:0.2 15:-0.333333 16:0.0666667 
0 1 0 1 0 0 0 0 0 0 0 1 0 0 0 0 0 0 0 0 1 0 0 0 0 1:-0.0666667 2:0.333333 3:0.2 4:0.0666667 5:-0.333333 6:-0.0666667 7:0.0666667 8:-0.6 9:0.333333 10:0.6 11:-0.0666667 12:-0.0666667 13:-0.866667 14:0.0666667 15:-0.2 16:-0.0666667 
0 1 0 0 0 0 0 0 0 0 0 0 0 0 0 0 0 0 0 0 0 0 0 0 0 1:-0.733333 2:-0.0666667 3:-0.6 4:-0.333333 5:-0.733333 6:-0.0666667 7:0.0666667 8:-0.6 9:0.466667 10:0.0666667 11:-0.2 12:0.0666667 13:-1 14:0.0666667 15:-0.0666667 16:-0.0666667 
0 1 0 0 0 0 0 0 0 0 0 1 0 0 0 0 0 1 0 0 0 0 0 0 0 1:-0.733333 2:-0.333333 3:-0.466667 4:-0.466667 5:-0.733333 6:-0.0666667 7:0.0666667 8:-0.733333 9:0.2 10:0.466667 11:-0.2 12:0.0666667 13:-0.866667 14:0.0666667 15:-0.2 16:0.0666667 
1 1 0.6123323297757788 1 0 0 0 1 0 0 0 1 0 0 0 1 0 1 0 0 1 0 0 1 1 1:-0.733333 2:-0.333333 3:-0.466667 4:-0.6 5:-0.733333 6:-0.0666667 7:0.0666667 8:-0.733333 9:0.2 10:0.466667 11:-0.0666667 12:-0.0666667 13:-0.866667 14:0.0666667 15:-0.333333 16:-0.0666667 
0 1 0 0 0 1 0 1 0 0 0 0 0 1 0 1 0 1 0 0 0 0 0 1 1 1:-0.6 2:0.2 3:-0.466667 4:-0.0666667 5:-0.466667 6:0.0666667 7:-0.2 8:-0.333333 9:0.2 10:-0.0666667 11:-0.2 12:-0.2 13:-0.733333 14:-0.0666667 15:-0.0666667 16:0.0666667 
1 1 1 1 1 1 1 1 0 1 1 0 1 1 0 1 0 1 0 0 0 0 1 1 1 1:-0.6 2:-0.466667 3:-0.333333 4:-0.2 5:-0.466667 6:0.2 7:-0.0666667 8:-0.333333 9:-0.333333 10:0.2 11:-0.6 12:-0.2 13:-0.733333 14:-0.2 15:-0.2 16:-0.0666667 
0 1 0 0 0 0 0 0 0 1 0 1 0 1 1 0 0 1 0 1 1 1 1 0 0 1:-0.733333 2:-0.0666667 3:-0.6 4:-0.333333 5:-0.6 6:-0.0666667 7:0.0666667 8:-0.333333 9:0.0666667 10:-0.0666667 11:-0.2 12:0.333333 13:-0.866667 14:0.2 15:-0.0666667 16:-0.0666667 
0 1 0 0 0 0 0 0 0 0 0 0 0 0 0 0 0 0 0 0 0 0 0 0.03924053249989513 0 1:-0.6 2:-0.2 3:-0.466667 4:-0.466667 5:-0.6 6:0.0666667 7:-0.0666667 8:-0.333333 9:0.333333 10:-0.0666667 11:-0.333333 12:0.0666667 13:-0.733333 14:0.2 15:0.0666667 16:0.0666667 
0 1 0 0 0 0 0 0 0 0 0 1 0 1 1 1 0 0 0 0 0 1 1 1 0 1:-0.733333 2:-0.333333 3:-0.6 4:-0.466667 5:-0.733333 6:-0.0666667 7:-0.0666667 8:-0.333333 9:0.2 10:-0.2 11:-0.2 12:0.0666667 13:-0.866667 14:0.0666667 15:-0.0666667 16:0.0666667 
0 1 0 0 0 0 0 0 0 0 0 0 0 1 0 0 0 0 0 0 0 0 0 0 0 1:0.2 2:0.333333 3:-0.2 4:0.866667 5:-0.2 6:0.0666667 7:-0.466667 8:-0.333333 9:-0.466667 10:0.6 11:-0.0666667 12:0.2 13:-0.6 14:0.0666667 15:0.6 16:-0.0666667 
0 1 0 0 0 0 0 0 0 0 0 0 0 0 0 0 0 0 0 0 0 0 0 0 0 1:-0.733333 2:-0.0666667 3:-0.6 4:-0.333333 5:-0.733333 6:0.0666667 7:-0.2 8:-0.333333 9:0.333333 10:-0.0666667 11:-0.2 12:-0.0666667 13:-0.866667 14:-0.0666667 15:0.0666667 16:0.0666667 
0 0 0 0 0 0 0 0 0 0 0 0 0 0 0 1 0 0 0 0 0 0 0 0 0 1:-0.866667 2:-1 3:-0.866667 4:-0.866667 5:-1 6:-0.0666667 7:-0.0666667 8:-0.733333 9:0.333333 10:0.0666667 11:-0.2 12:0.0666667 13:-1 14:0.0666667 15:-0.2 16:0.0666667 
0 0 0 0 0 0 0 0 0 0 0 1 0 0 0 0 0 0 0 0 0 0 0 0 0 1:-0.6 2:-0.333333 3:-0.2 4:-0.466667 5:-0.6 6:-0.0666667 7:-0.0666667 8:-0.733333 9:0.333333 10:0.6 11:-0.2 12:0.0666667 13:-0.866667 14:0.0666667 15:-0.333333 16:-0.0666667 
1 1 1 1 1 1 0 1 1 1 0 0 1 0 0 1 1 0 1 1 1 0 1 1 1 1:-0.2 2:0.2 3:0.0666667 4:-0.2 5:-0.2 6:0.2 7:0.333333 8:-0.2 9:-0.333333 10:-0.2 11:-0.333333 12:-0.2 13:-0.6 14:0.2 15:0.2 16:-0.466667 
1 1 1 1 1 1 1 1 1 1 1 0 1 1 0 1 1 0 1 1 1 0 1 1 1 1:-0.333333 2:0.0666667 3:-0.0666667 4:-0.2 5:-0.2 6:0.2 7:0.2 8:-0.333333 9:-0.466667 10:-0.0666667 11:-0.333333 12:-0.0666667 13:-0.6 14:0.0666667 15:0.2 16:-0.333333 
0 1 1 0 0 1 0 0.9373158126672321 0 0 1 1 1 1 0 1 0 0 0 0 0 0 1 1 0 1:-0.733333 2:-0.733333 3:-0.6 4:-0.6 5:-0.733333 6:-0.0666667 7:-0.0666667 8:-0.333333 9:0.2 10:-0.2 11:-0.2 12:0.0666667 13:-0.733333 14:0.0666667 15:-0.0666667 16:0.0666667 
0 0 0 0 0 0 0 0 0 0 0 1 0 0 0 0 0 0 0 0 0 0 0 0 0 1:-0.6 2:-0.0666667 3:-0.333333 4:-0.333333 5:-0.733333 6:0.0666667 7:-0.0666667 8:-0.733333 9:0.333333 10:0.466667 11:-0.333333 12:0.2 13:-0.866667 14:0.0666667 15:-0.2 16:0.2 
1 1 1 1 0 0 0 0 0 0 1 1 0 0 0 1 0 1 0 0 0 0 0 1 1 1:-0.733333 2:-0.466667 3:-0.466667 4:-0.6 5:-0.733333 6:-0.0666667 7:0.0666667 8:-0.733333 9:0.2 10:0.466667 11:-0.2 12:0.0666667 13:-0.866667 14:0.2 15:-0.333333 16:0.0666667 
0 1 0 0 0 0 0 0 0 0 0 0 0 0 0 1 0 0 0 0 0 0 0 0 0 1:-0.866667 2:-1 3:-0.733333 4:-0.866667 5:-1 6:-0.0666667 7:-0.0666667 8:-0.733333 9:0.333333 10:0.0666667 11:-0.2 12:0.0666667 13:-1 14:0.0666667 15:-0.2 16:0.0666667 
0 1 0 0 0 0 0 0 0 0 0 0 0 0 0 0 0 0 0 0 0 0 0 0 0 1:-0.733333 2:-0.0666667 3:-0.6 4:-0.333333 5:-0.733333 6:-0.0666667 7:-0.0666667 8:-0.6 9:0.466667 10:0.0666667 11:-0.2 12:0.0666667 13:-1 14:0.0666667 15:-0.0666667 16:0.0666667 
0 1 1 1 1 1 1 1 1 1 1 1 1 1 0 1 1 0 1 1 1 1 1 1 1 1:-0.466667 2:-0.2 3:-0.2 4:-0.466667 5:-0.466667 6:0.2 7:0.466667 8:-0.2 9:-0.333333 10:-0.2 11:-0.333333 12:0.2 13:-0.6 14:0.0666667 15:0.2 16:-0.2 
0 1 1 0 1 1 1 1 0 1 1 0 1 1 1 1 0 1 0 0 0 0 1 1 1 1:-0.466667 2:-0.0666667 3:-0.2 4:0.333333 5:-0.2 6:0.333333 7:-0.333333 8:-0.466667 9:-0.466667 10:0.0666667 11:-0.6 12:-0.0666667 13:-0.733333 14:-0.2 15:-0.0666667 16:0.0666667 
1 1 -0 1 0 0 0 0 0.7614205208594583 0 0 0 0 1 0 0 1 0 0 0 1 1 0 1 1 1:0.2 2:0.333333 3:-0.2 4:0.866667 5:-0.2 6:-0.2 7:0.2 8:-0.333333 9:-0.733333 10:0.6 11:0.0666667 12:-0.0666667 13:-0.6 14:0.0666667 15:0.6 16:-0.333333 
0 1 0 0 0 0 0 0 0 0 0 0 0 0 1 1 0 0 0 0 0 0 0 0 0 1:-0.6 2:-0.0666667 3:-0.333333 4:-0.333333 5:-0.466667 6:-0.0666667 7:-0.0666667 8:-0.733333 9:-0.0666667 10:-0.0666667 11:-0.2 12:0.0666667 13:-1 14:0.2 15:0.2 16:-0.0666667 
-1 1 1 1 0 1 0 1 1 1 1 1 1 1 1 1 1 1 1 1 1 1 1 1 1 1:-0.466667 2:-0.0666667 3:-0.333333 4:-0.333333 5:-0.333333 6:-0.333333 7:0.2 8:-0.2 9:-0.466667 10:0.0666667 11:-0.0666667 12:0.2 13:-0.733333 14:0.2 15:-0.0666667 16:0.333333 
-0 0 0 0 0 0 0 0 0 0 0 0 0 1 0 0 1 0 1 0 0 0 0 0 0 1:-0.466667 2:-0.0666667 3:-0.2 4:0.333333 5:0.2 6:0.0666667 7:0.2 8:-0.466667 9:-1 10:0.0666667 11:-0.0666667 12:-0.2 13:-0.333333 14:0.466667 15:-0.333333 16:-0.0666667 
-1 1 1 1 0 1 1 1 1 1 1 1 1 1 1 1 1 1 1 1 1 1 1 1 1 1:-0.466667 2:0.2 3:-0.333333 4:-0.0666667 5:-0.333333 6:-0.333333 7:0.0666667 8:-0.2 9:-0.466667 10:0.0666667 11:-0.0666667 12:0.2 13:-0.6 14:0.0666667 15:-0.0666667 16:0.333333 
-0 0 0 1 0 0 0 0 0 0 0 0 0 0 0 0 0 0 0 0 1 0 0 0 0 1:-0.333333 2:0.2 3:-0.0666667 4:-0.2 5:-0.2 6:-0.333333 7:0.333333 8:-0.333333 9:-0.333333 10:0.333333 11:0.0666667 12:-0.6 13:-0.866667 14:0.333333 15:-0.6 16:-0.0666667 
-0 1 1 0 1 1 0 1 0 0 0.6112532416929574 1 1 1 1 1 0 1 0 1 1 1 1 1 1 1:-0.6 2:0.0666667 3:-0.6 4:-0.2 5:-0.733333 6:-0.333333 7:0.2 8:0.333333 9:-0.333333 10:0.0666667 11:-0.2 12:-0.333333 13:-0.733333 14:0.2 15:-0.466667 16:0.0666667 
-1 1 1 1 1 1 1 1 1 1 1 1 1 1 1 1 1 0 1 1 1 0 1 1 1 1:-0.333333 2:0.0666667 3:-0.2 4:0.333333 5:0.0666667 6:0.2 7:0.2 8:-0.733333 9:-0.6 10:-0.2 11:0.2 12:-0.2 13:0.2 14:0.466667 15:-0.0666667 16:-0.333333 
-0 0 1 1 0 1 0 0 0 0 0 0 0 1 0 0 1 1 0 0 0 0 0.4263406396809197 1 1 1:-0.6 2:-0.333333 3:-0.466667 4:0.0666667 5:-0.2 6:0.0666667 7:0.2 8:-0.6 9:-0.866667 10:0.0666667 11:-0.0666667 12:-0.2 13:-0.466667 14:0.333333 15:-0.333333 16:0.0666667 
-0 0 0 1 1 0 0 0 1 0 0 0 0 0 0 0 1 0 1 1 1 1 0 0 0 1:-0.466667 2:0.2 3:-0.333333 4:-0.0666667 5:-0.466667 6:-0.333333 7:0.333333 8:-0.466667 9:-0.333333 10:0.333333 11:0.2 12:-0.466667 13:-0.466667 14:0.333333 15:-0.466667 16:-0.0666667 
