svm_type c_svc
kernel_type polynomial
degree 3
gamma 0.0625
coef0 0
nr_class 26
total_sv 14462
rho -0.260757 0.893358 0.153489 -0.646155 0.377837 0.620719 0.589049 0.870112 -0.566664 -0.816698 0.50021 0.473434 0.743407 0.648979 -0.980266 0.861933 -0.551291 -1.11737 0.0374314 0.214116 -0.67147 -0.235335 0.678731 0.964033 -0.961521 0.808336 0.69159 -0.837317 0.733063 0.921188 0.776484 0.996623 -0.592139 -0.721232 0.756884 0.485149 0.923293 0.859937 -0.697955 0.817241 -0.393784 -0.961262 0.246895 0.609368 -0.689754 0.0865879 0.706537 0.991232 -0.871257 -0.610817 -0.920037 -0.266518 -0.300308 0.261126 0.756031 -0.833464 -0.990698 -0.222008 -0.739985 0.188851 0.316255 -1.02426 0.572283 -0.830966 -1.16571 -0.449329 -0.45396 -0.88899 -0.760505 -0.710656 0.804555 -1.01367 -0.992564 0.795783 0.704874 0.788214 0.891311 -0.954839 -1.04312 0.61162 0.129564 0.972582 0.778124 -1.02816 0.581827 -0.889203 -1.1214 -0.23791 0.327915 -0.967219 -0.374353 0.557154 0.847072 -1.06215 0.915687 0.94646 0.875359 1.00248 -0.253489 -0.465099 0.945922 0.896769 0.957631 0.920875 -0.42798 0.974357 0.0118056 -0.977793 0.539611 0.941804 -0.45201 0.468049 0.896703 0.988436 -0.678611 0.120888 0.545465 0.555099 -0.899039 -0.989292 0.0519271 -0.277561 -0.0710116 0.235835 -0.947164 0.23975 -0.784057 -1.03588 -0.303804 -0.353215 -0.912176 -0.46498 -0.142336 0.306594 -0.97834 0.373668 0.854637 -0.905202 -1.07075 0.0516141 -0.640648 0.730516 0.610294 -1.03745 0.332601 -0.827803 -1.10647 -0.471535 -0.364877 -0.906334 -0.725601 -0.690426 -0.0340603 -1.02019 -0.165355 -0.90329 -0.986082 -0.396475 -0.519697 -0.384896 -0.276279 -0.947355 -0.264113 -0.841261 -0.973164 -0.77443 -0.555431 -0.876532 -0.678851 -0.46637 -0.249864 -0.963771 -0.941473 -1.03492 -0.596901 -0.772127 -0.825341 -0.45482 -1.06063 -0.733125 -0.929192 -1.15449 -0.649438 -0.600184 -0.979501 -0.815658 -0.798488 -0.767639 -1.05304 -0.328896 0.923406 0.781394 0.952171 0.935466 -0.233595 0.899659 -0.19556 -0.584537 0.828906 1.00249 -0.252063 0.504406 0.892033 0.945273 -0.385966 1.01518 0.959018 1.04206 1.03519 0.0143397 1.01125 0.556077 -0.301831 0.731418 0.88951 0.382916 0.71565 1.006 1.02908 -0.110835 -0.461737 0.415245 0.618831 -1.06036 0.469957 -0.888223 -1.12639 -0.545282 -0.561212 -0.92828 -0.889116 -0.685521 0.452142 -1.01955 0.688991 0.628984 -1.04258 0.794713 -0.767528 -1.16623 -0.140228 -0.0635317 -0.872151 -0.876256 0.0200973 0.928838 -1.01379 0.550401 -1.02931 0.218649 -0.917249 -1.16708 -0.639689 -0.566706 -0.952487 -0.898692 -0.887962 -0.31883 -1.06942 -1.01373 -0.236061 -0.908543 -1.10995 -0.677248 -0.502247 -0.925644 -0.852975 -0.833184 -0.373609 -1.0228 1.12819 0.540192 -0.471936 0.658494 0.950685 0.282203 0.837778 1.04376 1.02849 0.00643557 -0.944449 -1.36695 -0.399301 -0.46996 -0.976863 -0.749725 -0.547353 -0.290111 -1.08881 -0.874241 0.656647 0.968596 -0.595752 0.382119 0.847732 0.932167 -0.64806 0.804239 1.04437 0.674332 0.996909 1.13177 1.10232 0.603591 0.156253 -0.624228 -0.132476 0.370692 0.668847 -0.72543 -0.990131 -0.3841 0.146389 0.591352 -0.993496 0.555251 0.905294 0.96222 -0.470412 0.86367 0.872529 -0.904593 0.921439 -1.00949 -1.01935
label 26 16 19 8 6 14 18 13 4 22 1 11 5 15 17 12 24 25 9 23 21 20 3 7 2 10
nr_sv 543 574 563 538 538 605 568 607 598 581 471 572 565 574 594 391 583 602 505 572 577 571 554 547 567 502
SV
1 1 1 1 1 1 1 1 1 0 1 1 1 1 0 1 1 1 1 1 1 1 1 1 1 1:-0.733333 2:-0.466667 3:-0.466667 4:-0.6 5:-0.733333 6:-0.0666667 7:0.0666667 8:-0.733333 9:0.2 10:0.466667 11:-0.0666667 12:-0.0666667 13:-0.866667 14:0.0666667 15:-0.333333 16:-0.2 
1 1 1 1 1 1 1 1 1 0 1 1 1 1 0 1 1 1 1 1 1 1 1 1 1 1:-0.733333 2:-0.466667 3:-0.333333 4:-0.6 5:-0.733333 6:-0.0666667 7:0.0666667 8:-0.733333 9:0.2 10:0.466667 11:-0.0666667 12:-0.0666667 13:-0.866667 14:0.0666667 15:-0.333333 16:-0.2 
1 1 1 1 1 1 1 1 1 1 1 1 1 1 1 1 1 0 1 1 1 1 1 1 1 1:-0.466667 2:0.0666667 3:-0.333333 4:-0.2 5:-0.466667 6:0.2 7:0.2 8:-0.2 9:-0.466667 10:-0.0666667 11:-0.333333 12:0.0666667 13:-0.6 14:0.0666667 15:0.333333 16:-0.0666667 
0 1 0 1 0 1 0 1 0 0 1 1 1 0 0 1 1 1 0 1 1 1 1 1 1 1:-0.866667 2:-0.6 3:-0.6 4:-0.733333 5:-0.866667 6:-0.0666667 7:0.0666667 8:-0.733333 9:0.2 10:0.466667 11:-0.2 12:0.0666667 13:-0.866667 14:0.0666667 15:-0.333333 16:-0.0666667 
1 1 1 1 1 1 1 1 1 0 1 1 1 1 1 1 1 1 1 1 1 1 1 1 1 1:-0.466667 2:0.2 3:-0.466667 4:-0.0666667 5:-0.466667 6:-0.0666667 7:0.0666667 8:-0.6 9:0.6 10:0.2 11:-0.2 12:0.0666667 13:-1 14:0.0666667 15:-0.0666667 16:-0.0666667 
1 1 1 1 1 1 1 1 1 1 1 1 1 1 0 1 1 1 1 1 1 1 1 1 1 1:-0.733333 2:-0.2 3:-0.6 4:-0.466667 5:-0.6 6:0.0666667 7:-0.0666667 8:-0.333333 9:0.2 10:-0.0666667 11:-0.0666667 12:-0.0666667 13:-0.866667 14:0.0666667 15:-0.0666667 16:0.0666667 
0 1 0 1 0 1 0 1 0 0 1 1 1 1 1 1 0 1 0 0 1 1 1 1 1 1:-0.866667 2:-0.466667 3:-0.6 4:-0.6 5:-0.866667 6:-0.0666667 7:-0.0666667 8:-0.733333 9:0.2 10:0.466667 11:-0.2 12:0.0666667 13:-0.866667 14:0.0666667 15:-0.333333 16:0.0666667 
1 1 1 1 1 1 1 1 1 1 1 1 1 1 0.1869628284117129 1 1 0 1 1 1 1 1 1 1 1:0.2 2:0.333333 3:-0.0666667 4:0.866667 5:-0.2 6:0.0666667 7:-0.0666667 8:-0.466667 9:-0.733333 10:0.6 11:-0.2 12:0.0666667 13:-0.6 14:0.2 15:0.733333 16:-0.2 
1 1 1 1 1 1 1 1 1 1 1 1 1 1 1 1 1 0 1 1 1 1 1 1 1 1:-0.333333 2:0.0666667 3:-0.0666667 4:0.333333 5:-0.0666667 6:0.333333 7:-0.333333 8:-0.466667 9:-0.466667 10:0.0666667 11:-0.6 12:-0.2 13:-0.6 14:-0.333333 15:0.0666667 16:0.0666667 
1 1 1 1 1 1 1 1 1 1 1 1 1 1 0 1 1 0 1 1 1 1 1 1 1 1:-0.0666667 2:0.2 3:-0.333333 4:0.733333 5:-0.333333 6:-0.0666667 7:0.0666667 8:-0.333333 9:-0.6 10:0.466667 11:-0.0666667 12:-0.0666667 13:-0.6 14:0.2 15:0.466667 16:-0.2 
1 1 1 1 1 1 1 1 1 1 1 1 1 1 1 1 1 0 1 1 1 1 1 1 1 1:-0.2 2:0.333333 3:0.0666667 4:0.0666667 5:-0.333333 6:0.0666667 7:-0.2 8:-0.6 9:0.2 10:0.6 11:-0.466667 12:0.2 13:-0.6 14:-0.2 15:0.0666667 16:0.2 
1 1 1 1 1 1 1 1 1 0 1 1 1 1 1 1 1 1 1 1 1 1 1 1 1 1:-0.466667 2:0.333333 3:-0.466667 4:0.0666667 5:-0.466667 6:-0.0666667 7:0.0666667 8:-0.6 9:0.6 10:0.2 11:-0.2 12:0.0666667 13:-1 14:0.0666667 15:-0.0666667 16:-0.0666667 
1 1 1 1 1 1 1 1 1 1 1 1 1 1 1 1 0.7067341438825668 1 1 1 0 1 1 1 1 1:-0.6 2:-0.333333 3:-0.333333 4:0.0666667 5:-0.6 6:0.466667 7:-0.333333 8:-0.6 9:-0.333333 10:0.333333 11:-0.733333 12:-0.0666667 13:-0.733333 14:-0.0666667 15:-0.333333 16:0.466667 
0 1 0 0 0 1 0 1 0 0 1 1 1 1 0 1 0 0 0 0 0 0 1 1 0 1:-0.6 2:-0.333333 3:-0.466667 4:-0.0666667 5:-0.733333 6:-0.0666667 7:-0.0666667 8:-0.466667 9:0.866667 10:0.333333 11:-0.2 12:0.0666667 13:-1 14:0.0666667 15:0.0666667 16:0.0666667 
1 1 1 1 1 1 1 1 1 1 1 1 1 1 0 1 1 0 1 1 1 1 1 1 0 1:-0.466667 2:0.0666667 3:-0.333333 4:-0.2 5:-0.333333 6:0.0666667 7:0.0666667 8:-0.6 9:0.0666667 10:-0.0666667 11:-0.0666667 12:-0.0666667 13:-1 14:0.0666667 15:0.466667 16:0.0666667 
1 1 1 1 1 1 0 1 0 0 1 1 1 1 1 1 1 1 0 1 1 1 1 1 1 1:-0.733333 2:-0.6 3:-0.466667 4:-0.733333 5:-0.866667 6:-0.0666667 7:-0.0666667 8:-0.733333 9:0.2 10:0.466667 11:-0.2 12:0.0666667 13:-0.866667 14:0.0666667 15:-0.333333 16:-0.0666667 
0 1 0 0 0 0 0 1 0 0 0 1 0 0 0 1 0 0 0 0 0 0 0 1 0 1:-0.733333 2:-0.0666667 3:-0.6 4:-0.333333 5:-0.866667 6:-0.0666667 7:-0.0666667 8:-0.6 9:0.733333 10:0.2 11:-0.2 12:0.0666667 13:-1 14:0.0666667 15:0.0666667 16:0.0666667 
1 1 1 1 1 1 1 1 1 0 1 1 1 1 0 1 1 1 1 1 1 1 1 1 1 1:-0.733333 2:-0.466667 3:-0.333333 4:-0.6 5:-0.733333 6:-0.0666667 7:0.0666667 8:-0.733333 9:0.2 10:0.466667 11:-0.0666667 12:-0.2 13:-0.866667 14:0.0666667 15:-0.333333 16:-0.0666667 
1 1 1 0 1 1 1 1 1 0 1 1 1 1 0 1 1 0 1 1 0 1 1 1 0 1:-0.333333 2:-0.333333 3:-0.0666667 4:0.0666667 5:-0.6 6:-0.0666667 7:-0.0666667 8:-0.466667 9:1 10:0.2 11:-0.2 12:0.0666667 13:-1 14:0.0666667 15:0.2 16:0.0666667 
1 1 1 1 1 1 1 1 1 1 1 1 1 1 1 1 1 0 1 1 1 1 1 1 1 1:0.0666667 2:0.733333 3:0.2 4:-0.0666667 5:-0.2 6:-0.333333 7:0.2 8:-0.733333 9:0.2 10:0.6 11:0.0666667 12:0.0666667 13:-0.2 14:-0.333333 15:0.0666667 16:-0.733333 
1 1 1 1 1 1 1 1 1 1 1 1 1 1 1 1 1 0 1 1 1 1 1 1 1 1:-0.2 2:0.333333 3:0.0666667 4:0.0666667 5:-0.333333 6:0.0666667 7:-0.2 8:-0.733333 9:0.2 10:0.6 11:-0.466667 12:0.466667 13:-0.6 14:-0.0666667 15:0.0666667 16:0.2 
1 1 1 1 1 1 1 1 1 1 1 1 1 1 0 1 1 0 1 1 1 1 1 1 0 1:-0.6 2:-0.0666667 3:-0.466667 4:-0.333333 5:-0.6 6:-0.2 7:0.0666667 8:-0.333333 9:0.333333 10:-0.0666667 11:-0.0666667 12:0.333333 13:-0.733333 14:0.2 15:0.0666667 16:0.0666667 
1 1 1 1 1 1 1 1 1 1 1 1 1 1 1 1 1 1 1 1 0 1 1 1 1 1:-0.466667 2:0.2 3:-0.2 4:-0.0666667 5:-0.466667 6:0.0666667 7:-0.333333 8:-0.733333 9:0.2 10:0.466667 11:-0.466667 12:0.333333 13:-0.733333 14:-0.0666667 15:-0.0666667 16:0.2 
1 1 1 1 1 1 1 1 1 1 1 1 1 1 1 1 1 1 1 1 1 1 1 1 1 1:-0.866667 2:-0.6 3:-0.733333 4:-0.733333 5:-0.866667 6:-0.0666667 7:-0.0666667 8:-0.333333 9:0.0666667 10:-0.2 11:-0.2 12:0.0666667 13:-0.733333 14:0.0666667 15:-0.2 16:0.0666667 
1 1 1 1 0 1 0 1 0 0 1 1 1 1 0 1 1 1 0 1 1 1 1 1 1 1:-0.733333 2:-0.6 3:-0.6 4:-0.733333 5:-0.866667 6:-0.0666667 7:0.0666667 8:-0.733333 9:0.2 10:0.466667 11:-0.2 12:0.0666667 13:-0.866667 14:0.0666667 15:-0.333333 16:-0.0666667 
1 1 1 1 1 1 1 1 1 1 1 1 1 1 1 1 1 1 1 1 1 1 1 1 1 1:-0.333333 2:0.2 3:-0.333333 4:-0.466667 5:-0.6 6:-0.333333 7:0.0666667 8:-0.733333 9:0.0666667 10:0.466667 11:0.2 12:0.2 13:-0.6 14:0.2 15:-0.333333 16:-0.333333 
1 1 1 1 1 1 1 1 1 0 1 1 1 1 0 1 1 1 0.4916338186420343 1 1 1 1 1 1 1:-0.733333 2:-0.466667 3:-0.466667 4:-0.6 5:-0.733333 6:-0.0666667 7:0.0666667 8:-0.733333 9:0.2 10:0.6 11:-0.0666667 12:-0.0666667 13:-0.866667 14:0.0666667 15:-0.333333 16:-0.2 
1 1 1 1 1 1 1 1 1 1 1 1 1 1 1 1 1 0 1 1 1 1 1 1 0 1:-0.6 2:0.2 3:-0.466667 4:-0.2 5:-0.6 6:-0.0666667 7:-0.0666667 8:-0.2 9:0.466667 10:-0.2 11:-0.2 12:0.0666667 13:-0.866667 14:0.0666667 15:0.0666667 16:0.0666667 
1 1 1 1 1 1 1 1 0 0 1 1 1 1 1 1 1 1 1 1 1 1 1 1 1 1:-0.6 2:0.0666667 3:-0.466667 4:-0.2 5:-0.6 6:-0.0666667 7:0.0666667 8:-0.6 9:0.466667 10:0.0666667 11:-0.2 12:0.0666667 13:-1 14:0.0666667 15:-0.0666667 16:-0.0666667 
0 1 0 0 1 1 1 1 0 0 1 1 1 1 0 1 0 1 0 1 0 1 1 1 0 1:-0.6 2:0.466667 3:-0.466667 4:0.0666667 5:-0.733333 6:-0.0666667 7:-0.0666667 8:-0.466667 9:0.866667 10:0.333333 11:-0.2 12:0.0666667 13:-1 14:0.0666667 15:0.0666667 16:0.0666667 
1 1 1 1 1 1 1 1 1 0 1 1 1 1 1 1 1 0 1 1 1 1 1 1 0 1:-0.733333 2:-0.0666667 3:-0.6 4:-0.333333 5:-0.6 6:-0.2 7:0.0666667 8:-0.333333 9:0.333333 10:-0.0666667 11:-0.2 12:0.333333 13:-0.866667 14:0.2 15:0.0666667 16:-0.0666667 
0 1 0 0 0 0 0 0 0 0 0 1 0 0 0 1 0 1 0 0 0 0 0 0 0 1:-0.866667 2:-1 3:-0.733333 4:-1 5:-1 6:-0.0666667 7:-0.0666667 8:-0.733333 9:0.333333 10:0.0666667 11:-0.2 12:0.0666667 13:-1 14:0.0666667 15:-0.2 16:0.0666667 
1 1 1 1 1 1 1 1 0 1 1 1 1 1 1 1 1 1 1 1 1 1 1 1 1 1:-0.733333 2:-0.6 3:-0.733333 4:-0.866667 5:-0.866667 6:0.0666667 7:-0.0666667 8:-0.333333 9:0.0666667 10:-0.2 11:-0.2 12:-0.0666667 13:-0.866667 14:0.0666667 15:-0.2 16:0.0666667 
1 1 1 1 1 1 1 1 1 0 1 1 1 1 1 1 1 0 1 1 1 1 1 1 0 1:-0.733333 2:-0.733333 3:-0.6 4:-0.6 5:-0.733333 6:-0.0666667 7:-0.0666667 8:-0.333333 9:0.2 10:-0.2 11:-0.2 12:0.0666667 13:-0.733333 14:0.0666667 15:-0.0666667 16:0.0666667 
1 1 1 1 1 1 1 1 1 1 1 1 1 1 1 1 1 1 1 1 1 1 1 1 1 1:-0.466667 2:0.2 3:-0.2 4:-0.0666667 5:-0.466667 6:0.0666667 7:-0.2 8:-0.733333 9:0.2 10:0.6 11:-0.333333 12:0.2 13:-0.6 14:-0.2 15:0.0666667 16:0.0666667 
1 1 1 1 1 1 1 1 1 1 1 1 1 1 1 1 1 1 1 1 1 1 1 1 1 1:-0.333333 2:-0.0666667 3:-0.2 4:-0.333333 5:-0.6 6:0.0666667 7:-0.0666667 8:-0.733333 9:0.2 10:0.6 11:-0.333333 12:0.333333 13:-0.733333 14:0.2 15:-0.2 16:0.2 
1 1 1 0 1 1 1 1 0 0 1 1 1 1 0 1 0 0 1 1 0 1 1 1 0 1:-0.466667 2:0.333333 3:-0.333333 4:0.0666667 5:-0.6 6:-0.0666667 7:-0.0666667 8:-0.466667 9:1 10:0.2 11:-0.2 12:0.0666667 13:-1 14:0.0666667 15:0.0666667 16:0.0666667 
1 1 1 1 1 1 1 1 0 0 1 1 1 1 1 1 1 1 0 1 1 1 1 1 1 1:-0.733333 2:-0.466667 3:-0.466667 4:-0.6 5:-0.733333 6:-0.0666667 7:-0.0666667 8:-0.733333 9:0.2 10:0.466667 11:-0.2 12:0.0666667 13:-0.866667 14:0.0666667 15:-0.333333 16:0.0666667 
1 1 1 1 1 1 1 1 0 1 1 1 1 1 1 1 1 1 1 1 1 1 1 1 1 1:-0.6 2:-0.2 3:-0.466667 4:-0.466667 5:-0.733333 6:0.0666667 7:-0.0666667 8:-0.733333 9:0.2 10:0.466667 11:-0.333333 12:0.0666667 13:-0.733333 14:0.0666667 15:-0.2 16:0.0666667 
1 1 1 1 1 1 1 1 1 1 1 1 1 1 1 1 1 1 1 1 1 1 1 1 1 1:-0.466667 2:0.466667 3:-0.2 4:0.0666667 5:-0.0666667 6:0.0666667 7:-0.0666667 8:-0.733333 9:0.0666667 10:-0.0666667 11:-0.2 12:0.0666667 13:-1 14:0.0666667 15:0.2 16:0.0666667 
1 1 1 1 1 1 1 1 0 0 1 1 1 1 1 1 1 1 1 1 1 1 1 1 0 1:-0.6 2:0.0666667 3:-0.466667 4:-0.2 5:-0.6 6:-0.0666667 7:0.0666667 8:-0.6 9:0.6 10:0.0666667 11:-0.2 12:0.0666667 13:-1 14:0.0666667 15:-0.0666667 16:-0.0666667 
1 1 1 1 1 1 1 1 1 1 1 1 1 1 1 1 1 0 1 1 1 1 1 1 1 1:-0.2 2:0.466667 3:0.0666667 4:0.0666667 5:0.0666667 6:0.333333 7:0.2 8:-0.333333 9:-0.466667 10:-0.0666667 11:-0.333333 12:-0.0666667 13:-0.6 14:0.0666667 15:0.2 16:-0.333333 
0 1 0 0 0 1 1 1 0 0 1 1 1 1 0 1 0 0 0 0 0 1 1 1 0 1:-0.6 2:-0.0666667 3:-0.466667 4:-0.333333 5:-0.733333 6:-0.0666667 7:-0.0666667 8:-0.466667 9:0.733333 10:0.2 11:-0.2 12:0.0666667 13:-1 14:0.0666667 15:0.0666667 16:0.0666667 
1 1 1 1 1 1 1 1 1 1 1 1 1 1 0 1 1 1 1 1 1 1 1 1 1 1:-0.2 2:0.466667 3:0.0666667 4:0.2 5:-0.333333 6:-0.0666667 7:0.0666667 8:-0.6 9:0.466667 10:0.6 11:-0.0666667 12:0.0666667 13:-0.733333 14:0.2 15:-0.0666667 16:0.0666667 
0 1 0 0 0 0 0 1 0 0 0 1 0 0 0 1 0 0 0 0 0 0 1 1 0 1:-0.733333 2:-0.866667 3:-0.733333 4:-0.866667 5:-0.866667 6:-0.0666667 7:-0.0666667 8:-0.6 9:0.466667 10:0.0666667 11:-0.2 12:0.0666667 13:-1 14:0.0666667 15:-0.2 16:0.0666667 
1 1 1 1 1 1 1 1 1 1 1 1 1 1 1 1 1 1 1 1 1 1 1 1 1 1:-0.6 2:0.0666667 3:-0.466667 4:-0.2 5:-0.6 6:0.2 7:-0.2 8:-0.333333 9:0.333333 10:-0.0666667 11:-0.333333 12:-0.2 13:-0.866667 14:-0.0666667 15:0.0666667 16:0.0666667 
1 1 1 1 1 1 1 1 1 1 1 1 1 1 1 1 1 0 1 1 1 1 1 1 1 1:-0.2 2:0.2 3:0.0666667 4:-0.0666667 5:-0.333333 6:0.2 7:-0.333333 8:-0.6 9:0.2 10:0.466667 11:-0.6 12:0.466667 13:-0.6 14:-0.2 15:-0.0666667 16:0.2 
1 1 1 1 1 1 1 1 1 1 1 1 1 1 1 1 1 1 1 1 1 1 1 1 1 1:0.0666667 2:0.6 3:0.0666667 4:-0.2 5:-0.333333 6:0.333333 7:-0.6 8:-0.466667 9:-0.0666667 10:0.6 11:-0.6 12:0.466667 13:-0.6 14:-0.2 15:-0.0666667 16:0.466667 
1 1 1 1 1 1 1 1 1 1 1 1 1 1 0 1 1 1 1 1 1 1 1 1 1 1:-0.466667 2:0.0666667 3:-0.2 4:-0.2 5:-0.466667 6:-0.0666667 7:0.2 8:-0.733333 9:0.2 10:0.466667 11:-0.0666667 12:-0.2 13:-0.866667 14:0.0666667 15:-0.2 16:-0.2 
1 1 1 1 1 1 1 1 1 1 1 1 1 1 1 1 1 1 1 1 1 1 1 1 1 1:-0.333333 2:-0.0666667 3:-0.0666667 4:0.2 5:-0.2 6:0.333333 7:-0.333333 8:-0.466667 9:-0.466667 10:0.0666667 11:-0.733333 12:-0.2 13:-0.733333 14:-0.0666667 15:-0.0666667 16:0.0666667 
1 1 1 0 1 1 1 1 0 0 1 1 1 1 0 1 0 0 1 1 0 1 1 1 0 1:-0.333333 2:0.333333 3:-0.2 4:0.0666667 5:-0.6 6:-0.0666667 7:-0.0666667 8:-0.466667 9:1 10:0.2 11:-0.2 12:0.0666667 13:-1 14:0.0666667 15:0.2 16:0.0666667 
1 1 1 1 1 1 1 1 1 1 1 1 1 1 1 1 1 1 1 1 1 1 1 1 1 1:-0.466667 2:0.0666667 3:-0.333333 4:-0.2 5:-0.333333 6:0.0666667 7:0.333333 8:-0.333333 9:-0.466667 10:-0.2 11:-0.333333 12:-0.2 13:-0.6 14:0.0666667 15:0.0666667 16:-0.6 
1 1 1 1 1 1 1 1 1 1 1 1 1 1 1 1 1 1 1 1 1 1 1 1 1 1:-0.333333 2:0.2 3:-0.0666667 4:-0.2 5:-0.333333 6:-0.0666667 7:0.0666667 8:-0.733333 9:0.2 10:0.6 11:-0.2 12:0.0666667 13:-0.866667 14:0.2 15:-0.2 16:0.0666667 
1 1 1 1 1 1 1 1 1 1 1 1 1 1 1 1 1 1 1 1 1 1 1 1 0 1:-0.6 2:0.2 3:-0.333333 4:-0.0666667 5:-0.333333 6:0.0666667 7:-0.2 8:-0.733333 9:-0.0666667 10:0.0666667 11:-0.2 12:0.0666667 13:-0.866667 14:-0.0666667 15:0.466667 16:0.333333 
0 1 0 0 0 1 0 1 0 0 1 1 1 1 0 1 0 0 0 0 0 0 1 1 0 1:-0.6 2:-0.0666667 3:-0.466667 4:-0.333333 5:-0.733333 6:-0.0666667 7:-0.0666667 8:-0.466667 9:0.866667 10:0.2 11:-0.2 12:0.0666667 13:-1 14:0.0666667 15:0.0666667 16:0.0666667 
1 1 1 1 1 1 1 1 1 1 1 1 1 1 0 1 1 0 1 1 1 1 1 1 1 1:0.2 2:0.466667 3:-0.2 4:1 5:-0.2 6:-0.333333 7:0.466667 8:-0.6 9:-0.6 10:0.6 11:0.0666667 12:-0.2 13:-0.6 14:0.2 15:0.466667 16:-0.333333 
0 1 0 0 0 0 0 1 0 0 0 1 0 0 0 1 0 0 0 0 0 0 0 1 0 1:-0.6 2:-0.6 3:-0.466667 4:-0.466667 5:-0.733333 6:-0.0666667 7:-0.0666667 8:-0.6 9:0.866667 10:0.2 11:-0.2 12:0.0666667 13:-1 14:0.0666667 15:0.0666667 16:0.0666667 
1 1 1 1 1 1 1 1 1 1 1 1 1 1 1 1 1 1 1 1 0 1 1 1 1 1:-0.333333 2:-0.0666667 3:-0.2 4:-0.333333 5:-0.466667 6:0.0666667 7:-0.333333 8:-0.733333 9:0.2 10:0.466667 11:-0.466667 12:0.333333 13:-0.733333 14:0.0666667 15:-0.2 16:0.333333 
1 1 1 1 1 1 1 1 1 0 1 1 1 1 1 1 1 1 1 1 1 1 1 1 1 1:-0.6 2:0.333333 3:-0.466667 4:-0.0666667 5:-0.6 6:-0.0666667 7:0.0666667 8:-0.6 9:0.466667 10:0.2 11:-0.2 12:0.0666667 13:-1 14:0.0666667 15:-0.0666667 16:0.0666667 
1 1 1 1 1 1 1 1 0 0 1 1 1 1 1 1 0 1 0 1 1 1 1 1 1 1:-0.733333 2:-0.333333 3:-0.466667 4:-0.466667 5:-0.733333 6:-0.0666667 7:-0.0666667 8:-0.733333 9:0.333333 10:0.466667 11:-0.2 12:0.0666667 13:-0.866667 14:0.0666667 15:-0.2 16:-0.0666667 
1 1 1 1 1 1 0 1 0 0 1 1 1 1 1 1 1 1 0 1 1 1 1 1 1 1:-0.733333 2:-0.466667 3:-0.466667 4:-0.6 5:-0.866667 6:-0.0666667 7:0.0666667 8:-0.733333 9:0.2 10:0.466667 11:-0.2 12:0.0666667 13:-0.866667 14:0.0666667 15:-0.333333 16:-0.0666667 
0 1 1 0 1 1 0 1 0 1 1 1 1 1 1 1 0 1 0 1 0 1 1 1 1 1:-0.733333 2:-0.466667 3:-0.466667 4:-0.6 5:-0.733333 6:0.0666667 7:-0.2 8:-0.733333 9:0.2 10:0.466667 11:-0.333333 12:0.2 13:-0.866667 14:0.0666667 15:-0.333333 16:0.2 
1 1 1 0 1 1 1 1 0 1 1 1 1 1 1 1 0 1 1 1 0 1 1 1 1 1:-0.6 2:-0.0666667 3:-0.333333 4:-0.333333 5:-0.733333 6:0.2 7:-0.2 8:-0.6 9:0.2 10:0.466667 11:-0.6 12:0.2 13:-0.866667 14:-0.0666667 15:-0.2 16:0.2 
1 1 1 1 1 1 1 1 1 1 1 1 1 1 1 1 1 1 1 1 1 1 1 1 0 1:-0.733333 2:-0.333333 3:-0.6 4:-0.466667 5:-0.733333 6:-0.0666667 7:-0.0666667 8:-0.333333 9:0.2 10:-0.2 11:-0.2 12:0.0666667 13:-0.733333 14:0.0666667 15:-0.0666667 16:0.0666667 
1 1 1 1 1 1 1 1 1 1 1 1 1 1 1 1 1 0 1 1 1 1 1 1 1 1:-0.466667 2:0.2 3:-0.333333 4:-0.0666667 5:-0.333333 6:0.2 7:0.2 8:-0.2 9:-0.466667 10:-0.0666667 11:-0.333333 12:0.0666667 13:-0.466667 14:0.2 15:0.333333 16:-0.2 
1 1 1 1 1 1 1 1 1 0 1 1 1 1 1 1 1 0 1 1 1 1 1 1 0 1:-0.466667 2:-0.0666667 3:-0.466667 4:-0.333333 5:-0.6 6:-0.0666667 7:-0.0666667 8:-0.333333 9:0.466667 10:-0.0666667 11:-0.2 12:0.2 13:-0.866667 14:0.0666667 15:0.0666667 16:0.0666667 
1 1 1 1 1 1 1 1 1 1 1 1 1 1 1 1 1 1 1 1 1 1 1 1 1 1:-0.333333 2:0.0666667 3:-0.2 4:-0.2 5:-0.466667 6:-0.0666667 7:0.0666667 8:-0.733333 9:0.2 10:0.466667 11:-0.0666667 12:0.0666667 13:-0.866667 14:0.2 15:-0.2 16:-0.0666667 
0 1 0 0 0 0 0 0 0 0 0 1 0 0 0 1 0 0 0 0 0 0 0 0 0 1:-0.733333 2:-0.866667 3:-0.733333 4:-0.733333 5:-0.866667 6:-0.0666667 7:-0.0666667 8:-0.6 9:0.6 10:0.0666667 11:-0.2 12:0.0666667 13:-1 14:0.0666667 15:-0.0666667 16:0.0666667 
1 1 1 0 1 1 1 1 0 0 1 1 1 1 0 1 0 0 1 1 0 1 1 1 0 1:-0.466667 2:0.333333 3:-0.333333 4:0.0666667 5:-0.6 6:-0.0666667 7:-0.0666667 8:-0.466667 9:1 10:0.2 11:-0.2 12:0.0666667 13:-1 14:0.0666667 15:0.0666667 16:0.0666667 
0 1 1 0 1 1 1 1 0 0 1 1 1 1 0 1 0 0 1 1 0 1 1 1 0 1:-0.466667 2:-0.333333 3:-0.333333 4:0.0666667 5:-0.733333 6:-0.0666667 7:-0.0666667 8:-0.466667 9:0.866667 10:0.2 11:-0.2 12:0.0666667 13:-1 14:0.0666667 15:0.0666667 16:0.0666667 
0 1 0 0 0 1 1 1 0 0 1 1 1 1 0 1 0 0 0 0 0 1 1 1 0 1:-0.6 2:0.2 3:-0.466667 4:-0.2 5:-0.733333 6:-0.0666667 7:-0.0666667 8:-0.466667 9:0.866667 10:0.2 11:-0.2 12:0.0666667 13:-1 14:0.0666667 15:0.0666667 16:0.0666667 
1 1 1 0 1 1 1 1 0 0 1 1 1 1 0 1 0 0 1 1 0 1 1 1 0 1:-0.333333 2:-0.333333 3:-0.2 4:0.0666667 5:-0.6 6:-0.0666667 7:-0.0666667 8:-0.466667 9:1 10:0.2 11:-0.2 12:0.0666667 13:-1 14:0.0666667 15:0.0666667 16:0.0666667 
0.4183612436816994 1 1 0 1 1 1 1 0 0 1 1 1 1 0 1 0 0 0.1178228917409355 1 0 1 1 1 0 1:-0.733333 2:-0.866667 3:-0.6 4:-0.733333 5:-0.866667 6:-0.0666667 7:-0.0666667 8:-0.333333 9:0.2 10:-0.2 11:-0.2 12:0.0666667 13:-0.866667 14:0.0666667 15:-0.0666667 16:0.0666667 
1 1 1 1 1 1 1 1 1 1 1 1 1 1 1 1 1 1 1 1 1 1 1 1 1 1:-0.333333 2:0.333333 3:-0.333333 4:-0.333333 5:-0.6 6:-0.333333 7:0.0666667 8:-0.733333 9:0.2 10:0.466667 11:0.0666667 12:0.0666667 13:-0.6 14:-0.2 15:-0.2 16:-0.333333 
0 1 1 0 1 1 1 1 0 0 1 1 1 1 0 1 0 0 1 1 0 1 1 1 0 1:-0.466667 2:0.333333 3:-0.333333 4:0.0666667 5:-0.733333 6:-0.0666667 7:-0.0666667 8:-0.466667 9:1 10:0.2 11:-0.2 12:0.0666667 13:-1 14:0.0666667 15:0.0666667 16:0.0666667 
1 1 1 1 1 1 1 1 1 1 1 1 1 1 1 1 1 1 1 1 1 1 1 1 0 1:-0.733333 2:-0.333333 3:-0.6 4:-0.466667 5:-0.6 6:0.0666667 7:-0.0666667 8:-0.333333 9:0.2 10:-0.2 11:-0.2 12:-0.0666667 13:-0.733333 14:0.0666667 15:-0.0666667 16:0.0666667 
1 1 1 0 1 1 1 1 1 0 1 1 1 1 1 1 1 0 1 1 1 1 1 1 0 1:-0.6 2:-0.733333 3:-0.466667 4:-0.466667 5:-0.733333 6:-0.0666667 7:-0.0666667 8:-0.333333 9:0.333333 10:-0.2 11:-0.2 12:0.0666667 13:-0.866667 14:0.0666667 15:-0.0666667 16:0.0666667 
0 1 1 0 1 1 1 1 0 0 1 1 1 1 0 1 0 0 1 1 0 1 1 1 0 1:-0.466667 2:0.2 3:-0.466667 4:-0.0666667 5:-0.733333 6:-0.0666667 7:-0.0666667 8:-0.466667 9:0.866667 10:0.2 11:-0.2 12:0.0666667 13:-1 14:0.0666667 15:0.0666667 16:0.0666667 
1 1 1 0 1 1 1 1 0 0 1 1 1 1 0 1 1 0 1 1 0.7498202574408903 1 1 1 0 1:-0.333333 2:0.333333 3:-0.2 4:-0.0666667 5:-0.6 6:-0.0666667 7:-0.0666667 8:-0.466667 9:1 10:0.2 11:-0.2 12:0.0666667 13:-1 14:0.0666667 15:0.0666667 16:0.0666667 
1 1 1 1 1 1 1 1 1 1 1 1 1 1 1 1 1 1 1 1 1 1 1 1 0 1:-0.466667 2:-0.0666667 3:-0.333333 4:-0.333333 5:-0.333333 6:0.0666667 7:0.0666667 8:-0.733333 9:-0.0666667 10:-0.0666667 11:-0.2 12:0.0666667 13:-1 14:0.2 15:0.2 16:0.2 
1 1 1 1 1 1 1 1 1 1 1 1 1 1 1 1 1 0 1 1 1 1 1 1 1 1:-0.333333 2:0.466667 3:-0.0666667 4:0.2 5:-0.333333 6:0.0666667 7:-0.2 8:-0.2 9:0.466667 10:-0.0666667 11:-0.333333 12:-0.2 13:-0.733333 14:-0.0666667 15:0.0666667 16:0.0666667 
1 1 1 1 1 1 1 1 1 1 1 1 1 1 1 1 1 1 1 1 1 1 1 1 0 1:-0.466667 2:0.0666667 3:-0.2 4:-0.2 5:-0.2 6:0.0666667 7:0.0666667 8:-0.733333 9:0.0666667 10:-0.0666667 11:-0.2 12:-0.0666667 13:-1 14:0.0666667 15:0.2 16:0.0666667 
0 1 0 0 0 0 0 0 0 0 0 1 0 0 0 1 0 1 0 0 0 0 0 0.6285728082531706 1 1:-0.866667 2:-1 3:-0.866667 4:-0.866667 5:-1 6:-0.0666667 7:-0.0666667 8:-0.733333 9:0.2 10:0.2 11:-0.2 12:0.0666667 13:-1 14:0.0666667 15:-0.2 16:0.0666667 
1 1 1 1 1 1 1 1 1 1 1 1 1 1 1 1 1 0.1518306781433711 1 1 1 1 1 1 1 1:-0.333333 2:-0.2 3:-0.466667 4:0.0666667 5:-0.6 6:0.0666667 7:-0.2 8:-0.333333 9:-0.333333 10:0.333333 11:-0.2 12:-0.0666667 13:-0.6 14:0.2 15:0.2 16:0.2 
1 1 1 1 1 1 1 1 1 1 1 1 1 1 1 1 1 1 1 1 1 1 1 1 1 1:-0.0666667 2:0.866667 3:-0.0666667 4:0.0666667 5:-0.466667 6:0.333333 7:-0.466667 8:-0.6 9:0.0666667 10:0.6 11:-0.466667 12:0.333333 13:-0.6 14:0.2 15:-0.466667 16:0.466667 
1 1 1 1 1 1 1 1 0 1 1 1 1 1 1 1 1 1 1 1 1 1 1 1 1 1:-0.6 2:-0.0666667 3:-0.333333 4:-0.333333 5:-0.6 6:0.0666667 7:-0.0666667 8:-0.733333 9:0.2 10:0.466667 11:-0.333333 12:-0.0666667 13:-0.866667 14:-0.0666667 15:-0.2 16:0.0666667 
1 1 1 1 1 1 1 1 1 1 1 1 1 1 1 1 1 1 1 1 0 1 1 1 1 1:-0.466667 2:-0.2 3:-0.2 4:0.0666667 5:-0.466667 6:0.733333 7:-0.466667 8:-0.6 9:-0.0666667 10:0.333333 11:-0.733333 12:-0.0666667 13:-0.733333 14:-0.0666667 15:-0.333333 16:0.6 
1 1 1 1 1 1 1 1 1 1 1 1 1 1 0 1 1 0 1 1 1 1 1 1 1 1:0.2 2:0.2 3:-0.2 4:0.6 5:-0.2 6:-0.2 7:0.2 8:-0.466667 9:-0.733333 10:0.6 11:-0.0666667 12:-0.0666667 13:-0.6 14:0.0666667 15:0.733333 16:-0.2 
1 1 1 0 1 1 1 1 0 0 1 1 1 1 1 1 0 1 0 1 0 1 1 1 0 1:-0.866667 2:-0.6 3:-0.733333 4:-0.733333 5:-0.866667 6:-0.0666667 7:-0.0666667 8:-0.333333 9:0.0666667 10:-0.2 11:-0.2 12:0.0666667 13:-0.866667 14:0.0666667 15:-0.0666667 16:0.0666667 
1 1 1 1 1 1 1 1 1 1 1 1 1 1 0 1 1 0 1 1 1 1 1 1 1 1:-0.2 2:0.333333 3:0.2 4:-0.0666667 5:-0.333333 6:-0.333333 7:0.333333 8:-0.466667 9:0.333333 10:0.466667 11:0.333333 12:-0.2 13:-0.866667 14:0.2 15:-0.2 16:-0.333333 
1 1 1 1 1 1 1 1 0 0 1 1 1 1 1 1 1 1 1 1 1 1 1 1 0 1:-0.733333 2:-0.6 3:-0.733333 4:-0.733333 5:-0.733333 6:-0.0666667 7:-0.0666667 8:-0.333333 9:0.2 10:-0.2 11:-0.2 12:0.0666667 13:-0.866667 14:0.0666667 15:-0.2 16:0.0666667 
1 1 1 1 1 1 1 1 1 1 1 1 1 1 1 1 1 1 1 1 1 1 1 1 1 1:-0.0666667 2:1 3:-0.0666667 4:0.2 5:-0.333333 6:0.466667 7:-0.6 8:-0.466667 9:-0.2 10:0.6 11:-0.6 12:0.333333 13:-0.6 14:-0.0666667 15:-0.0666667 16:0.466667 
1 1 1 1 1 1 1 1 1 1 1 1 1 1 0 1 1 0 1 1 1 1 1 1 0 1:-0.466667 2:0.0666667 3:-0.2 4:-0.2 5:-0.2 6:0.0666667 7:0.0666667 8:-0.6 9:0.0666667 10:-0.0666667 11:-0.0666667 12:-0.0666667 13:-0.866667 14:0.0666667 15:0.2 16:0.0666667 
1 1 1 1 1 1 0 1 0 0 1 1 1 1 1 1 1 1 0 1 1 1 1 1 1 1:-0.733333 2:-0.466667 3:-0.466667 4:-0.733333 5:-0.733333 6:-0.0666667 7:-0.0666667 8:-0.733333 9:0.2 10:0.6 11:-0.2 12:0.0666667 13:-0.866667 14:0.0666667 15:-0.333333 16:-0.0666667 
1 1 1 1 1 1 1 1 1 1 1 1 1 1 1 1 1 1 1 1 1 1 1 1 1 1:-0.6 2:0.333333 3:-0.466667 4:0.0666667 5:-0.466667 6:-0.0666667 7:-0.0666667 8:-0.2 9:0.333333 10:-0.2 11:-0.2 12:0.0666667 13:-0.866667 14:0.0666667 15:0.0666667 16:0.0666667 
1 1 1 1 1 1 1 1 1 1 1 1 1 1 1 1 1 1 1 1 1 1 1 1 1 1:-0.466667 2:-0.0666667 3:-0.2 4:0.2 5:-0.466667 6:0.466667 7:-0.466667 8:-0.733333 9:-0.2 10:0.2 11:-0.733333 12:-0.2 13:-0.866667 14:0.0666667 15:-0.2 16:0.2 
1 1 1 0 1 1 1 1 0 0 1 1 1 1 0 1 0 0 1 1 0 1 1 1 0 1:-0.333333 2:-0.333333 3:-0.2 4:0.0666667 5:-0.6 6:-0.0666667 7:-0.0666667 8:-0.466667 9:1 10:0.2 11:-0.2 12:0.0666667 13:-1 14:0.0666667 15:0.0666667 16:0.0666667 
1 1 0 1 0 1 0 1 0 0 1 1 0 0 0 1 1 1 0 0 1 0 1 1 1 1:-0.866667 2:-0.6 3:-0.6 4:-0.733333 5:-0.866667 6:-0.0666667 7:0.0666667 8:-0.866667 9:0.2 10:0.466667 11:-0.0666667 12:-0.0666667 13:-0.866667 14:0.0666667 15:-0.333333 16:-0.0666667 
1 1 1 1 1 1 1 1 1 0 1 1 1 1 0 1 1 1 1 1 1 1 1 1 1 1:-0.466667 2:-0.2 3:-0.2 4:-0.466667 5:-0.6 6:-0.2 7:0.2 8:-0.6 9:0.2 10:0.466667 11:0.2 12:-0.2 13:-0.866667 14:0.2 15:-0.2 16:-0.333333 
1 1 1 1 1 1 1 1 1 1 1 1 1 1 0 1 1 1 1 1 1 1 1 1 1 1:-0.466667 2:0.333333 3:-0.2 4:0.0666667 5:-0.466667 6:-0.2 7:0.2 8:-0.733333 9:0.2 10:0.466667 11:0.0666667 12:-0.0666667 13:-0.733333 14:0.333333 15:-0.0666667 16:-0.2 
1 1 1 1 1 1 1 1 0 0 1 1 1 1 1 1 1 1 0 1 1 1 1 1 1 1:-0.733333 2:-0.466667 3:-0.466667 4:-0.6 5:-0.733333 6:-0.0666667 7:-0.0666667 8:-0.733333 9:0.2 10:0.6 11:-0.2 12:0.0666667 13:-0.866667 14:0.0666667 15:-0.333333 16:-0.0666667 
0 1 0 0 0 1 1 1 0 0 1 1 1 1 0 1 0 0 0 0 0 0 1 1 0 1:-0.466667 2:-0.466667 3:-0.333333 4:-0.2 5:-0.733333 6:-0.0666667 7:-0.0666667 8:-0.466667 9:1 10:0.2 11:-0.2 12:0.0666667 13:-1 14:0.0666667 15:0.0666667 16:0.0666667 
1 1 1 1 1 1 1 1 0 0 1 1 1 1 0 1 1 1 1 1 1 1 1 1 1 1:-0.6 2:-0.333333 3:-0.2 4:-0.466667 5:-0.6 6:-0.0666667 7:-0.0666667 8:-0.733333 9:0.333333 10:0.6 11:-0.2 12:0.0666667 13:-0.866667 14:0.0666667 15:-0.2 16:0.0666667 
1 1 1 1 1 1 1 1 1 1 1 1 1 1 1 1 1 0 1 1 1 1 1 1 0 1:-0.6 2:-0.0666667 3:-0.466667 4:-0.333333 5:-0.466667 6:-0.2 7:-0.2 8:-0.6 9:-0.0666667 10:-0.0666667 11:-0.2 12:0.333333 13:-0.866667 14:-0.0666667 15:0.333333 16:-0.0666667 
1 1 1 1 1 1 1 1 1 1 1 1 1 1 1 1 1 1 1 1 1 1 1 1 1 1:-0.333333 2:-0.2 3:-0.466667 4:0.0666667 5:-0.6 6:0.466667 7:-0.466667 8:-0.6 9:-0.333333 10:0.466667 11:-0.466667 12:0.0666667 13:-0.6 14:0.2 15:-0.0666667 16:0.333333 
1 1 1 1 1 1 1 1 1 0 1 1 1 1 0 1 1 0 1 1 1 1 1 1 0 1:-0.6 2:-0.2 3:-0.466667 4:-0.466667 5:-0.6 6:-0.0666667 7:0.0666667 8:-0.333333 9:0.333333 10:-0.0666667 11:-0.0666667 12:0.2 13:-0.866667 14:0.2 15:-0.0666667 16:0.0666667 
1 1 1 1 1 1 1 1 1 0 1 1 1 1 1 1 1 1 1 1 1 1 1 1 1 1:-0.6 2:-0.333333 3:-0.333333 4:-0.466667 5:-0.6 6:-0.0666667 7:0.0666667 8:-0.733333 9:0.2 10:0.6 11:-0.2 12:0.0666667 13:-0.866667 14:0.0666667 15:-0.333333 16:-0.0666667 
1 1 1 1 1 1 1 1 0 0 1 1 1 1 0 1 1 1 0 1 1 1 1 1 1 1:-0.733333 2:-0.466667 3:-0.466667 4:-0.6 5:-0.733333 6:-0.0666667 7:0.0666667 8:-0.733333 9:0.2 10:0.6 11:-0.2 12:0.0666667 13:-0.866667 14:0.0666667 15:-0.333333 16:-0.0666667 
0 1 0 0 0 1 0 1 0 0 1 1 1 0 1 1 0 1 0 0 0 1 1 1 1 1:-0.733333 2:-0.466667 3:-0.466667 4:-0.6 5:-0.866667 6:0.0666667 7:-0.2 8:-0.733333 9:0.333333 10:0.466667 11:-0.333333 12:0.2 13:-0.866667 14:0.0666667 15:-0.2 16:0.2 
1 1 1 1 1 1 1 1 1 1 1 1 1 1 1 1 1 1 1 1 1 1 1 1 0 1:-0.733333 2:-0.466667 3:-0.733333 4:-0.6 5:-0.733333 6:-0.0666667 7:0.0666667 8:-0.333333 9:0.0666667 10:-0.2 11:-0.2 12:0.2 13:-0.733333 14:0.0666667 15:-0.0666667 16:0.0666667 
1 1 1 1 1 1 1 1 0 1 1 1 1 1 1 1 0 1 0 1 0 1 1 1 1 1:-0.866667 2:-0.6 3:-0.733333 4:-0.866667 5:-0.866667 6:-0.0666667 7:-0.0666667 8:-0.333333 9:0.0666667 10:-0.2 11:-0.2 12:0.0666667 13:-0.866667 14:0.0666667 15:-0.2 16:0.0666667 
1 1 1 0 1 1 1 1 0 0 1 1 1 1 1 1 1 1 1 1 1 1 1 1 0 1:-0.6 2:-0.0666667 3:-0.466667 4:-0.333333 5:-0.6 6:-0.0666667 7:-0.0666667 8:-0.6 9:0.466667 10:0.0666667 11:-0.2 12:0.0666667 13:-1 14:0.0666667 15:-0.0666667 16:0.0666667 
1 1 1 1 1 1 1 1 1 1 1 1 1 1 1 1 1 0 1 1 1 1 1 1 1 1:-0.2 2:-0.0666667 3:-0.466667 4:0.466667 5:-0.466667 6:0.0666667 7:-0.333333 8:-0.466667 9:-0.466667 10:0.466667 11:-0.2 12:0.0666667 13:-0.6 14:0.2 15:0.333333 16:0.0666667 
0 1 1 0 1 1 1 1 0 0 1 1 1 1 0 1 0 0 0 1 0 1 1 1 0 1:-0.6 2:0.0666667 3:-0.466667 4:-0.2 5:-0.733333 6:-0.0666667 7:-0.0666667 8:-0.466667 9:0.733333 10:0.2 11:-0.2 12:0.0666667 13:-1 14:0.0666667 15:0.0666667 16:0.0666667 
1 1 1 1 1 1 1 1 1 1 1 1 1 1 1 1 1 0 1 1 1 1 1 1 1 1:-0.2 2:0.333333 3:0.2 4:0.0666667 5:-0.0666667 6:0.2 7:0.2 8:-0.333333 9:-0.466667 10:-0.0666667 11:-0.333333 12:-0.0666667 13:-0.6 14:0.2 15:0.333333 16:-0.333333 
1 1 1 1 1 1 1 1 1 1 1 1 1 1 1 1 1 0 1 1 1 1 1 1 0 1:-0.466667 2:0.2 3:-0.466667 4:-0.2 5:-0.6 6:-0.2 7:0.0666667 8:-0.2 9:0.333333 10:-0.0666667 11:-0.0666667 12:0.333333 13:-0.866667 14:0.2 15:0.0666667 16:0.0666667 
1 1 1 0 1 1 1 1 0 0 1 1 1 1 1 1 0 1 1 1 0 1 1 1 1 1:-0.466667 2:-0.2 3:-0.333333 4:-0.466667 5:-0.6 6:0.0666667 7:-0.2 8:-0.733333 9:0.333333 10:0.6 11:-0.333333 12:0.333333 13:-0.866667 14:0.2 15:-0.2 16:0.2 
1 1 1 1 1 1 1 1 1 1 1 1 1 1 1 1 1 1 1 1 1 1 1 1 1 1:-0.0666667 2:0.466667 3:0.2 4:0.0666667 5:-0.0666667 6:-0.0666667 7:-0.0666667 8:-0.733333 9:0.2 10:0.6 11:-0.2 12:0.2 13:-0.733333 14:0.2 15:-0.2 16:0.0666667 
0 1 0 0 0 1 1 1 0 0 1 1 1 1 0 1 0 0 0 0 0 0 1 1 0 1:-0.6 2:0.2 3:-0.466667 4:-0.2 5:-0.733333 6:-0.0666667 7:-0.0666667 8:-0.466667 9:0.866667 10:0.333333 11:-0.2 12:0.0666667 13:-1 14:0.0666667 15:0.0666667 16:0.0666667 
1 1 1 1 1 1 1 1 1 1 1 1 1 1 1 1 1 0 1 1 1 1 1 1 1 1:-0.333333 2:-0.0666667 3:-0.2 4:-0.333333 5:-0.333333 6:0.2 7:-0.2 8:-0.333333 9:-0.466667 10:-0.0666667 11:-0.333333 12:-0.0666667 13:-0.6 14:0.0666667 15:0.333333 16:-0.2 
0 1 1 0 1 1 1 1 0 0 1 1 1 1 0 1 0 0 0 1 0 1 1 1 0 1:-0.6 2:0.2 3:-0.466667 4:-0.0666667 5:-0.733333 6:-0.0666667 7:-0.0666667 8:-0.466667 9:0.733333 10:0.333333 11:-0.2 12:0.0666667 13:-1 14:0.0666667 15:0.0666667 16:0.0666667 
1 1 1 1 1 1 1 1 1 1 1 1 1 1 1 1 1 1 1 1 1 1 1 1 1 1:-0.2 2:0.333333 3:0.0666667 4:-0.0666667 5:-0.333333 6:0.0666667 7:-0.2 8:-0.6 9:0.333333 10:0.6 11:-0.466667 12:0.2 13:-0.866667 14:-0.0666667 15:-0.2 16:0.2 
1 1 1 1 1 1 1 1 1 1 1 1 1 1 1 1 1 0 1 1 1 1 1 1 1 1:-0.333333 2:0.2 3:-0.0666667 4:-0.0666667 5:-0.2 6:0.333333 7:0.2 8:-0.2 9:-0.466667 10:-0.0666667 11:-0.333333 12:0.0666667 13:-0.6 14:0.0666667 15:0.333333 16:-0.0666667 
1 1 1 1 1 1 1 1 1 1 1 1 1 1 1 1 1 0 1 1 1 1 1 1 0 1:-0.6 2:0.0666667 3:-0.466667 4:-0.2 5:-0.6 6:-0.0666667 7:-0.0666667 8:-0.2 9:0.333333 10:-0.2 11:-0.2 12:0.0666667 13:-0.866667 14:0.0666667 15:0.0666667 16:0.0666667 
0 0 0 0 0 0 0 0 0 0 0 1 0 0 0 1 0 1 0 0 0 0 0 0 0 1:-0.866667 2:-1 3:-0.866667 4:-0.866667 5:-1 6:-0.0666667 7:-0.0666667 8:-0.733333 9:0.333333 10:0.2 11:-0.2 12:0.0666667 13:-1 14:0.0666667 15:-0.2 16:0.0666667 
1 1 1 1 1 1 1 1 0 0 1 1 1 1 1 1 1 1 1 1 1 1 1 1 1 1:-0.733333 2:-0.333333 3:-0.333333 4:-0.6 5:-0.733333 6:-0.0666667 7:0.0666667 8:-0.733333 9:0.2 10:0.6 11:-0.2 12:0.0666667 13:-0.866667 14:0.2 15:-0.333333 16:-0.0666667 
1 1 1 1 1 1 1 1 1 1 1 1 1 1 0 1 1 1 1 1 1 1 1 1 1 1:-0.333333 2:0.333333 3:-0.0666667 4:0.0666667 5:-0.466667 6:-0.0666667 7:-0.0666667 8:-0.6 9:0.466667 10:0.6 11:-0.0666667 12:0.0666667 13:-0.733333 14:0.0666667 15:-0.0666667 16:-0.0666667 
1 1 1 1 1 1 1 1 1 0 1 1 1 1 1 1 1 1 1 1 1 1 1 1 1 1:-0.466667 2:-0.0666667 3:-0.2 4:-0.333333 5:-0.6 6:-0.0666667 7:-0.0666667 8:-0.733333 9:0.333333 10:0.466667 11:-0.2 12:0.0666667 13:-0.866667 14:0.0666667 15:-0.2 16:0.0666667 
1 1 1 1 1 1 1 1 1 0 1 1 1 1 1 1 1 1 1 1 1 1 1 1 1 1:-0.6 2:0.333333 3:-0.466667 4:-0.0666667 5:-0.6 6:-0.0666667 7:0.0666667 8:-0.6 9:0.466667 10:0.2 11:-0.2 12:0.0666667 13:-1 14:0.0666667 15:-0.0666667 16:0.0666667 
1 1 1 1 1 1 1 1 1 1 1 1 1 1 1 1 1 0 1 1 1 1 1 1 0 1:-0.6 2:-0.333333 3:-0.6 4:-0.6 5:-0.733333 6:0.0666667 7:-0.0666667 8:-0.333333 9:0.333333 10:-0.2 11:-0.2 12:-0.0666667 13:-0.733333 14:0.0666667 15:-0.0666667 16:0.0666667 
1 1 1 1 1 1 1 1 1 1 1 1 1 1 1 1 1 1 1 1 1 1 1 1 1 1:-0.333333 2:0.0666667 3:-0.0666667 4:-0.2 5:-0.333333 6:0.0666667 7:-0.0666667 8:-0.733333 9:0.2 10:0.6 11:-0.2 12:-0.0666667 13:-0.866667 14:-0.0666667 15:-0.2 16:-0.0666667 
1 1 1 1 1 1 1 1 1 1 1 1 1 1 1 1 1 1 1 1 1 1 1 1 1 1:-0.466667 2:0.2 3:-0.2 4:-0.0666667 5:-0.466667 6:-0.0666667 7:0.2 8:-0.733333 9:0.2 10:0.466667 11:-0.0666667 12:-0.2 13:-0.866667 14:-0.0666667 15:-0.2 16:-0.2 
1 1 1 0 1 1 1 1 0.6571590321824048 0 1 1 1 1 0 1 1 0 1 1 1 1 1 1 0 1:-0.733333 2:-0.866667 3:-0.6 4:-0.6 5:-0.733333 6:-0.0666667 7:0.0666667 8:-0.333333 9:0.2 10:-0.2 11:-0.2 12:0.2 13:-0.866667 14:0.2 15:-0.0666667 16:0.0666667 
1 1 1 1 1 1 0 1 0 0 1 1 1 1 1 1 0.2930315462542796 1 0 1 1 1 1 1 1 1:-0.733333 2:-0.466667 3:-0.466667 4:-0.733333 5:-0.733333 6:-0.0666667 7:-0.0666667 8:-0.733333 9:0.2 10:0.6 11:-0.2 12:0.0666667 13:-0.866667 14:0.0666667 15:-0.333333 16:0.0666667 
1 1 1 1 1 1 1 1 1 1 1 1 1 1 1 1 1 1 1 1 0 1 1 1 1 1:-0.333333 2:0.2 3:-0.2 4:-0.466667 5:-0.6 6:0.333333 7:-0.6 8:-0.6 9:-0.0666667 10:0.6 11:-0.466667 12:0.333333 13:-0.733333 14:0.2 15:-0.466667 16:0.466667 
1 1 1 1 1 1 1 1 0 1 1 1 1 1 1 1 1 1 1 1 0 1 1 1 0 1:-0.866667 2:-0.6 3:-0.733333 4:-0.733333 5:-0.866667 6:-0.0666667 7:-0.0666667 8:-0.333333 9:0.0666667 10:-0.2 11:-0.2 12:0.0666667 13:-0.733333 14:0.0666667 15:-0.0666667 16:0.0666667 
0 1 0 1 0 1 0 1 0 0 1 1 1 0 1 1 0 1 0 0 1 1 1 1 1 1:-0.866667 2:-0.6 3:-0.6 4:-0.733333 5:-0.866667 6:-0.0666667 7:-0.0666667 8:-0.733333 9:0.2 10:0.466667 11:-0.2 12:0.0666667 13:-0.866667 14:0.0666667 15:-0.333333 16:-0.0666667 
0 1 1 0 1 1 1 1 0 0 1 1 1 1 0 1 0 0 1 1 0 1 1 1 0 1:-0.466667 2:-0.333333 3:-0.333333 4:0.0666667 5:-0.733333 6:-0.0666667 7:-0.0666667 8:-0.466667 9:0.866667 10:0.333333 11:-0.2 12:0.0666667 13:-1 14:0.0666667 15:0.0666667 16:0.0666667 
1 1 1 1 1 1 1 1 1 0 1 1 1 1 0 1 1 1 1 1 1 1 1 1 1 1:-0.333333 2:0.0666667 3:-0.0666667 4:-0.2 5:-0.466667 6:-0.333333 7:0.333333 8:-0.6 9:0.333333 10:0.466667 11:0.2 12:-0.2 13:-0.866667 14:0.2 15:-0.2 16:-0.333333 
1 1 1 1 1 1 1 1 1 1 1 1 1 1 1 1 1 1 1 1 1 1 1 1 1 1:-0.466667 2:-0.0666667 3:-0.333333 4:-0.333333 5:-0.466667 6:0.2 7:0.0666667 8:-0.333333 9:-0.6 10:-0.0666667 11:-0.333333 12:-0.0666667 13:-0.6 14:-0.0666667 15:0.0666667 16:-0.466667 
1 1 1 0 1 1 1 1 0 1 1 1 1 1 1 1 0 1 1 1 0 1 1 1 1 1:-0.466667 2:0.0666667 3:-0.2 4:-0.2 5:-0.6 6:0.2 7:-0.333333 8:-0.6 9:0.333333 10:0.466667 11:-0.466667 12:0.2 13:-0.866667 14:-0.0666667 15:-0.2 16:0.2 
1 1 1 1 1 1 0.9209857358378657 1 0 0 1 1 1 1 0 1 1 1 0 1 1 1 1 1 1 1:-0.733333 2:-0.6 3:-0.466667 4:-0.733333 5:-0.733333 6:-0.0666667 7:0.0666667 8:-0.733333 9:0.2 10:0.6 11:-0.0666667 12:-0.0666667 13:-0.866667 14:0.0666667 15:-0.333333 16:-0.0666667 
1 1 1 1 1 1 1 1 1 1 1 1 1 1 1 1 1 1 1 1 1 1 1 1 1 1:-0.0666667 2:0.466667 3:-0.0666667 4:-0.2 5:-0.466667 6:0.2 7:-0.333333 8:-0.6 9:0.0666667 10:0.466667 11:-0.466667 12:0.2 13:-0.6 14:-0.2 15:-0.0666667 16:0.2 
1 1 1 1 1 1 1 1 0 0 1 1 1 1 1 1 1 1 0 1 1 1 1 1 1 1:-0.733333 2:-0.466667 3:-0.333333 4:-0.6 5:-0.733333 6:-0.0666667 7:-0.0666667 8:-0.733333 9:0.2 10:0.6 11:-0.2 12:0.0666667 13:-0.866667 14:0.0666667 15:-0.333333 16:0.0666667 
1 1 1 1 1 1 1 1 1 0 1 1 1 1 1 1 1 0 1 1 1 1 1 1 0 1:-0.333333 2:0.466667 3:-0.0666667 4:0.0666667 5:-0.333333 6:-0.0666667 7:-0.0666667 8:-0.6 9:0.733333 10:0.2 11:-0.2 12:0.0666667 13:-1 14:0.0666667 15:0.0666667 16:0.0666667 
0 1 0 0 0 0 0 0 0 0 0 1 0 0 0 1 0 1 0 0 0 0 0 0 0 1:-0.866667 2:-0.866667 3:-0.733333 4:-0.866667 5:-1 6:0.0666667 7:-0.0666667 8:-0.733333 9:0.333333 10:0.2 11:-0.2 12:0.0666667 13:-1 14:0.0666667 15:-0.2 16:0.0666667 
0 1 1 0 1 1 1 1 0 0 1 1 1 1 0 1 0 0 0 1 0 1 1 1 0 1:-0.733333 2:-0.866667 3:-0.6 4:-0.733333 5:-0.866667 6:-0.0666667 7:-0.0666667 8:-0.333333 9:0.2 10:-0.2 11:-0.2 12:0.2 13:-0.866667 14:0.0666667 15:-0.0666667 16:0.0666667 
1 1 1 1 1 1 1 1 1 1 1 1 1 1 1 1 1 0 1 1 1 1 1 1 1 1:-0.2 2:0.466667 3:0.0666667 4:0.2 5:0.0666667 6:0.333333 7:-0.0666667 8:-0.333333 9:-0.466667 10:-0.0666667 11:-0.333333 12:-0.0666667 13:-0.466667 14:0.0666667 15:0.333333 16:-0.333333 
1 1 1 1 1 1 1 1 1 1 1 1 1 1 0 1 1 0 1 1 1 1 1 1 0 1:-0.466667 2:0.0666667 3:-0.2 4:-0.2 5:-0.2 6:0.0666667 7:0.0666667 8:-0.6 9:-0.0666667 10:-0.0666667 11:-0.0666667 12:-0.0666667 13:-0.866667 14:0.2 15:0.333333 16:0.0666667 
1 1 1 1 1 1 1 1 1 1 1 1 1 1 1 1 1 0 1 1 1 1 1 1 1 1:0.0666667 2:0.0666667 3:-0.2 4:0.466667 5:-0.333333 6:-0.0666667 7:-0.0666667 8:-0.466667 9:-0.6 10:0.466667 11:-0.2 12:0.0666667 13:-0.6 14:0.2 15:0.466667 16:-0.2 
1 1 1 1 1 1 1 1 1 1 1 1 1 1 1 1 1 1 1 1 0 1 1 1 1 1:-0.466667 2:0.0666667 3:-0.2 4:-0.2 5:-0.466667 6:0.0666667 7:-0.2 8:-0.733333 9:0.2 10:0.466667 11:-0.466667 12:0.333333 13:-0.733333 14:-0.0666667 15:-0.0666667 16:0.2 
1 1 1 1 1 1 1 1 1 1 1 1 1 1 1 1 1 1 1 1 1 1 1 1 1 1:-0.466667 2:-0.333333 3:-0.333333 4:-0.0666667 5:-0.466667 6:0.466667 7:-0.333333 8:-0.466667 9:-0.333333 10:0.333333 11:-0.6 12:0.2 13:-0.733333 14:-0.2 15:-0.2 16:0.333333 
1 1 1 1 1 1 1 1 0 0 1 1 1 1 1 1 0 1 0 1 0 1 1 1 1 1:-0.733333 2:-0.333333 3:-0.466667 4:-0.6 5:-0.733333 6:0.0666667 7:-0.0666667 8:-0.733333 9:0.2 10:0.466667 11:-0.2 12:0.0666667 13:-0.866667 14:-0.0666667 15:-0.2 16:-0.0666667 
1 1 1 1 1 1 1 1 1 1 1 1 1 1 1 1 1 1 1 1 1 1 1 1 1 1:-0.866667 2:-0.6 3:-0.733333 4:-0.733333 5:-0.866667 6:-0.0666667 7:-0.0666667 8:-0.466667 9:-0.0666667 10:-0.2 11:-0.2 12:0.0666667 13:-0.866667 14:0.0666667 15:-0.2 16:0.0666667 
1 1 1 1 1 1 1 1 1 1 1 1 1 1 1 1 1 0 1 1 1 1 1 1 0 1:-0.6 2:-0.333333 3:-0.6 4:-0.6 5:-0.733333 6:0.0666667 7:-0.0666667 8:-0.333333 9:0.333333 10:-0.2 11:-0.2 12:-0.0666667 13:-0.733333 14:0.0666667 15:-0.0666667 16:0.0666667 
1 1 1 1 1 1 1 1 1 1 1 1 1 1 1 1 1 1 1 1 1 1 1 1 1 1:-0.333333 2:0.0666667 3:-0.0666667 4:-0.2 5:-0.466667 6:0.0666667 7:-0.0666667 8:-0.733333 9:0.333333 10:0.6 11:-0.2 12:-0.0666667 13:-0.866667 14:-0.0666667 15:-0.2 16:-0.0666667 
1 1 1 1 1 1 1 1 0 1 1 1 1 1 1 1 0 1 0 1 0.8923485504599821 1 1 1 1 1:-0.733333 2:-0.2 3:-0.466667 4:-0.466667 5:-0.733333 6:0.0666667 7:-0.0666667 8:-0.733333 9:0.2 10:0.466667 11:-0.333333 12:0.2 13:-0.866667 14:0.0666667 15:-0.333333 16:0.0666667 
1 1 1 1 1 1 1 1 1 1 1 1 1 1 1 1 1 1 1 1 1 1 1 1 1 1:-0.333333 2:0.2 3:-0.0666667 4:-0.0666667 5:-0.333333 6:0.2 7:-0.2 8:-0.733333 9:0.2 10:0.466667 11:-0.466667 12:0.2 13:-0.6 14:-0.0666667 15:-0.0666667 16:0.2 
0 1 0 0 0 0 0 1 0 0 0 1 0 0 0 1 0 1 0 0 0 0 1 1 0 1:-0.733333 2:-0.0666667 3:-0.6 4:-0.333333 5:-0.866667 6:-0.0666667 7:-0.0666667 8:-0.6 9:0.6 10:0.2 11:-0.2 12:0.0666667 13:-1 14:0.0666667 15:0.0666667 16:0.0666667 
0 1 1 0 1 1 1 1 0 0 1 1 1 1 0 1 0 0 1 1 0 1 1 1 0 1:-0.466667 2:0.2 3:-0.466667 4:-0.0666667 5:-0.733333 6:-0.0666667 7:-0.0666667 8:-0.466667 9:0.866667 10:0.2 11:-0.2 12:0.0666667 13:-1 14:0.0666667 15:0.0666667 16:0.0666667 
1 1 1 1 1 1 1 1 1 1 1 1 1 1 1 1 1 1 1 1 1 1 1 1 0 1:-0.6 2:-0.333333 3:-0.466667 4:-0.466667 5:-0.6 6:-0.0666667 7:-0.0666667 8:-0.333333 9:0.2 10:-0.2 11:-0.2 12:0.0666667 13:-0.866667 14:0.0666667 15:-0.0666667 16:0.0666667 
1 1 1 1 1 1 1 1 1 1 1 1 1 1 1 1 1 0 1 1 1 1 1 1 1 1:-0.333333 2:0.2 3:-0.2 4:-0.0666667 5:-0.333333 6:0.0666667 7:-0.0666667 8:-0.333333 9:0.333333 10:-0.0666667 11:-0.2 12:0.0666667 13:-0.866667 14:0.0666667 15:-0.0666667 16:0.0666667 
0 1 1 1 1 1 1 1 0 1 1 1 1 1 1 1 0 1 0 1 0 1 1 1 1 1:-0.733333 2:-0.466667 3:-0.466667 4:-0.6 5:-0.733333 6:0.0666667 7:-0.0666667 8:-0.733333 9:0.2 10:0.466667 11:-0.333333 12:0.2 13:-0.866667 14:0.0666667 15:-0.333333 16:0.0666667 
1 1 1 0 1 1 1 1 0 0 1 1 1 1 1 1 0 1 0 1 0 1 1 1 0 1:-0.866667 2:-0.6 3:-0.733333 4:-0.733333 5:-0.866667 6:-0.0666667 7:-0.0666667 8:-0.333333 9:0.0666667 10:-0.2 11:-0.2 12:0.0666667 13:-0.866667 14:0.0666667 15:-0.0666667 16:0.0666667 
1 1 1 1 1 1 1 1 1 0 1 1 1 1 1 1 1 1 1 1 1 1 1 1 1 1:-0.333333 2:0.2 3:-0.2 4:-0.0666667 5:-0.466667 6:-0.2 7:0.0666667 8:-0.6 9:0.333333 10:0.6 11:-0.0666667 12:0.0666667 13:-0.866667 14:0.2 15:-0.2 16:-0.0666667 
1 1 1 1 1 1 1 1 0 1 1 1 1 1 1 1 0 1 1 1 0 1 1 1 1 1:-0.6 2:-0.2 3:-0.333333 4:0.2 5:-0.466667 6:0.466667 7:-0.6 8:-0.733333 9:-0.2 10:0.0666667 11:-0.733333 12:-0.2 13:-0.866667 14:0.0666667 15:-0.2 16:0.2 
1 1 1 1 1 1 1 1 1 1 1 1 1 1 1 1 1 1 1 1 1 1 1 1 1 1:-0.333333 2:0.333333 3:-0.2 4:0.0666667 5:-0.2 6:0.2 7:-0.2 8:-0.333333 9:0.2 10:0.0666667 11:-0.333333 12:-0.0666667 13:-0.866667 14:-0.0666667 15:-0.0666667 16:0.0666667 
1 1 1 1 1 1 1 1 1 1 1 1 1 1 1 1 1 1 1 1 1 1 1 1 1 1:-0.6 2:0.333333 3:-0.466667 4:0.0666667 5:-0.333333 6:-0.2 7:0.0666667 8:-0.333333 9:0.2 10:-0.0666667 11:-0.0666667 12:0.2 13:-0.733333 14:0.2 15:-0.0666667 16:0.0666667 
1 1 1 0 1 1 1 1 1 0 1 1 1 1 1 1 1 0 1 1 0 1 1 1 0 1:-0.733333 2:-0.733333 3:-0.6 4:-0.466667 5:-0.733333 6:0.0666667 7:-0.0666667 8:-0.333333 9:0.2 10:-0.2 11:-0.2 12:0.0666667 13:-0.866667 14:0.0666667 15:-0.0666667 16:0.0666667 
1 1 1 1 1 1 1 1 1 1 1 1 1 1 1 1 0 1 1 1 0 1 1 1 1 1:-0.333333 2:0.333333 3:-0.2 4:0.0666667 5:-0.466667 6:0.2 7:-0.333333 8:-0.6 9:0.333333 10:0.466667 11:-0.6 12:0.333333 13:-0.866667 14:0.0666667 15:-0.2 16:0.333333 
1 1 1 1 1 1 1 1 1 1 1 1 1 1 1 1 1 1 1 1 0 1 1 1 1 1:-0.733333 2:-0.466667 3:-0.466667 4:-0.2 5:-0.6 6:0.466667 7:-0.333333 8:-0.6 9:-0.466667 10:0.2 11:-0.6 12:-0.0666667 13:-0.733333 14:-0.0666667 15:-0.2 16:0.0666667 
0 0 0 0 0 0 0 0 0 0 0 1 0 0 0 1 0 1 0 0 0 0 0 0 0 1:-0.866667 2:-1 3:-0.733333 4:-0.866667 5:-1 6:-0.0666667 7:-0.0666667 8:-0.733333 9:0.333333 10:0.2 11:-0.2 12:0.0666667 13:-1 14:0.0666667 15:-0.2 16:0.0666667 
1 1 1 1 1 1 1 1 1 1 1 1 1 1 1 1 1 0 1 1 1 1 1 1 1 1:-0.2 2:-0.0666667 3:-0.333333 4:0.466667 5:-0.466667 6:0.2 7:-0.2 8:-0.466667 9:-0.6 10:0.466667 11:-0.2 12:0.0666667 13:-0.6 14:0.2 15:0.466667 16:-0.0666667 
1 1 1 1 1 1 1 1 1 1 1 1 1 1 1 1 1 0 1 1 1 1 1 1 1 1:-0.466667 2:0.333333 3:-0.333333 4:0.0666667 5:-0.333333 6:0.0666667 7:-0.0666667 8:-0.2 9:0.333333 10:-0.0666667 11:-0.333333 12:-0.0666667 13:-0.866667 14:-0.0666667 15:0.0666667 16:0.0666667 
1 1 1 1 1 1 1 1 1 1 1 1 1 1 1 1 1 1 1 1 1 1 1 1 1 1:-0.333333 2:0.0666667 3:-0.0666667 4:0.333333 5:-0.2 6:0.466667 7:-0.333333 8:-0.6 9:-0.333333 10:0.2 11:-0.733333 12:-0.0666667 13:-0.733333 14:-0.0666667 15:-0.2 16:0.2 
1 1 1 1 1 1 1 1 0 0 1 1 1 1 1 1 1 1 1 1 1 1 1 1 1 1:-0.6 2:0.0666667 3:-0.466667 4:-0.2 5:-0.6 6:-0.0666667 7:0.0666667 8:-0.6 9:0.466667 10:0.0666667 11:-0.2 12:0.0666667 13:-1 14:0.0666667 15:-0.0666667 16:-0.0666667 
1 1 1 1 1 1 1 1 1 1 1 1 1 1 1 1 1 0 1 1 1 1 1 1 0 1:-0.466667 2:-0.0666667 3:-0.333333 4:-0.333333 5:-0.333333 6:-0.0666667 7:-0.2 8:-0.733333 9:-0.0666667 10:-0.0666667 11:-0.2 12:0.2 13:-0.866667 14:-0.0666667 15:0.333333 16:0.0666667 
0 1 0 0 0 0 0 0 0 0 0 1 0 0 0 1 0 1 0 0 0 0 1 1 0 1:-0.866667 2:-1 3:-0.733333 4:-1 5:-1 6:-0.0666667 7:-0.0666667 8:-0.6 9:0.333333 10:0.0666667 11:-0.2 12:0.0666667 13:-1 14:0.0666667 15:-0.2 16:0.0666667 
0 1 0 0 0 0 0 1 0 0 0 1 0 0 0 1 0 0 0 0 0 0 1 1 0 1:-0.6 2:-0.2 3:-0.466667 4:-0.466667 5:-0.733333 6:-0.0666667 7:-0.0666667 8:-0.6 9:0.866667 10:0.2 11:-0.2 12:0.0666667 13:-1 14:0.0666667 15:0.0666667 16:0.0666667 
1 1 1 1 1 1 1 1 0 0 1 1 1 1 0.2369164143091963 1 1 1 1 1 1 1 1 1 1 1:-0.6 2:-0.333333 3:-0.2 4:-0.466667 5:-0.6 6:0.0666667 7:-0.0666667 8:-0.733333 9:0.333333 10:0.6 11:-0.2 12:0.2 13:-0.866667 14:0.0666667 15:-0.2 16:0.0666667 
1 1 1 1 1 1 1 1 1 0 1 1 1 1 1 1 1 1 1 1 1 1 1 1 1 1:-0.466667 2:-0.0666667 3:-0.2 4:-0.333333 5:-0.6 6:-0.0666667 7:-0.0666667 8:-0.733333 9:0.333333 10:0.6 11:-0.2 12:0.0666667 13:-0.866667 14:0.2 15:-0.2 16:0.0666667 
1 1 1 1 1 1 1 1 1 0 1 1 1 1 1 1 1 0 1 1 1 1 1 1 0 1:-0.6 2:-0.2 3:-0.466667 4:-0.466667 5:-0.6 6:-0.2 7:0.0666667 8:-0.333333 9:0.333333 10:-0.0666667 11:-0.0666667 12:0.333333 13:-0.866667 14:0.2 15:-0.0666667 16:0.0666667 
1 1 1 1 1 1 1 1 1 1 1 1 1 1 1 1 1 0 1 1 1 1 1 1 1 1:-0.333333 2:0.2 3:-0.2 4:-0.0666667 5:-0.466667 6:0.0666667 7:-0.2 8:-0.2 9:0.466667 10:-0.0666667 11:-0.333333 12:-0.2 13:-0.866667 14:-0.0666667 15:0.0666667 16:0.0666667 
0 1 0 0 0 0 0 0 0 0 0 1 0 0 0 1 0 1 0 0 0 0 0 0 0 1:-0.866667 2:-1 3:-0.733333 4:-0.866667 5:-1 6:-0.0666667 7:-0.0666667 8:-0.733333 9:0.333333 10:0.0666667 11:-0.2 12:0.0666667 13:-1 14:0.0666667 15:-0.2 16:0.0666667 
1 1 1 1 1 1 1 1 1 1 1 1 1 1 1 1 1 1 1 1 1 1 1 1 1 1:-0.733333 2:-0.333333 3:-0.466667 4:-0.2 5:-0.466667 6:0.2 7:-0.2 8:-0.333333 9:-0.466667 10:-0.0666667 11:-0.6 12:-0.2 13:-0.733333 14:-0.0666667 15:-0.0666667 16:-0.2 
1 1 1 1 1 1 1 1 1 1 1 1 1 1 1 1 1 1 1 1 1 1 1 1 1 1:-0.0666667 2:0.2 3:-0.0666667 4:-0.333333 5:-0.466667 6:-0.0666667 7:-0.0666667 8:-0.733333 9:0.2 10:0.6 11:-0.2 12:0.0666667 13:-0.6 14:-0.0666667 15:-0.2 16:-0.2 
1 1 1 1 1 1 1 1 1 1 1 1 1 1 1 1 1 0 1 1 1 1 1 1 0.4052367473773028 1:-0.466667 2:0.333333 3:-0.333333 4:0.0666667 5:-0.466667 6:-0.2 7:0.0666667 8:-0.2 9:0.333333 10:-0.0666667 11:-0.0666667 12:0.333333 13:-0.866667 14:0.2 15:0.0666667 16:0.0666667 
1 1 1 1 1 1 1 1 1 1 1 1 1 1 1 1 1 1 1 1 1 1 1 1 1 1:-0.466667 2:0.2 3:-0.2 4:-0.0666667 5:-0.0666667 6:0.0666667 7:-0.0666667 8:-0.733333 9:0.0666667 10:-0.0666667 11:-0.2 12:0.0666667 13:-1 14:0.0666667 15:0.2 16:0.0666667 
0 1 0 0 1 1 1 1 0 0 1 1 1 1 0 1 0 0 0 1 0 1 1 1 0 1:-0.6 2:0.0666667 3:-0.466667 4:-0.2 5:-0.733333 6:-0.0666667 7:-0.0666667 8:-0.466667 9:0.733333 10:0.333333 11:-0.2 12:0.0666667 13:-1 14:0.0666667 15:0.0666667 16:0.0666667 
1 1 1 0 1 1 1 1 0 0 1 1 1 1 0 1 0 0 1 1 0 1 1 1 0 1:-0.466667 2:0.466667 3:-0.333333 4:0.0666667 5:-0.733333 6:-0.0666667 7:-0.0666667 8:-0.466667 9:0.866667 10:0.333333 11:-0.2 12:0.0666667 13:-1 14:0.0666667 15:0.0666667 16:0.0666667 
1 1 1 1 1 1 1 1 1 1 1 1 1 1 1 1 1 1 1 1 1 1 1 1 1 1:-0.0666667 2:0.333333 3:-0.0666667 4:-0.2 5:-0.466667 6:0.0666667 7:-0.2 8:-0.733333 9:0.0666667 10:0.6 11:-0.2 12:0.2 13:-0.6 14:0.0666667 15:-0.2 16:-0.0666667 
1 1 1 1 1 1 1 1 0.0876574845800322 0 1 1 1 1 0 1 1 1 0 1 1 1 1 1 1 1:-0.733333 2:-0.333333 3:-0.333333 4:-0.6 5:-0.733333 6:-0.0666667 7:0.0666667 8:-0.733333 9:0.2 10:0.6 11:-0.2 12:0.0666667 13:-0.866667 14:0.2 15:-0.333333 16:0.0666667 
1 1 1 1 1 1 1 1 1 1 1 1 1 1 1 1 1 1 1 1 1 1 1 1 1 1:-0.6 2:-0.0666667 3:-0.466667 4:-0.333333 5:-0.466667 6:0.2 7:0.2 8:-0.333333 9:-0.6 10:-0.0666667 11:-0.333333 12:-0.0666667 13:-0.6 14:0.0666667 15:0.2 16:-0.466667 
1 1 1 1 1 1 1 1 1 0 1 1 1 1 0 1 1 0 1 1 1 1 1 1 0 1:-0.466667 2:0.2 3:-0.333333 4:-0.0666667 5:-0.466667 6:-0.0666667 7:0.0666667 8:-0.6 9:0.733333 10:0.0666667 11:-0.2 12:0.0666667 13:-1 14:0.0666667 15:0.0666667 16:-0.0666667 
0 1 0 0 0 0 0 1 0 0 0 1 0 0 0 1 0 0 0 0 0 0 1 1 0 1:-0.733333 2:-0.866667 3:-0.733333 4:-0.866667 5:-0.866667 6:-0.0666667 7:-0.0666667 8:-0.6 9:0.466667 10:0.0666667 11:-0.2 12:0.0666667 13:-1 14:0.0666667 15:-0.2 16:0.0666667 
0 1 0 1 0 1 0 1 0 0 1 1 0 0 1 1 0 1 0 0 1 1 1 1 1 1:-0.866667 2:-0.6 3:-0.733333 4:-0.733333 5:-0.866667 6:-0.0666667 7:-0.0666667 8:-0.866667 9:0.0666667 10:0.466667 11:-0.2 12:0.2 13:-0.866667 14:0.2 15:-0.333333 16:0.0666667 
0 1 0 0 0 0 0 0 0 0 0 1 0 0 0 1 0 0 0 0 0 0 0 1 0 1:-0.733333 2:-0.866667 3:-0.733333 4:-0.733333 5:-0.866667 6:-0.0666667 7:-0.0666667 8:-0.6 9:0.466667 10:0.2 11:-0.2 12:0.0666667 13:-1 14:0.0666667 15:-0.0666667 16:0.0666667 
1 1 1 1 1 1 1 1 1 1 1 1 1 1 1 1 1 1 1 1 1 1 1 1 1 1:-0.466667 2:0.2 3:-0.333333 4:-0.0666667 5:-0.333333 6:-0.0666667 7:0.0666667 8:-0.333333 9:0.2 10:-0.0666667 11:-0.0666667 12:0.0666667 13:-0.866667 14:0.0666667 15:-0.0666667 16:0.0666667 
1 1 1 0 1 1 1 1 0 0 1 1 1 1 0 1 0 0 1 1 0 1 1 1 0 1:-0.333333 2:-0.333333 3:-0.2 4:0.0666667 5:-0.6 6:-0.0666667 7:-0.0666667 8:-0.466667 9:1 10:0.2 11:-0.2 12:0.0666667 13:-1 14:0.0666667 15:0.2 16:0.0666667 
1 1 1 1 1 1 1 1 1 1 1 1 1 1 1 1 1 1 1 1 1 1 1 1 1 1:-0.333333 2:0.2 3:-0.0666667 4:-0.0666667 5:-0.466667 6:-0.0666667 7:0.0666667 8:-0.733333 9:0.333333 10:0.6 11:-0.2 12:0.2 13:-0.733333 14:0.333333 15:-0.2 16:0.0666667 
1 1 1 1 1 1 1 1 1 1 1 1 1 1 1 1 1 1 1 1 1 1 1 1 1 1:-0.466667 2:0.2 3:-0.2 4:-0.0666667 5:-0.2 6:-0.0666667 7:-0.0666667 8:-0.6 9:-0.0666667 10:-0.0666667 11:-0.2 12:0.2 13:-1 14:0.0666667 15:0.2 16:-0.0666667 
0 1 0 0 0 0 0 0 0 0 0 1 0 0 0 1 0 1 0 0 0 0 0 1 0 1:-0.866667 2:-1 3:-0.866667 4:-1 5:-1 6:-0.0666667 7:-0.0666667 8:-0.733333 9:0.2 10:0.0666667 11:-0.2 12:0.0666667 13:-1 14:0.0666667 15:-0.2 16:0.0666667 
1 1 1 1 1 1 1 1 1 1 1 1 1 1 1 1 1 1 1 1 1 1 1 1 0 1:-0.733333 2:-0.333333 3:-0.6 4:-0.466667 5:-0.733333 6:-0.0666667 7:-0.0666667 8:-0.333333 9:0.2 10:-0.2 11:-0.2 12:0.0666667 13:-0.733333 14:0.0666667 15:-0.0666667 16:0.0666667 
1 1 1 1 1 1 1 1 1 1 1 1 1 1 1 1 0 1 1 1 0 1 1 1 1 1:-0.466667 2:-0.466667 3:-0.2 4:-0.2 5:-0.6 6:0.6 7:-0.466667 8:-0.466667 9:-0.466667 10:0.466667 11:-0.733333 12:0.2 13:-0.733333 14:-0.0666667 15:-0.466667 16:0.466667 
1 1 1 1 1 1 1 1 1 1 1 1 1 1 1 1 1 0 1 1 1 1 1 1 0 1:-0.6 2:-0.733333 3:-0.466667 4:-0.466667 5:-0.6 6:-0.0666667 7:-0.0666667 8:-0.333333 9:0.2 10:-0.2 11:-0.2 12:0.0666667 13:-0.866667 14:0.0666667 15:-0.0666667 16:0.0666667 
1 1 1 1 1 1 1 1 1 1 1 1 1 1 1 1 1 1 1 1 1 1 1 1 1 1:-0.466667 2:-0.0666667 3:-0.466667 4:-0.333333 5:-0.466667 6:-0.0666667 7:0.0666667 8:-0.333333 9:0.2 10:-0.0666667 11:-0.0666667 12:0.2 13:-0.866667 14:0.2 15:-0.0666667 16:0.0666667 
0 0 0 0 0 0 0 0 0 0 0 1 0 0 0 1 0 1 0 0 0 0 0 0 0 1:-0.866667 2:-1 3:-0.866667 4:-0.866667 5:-1 6:-0.0666667 7:-0.0666667 8:-0.733333 9:0.333333 10:0.0666667 11:-0.2 12:0.0666667 13:-1 14:0.0666667 15:-0.2 16:0.0666667 
0 0.9793993471203923 0 0 0 0 0 0 0 0 0 1 0 0 0 1 0 1 0 0 0 0 0 0 0 1:-0.866667 2:-1 3:-0.866667 4:-0.866667 5:-1 6:-0.0666667 7:-0.0666667 8:-0.733333 9:0.333333 10:0.0666667 11:-0.2 12:0.0666667 13:-1 14:0.0666667 15:-0.2 16:0.0666667 
1 1 1 0 1 1 1 1 1 0 1 1 1 1 0 1 1 0 1 1 1 1 1 1 0 1:-0.733333 2:-0.6 3:-0.6 4:-0.733333 5:-0.733333 6:-0.0666667 7:0.0666667 8:-0.333333 9:0.2 10:-0.2 11:-0.2 12:0.2 13:-0.866667 14:0.0666667 15:-0.0666667 16:0.0666667 
1 1 1 1 1 1 1 1 1 1 1 1 1 1 0 1 1 0 1 1 1 1 1 1 1 1:-0.333333 2:0.2 3:-0.0666667 4:-0.0666667 5:-0.333333 6:-0.2 7:0.2 8:-0.6 9:0.2 10:0.6 11:0.0666667 12:-0.2 13:-0.6 14:0.333333 15:0.0666667 16:-0.2 
0 1 1 0 1 1 1 1 0 0 1 1 1 1 0 1 0 0 0 1 0 1 1 1 0 1:-0.6 2:0.0666667 3:-0.466667 4:-0.2 5:-0.733333 6:-0.0666667 7:-0.0666667 8:-0.466667 9:0.733333 10:0.2 11:-0.2 12:0.0666667 13:-1 14:0.0666667 15:0.0666667 16:0.0666667 
0 1 1 0 1 1 1 1 0 0 1 1 1 1 0 1 0 0 1 1 0 1 1 1 0 1:-0.466667 2:-0.466667 3:-0.333333 4:-0.2 5:-0.733333 6:-0.0666667 7:-0.0666667 8:-0.466667 9:0.866667 10:0.2 11:-0.2 12:0.0666667 13:-1 14:0.0666667 15:0.0666667 16:0.0666667 
1 1 1 0 1 1 1 1 1 0 1 1 1 1 0 1 1 0 1 1 0 1 1 1 0 1:-0.333333 2:-0.2 3:-0.2 4:0.0666667 5:-0.6 6:-0.0666667 7:-0.0666667 8:-0.466667 9:1 10:0.2 11:-0.2 12:0.0666667 13:-1 14:0.0666667 15:0.0666667 16:0.0666667 
1 1 1 1 1 1 1 1 1 1 1 1 1 1 1 1 1 0 1 1 1 1 1 1 1 1:0.0666667 2:0.0666667 3:-0.333333 4:0.6 5:-0.333333 6:0.333333 7:-0.6 8:-0.466667 9:-0.333333 10:0.6 11:-0.333333 12:0.2 13:-0.6 14:0.0666667 15:0.2 16:0.466667 
1 1 1 1 1 1 1 1 1 1 1 1 1 1 0 1 1 0 1 1 1 1 1 1 1 1:-0.2 2:0.333333 3:0.0666667 4:0.0666667 5:-0.333333 6:-0.0666667 7:0.0666667 8:-0.6 9:0.333333 10:0.6 11:0.0666667 12:-0.0666667 13:-0.733333 14:0.0666667 15:-0.0666667 16:-0.2 
1 1 1 1 1 1 0 1 0 0 1 1 1 1 1 1 1 1 0 1 1 1 1 1 1 1:-0.733333 2:-0.6 3:-0.466667 4:-0.733333 5:-0.866667 6:-0.0666667 7:-0.0666667 8:-0.733333 9:0.2 10:0.466667 11:-0.2 12:0.0666667 13:-0.866667 14:0.0666667 15:-0.333333 16:-0.0666667 
1 1 1 1 1 1 1 1 1 1 1 1 1 1 1 1 1 0 1 1 1 1 1 1 1 1:-0.2 2:-0.0666667 3:-0.333333 4:0.333333 5:-0.466667 6:0.0666667 7:-0.333333 8:-0.333333 9:-0.333333 10:0.466667 11:-0.2 12:-0.0666667 13:-0.6 14:0.2 15:0.2 16:0.0666667 
0 1 0 0 1 1 1 1 0 0 1 1 1 1 0 1 0 0 0 1 0 1 1 1 0 1:-0.6 2:0.2 3:-0.466667 4:-0.0666667 5:-0.733333 6:-0.0666667 7:-0.0666667 8:-0.466667 9:0.866667 10:0.2 11:-0.2 12:0.0666667 13:-1 14:0.0666667 15:0.0666667 16:0.0666667 
1 1 1 1 1 1 1 1 1 1 1 1 1 1 1 1 1 0 1 1 1 1 1 1 1 1:-0.333333 2:0.0666667 3:-0.0666667 4:-0.2 5:-0.333333 6:0.2 7:0.0666667 8:-0.2 9:-0.466667 10:-0.0666667 11:-0.333333 12:0.0666667 13:-0.6 14:0.0666667 15:0.333333 16:-0.0666667 
1 1 1 1 1 1 1 1 1 1 1 1 1 1 1 1 1 1 1 1 1 1 1 1 0 1:-0.733333 2:-0.333333 3:-0.6 4:-0.6 5:-0.6 6:0.0666667 7:-0.0666667 8:-0.333333 9:0.2 10:-0.2 11:-0.2 12:-0.0666667 13:-0.733333 14:0.0666667 15:-0.0666667 16:0.0666667 
0 1 0 0 0 0.5742176547950949 0 1 0 0 0 1 1 0 0 1 0 0 0 0 0 0 1 1 0 1:-0.6 2:-0.6 3:-0.466667 4:-0.333333 5:-0.733333 6:-0.0666667 7:-0.0666667 8:-0.466667 9:0.866667 10:0.2 11:-0.2 12:0.0666667 13:-1 14:0.0666667 15:0.0666667 16:0.0666667 
1 1 1 1 1 1 1 1 0 0 1 1 1 1 0 1 1 1 0 1 1 1 1 1 1 1:-0.6 2:-0.333333 3:-0.333333 4:-0.466667 5:-0.733333 6:-0.0666667 7:-0.0666667 8:-0.733333 9:0.333333 10:0.6 11:-0.2 12:0.0666667 13:-0.866667 14:0.0666667 15:-0.2 16:0.0666667 
1 1 1 1 1 1 1 1 1 1 1 1 1 1 1 1 1 1 1 1 1 1 1 1 1 1:-0.466667 2:0.0666667 3:-0.2 4:-0.2 5:-0.466667 6:0.0666667 7:-0.0666667 8:-0.733333 9:0.2 10:0.6 11:-0.2 12:-0.0666667 13:-0.866667 14:-0.0666667 15:-0.2 16:0.0666667 
1 1 1 1 1 1 1 1 1 1 1 1 1 1 1 1 1 1 1 1 1 1 1 1 1 1:-0.733333 2:-0.333333 3:-0.733333 4:-0.466667 5:-0.733333 6:-0.0666667 7:-0.0666667 8:-0.333333 9:0.0666667 10:-0.2 11:-0.2 12:0.0666667 13:-0.733333 14:0.0666667 15:-0.0666667 16:0.0666667 
0 0 0 0 0 0 0 0 0 0 0 1 0 0 0 0.3212750583750329 0 1 0 0 0 0 0 0 0 1:-0.866667 2:-0.866667 3:-0.733333 4:-0.733333 5:-1 6:-0.0666667 7:-0.0666667 8:-0.733333 9:0.466667 10:0.2 11:-0.2 12:0.0666667 13:-1 14:0.0666667 15:-0.2 16:0.0666667 
0 1 1 0 1 1 1 1 0 0 1 1 1 1 1 1 1 1 0 1 1 1 1 1 0 1:-0.6 2:-0.0666667 3:-0.466667 4:-0.333333 5:-0.733333 6:-0.0666667 7:0.0666667 8:-0.6 9:0.6 10:0.0666667 11:-0.2 12:0.0666667 13:-1 14:0.0666667 15:-0.0666667 16:-0.0666667 
1 1 1 1 1 1 1 1 1 0 1 1 1 1 0 1 1 1 1 1 1 1 1 1 1 1:-0.333333 2:0.0666667 3:-0.0666667 4:-0.2 5:-0.466667 6:-0.0666667 7:0.0666667 8:-0.733333 9:0.333333 10:0.6 11:-0.0666667 12:0.0666667 13:-0.866667 14:0.2 15:-0.2 16:-0.0666667 
1 1 1 1 1 1 1 1 1 1 1 1 1 1 0 1 1 1 1 1 1 1 1 1 1 1:-0.2 2:0.466667 3:0.0666667 4:0.0666667 5:-0.333333 6:-0.2 7:0.2 8:-0.6 9:0.466667 10:0.466667 11:0.2 12:-0.2 13:-0.733333 14:0.0666667 15:-0.2 16:-0.333333 
1 1 1 0 1 1 1 1 1 0 1 1 1 1 0 1 1 0 1 1 1 1 1 1 0 1:-0.333333 2:0.466667 3:-0.0666667 4:0.0666667 5:-0.6 6:-0.0666667 7:-0.0666667 8:-0.466667 9:1 10:0.2 11:-0.2 12:0.0666667 13:-1 14:0.0666667 15:0.2 16:0.0666667 
1 1 1 1 1 1 1 1 1 1 1 1 1 1 1 1 1 1 1 1 1 1 1 1 1 1:-0.333333 2:0.2 3:-0.333333 4:-0.466667 5:-0.6 6:0.0666667 7:-0.2 8:-0.733333 9:0.0666667 10:0.466667 11:-0.2 12:0.2 13:-0.6 14:-0.0666667 15:-0.2 16:-0.0666667 
1 1 1 1 1 1 1 1 1 1 1 1 1 1 0 1 1 1 1 1 1 1 1 1 1 1:-0.333333 2:0.0666667 3:-0.0666667 4:-0.2 5:-0.466667 6:-0.2 7:0.2 8:-0.6 9:0.333333 10:0.466667 11:0.2 12:-0.333333 13:-0.866667 14:0.0666667 15:-0.2 16:-0.333333 
1 1 1 1 1 1 1 1 1 1 1 1 1 1 0 1 1 0 1 1 1 1 1 1 1 1:-0.0666667 2:0.333333 3:-0.333333 4:0.866667 5:-0.333333 6:-0.0666667 7:0.333333 8:-0.6 9:-0.6 10:0.466667 11:-0.0666667 12:-0.0666667 13:-0.6 14:0.0666667 15:0.866667 16:-0.0666667 
1 1 1 1 1 1 1 1 1 1 1 1 1 1 1 1 1 1 1 1 1 1 1 1 1 1:-0.466667 2:0.2 3:-0.333333 4:-0.2 5:-0.333333 6:-0.0666667 7:-0.0666667 8:-0.333333 9:0.2 10:-0.0666667 11:-0.2 12:0.0666667 13:-0.866667 14:0.0666667 15:-0.0666667 16:0.0666667 
0 1 1 0 1 1 1 1 0 0 1 1 1 1 0 1 0 0 0 1 0 1 1 1 0 1:-0.466667 2:-0.333333 3:-0.333333 4:-0.0666667 5:-0.733333 6:-0.0666667 7:-0.0666667 8:-0.466667 9:1 10:0.2 11:-0.2 12:0.0666667 13:-1 14:0.0666667 15:0.0666667 16:0.0666667 
1 1 1 1 1 1 1 1 1 1 1 1 1 1 0 1 1 1 1 1 1 1 1 1 1 1:-0.466667 2:-0.2 3:-0.333333 4:-0.466667 5:-0.6 6:-0.2 7:0.2 8:-0.6 9:0.0666667 10:0.466667 11:0.2 12:-0.2 13:-0.733333 14:0.2 15:-0.2 16:-0.333333 
1 1 1 1 1 1 1 1 1 0 1 1 1 1 0 1 1 1 0.7173376309526226 1 1 1 1 1 1 1:-0.733333 2:-0.333333 3:-0.333333 4:-0.6 5:-0.733333 6:-0.0666667 7:0.0666667 8:-0.733333 9:0.2 10:0.6 11:-0.2 12:0.0666667 13:-0.866667 14:0.2 15:-0.333333 16:0.0666667 
1 1 1 1 1 1 1 1 1 1 1 1 1 1 1 1 1 1 1 1 1 1 1 1 1 1:-0.6 2:-0.466667 3:-0.333333 4:-0.2 5:-0.466667 6:0.2 7:-0.0666667 8:-0.333333 9:-0.2 10:0.0666667 11:-0.6 12:-0.0666667 13:-0.6 14:-0.2 15:-0.2 16:0.0666667 
1 1 1 1 1 1 1 1 1 1 1 1 1 1 0 1 1 0 1 1 1 1 1 1 0 1:-0.466667 2:0.0666667 3:-0.333333 4:-0.2 5:-0.6 6:-0.2 7:0.0666667 8:-0.2 9:0.466667 10:-0.0666667 11:-0.0666667 12:0.333333 13:-0.866667 14:0.2 15:0.0666667 16:0.0666667 
1 1 1 1 1 1 1 1 1 0 1 1 1 1 0 1 1 1 1 1 1 1 1 1 1 1:-0.6 2:-0.333333 3:-0.2 4:-0.466667 5:-0.6 6:-0.0666667 7:0.0666667 8:-0.733333 9:0.333333 10:0.6 11:-0.2 12:0.0666667 13:-0.866667 14:0.2 15:-0.333333 16:-0.0666667 
0 1 0 0 0 1 0 1 0 0 1 1 1 1 0 1 0 0 0 0 0 0 1 1 0 1:-0.466667 2:-0.6 3:-0.466667 4:-0.333333 5:-0.733333 6:-0.0666667 7:-0.0666667 8:-0.466667 9:0.866667 10:0.2 11:-0.2 12:0.0666667 13:-1 14:0.0666667 15:0.0666667 16:0.0666667 
1 1 1 1 1 1 1 1 1 1 1 1 1 1 1 1 1 1 1 1 1 1 1 1 1 1:-0.466667 2:0.0666667 3:-0.333333 4:-0.2 5:-0.466667 6:-0.0666667 7:0.0666667 8:-0.733333 9:0.2 10:0.466667 11:-0.0666667 12:0.0666667 13:-0.866667 14:0.2 15:-0.2 16:-0.0666667 
1 1 1 1 1 1 1 1 1 1 1 1 1 1 1 1 1 1 1 1 1 1 1 1 1 1:-0.333333 2:0.333333 3:-0.0666667 4:0.0666667 5:-0.333333 6:0.0666667 7:-0.2 8:-0.733333 9:0.2 10:0.466667 11:-0.333333 12:0.333333 13:-0.733333 14:-0.0666667 15:-0.0666667 16:0.0666667 
1 1 1 0 1 1 1 1 0 0 1 1 1 1 0 1 1 0 1 1 0 1 1 1 0 1:-0.333333 2:0.2 3:-0.2 4:-0.0666667 5:-0.6 6:-0.0666667 7:-0.0666667 8:-0.466667 9:1 10:0.2 11:-0.2 12:0.0666667 13:-1 14:0.0666667 15:0.0666667 16:0.0666667 
1 1 1 0 1 1 1 1 0 0 1 1 1 1 0 1 1 0 1 1 0 1 1 1 0 1:-0.333333 2:0.2 3:-0.2 4:-0.0666667 5:-0.6 6:-0.0666667 7:-0.0666667 8:-0.466667 9:1 10:0.2 11:-0.2 12:0.0666667 13:-1 14:0.0666667 15:0.0666667 16:0.0666667 
0 1 1 1 1 1 0 1 0 1 1 1 1 1 1 1 0 1 0 1 0 1 1 1 1 1:-0.733333 2:-0.6 3:-0.466667 4:-0.733333 5:-0.866667 6:0.0666667 7:-0.2 8:-0.733333 9:0.0666667 10:0.466667 11:-0.333333 12:0.2 13:-0.866667 14:0.0666667 15:-0.333333 16:0.0666667 
1 1 1 0 1 1 1 1 1 0 1 1 1 1 1 1 1 0 1 1 0 1 1 1 0 1:-0.733333 2:-0.733333 3:-0.6 4:-0.466667 5:-0.733333 6:0.0666667 7:-0.0666667 8:-0.333333 9:0.2 10:-0.2 11:-0.2 12:0.0666667 13:-0.866667 14:0.0666667 15:-0.0666667 16:0.0666667 
1 1 1 1 1 1 1 1 1 1 1 1 1 1 1 1 1 1 1 1 1 1 1 1 1 1:-0.6 2:0.0666667 3:-0.466667 4:-0.2 5:-0.466667 6:-0.2 7:-0.0666667 8:-0.6 9:-0.0666667 10:0.0666667 11:-0.2 12:0.2 13:-1 14:0.2 15:0.2 16:-0.0666667 
1 1 1 1 1 1 1 1 1 0 1 1 1 1 1 1 1 1 1 1 1 1 1 1 1 1:-0.466667 2:0.2 3:-0.2 4:-0.2 5:-0.6 6:-0.0666667 7:0.0666667 8:-0.733333 9:0.333333 10:0.466667 11:-0.0666667 12:0.2 13:-0.866667 14:0.2 15:-0.2 16:0.0666667 
1 1 1 1 1 1 1 1 1 1 1 1 1 1 1 1 1 0 1 1 1 1 1 1 0 1:-0.466667 2:0.466667 3:-0.2 4:0.0666667 5:-0.0666667 6:0.0666667 7:-0.0666667 8:-0.6 9:0.2 10:-0.0666667 11:-0.2 12:-0.0666667 13:-0.866667 14:-0.0666667 15:0.466667 16:0.2 
1 1 1 1 1 1 1 1 1 1 1 1 1 1 0 1 1 1 1 1 1 1 1 1 1 1:-0.333333 2:-0.2 3:-0.466667 4:0.2 5:-0.6 6:-0.2 7:0.2 8:-0.333333 9:-0.6 10:0.6 11:-0.0666667 12:-0.0666667 13:-0.733333 14:0.2 15:0.333333 16:-0.2 
1 1 1 1 1 1 1 1 1 0 1 1 1 1 0 1 1 1 1 1 1 1 1 1 1 1:-0.6 2:0.0666667 3:-0.333333 4:-0.2 5:-0.6 6:-0.0666667 7:0.2 8:-0.733333 9:0.2 10:0.466667 11:-0.0666667 12:-0.0666667 13:-0.866667 14:0.2 15:-0.2 16:-0.2 
1 1 1 1 1 1 1 1 1 1 1 1 1 1 1 1 1 1 1 1 1 1 1 1 1 1:-0.466667 2:-0.333333 3:-0.2 4:-0.0666667 5:-0.333333 6:0.333333 7:-0.333333 8:-0.6 9:-0.333333 10:-0.0666667 11:-0.6 12:-0.2 13:-0.6 14:-0.0666667 15:-0.2 16:-0.0666667 
1 1 1 0 1 1 1 1 0 0 1 1 1 1 0 1 1 0 1 1 0 1 1 1 0 1:-0.333333 2:0.2 3:-0.2 4:-0.0666667 5:-0.6 6:-0.0666667 7:-0.0666667 8:-0.466667 9:1 10:0.2 11:-0.2 12:0.0666667 13:-1 14:0.0666667 15:0.0666667 16:0.0666667 
1 1 1 0 1 1 1 1 0 0 1 1 1 1 0 1 1 1 0 1 0.6690753668768262 1 1 1 0 1:-0.866667 2:-0.866667 3:-0.733333 4:-0.6 5:-0.866667 6:-0.0666667 7:0.0666667 8:-0.333333 9:0.0666667 10:-0.2 11:-0.2 12:0.2 13:-0.866667 14:0.2 15:-0.0666667 16:0.0666667 
1 1 1 1 1 1 1 1 1 0 1 1 1 1 1 1 1 1 1 1 1 1 1 1 0 1:-0.466667 2:0.2 3:-0.333333 4:-0.0666667 5:-0.466667 6:-0.0666667 7:-0.0666667 8:-0.6 9:0.6 10:0.2 11:-0.2 12:0.0666667 13:-1 14:0.0666667 15:0.0666667 16:0.0666667 
1 1 1 1 1 1 1 1 1 1 1 1 1 1 1 1 1 1 1 1 1 1 1 1 0 1:-0.6 2:-0.0666667 3:-0.466667 4:-0.333333 5:-0.6 6:-0.2 7:0.0666667 8:-0.333333 9:0.2 10:-0.0666667 11:-0.0666667 12:0.333333 13:-0.866667 14:0.2 15:-0.0666667 16:0.0666667 
1 1 1 1 1 1 1 1 1 1 1 1 1 1 1 1 1 0.3477908893180162 1 1 1 1 1 1 1 1:-0.333333 2:0.466667 3:-0.2 4:0.0666667 5:-0.2 6:-0.0666667 7:0.0666667 8:-0.333333 9:0.2 10:-0.0666667 11:-0.0666667 12:0.2 13:-0.866667 14:0.2 15:-0.0666667 16:-0.0666667 
1 1 1 1 1 1 1 1 1 1 1 1 1 1 1 1 1 0 1 1 1 1 1 1 1 1:0.2 2:0.733333 3:0.2 4:-0.0666667 5:-0.2 6:-0.0666667 7:-0.2 8:-0.733333 9:0.2 10:0.6 11:-0.0666667 12:0.2 13:-0.466667 14:-0.2 15:0.0666667 16:-0.2 
0 1 1 0 1 1 1 1 0 0 1 1 1 1 0.7994537413712132 1 0 1 1 1 0 1 1 1 0 1:-0.6 2:0.2 3:-0.466667 4:-0.2 5:-0.6 6:-0.0666667 7:-0.0666667 8:-0.6 9:0.6 10:0.2 11:-0.2 12:0.0666667 13:-1 14:0.0666667 15:0.0666667 16:0.0666667 
1 1 1 1 1 1 1 1 1 1 1 1 1 1 1 1 1 0 1 1 1 1 1 1 1 1:-0.0666667 2:0.733333 3:-0.0666667 4:-0.0666667 5:-0.333333 6:-0.2 7:-0.0666667 8:-0.733333 9:0.2 10:0.466667 11:-0.2 12:0.0666667 13:-0.466667 14:-0.333333 15:0.0666667 16:-0.2 
1 1 1 1 1 1 1 1 1 1 1 1 1 1 0 1 1 0 1 1 1 1 1 1 0 1:-0.466667 2:0.2 3:-0.2 4:-0.0666667 5:-0.2 6:-0.0666667 7:0.2 8:-0.6 9:0.0666667 10:-0.0666667 11:-0.2 12:0.0666667 13:-0.733333 14:0.333333 15:0.733333 16:-0.2 
0 0.9593812497881258 0 0 0 0 0 0 0 0 0 1 0 0 0 1 0 0 0 0 0 0 0 0 0 1:-0.866667 2:-1 3:-0.733333 4:-0.866667 5:-1 6:-0.0666667 7:-0.0666667 8:-0.6 9:0.466667 10:0.0666667 11:-0.2 12:0.0666667 13:-1 14:0.0666667 15:-0.2 16:0.0666667 
1 1 1 1 1 1 1 1 1 1 1 1 1 1 0 1 1 0 1 1 1 1 1 1 1 1:-0.466667 2:-0.0666667 3:-0.333333 4:-0.333333 5:-0.466667 6:0.2 7:0.2 8:-0.2 9:-0.466667 10:-0.0666667 11:-0.333333 12:0.0666667 13:-0.6 14:0.2 15:0.333333 16:-0.0666667 
1 1 1 1 1 1 1 1 1 1 1 1 1 1 1 1 1 1 1 1 1 1 1 1 1 1:-0.6 2:-0.2 3:-0.333333 4:-0.466667 5:-0.466667 6:-0.2 7:-0.0666667 8:-0.6 9:-0.0666667 10:-0.0666667 11:-0.2 12:0.2 13:-1 14:0.0666667 15:0.0666667 16:-0.0666667 
1 1 1 0 1 1 1 1 0 0 1 1 1 1 1 1 1 0 1 1 0 1 1 1 0 1:-0.733333 2:-0.733333 3:-0.6 4:-0.6 5:-0.733333 6:-0.0666667 7:-0.0666667 8:-0.333333 9:0.2 10:-0.2 11:-0.2 12:0.0666667 13:-0.866667 14:0.0666667 15:-0.0666667 16:0.0666667 
1 1 1 1 1 1 1 1 1 1 1 1 1 1 1 1 1 0 1 1 1 1 1 1 0 1:-0.733333 2:-0.733333 3:-0.6 4:-0.466667 5:-0.733333 6:-0.0666667 7:-0.0666667 8:-0.333333 9:0.2 10:-0.2 11:-0.2 12:0.0666667 13:-0.733333 14:0.0666667 15:-0.0666667 16:0.0666667 
1 1 1 1 1 1 1 1 1 0 1 1 1 1 1 1 1 1 1 1 1 1 1 1 0 1:-0.466667 2:0.333333 3:-0.333333 4:-0.0666667 5:-0.466667 6:-0.0666667 7:-0.0666667 8:-0.6 9:0.6 10:0.2 11:-0.2 12:0.0666667 13:-1 14:0.0666667 15:0.0666667 16:0.0666667 
0 1 1 0 1 1 1 1 0 0 1 1 1 1 1 1 0 0.7343075690818464 0 1 0 1 1 1 0 1:-0.733333 2:-0.866667 3:-0.733333 4:-0.866667 5:-0.866667 6:0.0666667 7:-0.0666667 8:-0.333333 9:0.2 10:-0.2 11:-0.2 12:0.0666667 13:-0.866667 14:0.0666667 15:-0.2 16:0.0666667 
1 1 1 1 1 1 1 1 0.7818593213435009 1 1 1 1 1 1 1 1 1 1 1 1 1 1 1 1 1:-0.6 2:0.0666667 3:-0.333333 4:-0.2 5:-0.6 6:0.0666667 7:-0.0666667 8:-0.733333 9:0.2 10:0.466667 11:-0.333333 12:0.2 13:-0.866667 14:0.0666667 15:-0.2 16:0.0666667 
1 1 1 1 1 1 1 1 1 1 1 1 1 1 1 1 0 1 1 1 0 1 1 1 1 1:-0.466667 2:-0.2 3:-0.333333 4:-0.466667 5:-0.6 6:0.2 7:-0.333333 8:-0.6 9:0.0666667 10:0.466667 11:-0.466667 12:0.2 13:-0.733333 14:-0.0666667 15:-0.2 16:0.333333 
1 1 1 1 1 1 1 1 1 1 1 1 1 1 1 1 1 0 1 1 1 1 1 1 1 1:-0.0666667 2:0.0666667 3:-0.333333 4:0.466667 5:-0.466667 6:-0.0666667 7:-0.2 8:-0.2 9:-0.333333 10:0.333333 11:-0.0666667 12:-0.0666667 13:-0.6 14:0.2 15:0.2 16:-0.0666667 
1 1 1 1 1 1 1 1 1 1 1 1 1 1 0 1 1 1 1 1 1 1 1 1 1 1:-0.2 2:0.333333 3:0.2 4:-0.0666667 5:-0.333333 6:-0.0666667 7:0.0666667 8:-0.6 9:0.333333 10:0.6 11:-0.0666667 12:-0.2 13:-0.866667 14:0.0666667 15:-0.2 16:-0.0666667 
0 1 0 1 0 1 0 1 0 0 1 1 1 0 1 1 0 1 0 0 0 1 1 1 1 1:-0.866667 2:-0.6 3:-0.6 4:-0.733333 5:-0.866667 6:0.0666667 7:-0.0666667 8:-0.733333 9:0.2 10:0.466667 11:-0.2 12:0.2 13:-0.866667 14:0.0666667 15:-0.333333 16:-0.0666667 
1 1 1 0 1 1 1 1 1 0 1 1 1 1 0 1 1 0 1 1 0 1 1 1 0 1:-0.733333 2:-0.866667 3:-0.6 4:-0.733333 5:-0.733333 6:-0.0666667 7:-0.0666667 8:-0.333333 9:0.2 10:-0.2 11:-0.2 12:0.0666667 13:-0.733333 14:0.0666667 15:-0.0666667 16:0.0666667 
1 1 1 1 1 1 1 1 1 1 1 1 1 1 1 1 1 1 1 1 1 1 1 1 1 1:-0.466667 2:-0.333333 3:-0.2 4:0.0666667 5:-0.333333 6:0.466667 7:-0.466667 8:-0.733333 9:-0.333333 10:0.0666667 11:-0.6 12:-0.2 13:-0.866667 14:0.0666667 15:-0.2 16:0.2 
1 1 1 1 1 1 1 1 1 1 1 1 1 1 1 1 1 1 1 1 1 1 1 1 1 1:-0.466667 2:0.0666667 3:-0.2 4:-0.2 5:-0.6 6:-0.0666667 7:-0.0666667 8:-0.733333 9:0.333333 10:0.6 11:-0.2 12:-0.0666667 13:-0.866667 14:-0.0666667 15:-0.2 16:-0.0666667 
1 1 1 1 1 1 1 1 1 0 1 1 1 1 1 1 1 1 1 1 1 1 1 1 1 1:-0.6 2:-0.466667 3:-0.333333 4:-0.6 5:-0.733333 6:-0.0666667 7:0.0666667 8:-0.733333 9:0.2 10:0.466667 11:-0.2 12:0.0666667 13:-0.866667 14:0.2 15:-0.333333 16:0.0666667 
1 1 1 1 1 1 1 1 1 1 1 1 1 1 1 1 1 0 1 1 1 1 1 1 0 1:-0.466667 2:0.2 3:-0.2 4:-0.2 5:-0.2 6:-0.0666667 7:-0.0666667 8:-0.6 9:0.0666667 10:0.0666667 11:-0.2 12:0.2 13:-0.866667 14:0.0666667 15:0.466667 16:-0.0666667 
1 1 1 0 1 1 1 1 0 0 1 1 1 1 0 1 1 0 1 1 1 1 1 1 0 1:-0.333333 2:0.333333 3:-0.2 4:0.0666667 5:-0.6 6:-0.0666667 7:-0.0666667 8:-0.466667 9:1 10:0.2 11:-0.2 12:0.0666667 13:-1 14:0.0666667 15:0.0666667 16:0.0666667 
1 1 1 1 1 1 1 1 1 0 1 1 1 1 0 1 1 1 1 1 1 1 1 1 1 1:-0.466667 2:-0.0666667 3:-0.2 4:-0.333333 5:-0.466667 6:-0.2 7:0.2 8:-0.733333 9:0.2 10:0.466667 11:0.0666667 12:-0.2 13:-0.866667 14:0.0666667 15:-0.2 16:-0.2 
1 1 1 1 1 1 1 1 1 1 1 1 1 1 1 1 1 0 1 1 1 1 1 1 1 1:-0.333333 2:-0.0666667 3:-0.0666667 4:-0.333333 5:-0.2 6:0.2 7:-0.333333 8:-0.333333 9:-0.466667 10:-0.0666667 11:-0.333333 12:-0.0666667 13:-0.6 14:-0.0666667 15:0.333333 16:-0.333333 
1 1 1 1 1 1 1 1 1 1 1 1 1 1 1 1 1 1 1 1 0 1 1 1 1 1:-0.6 2:-0.333333 3:-0.333333 4:0.0666667 5:-0.466667 6:0.6 7:-0.466667 8:-0.733333 9:-0.333333 10:0.2 11:-0.6 12:-0.0666667 13:-0.866667 14:0.0666667 15:-0.333333 16:0.333333 
1 1 1 1 1 1 1 1 1 1 1 1 1 1 1 1 1 1 1 1 1 1 1 1 1 1:-0.333333 2:0.0666667 3:-0.0666667 4:-0.2 5:-0.466667 6:-0.0666667 7:0.0666667 8:-0.733333 9:0.333333 10:0.6 11:-0.2 12:-0.0666667 13:-0.733333 14:0.0666667 15:-0.2 16:0.0666667 
1 1 1 1 1 1 1 1 1 1 1 1 1 1 1 1 1 1 1 1 1 1 1 1 1 1:-0.466667 2:0.466667 3:-0.333333 4:0.0666667 5:-0.2 6:-0.2 7:0.0666667 8:-0.333333 9:0.0666667 10:0.0666667 11:0.0666667 12:0.2 13:-0.866667 14:0.333333 15:-0.0666667 16:0.0666667 
1 1 1 1 1 1 1 1 1 1 1 1 1 1 1 1 1 1 1 1 1 1 1 1 1 1:-0.2 2:0.333333 3:0.0666667 4:-0.0666667 5:-0.2 6:-0.0666667 7:-0.0666667 8:-0.733333 9:0.2 10:0.6 11:-0.2 12:0.2 13:-0.866667 14:0.2 15:-0.2 16:0.0666667 
1 1 1 1 1 1 1 1 1 1 1 1 1 1 1 1 1 1 1 1 1 1 1 1 0 1:-0.733333 2:-0.333333 3:-0.6 4:-0.6 5:-0.733333 6:-0.0666667 7:-0.0666667 8:-0.333333 9:0.2 10:-0.2 11:-0.2 12:0.0666667 13:-0.733333 14:0.0666667 15:-0.0666667 16:0.0666667 
0 1 1 0 1 1 1 1 0 0 1 1 1 1 1 1 0 1 1 1 0 1 1 1 0 1:-0.6 2:-0.0666667 3:-0.466667 4:-0.333333 5:-0.6 6:-0.0666667 7:-0.0666667 8:-0.6 9:0.6 10:0.0666667 11:-0.2 12:0.0666667 13:-1 14:0.0666667 15:-0.0666667 16:0.0666667 
1 1 1 1 1 1 1 1 1 1 1 1 1 1 1 1 1 1 1 1 1 1 1 1 1 1:-0.466667 2:0.0666667 3:-0.2 4:-0.2 5:-0.6 6:-0.0666667 7:-0.0666667 8:-0.733333 9:0.333333 10:0.6 11:-0.333333 12:0.2 13:-0.733333 14:0.333333 15:-0.2 16:0.2 
1 1 1 1 1 1 1 1 1 1 1 1 1 1 1 1 1 1 1 1 1 1 1 1 1 1:-0.6 2:0.0666667 3:-0.333333 4:-0.2 5:-0.6 6:0.0666667 7:-0.0666667 8:-0.733333 9:0.2 10:0.466667 11:-0.2 12:0.0666667 13:-0.733333 14:0.0666667 15:-0.2 16:0.0666667 
0 1 0 0 0 0 0 0 0 0 0 1 0 0 0 1 0 0 0 0 0 0 0 1 0 1:-0.733333 2:-0.2 3:-0.6 4:-0.466667 5:-0.866667 6:-0.0666667 7:-0.0666667 8:-0.6 9:0.733333 10:0.2 11:-0.2 12:0.0666667 13:-1 14:0.0666667 15:0.0666667 16:0.0666667 
1 1 1 1 1 1 1 1 1 1 1 1 1 1 1 1 1 1 1 1 1 1 1 1 1 1:-0.466667 2:-0.2 3:-0.2 4:-0.466667 5:-0.466667 6:0.0666667 7:-0.0666667 8:-0.733333 9:0.2 10:0.6 11:-0.2 12:0.0666667 13:-0.866667 14:0.0666667 15:-0.333333 16:0.0666667 
0 1 0 0 1 1 1 1 0 0 1 1 1 1 0 1 0 0 0 1 0 1 1 1 0 1:-0.6 2:0.2 3:-0.466667 4:-0.2 5:-0.733333 6:-0.0666667 7:-0.0666667 8:-0.466667 9:0.733333 10:0.333333 11:-0.2 12:0.0666667 13:-1 14:0.0666667 15:0.0666667 16:0.0666667 
0 1 1 0 1 1 1 1 0 0 1 1 1 1 0 1 0 0 1 1 0 1 1 1 0 1:-0.466667 2:0.2 3:-0.466667 4:-0.2 5:-0.733333 6:-0.0666667 7:-0.0666667 8:-0.466667 9:0.866667 10:0.2 11:-0.2 12:0.0666667 13:-1 14:0.0666667 15:0.0666667 16:0.0666667 
1 1 1 1 1 1 1 1 1 1 1 1 1 1 1 1 1 1 1 1 1 1 1 1 1 1:-0.466667 2:-0.2 3:-0.2 4:-0.466667 5:-0.466667 6:0.2 7:0.333333 8:-0.333333 9:-0.333333 10:-0.2 11:-0.333333 12:-0.0666667 13:-0.6 14:0.0666667 15:-0.2 16:-0.333333 
1 1 1 0 1 1 1 1 0 0 1 1 1 1 1 1 0 1 1 1 0 1 1 1 1 1:-0.6 2:0.2 3:-0.466667 4:-0.2 5:-0.6 6:-0.0666667 7:-0.0666667 8:-0.6 9:0.6 10:0.2 11:-0.2 12:0.0666667 13:-1 14:0.0666667 15:-0.0666667 16:0.0666667 
0 1 0 0 0 0 0 0 0 0 0 1 0 0 0 1 0 1 0 0 0 0 0 0 0 1:-0.866667 2:-1 3:-0.733333 4:-0.866667 5:-1 6:-0.0666667 7:-0.0666667 8:-0.733333 9:0.333333 10:0.0666667 11:-0.2 12:0.0666667 13:-1 14:0.0666667 15:-0.2 16:0.0666667 
0 1 0 0 0 1 0 1 0 0 1 1 1 1 0 1 0 0 0 0 0 0 1 1 0 1:-0.6 2:-0.6 3:-0.466667 4:-0.333333 5:-0.733333 6:-0.0666667 7:-0.0666667 8:-0.466667 9:0.733333 10:0.2 11:-0.2 12:0.0666667 13:-1 14:0.0666667 15:0.0666667 16:0.0666667 
0 0 0 0 0 0 0 0 0 0 0 1 0 0 0 1 0 1 0 0 0 0 0 0 0 1:-0.866667 2:-1 3:-0.866667 4:-0.866667 5:-1 6:-0.0666667 7:-0.0666667 8:-0.733333 9:0.333333 10:0.0666667 11:-0.2 12:0.0666667 13:-1 14:0.0666667 15:-0.2 16:0.0666667 
1 1 1 1 1 1 1 1 1 0 1 1 1 1 0 1 1 1 1 1 1 1 1 1 1 1:-0.733333 2:-0.466667 3:-0.333333 4:-0.6 5:-0.733333 6:-0.0666667 7:0.0666667 8:-0.733333 9:0.2 10:0.6 11:-0.0666667 12:-0.0666667 13:-0.866667 14:0.0666667 15:-0.333333 16:-0.2 
0 0 0 0 0 0 0 0 0 0 0 1 0 0 0 1 0 1 0 0 0 0 0 0 0 1:-0.866667 2:-1 3:-0.733333 4:-0.866667 5:-1 6:-0.0666667 7:-0.0666667 8:-0.733333 9:0.466667 10:0.0666667 11:-0.2 12:0.0666667 13:-1 14:0.0666667 15:-0.2 16:0.0666667 
0 1 0 0 0 1 0 1 0 0 1 1 1 1 0 1 0 0 0 0 0 0.9445676763186299 1 1 0 1:-0.6 2:-0.466667 3:-0.466667 4:-0.2 5:-0.733333 6:-0.0666667 7:-0.0666667 8:-0.466667 9:0.733333 10:0.333333 11:-0.2 12:0.0666667 13:-1 14:0.0666667 15:0.0666667 16:0.0666667 
1 1 1 1 1 1 1 1 1 0 1 1 1 1 0 1 1 1 1 1 1 1 1 1 1 1:-0.466667 2:0.2 3:-0.2 4:-0.2 5:-0.466667 6:-0.0666667 7:0.0666667 8:-0.733333 9:0.333333 10:0.6 11:-0.0666667 12:0.0666667 13:-0.866667 14:0.2 15:-0.2 16:0.0666667 
1 1 1 1 1 1 1 1 0 1 1 1 1 1 1 1 1 1 1 1 1 1 1 1 1 1:-0.733333 2:-0.6 3:-0.733333 4:-0.866667 5:-0.866667 6:-0.0666667 7:-0.0666667 8:-0.333333 9:0.0666667 10:-0.2 11:-0.2 12:0.0666667 13:-0.866667 14:0.0666667 15:-0.2 16:0.0666667 
1 1 1 1 1 1 1 1 1 1 1 1 1 1 1 1 1 1 1 1 1 1 1 1 1 1:-0.2 2:0.333333 3:0.0666667 4:-0.0666667 5:-0.2 6:-0.0666667 7:-0.0666667 8:-0.733333 9:0.2 10:0.6 11:-0.2 12:0.0666667 13:-0.866667 14:0.0666667 15:-0.2 16:0.0666667 
1 1 1 1 1 1 1 1 1 1 1 1 1 1 1 1 1 1 1 1 1 1 1 1 1 1:0.0666667 2:0.866667 3:0.0666667 4:0.0666667 5:-0.333333 6:0.0666667 7:-0.333333 8:-0.733333 9:0.2 10:0.6 11:-0.2 12:0.2 13:-0.6 14:-0.0666667 15:-0.2 16:-0.0666667 
0 1 0 0 0 0 0 0 0 0 0 1 0 0 0 1 0 0 0 0 0 0 1 1 0 1:-0.733333 2:-1 3:-0.733333 4:-0.866667 5:-0.866667 6:-0.0666667 7:-0.0666667 8:-0.6 9:0.466667 10:0.0666667 11:-0.2 12:0.0666667 13:-1 14:0.0666667 15:-0.0666667 16:0.0666667 
1 1 1 1 1 1 1 1 1 1 1 1 1 1 1 1 1 1 1 1 1 1 1 1 1 1:-0.0666667 2:0.466667 3:0.2 4:0.0666667 5:-0.2 6:0.0666667 7:-0.0666667 8:-0.6 9:0.333333 10:0.6 11:-0.2 12:0.0666667 13:-0.733333 14:-0.0666667 15:-0.2 16:0.0666667 
0 1 1 0 1 1 1 1 0 0 1 1 1 1 0 1 0 0 1 1 0 1 1 1 0 1:-0.466667 2:0.0666667 3:-0.333333 4:-0.2 5:-0.733333 6:-0.0666667 7:-0.0666667 8:-0.466667 9:0.866667 10:0.2 11:-0.2 12:0.0666667 13:-1 14:0.0666667 15:0.0666667 16:0.0666667 
1 1 1 1 1 1 1 1 1 1 1 1 1 1 1 1 1 1 1 1 1 1 1 1 1 1:-0.466667 2:0.0666667 3:-0.333333 4:-0.2 5:-0.466667 6:0.0666667 7:-0.2 8:-0.733333 9:0.2 10:0.466667 11:-0.333333 12:0.2 13:-0.866667 14:0.0666667 15:-0.333333 16:0.2 
1 1 1 1 1 1 1 1 1 1 1 1 1 1 1 1 1 1 1 1 1 1 1 1 1 1:-0.2 2:0.2 3:0.0666667 4:-0.0666667 5:-0.333333 6:-0.0666667 7:-0.0666667 8:-0.733333 9:0.2 10:0.6 11:-0.2 12:0.0666667 13:-0.866667 14:0.0666667 15:-0.2 16:-0.0666667 
1 1 1 1 1 1 1 1 0 0 1 1 1 1 1 1 1 1 0 1 1 1 1 1 1 1:-0.733333 2:-0.333333 3:-0.466667 4:-0.6 5:-0.733333 6:-0.0666667 7:-0.0666667 8:-0.733333 9:0.2 10:0.466667 11:-0.2 12:0.0666667 13:-0.866667 14:0.0666667 15:-0.333333 16:0.0666667 
1 1 1 1 1 1 1 1 0 0 1 1 1 1 0 1 1 1 0 1 1 1 1 1 1 1:-0.733333 2:-0.333333 3:-0.466667 4:-0.466667 5:-0.733333 6:-0.0666667 7:0.0666667 8:-0.733333 9:0.333333 10:0.6 11:-0.0666667 12:-0.0666667 13:-0.866667 14:0.0666667 15:-0.333333 16:-0.2 
0 1 0 0 0 1 0 1 0 0 1 1 1 1 0 1 0 0 0 0 0 0 1 1 0 1:-0.6 2:-0.333333 3:-0.466667 4:-0.0666667 5:-0.733333 6:-0.0666667 7:-0.0666667 8:-0.466667 9:0.866667 10:0.333333 11:-0.2 12:0.0666667 13:-1 14:0.0666667 15:0.0666667 16:0.0666667 
0 1 0 0 0 1 0 1 0 0 1 1 1 1 0 1 0 0 0 0 0 0 1 1 0 1:-0.6 2:-0.466667 3:-0.466667 4:-0.2 5:-0.733333 6:-0.0666667 7:-0.0666667 8:-0.6 9:0.733333 10:0.333333 11:-0.2 12:0.0666667 13:-1 14:0.0666667 15:0.0666667 16:0.0666667 
1 1 1 1 1 1 1 1 1 1 1 1 1 1 1 1 1 1 1 1 1 1 1 1 1 1:-0.466667 2:0.0666667 3:-0.2 4:-0.2 5:-0.466667 6:-0.0666667 7:0.0666667 8:-0.733333 9:0.2 10:0.466667 11:-0.2 12:0.0666667 13:-0.866667 14:0.0666667 15:-0.2 16:0.0666667 
1 1 1 1 1 1 1 1 1 0 1 1 1 1 0 1 1 1 0 1 1 1 1 1 1 1:-0.733333 2:-0.466667 3:-0.466667 4:-0.6 5:-0.866667 6:-0.0666667 7:0.0666667 8:-0.733333 9:0.2 10:0.466667 11:-0.0666667 12:-0.0666667 13:-0.866667 14:0.0666667 15:-0.333333 16:-0.2 
1 1 1 1 1 1 1 1 0 0 1 1 1 1 0 1 1 1 0 1 1 0 1 1 1 1:-0.733333 2:-0.333333 3:-0.466667 4:-0.466667 5:-0.733333 6:-0.0666667 7:0.0666667 8:-0.733333 9:0.333333 10:0.466667 11:-0.2 12:-0.0666667 13:-0.866667 14:0.0666667 15:-0.2 16:-0.0666667 
0 1 0 0 0 0 0 0 0 0 0 1 0 0 0 1 0 1 0 0 0 0 0 0 0 1:-0.866667 2:-1 3:-0.733333 4:-0.866667 5:-1 6:-0.0666667 7:-0.0666667 8:-0.733333 9:0.333333 10:0.0666667 11:-0.2 12:0.0666667 13:-1 14:0.0666667 15:-0.2 16:0.0666667 
1 1 1 1 1 1 1 1 1 1 1 1 1 1 1 1 1 1 1 1 1 1 1 1 1 1:-0.0666667 2:0.333333 3:0.2 4:0.0666667 5:-0.2 6:-0.0666667 7:0.0666667 8:-0.733333 9:0.2 10:0.6 11:-0.0666667 12:-0.0666667 13:-0.866667 14:0.0666667 15:-0.2 16:0.0666667 
1 1 1 1 1 1 1 1 1 1 1 1 1 1 0 1 1 0 1 1 1 1 1 1 1 1:0.2 2:0.333333 3:-0.2 4:0.866667 5:-0.2 6:-0.2 7:0.333333 8:-0.466667 9:-0.733333 10:0.6 11:-0.0666667 12:-0.2 13:-0.6 14:0.2 15:0.866667 16:-0.2 
1 1 1 1 1 1 1 1 1 0 1 1 1 1 0 1 1 1 1 1 1 1 1 1 1 1:-0.6 2:-0.0666667 3:-0.466667 4:-0.333333 5:-0.733333 6:-0.0666667 7:0.0666667 8:-0.733333 9:0.333333 10:0.466667 11:-0.0666667 12:0.0666667 13:-0.866667 14:0.2 15:-0.2 16:-0.0666667 
0 1 1 0 1 1 1 1 0 0 1 1 1 1 0 1 0 0 1 1 0 1 1 1 0 1:-0.466667 2:0.2 3:-0.333333 4:-0.0666667 5:-0.733333 6:-0.0666667 7:-0.0666667 8:-0.466667 9:1 10:0.2 11:-0.2 12:0.0666667 13:-1 14:0.0666667 15:0.0666667 16:0.0666667 
1 1 1 1 1 1 1 1 1 1 1 1 1 1 1 1 1 0 1 1 1 1 1 1 1 1:-0.333333 2:0.333333 3:-0.2 4:0.0666667 5:-0.2 6:0.0666667 7:-0.0666667 8:-0.333333 9:0.333333 10:-0.0666667 11:-0.2 12:-0.0666667 13:-0.866667 14:0.0666667 15:-0.0666667 16:0.0666667 
1 1 1 1 1 1 1 1 1 1 1 1 1 1 1 1 1 1 1 1 1 1 1 1 1 1:-0.466667 2:0.333333 3:-0.333333 4:-0.0666667 5:-0.333333 6:-0.0666667 7:0.0666667 8:-0.333333 9:0.2 10:-0.0666667 11:-0.2 12:0.2 13:-0.866667 14:0.2 15:-0.0666667 16:-0.0666667 
1 1 1 1 1 1 1 1 1 0 1 1 1 1 1 1 1 1 1 1 1 1 1 1 0 1:-0.466667 2:0.2 3:-0.466667 4:-0.0666667 5:-0.466667 6:-0.0666667 7:0.0666667 8:-0.6 9:0.6 10:0.0666667 11:-0.2 12:0.0666667 13:-1 14:0.0666667 15:-0.0666667 16:-0.0666667 
1 1 1 0 1 1 1 1 0 0 1 1 1 1 0 1 0 1 0 1 0 1 1 1 0 1:-0.866667 2:-0.6 3:-0.733333 4:-0.733333 5:-0.866667 6:0.0666667 7:-0.0666667 8:-0.333333 9:0.0666667 10:-0.2 11:-0.2 12:-0.0666667 13:-0.866667 14:0.0666667 15:-0.0666667 16:0.0666667 
1 1 1 1 1 1 1 1 0 1 1 1 1 1 1 1 0 1 1 1 0 1 1 1 1 1:-0.466667 2:0.0666667 3:-0.333333 4:-0.2 5:-0.6 6:0.0666667 7:-0.2 8:-0.733333 9:0.333333 10:0.466667 11:-0.466667 12:0.2 13:-0.733333 14:0.0666667 15:-0.2 16:0.2 
1 1 1 1 1 1 1 1 1 0 1 1 1 1 1 1 1 0 1 1 1 1 1 1 0 1:-0.733333 2:-0.733333 3:-0.6 4:-0.6 5:-0.733333 6:-0.0666667 7:-0.0666667 8:-0.333333 9:0.2 10:-0.2 11:-0.2 12:0.0666667 13:-0.733333 14:0.0666667 15:-0.0666667 16:0.0666667 
0 1 1 0 1 1 1 1 0 0 1 1 1 1 0 1 0 0 1 1 0 1 1 1 0 1:-0.466667 2:0.333333 3:-0.333333 4:0.0666667 5:-0.733333 6:-0.0666667 7:-0.0666667 8:-0.466667 9:0.866667 10:0.333333 11:-0.2 12:0.0666667 13:-1 14:0.0666667 15:0.0666667 16:0.0666667 
1 1 1 1 1 1 1 1 1 1 1 1 1 1 1 1 1 0 1 1 1 1 1 1 0 1:-0.733333 2:-0.466667 3:-0.6 4:-0.6 5:-0.733333 6:-0.0666667 7:-0.0666667 8:-0.333333 9:0.2 10:-0.2 11:-0.2 12:0.0666667 13:-0.733333 14:0.0666667 15:-0.0666667 16:0.0666667 
1 1 1 1 1 1 1 1 1 1 1 1 1 1 1 1 1 0 1 1 1 1 1 1 1 1:-0.2 2:0.333333 3:0.0666667 4:-0.0666667 5:-0.2 6:0.333333 7:-0.2 8:-0.333333 9:-0.466667 10:0.0666667 11:-0.333333 12:-0.0666667 13:-0.6 14:-0.0666667 15:0.466667 16:-0.0666667 
1 1 1 0 1 1 1 1 0 0 1 1 1 1 0 1 1 0 1 1 0 1 1 1 0 1:-0.333333 2:-0.333333 3:-0.2 4:0.0666667 5:-0.6 6:-0.0666667 7:-0.0666667 8:-0.466667 9:1 10:0.2 11:-0.2 12:0.0666667 13:-1 14:0.0666667 15:0.0666667 16:0.0666667 
0 1 1 0 1 1 1 1 0 0 1 1 1 1 0 1 0 0 0 1 0 1 1 1 0 1:-0.866667 2:-0.866667 3:-0.733333 4:-0.733333 5:-0.866667 6:-0.0666667 7:0.0666667 8:-0.333333 9:0.0666667 10:-0.2 11:-0.2 12:0.2 13:-0.866667 14:0.0666667 15:-0.0666667 16:-0.0666667 
1 1 1 1 1 1 1 1 1 1 1 1 1 1 1 1 1 0 1 1 1 1 1 1 1 1:-0.0666667 2:-0.0666667 3:-0.333333 4:0.333333 5:-0.333333 6:0.2 7:-0.466667 8:-0.466667 9:-0.6 10:0.466667 11:-0.2 12:0.2 13:-0.6 14:0.2 15:0.466667 16:0.0666667 
1 1 1 1 1 1 1 1 1 1 1 1 1 1 1 1 1 1 1 1 1 1 1 1 1 1:-0.0666667 2:0.733333 3:-0.0666667 4:-0.0666667 5:-0.466667 6:0.0666667 7:-0.333333 8:-0.733333 9:0.0666667 10:0.466667 11:-0.333333 12:0.2 13:-0.6 14:0.2 15:-0.333333 16:0.2 
1 1 1 1 1 1 1 1 0 0 1 1 1 1 1 1 0 1 0 1 0 1 1 1 0 1:-0.733333 2:-0.866667 3:-0.733333 4:-0.866667 5:-0.866667 6:-0.0666667 7:-0.0666667 8:-0.333333 9:0.0666667 10:-0.2 11:-0.2 12:0.0666667 13:-0.866667 14:0.0666667 15:-0.2 16:0.0666667 
1 1 1 1 1 1 1 1 1 1 1 1 1 1 1 1 1 0 1 1 1 1 1 1 1 1:-0.333333 2:0.0666667 3:-0.0666667 4:-0.2 5:-0.2 6:0.2 7:-0.0666667 8:-0.333333 9:-0.466667 10:-0.0666667 11:-0.333333 12:-0.0666667 13:-0.466667 14:0.0666667 15:0.333333 16:-0.333333 
1 1 1 1 1 1 1 1 1 1 1 1 1 1 1 1 1 1 1 1 1 1 1 1 1 1:-0.2 2:0.333333 3:0.0666667 4:0.0666667 5:-0.2 6:0.0666667 7:-0.0666667 8:-0.733333 9:0.2 10:0.6 11:-0.333333 12:0.0666667 13:-0.866667 14:0.0666667 15:-0.2 16:0.0666667 
1 1 1 0.3726255323492631 1 1 1 1 1 0 1 1 1 1 0 1 1 0 1 1 1 1 1 1 0 1:-0.333333 2:0.466667 3:-0.2 4:0.2 5:-0.6 6:-0.0666667 7:-0.0666667 8:-0.466667 9:1 10:0.2 11:-0.2 12:0.0666667 13:-1 14:0.0666667 15:0.0666667 16:0.0666667 
1 1 1 1 1 1 1 1 1 1 1 1 1 1 1 1 1 0 1 1 1 1 1 1 1 1:0.0666667 2:0.866667 3:0.0666667 4:0.0666667 5:-0.333333 6:0.466667 7:-0.466667 8:-0.333333 9:0.0666667 10:0.6 11:-0.6 12:0.333333 13:-0.466667 14:-0.466667 15:0.0666667 16:0.6 
1 1 1 1 1 1 1 1 1 1 1 1 1 1 1 1 1 1 1 1 1 1 1 1 1 1:-0.466667 2:0.0666667 3:-0.333333 4:-0.2 5:-0.466667 6:0.0666667 7:-0.2 8:-0.733333 9:0.2 10:0.466667 11:-0.333333 12:0.2 13:-0.733333 14:0.0666667 15:-0.2 16:0.2 
0 1 1 0 1 1 1 1 0 0 1 1 1 1 1 1 0 1 0 1 0 1 1 1 0 1:-0.6 2:-0.2 3:-0.466667 4:-0.466667 5:-0.6 6:-0.0666667 7:-0.0666667 8:-0.6 9:0.6 10:0.0666667 11:-0.2 12:0.0666667 13:-1 14:0.0666667 15:-0.0666667 16:0.0666667 
0 1 1 0 1 1 1 1 0 0 1 1 1 1 0 1 0 0 1 1 0 1 1 1 0 1:-0.466667 2:0.0666667 3:-0.333333 4:-0.2 5:-0.733333 6:-0.0666667 7:-0.0666667 8:-0.466667 9:0.866667 10:0.2 11:-0.2 12:0.0666667 13:-1 14:0.0666667 15:0.0666667 16:0.0666667 
1 1 1 1 1 1 1 1 1 0 1 1 1 1 0 1 1 1 1 1 1 1 1 1 1 1:-0.733333 2:-0.333333 3:-0.466667 4:-0.466667 5:-0.733333 6:-0.0666667 7:0.0666667 8:-0.733333 9:0.2 10:0.466667 11:-0.0666667 12:-0.0666667 13:-0.866667 14:0.0666667 15:-0.333333 16:-0.0666667 
1 1 1 0 1 1 1 1 0 0 1 1 1 1 0 1 0 0 1 1 0 1 1 1 0 1:-0.733333 2:-0.866667 3:-0.6 4:-0.733333 5:-0.733333 6:-0.0666667 7:-0.0666667 8:-0.333333 9:0.2 10:-0.2 11:-0.2 12:0.0666667 13:-0.866667 14:0.0666667 15:-0.0666667 16:0.0666667 
1 1 1 1 1 1 1 1 1 1 1 1 1 1 1 1 1 0 1 1 1 1 1 1 0 1:-0.733333 2:-0.466667 3:-0.6 4:-0.6 5:-0.733333 6:0.0666667 7:-0.0666667 8:-0.333333 9:0.2 10:-0.2 11:-0.2 12:-0.0666667 13:-0.733333 14:0.0666667 15:-0.0666667 16:0.0666667 
0 1 1 0 0 1 0 1 0 1 1 1 1 1 1 1 0 1 0 0 0 1 1 1 1 1:-0.733333 2:-0.466667 3:-0.466667 4:-0.6 5:-0.733333 6:0.0666667 7:-0.2 8:-0.733333 9:0.2 10:0.466667 11:-0.333333 12:0.2 13:-0.866667 14:0.0666667 15:-0.2 16:0.2 
1 1 1 1 1 1 1 1 1 1 1 1 1 1 1 1 1 1 1 1 1 1 1 1 1 1:-0.333333 2:0.0666667 3:-0.0666667 4:0.333333 5:-0.2 6:0.466667 7:-0.466667 8:-0.6 9:-0.333333 10:0.2 11:-0.733333 12:-0.0666667 13:-0.733333 14:-0.0666667 15:-0.2 16:0.2 
1 1 1 1 1 1 1 1 1 1 1 1 1 1 1 1 1 0 1 1 1 1 1 1 1 1:-0.466667 2:-0.2 3:-0.2 4:-0.466667 5:-0.466667 6:0.2 7:0.2 8:-0.333333 9:-0.466667 10:-0.0666667 11:-0.333333 12:-0.0666667 13:-0.6 14:0.0666667 15:0.2 16:-0.333333 
1 1 1 1 1 1 1 1 0 0 1 1 1 1 1 1 1 1 0 1 1 1 1 1 1 1:-0.733333 2:-0.466667 3:-0.333333 4:-0.6 5:-0.733333 6:0.0666667 7:-0.0666667 8:-0.733333 9:0.2 10:0.6 11:-0.2 12:0.0666667 13:-0.866667 14:0.0666667 15:-0.333333 16:0.0666667 
1 1 1 1 1 1 1 1 1 1 1 1 1 1 1 1 0 1 1 1 0 1 1 1 1 1:-0.466667 2:0.333333 3:-0.2 4:-0.0666667 5:-0.466667 6:0.2 7:-0.333333 8:-0.6 9:0.333333 10:0.466667 11:-0.466667 12:0.2 13:-0.866667 14:-0.0666667 15:-0.2 16:0.2 
1 1 1 1 1 1 1 1 1 1 1 1 1 1 1 1 1 1 1 1 1 1 1 1 1 1:-0.2 2:0.333333 3:0.0666667 4:0.0666667 5:-0.2 6:0.0666667 7:-0.0666667 8:-0.733333 9:0.2 10:0.6 11:-0.333333 12:0.0666667 13:-0.866667 14:-0.0666667 15:-0.2 16:0.0666667 
1 1 1 1 1 1 1 1 1 1 1 1 1 1 1 1 1 1 1 1 1 1 1 1 1 1:-0.466667 2:-0.0666667 3:-0.333333 4:-0.333333 5:-0.466667 6:0.2 7:-0.0666667 8:-0.333333 9:-0.6 10:-0.0666667 11:-0.333333 12:-0.0666667 13:-0.6 14:0.0666667 15:0.2 16:-0.333333 
0 1 1 0 1 1 1 1 0 0 1 1 1 1 0 1 0 0 1 1 0 1 1 1 0 1:-0.466667 2:0.2 3:-0.333333 4:-0.0666667 5:-0.733333 6:-0.0666667 7:-0.0666667 8:-0.466667 9:0.866667 10:0.2 11:-0.2 12:0.0666667 13:-1 14:0.0666667 15:0.0666667 16:0.0666667 
1 1 1 1 1 1 1 1 1 1 1 1 1 1 1 1 1 1 1 1 1 1 1 1 0 1:-0.6 2:-0.0666667 3:-0.466667 4:-0.333333 5:-0.6 6:-0.2 7:0.0666667 8:-0.333333 9:0.2 10:-0.0666667 11:-0.0666667 12:0.2 13:-0.866667 14:0.2 15:-0.0666667 16:-0.0666667 
0 1 1 0 1 1 0 1 0 1 1 1 1 1 1 1 0 1 0 0 0 1 1 1 1 1:-0.733333 2:-0.466667 3:-0.466667 4:-0.6 5:-0.733333 6:0.0666667 7:-0.2 8:-0.733333 9:0.2 10:0.6 11:-0.333333 12:0.2 13:-0.866667 14:0.0666667 15:-0.333333 16:0.2 
1 1 1 1 1 1 1 1 1 1 1 1 1 1 1 1 1 1 1 1 1 1 1 1 1 1:-0.466667 2:0.0666667 3:-0.333333 4:-0.2 5:-0.333333 6:0.0666667 7:0.466667 8:-0.2 9:-0.333333 10:-0.2 11:-0.333333 12:-0.0666667 13:-0.6 14:0.2 15:-0.2 16:-0.466667 
1 1 1 1 1 1 1 1 1 1 1 1 1 1 1 1 1 1 1 1 1 1 1 1 1 1:-0.333333 2:0.6 3:-0.2 4:-0.2 5:-0.466667 6:0.2 7:-0.333333 8:-0.6 9:0.0666667 10:0.6 11:-0.466667 12:0.2 13:-0.6 14:0.2 15:-0.333333 16:0.466667 
1 1 1 1 1 1 1 1 1 0 1 1 1 1 0 1 1 0 1 1 1 1 1 1 0 1:-0.733333 2:-0.733333 3:-0.6 4:-0.6 5:-0.733333 6:-0.0666667 7:0.0666667 8:-0.333333 9:0.2 10:-0.2 11:-0.2 12:0.2 13:-0.866667 14:0.2 15:-0.0666667 16:0.0666667 
0 1 0 1 0 1 0 1 0 0 1 1 1 0 0 1 1 1 0 0.8020662535144769 1 1 1 1 1 1:-0.866667 2:-0.6 3:-0.6 4:-0.733333 5:-0.866667 6:-0.0666667 7:0.0666667 8:-0.733333 9:0.2 10:0.466667 11:-0.2 12:0.0666667 13:-0.866667 14:0.0666667 15:-0.333333 16:-0.0666667 
1 1 1 1 1 1 1 1 1 1 1 1 1 1 1 1 1 1 1 1 1 1 1 1 1 1:-0.333333 2:0.333333 3:-0.333333 4:-0.333333 5:-0.6 6:0.466667 7:-0.466667 8:-0.6 9:-0.0666667 10:0.466667 11:-0.466667 12:0.2 13:-0.733333 14:0.2 15:-0.466667 16:0.466667 
1 1 1 1 1 1 1 1 1 0 1 1 1 1 0 1 1 1 1 1 1 1 1 1 1 1:-0.466667 2:-0.0666667 3:-0.2 4:-0.333333 5:-0.6 6:-0.2 7:0.2 8:-0.6 9:0.2 10:0.6 11:0.2 12:-0.0666667 13:-0.866667 14:0.2 15:-0.2 16:-0.333333 
1 1 1 1 1 1 1 1 1 1 1 1 1 1 1 1 1 1 1 1 0 1 1 1 1 1:-0.466667 2:-0.0666667 3:-0.2 4:-0.333333 5:-0.466667 6:0.2 7:-0.2 8:-0.733333 9:0.0666667 10:0.466667 11:-0.466667 12:0.333333 13:-0.733333 14:-0.0666667 15:-0.2 16:0.333333 
0 1 0 0 0 1 1 1 0 0 1 1 1 1 0 1 0 0 0 1 0 1 1 1 0 1:-0.466667 2:-0.466667 3:-0.466667 4:-0.2 5:-0.733333 6:-0.0666667 7:-0.0666667 8:-0.466667 9:0.866667 10:0.2 11:-0.2 12:0.0666667 13:-1 14:0.0666667 15:0.0666667 16:0.0666667 
1 1 1 1 1 1 1 1 1 1 1 1 1 1 1 1 1 1 1 1 1 1 1 1 1 1:-0.0666667 2:0.866667 3:-0.0666667 4:0.0666667 5:-0.333333 6:-0.2 7:-0.0666667 8:-0.733333 9:0.2 10:0.6 11:-0.0666667 12:0.0666667 13:-0.466667 14:-0.2 15:-0.0666667 16:-0.2 
1 1 1 0 1 1 1 1 0 0 1 1 1 1 0 1 1 0 1 1 1 1 1 1 0 1:-0.333333 2:0.333333 3:-0.2 4:0.0666667 5:-0.6 6:-0.0666667 7:-0.0666667 8:-0.466667 9:1 10:0.2 11:-0.2 12:0.0666667 13:-1 14:0.0666667 15:0.0666667 16:0.0666667 
1 1 1 1 1 1 1 1 1 1 1 1 1 1 1 1 1 1 1 1 1 1 1 1 1 1:0.0666667 2:0.6 3:0.0666667 4:-0.2 5:-0.333333 6:0.0666667 7:-0.333333 8:-0.733333 9:0.0666667 10:0.6 11:-0.2 12:0.333333 13:-0.6 14:-0.0666667 15:-0.0666667 16:0.0666667 
0 1 0 0 0 0 0 1 0 0 0 1 0 0 0 1 0 1 0 0 0 0 1 1 0 1:-0.733333 2:-0.866667 3:-0.733333 4:-0.733333 5:-0.866667 6:-0.0666667 7:-0.0666667 8:-0.6 9:0.466667 10:0.2 11:-0.2 12:0.0666667 13:-1 14:0.0666667 15:-0.2 16:0.0666667 
1 1 1 1 1 1 1 1 1 1 1 1 1 1 1 1 1 0 1 1 1 1 1 1 0 1:-0.6 2:-0.333333 3:-0.466667 4:-0.466667 5:-0.6 6:-0.0666667 7:-0.0666667 8:-0.333333 9:0.333333 10:-0.2 11:-0.2 12:0.0666667 13:-0.733333 14:0.0666667 15:-0.0666667 16:0.0666667 
1 1 1 1 1 1 1 1 1 1 1 1 1 1 1 1 1 1 1 1 1 1 1 1 1 1:-0.333333 2:0.333333 3:-0.0666667 4:0.0666667 5:-0.466667 6:-0.0666667 7:-0.0666667 8:-0.6 9:0.466667 10:0.466667 11:-0.2 12:0.0666667 13:-0.866667 14:0.0666667 15:-0.0666667 16:0.0666667 
1 1 1 1 1 1 1 1 1 0 1 1 1 1 0 1 1 1 1 1 1 1 1 1 1 1:-0.466667 2:0.2 3:-0.466667 4:-0.2 5:-0.6 6:-0.0666667 7:0.333333 8:-0.6 9:0.466667 10:0.0666667 11:-0.2 12:-0.0666667 13:-1 14:0.0666667 15:-0.0666667 16:-0.0666667 
1 1 1 1 1 1 1 1 1 1 1 1 1 1 1 1 1 1 1 1 1 1 1 1 1 1:-0.333333 2:0.466667 3:-0.0666667 4:0.0666667 5:-0.466667 6:0.2 7:-0.2 8:-0.6 9:0.333333 10:0.6 11:-0.466667 12:0.0666667 13:-0.866667 14:-0.0666667 15:-0.2 16:0.2 
1 1 1 1 1 1 0 1 0 0 1 1 1 1 0 1 0 1 0 1 1 1 1 1 1 1:-0.733333 2:-0.6 3:-0.466667 4:-0.733333 5:-0.733333 6:0.0666667 7:-0.0666667 8:-0.733333 9:0.2 10:0.6 11:-0.2 12:0.0666667 13:-0.866667 14:0.0666667 15:-0.333333 16:0.0666667 
1 1 1 1 1 1 1 1 1 1 1 1 1 1 1 1 1 0 1 1 1 1 1 1 1 1:-0.466667 2:-0.0666667 3:-0.2 4:-0.333333 5:-0.333333 6:0.2 7:0.2 8:-0.333333 9:-0.466667 10:-0.2 11:-0.333333 12:-0.0666667 13:-0.6 14:0.2 15:0.2 16:-0.466667 
0 1 0 0 0 0 0 1 0 0 0 1 0 0 0 1 0 0 0 0 0 0 1 1 0 1:-0.6 2:-0.2 3:-0.466667 4:-0.466667 5:-0.866667 6:-0.0666667 7:-0.0666667 8:-0.6 9:0.733333 10:0.2 11:-0.2 12:0.0666667 13:-1 14:0.0666667 15:0.0666667 16:0.0666667 
1 1 1 1 1 1 1 1 1 1 1 1 1 1 1 1 1 1 1 1 1 1 1 1 0.02603651777433547 1:-0.866667 2:-0.466667 3:-0.733333 4:-0.6 5:-0.733333 6:0.0666667 7:-0.0666667 8:-0.333333 9:0.0666667 10:-0.2 11:-0.2 12:-0.0666667 13:-0.733333 14:0.0666667 15:-0.0666667 16:0.0666667 
1 1 1 1 1 1 1 1 1 1 1 1 1 1 1 1 1 0 1 1 1 1 1 1 1 1:0.0666667 2:1 3:0.0666667 4:0.0666667 5:-0.2 6:-0.0666667 7:-0.0666667 8:-0.733333 9:0.2 10:0.6 11:-0.0666667 12:0.0666667 13:-0.2 14:-0.333333 15:0.0666667 16:-0.333333 
1 1 1 0 1 1 1 1 0 0 1 1 1 1 1 1 0 1 0 1 0 1 1 1 0 1:-0.733333 2:-0.866667 3:-0.733333 4:-0.733333 5:-0.866667 6:-0.0666667 7:-0.0666667 8:-0.333333 9:0.2 10:-0.2 11:-0.2 12:0.0666667 13:-0.866667 14:0.0666667 15:-0.2 16:0.0666667 
1 1 1 1 1 1 1 1 1 1 1 1 1 1 0 1 1 0 1 1 1 1 1 1 0 1:-0.466667 2:0.0666667 3:-0.333333 4:-0.2 5:-0.333333 6:0.0666667 7:0.0666667 8:-0.6 9:-0.0666667 10:-0.0666667 11:-0.2 12:-0.0666667 13:-0.866667 14:0.2 15:0.333333 16:0.0666667 
1 1 1 1 1 1 1 1 1 1 1 1 1 1 1 1 1 1 1 1 1 1 1 1 1 1:-0.466667 2:-0.2 3:-0.333333 4:-0.466667 5:-0.466667 6:0.2 7:0.2 8:-0.333333 9:-0.466667 10:-0.2 11:-0.333333 12:-0.0666667 13:-0.6 14:0.0666667 15:0.0666667 16:-0.466667 
0 1 0 0 0 0 0 0 0 0 0 1 0 0 1 1 0 1 0 0 0 0 1 1 1 1:-0.866667 2:-1 3:-0.866667 4:-1 5:-1 6:-0.0666667 7:-0.0666667 8:-0.733333 9:0.2 10:0.0666667 11:-0.2 12:0.0666667 13:-1 14:0.0666667 15:-0.333333 16:0.0666667 
0 1 0 0 0 0 0 0 0 0 0 1 0 0 1 1 0 1 0 0 0 0 1 1 1 1:-0.866667 2:-1 3:-0.866667 4:-1 5:-1 6:0.0666667 7:-0.0666667 8:-0.733333 9:0.2 10:0.0666667 11:-0.2 12:0.0666667 13:-1 14:0.0666667 15:-0.333333 16:0.0666667 
1 1 1 1 1 1 1 1 1 1 1 1 1 1 1 1 1 0 1 1 1 1 1 1 1 1:0.333333 2:1 3:0.333333 4:0.2 5:-0.0666667 6:0.0666667 7:-0.2 8:-0.6 9:0.2 10:0.6 11:-0.2 12:0.2 13:-0.466667 14:-0.333333 15:0.0666667 16:-0.0666667 
1 1 1 1 1 1 1 1 1 1 1 1 1 1 1 1 1 0 1 1 1 1 1 1 0 1:-0.333333 2:0.466667 3:-0.0666667 4:0.0666667 5:0.0666667 6:-0.2 7:-0.0666667 8:-0.6 9:0.2 10:-0.0666667 11:-0.2 12:0.333333 13:-0.866667 14:0.0666667 15:0.466667 16:-0.333333 
0 1 0 0 0 0 0 0 0 0 0 1 0 0 0 1 0 1 0 0 0 0 0 0 0 1:-0.866667 2:-0.866667 3:-0.733333 4:-0.866667 5:-1 6:0.0666667 7:-0.0666667 8:-0.733333 9:0.333333 10:0.2 11:-0.2 12:0.0666667 13:-1 14:0.0666667 15:-0.2 16:0.0666667 
1 1 1 1 1 1 1 1 0 1 1 1 1 1 1 1 0 1 0 1 0 1 1 1 1 1:-0.6 2:-0.466667 3:-0.333333 4:-0.6 5:-0.733333 6:0.0666667 7:-0.2 8:-0.733333 9:0.2 10:0.6 11:-0.333333 12:0.2 13:-0.866667 14:0.0666667 15:-0.333333 16:0.2 
1 1 1 0 1 1 1 1 0 0 1 1 1 1 0 1 1 0 1 1 0 1 1 1 0 1:-0.466667 2:0.0666667 3:-0.333333 4:-0.2 5:-0.6 6:-0.0666667 7:-0.0666667 8:-0.6 9:0.6 10:0.2 11:-0.2 12:0.0666667 13:-1 14:0.0666667 15:0.0666667 16:0.0666667 
0 1 0 0 0 1 0 1 0 0 0.5943195064112047 1 1 0.3084987666325836 0 1 0 0 0 0 0 0 1 1 0 1:-0.6 2:-0.2 3:-0.466667 4:-0.466667 5:-0.733333 6:-0.0666667 7:-0.0666667 8:-0.466667 9:0.866667 10:0.2 11:-0.2 12:0.0666667 13:-1 14:0.0666667 15:0.0666667 16:0.0666667 
1 1 1 1 1 1 1 1 1 1 1 1 1 1 1 1 1 1 1 1 1 1 1 1 1 1:-0.2 2:0.333333 3:-0.2 4:-0.333333 5:-0.6 6:0.2 7:-0.333333 8:-0.733333 9:0.0666667 10:0.466667 11:-0.333333 12:0.2 13:-0.733333 14:0.2 15:-0.333333 16:0.2 
1 1 1 1 1 1 1 1 1 1 1 1 1 1 1 1 1 1 1 1 1 1 1 1 1 1:-0.333333 2:0.466667 3:-0.0666667 4:0.0666667 5:-0.466667 6:-0.0666667 7:-0.0666667 8:-0.733333 9:0.466667 10:0.466667 11:-0.2 12:0.0666667 13:-0.866667 14:0.0666667 15:-0.2 16:-0.0666667 
1 1 1 1 1 1 1 1 1 1 1 1 1 1 0 1 1 0 1 1 1 1 1 1 1 1:-0.0666667 2:-0.0666667 3:-0.333333 4:0.466667 5:-0.466667 6:-0.0666667 7:0.0666667 8:-0.333333 9:-0.6 10:0.466667 11:-0.0666667 12:-0.0666667 13:-0.733333 14:0.2 15:0.333333 16:-0.2 
1 1 1 1 1 1 1 1 1 1 1 1 1 1 0 1 1 1 1 1 1 1 1 1 1 1:-0.333333 2:-0.0666667 3:-0.466667 4:0.466667 5:-0.466667 6:-0.0666667 7:0.0666667 8:-0.466667 9:-0.733333 10:0.6 11:-0.0666667 12:-0.0666667 13:-0.6 14:0.2 15:0.466667 16:-0.333333 
1 1 1 1 1 1 1 1 1 1 1 1 1 1 1 1 1 1 1 1 1 1 1 1 1 1:-0.2 2:-0.0666667 3:-0.466667 4:0.333333 5:-0.466667 6:0.0666667 7:-0.2 8:-0.466667 9:-0.466667 10:0.466667 11:-0.2 12:-0.0666667 13:-0.733333 14:0.333333 15:0.2 16:0.0666667 
1 1 1 1 1 1 1 1 1 1 1 1 1 1 1 1 1 1 1 1 1 1 1 1 1 1:-0.333333 2:0.466667 3:-0.0666667 4:0.0666667 5:-0.466667 6:-0.0666667 7:-0.0666667 8:-0.733333 9:0.333333 10:0.6 11:-0.333333 12:0.2 13:-0.866667 14:0.2 15:-0.0666667 16:0.0666667 
1 1 1 1 1 1 1 1 0 1 1 1 1 1 1 1 1 1 1 1 1 1 1 1 0 1:-0.733333 2:-0.866667 3:-0.733333 4:-0.733333 5:-0.733333 6:0.0666667 7:-0.0666667 8:-0.333333 9:0.0666667 10:-0.2 11:-0.2 12:-0.0666667 13:-0.866667 14:0.0666667 15:-0.2 16:0.0666667 
1 1 1 1 1 1 1 1 1 1 1 1 1 1 1 1 1 0 1 1 1 1 1 1 0 1:-0.733333 2:-0.866667 3:-0.6 4:-0.733333 5:-0.733333 6:-0.0666667 7:-0.0666667 8:-0.333333 9:0.0666667 10:-0.2 11:-0.2 12:0.2 13:-0.733333 14:0.0666667 15:-0.0666667 16:0.0666667 
1 1 1 1 1 1 1 1 1 1 1 1 1 1 1 1 1 1 1 1 1 1 1 1 1 1:-0.6 2:-0.333333 3:-0.333333 4:-0.466667 5:-0.6 6:0.0666667 7:-0.0666667 8:-0.733333 9:0.2 10:0.6 11:-0.2 12:0.2 13:-0.866667 14:0.0666667 15:-0.333333 16:-0.0666667 
1 1 1 0 1 1 1 1 0 0 1 1 1 1 0 1 1 0 1 1 0 1 1 1 0 1:-0.333333 2:-0.333333 3:-0.2 4:0.0666667 5:-0.6 6:-0.0666667 7:-0.0666667 8:-0.466667 9:1 10:0.2 11:-0.2 12:0.0666667 13:-1 14:0.0666667 15:0.0666667 16:0.0666667 
1 1 1 1 1 1 1 1 1 1 1 1 1 1 1 1 1 1 1 1 1 1 1 1 1 1:-0.466667 2:0.0666667 3:-0.2 4:-0.2 5:-0.2 6:-0.0666667 7:0.0666667 8:-0.733333 9:-0.0666667 10:-0.0666667 11:-0.2 12:-0.0666667 13:-0.866667 14:0.2 15:0.2 16:0.0666667 
1 1 1 1 1 1 1 1 0 0 1 1 1 1 0 1 1 1 1 1 1 1 1 1 1 1:-0.733333 2:-0.466667 3:-0.466667 4:-0.6 5:-0.733333 6:-0.0666667 7:0.0666667 8:-0.733333 9:0.2 10:0.466667 11:-0.0666667 12:-0.0666667 13:-0.866667 14:0.0666667 15:-0.2 16:-0.2 
0 1 1 0 1 1 1 1 0 0 1 1 1 1 1 1 0 1 0 1 0 1 1 1 0 1:-0.6 2:-0.0666667 3:-0.466667 4:-0.333333 5:-0.733333 6:-0.0666667 7:-0.0666667 8:-0.6 9:0.6 10:0.0666667 11:-0.2 12:0.0666667 13:-1 14:0.0666667 15:-0.0666667 16:-0.0666667 
1 1 1 1 1 1 1 1 1 0 1 1 1 1 1 1 1 1 1 1 1 1 1 1 1 1:-0.6 2:-0.333333 3:-0.333333 4:-0.466667 5:-0.6 6:-0.0666667 7:0.0666667 8:-0.733333 9:0.2 10:0.6 11:-0.2 12:0.0666667 13:-0.866667 14:0.2 15:-0.333333 16:-0.0666667 
0 1 0 0 1 1 1 1 0 0 1 1 1 1 0 1 0 0 0 1 0 1 1 1 0 1:-0.466667 2:0.0666667 3:-0.333333 4:-0.2 5:-0.733333 6:-0.0666667 7:-0.0666667 8:-0.466667 9:1 10:0.2 11:-0.2 12:0.0666667 13:-1 14:0.0666667 15:0.0666667 16:0.0666667 
1 1 1 1 1 1 1 1 1 1 1 1 1 1 1 1 1 0 1 1 1 1 1 1 0 1:-0.466667 2:0.333333 3:-0.333333 4:-0.0666667 5:-0.466667 6:-0.0666667 7:0.0666667 8:-0.2 9:0.466667 10:-0.0666667 11:-0.2 12:0.2 13:-0.866667 14:0.2 15:0.0666667 16:-0.0666667 
0 1 0 0 0 0 0 0 0 0 0 1 0 0 0 1 0 0 0 0 0 0 0 0 0 1:-0.866667 2:-1 3:-0.733333 4:-0.866667 5:-1 6:-0.0666667 7:-0.0666667 8:-0.6 9:0.466667 10:0.0666667 11:-0.2 12:0.0666667 13:-1 14:0.0666667 15:-0.2 16:0.0666667 
0 1 0 0 0 1 1 1 0 0 1 1 1 1 0 1 0 0 0 0 0 0.8311341291385516 1 1 0 1:-0.6 2:0.0666667 3:-0.466667 4:-0.2 5:-0.733333 6:-0.0666667 7:-0.0666667 8:-0.466667 9:0.866667 10:0.2 11:-0.2 12:0.0666667 13:-1 14:0.0666667 15:0.0666667 16:0.0666667 
1 1 1 1 1 1 1 1 1 1 1 1 1 1 1 1 1 0 1 1 1 1 1 1 0 1:-0.6 2:-0.6 3:-0.466667 4:-0.466667 5:-0.6 6:-0.0666667 7:-0.0666667 8:-0.333333 9:0.333333 10:-0.2 11:-0.2 12:0.0666667 13:-0.733333 14:0.0666667 15:-0.0666667 16:0.0666667 
0 1 0 0 0 1 0 1 0 0 1 1 1 1 0 1 0 0 0 0 0 0 1 1 0 1:-0.6 2:0.0666667 3:-0.466667 4:-0.2 5:-0.733333 6:-0.0666667 7:-0.0666667 8:-0.6 9:0.733333 10:0.333333 11:-0.2 12:0.0666667 13:-1 14:0.0666667 15:0.0666667 16:0.0666667 
1 1 1 1 1 1 1 1 1 1 1 1 1 1 1 1 1 1 1 1 1 1 1 1 1 1:-0.2 2:0.2 3:0.0666667 4:-0.0666667 5:-0.466667 6:0.0666667 7:-0.2 8:-0.6 9:0.466667 10:0.6 11:-0.333333 12:0.333333 13:-0.866667 14:0.0666667 15:-0.2 16:0.0666667 
0 1 0 0 0 1 1 1 0 0 1 1 1 1 0 1 0 0 0 0 0 0.4913753070360852 1 1 0 1:-0.6 2:0.0666667 3:-0.466667 4:-0.2 5:-0.733333 6:-0.0666667 7:-0.0666667 8:-0.466667 9:0.866667 10:0.2 11:-0.2 12:0.0666667 13:-1 14:0.0666667 15:0.0666667 16:0.0666667 
1 1 1 0 1 1 1 1 0 0 1 1 1 1 1 1 1 0 1 1 0 1 1 1 0 1:-0.733333 2:-0.6 3:-0.6 4:-0.733333 5:-0.733333 6:-0.0666667 7:-0.0666667 8:-0.333333 9:0.2 10:-0.2 11:-0.2 12:0.0666667 13:-0.866667 14:0.0666667 15:-0.0666667 16:0.0666667 
1 1 1 1 1 1 1 1 1 0 1 1 1 1 0 1 1 1 1 1 1 1 1 1 1 1:-0.466667 2:-0.2 3:-0.333333 4:-0.466667 5:-0.6 6:-0.0666667 7:0.0666667 8:-0.733333 9:0.2 10:0.466667 11:0.0666667 12:-0.2 13:-0.866667 14:0.0666667 15:-0.2 16:-0.2 
0 1 0 0 0 0 0 0 0 0 0 1 0 0 0 1 0 0 0 0 0 0 0 1 0 1:-0.733333 2:-0.2 3:-0.6 4:-0.466667 5:-0.866667 6:-0.0666667 7:-0.0666667 8:-0.6 9:0.733333 10:0.2 11:-0.2 12:0.0666667 13:-1 14:0.0666667 15:0.0666667 16:0.0666667 
1 1 1 1 1 1 1 1 1 1 1 1 1 1 1 1 1 0 1 1 1 1 1 1 1 1:0.0666667 2:0.0666667 3:-0.2 4:0.6 5:-0.333333 6:0.0666667 7:-0.333333 8:-0.333333 9:-0.466667 10:0.466667 11:-0.2 12:0.0666667 13:-0.6 14:0.2 15:0.466667 16:-0.0666667 
1 1 1 1 1 1 1 1 1 1 1 1 1 1 1 1 1 1 1 1 1 1 1 1 1 1:-0.6 2:-0.0666667 3:-0.466667 4:-0.333333 5:-0.6 6:-0.2 7:-0.0666667 8:-0.333333 9:0.2 10:-0.0666667 11:-0.0666667 12:0.2 13:-0.866667 14:0.2 15:-0.0666667 16:0.0666667 
1 1 1 1 1 1 1 1 1 1 1 1 1 1 1 1 1 0 1 1 1 1 1 1 1 1:-0.333333 2:-0.0666667 3:-0.2 4:-0.333333 5:-0.333333 6:0.2 7:0.466667 8:-0.333333 9:-0.466667 10:-0.2 11:-0.333333 12:-0.0666667 13:-0.6 14:0.0666667 15:0.0666667 16:-0.333333 
1 1 1 1 1 1 1 1 1 1 1 1 1 1 1 1 1 1 1 1 1 1 1 1 1 1:-0.0666667 2:0.466667 3:0.2 4:0.0666667 5:-0.2 6:0.0666667 7:-0.2 8:-0.733333 9:0.2 10:0.6 11:-0.333333 12:0.333333 13:-0.733333 14:0.0666667 15:-0.0666667 16:0.2 
1 1 1 1 1 1 1 1 1 1 1 1 1 1 1 1 1 0 1 1 1 1 1 1 1 1:-0.333333 2:0.0666667 3:-0.2 4:-0.2 5:-0.333333 6:0.2 7:0.466667 8:-0.2 9:-0.2 10:-0.2 11:-0.333333 12:0.2 13:-0.6 14:0.0666667 15:0.0666667 16:-0.333333 
1 1 1 1 1 1 1 1 1 1 1 1 1 1 0 1 1 1 1 1 1 1 1 1 1 1:-0.2 2:0.333333 3:0.0666667 4:0.0666667 5:-0.466667 6:-0.2 7:0.2 8:-0.6 9:0.333333 10:0.466667 11:0.2 12:-0.333333 13:-0.733333 14:0.0666667 15:-0.0666667 16:-0.333333 
1 1 1 1 1 1 1 1 1 1 1 1 1 1 0 1 1 0 1 1 1 1 1 1 0 1:-0.466667 2:0.333333 3:-0.2 4:-0.0666667 5:-0.2 6:0.0666667 7:0.0666667 8:-0.733333 9:0.0666667 10:-0.0666667 11:-0.0666667 12:-0.0666667 13:-0.866667 14:0.0666667 15:0.333333 16:0.0666667 
1 1 1 1 1 1 1 1 1 1 1 1 1 1 1 1 1 1 1 1 1 1 1 1 1 1:-0.466667 2:-0.333333 3:-0.2 4:-0.0666667 5:-0.466667 6:0.466667 7:-0.466667 8:-0.466667 9:-0.333333 10:0.333333 11:-0.6 12:0.2 13:-0.733333 14:-0.0666667 15:-0.2 16:0.333333 
1 1 1 1 1 1 1 1 1 1 1 1 1 1 1 1 1 1 1 1 1 1 1 1 1 1:-0.2 2:0.2 3:0.0666667 4:-0.0666667 5:-0.333333 6:-0.0666667 7:-0.0666667 8:-0.733333 9:0.2 10:0.6 11:-0.2 12:0.0666667 13:-0.866667 14:0.2 15:-0.2 16:0.0666667 
1 1 1 1 1 1 1 1 1 1 1 1 1 1 0 1 1 0 1 1 1 1 1 1 1 1:-0.466667 2:0.0666667 3:-0.2 4:-0.2 5:-0.333333 6:0.2 7:0.333333 8:-0.2 9:-0.333333 10:-0.0666667 11:-0.333333 12:0.0666667 13:-0.6 14:0.2 15:0.333333 16:-0.0666667 
1 1 1 1 1 1 1 1 1 1 1 1 1 1 1 1 1 0 1 1 1 1 1 1 0 1:-0.733333 2:-0.466667 3:-0.6 4:-0.733333 5:-0.733333 6:-0.0666667 7:-0.0666667 8:-0.333333 9:0.2 10:-0.2 11:-0.2 12:0.0666667 13:-0.733333 14:0.0666667 15:-0.0666667 16:0.0666667 
1 1 1 0.5106766387363915 1 1 1 1 0 0 1 1 1 1 1 1 1 1 1 1 1 1 1 1 0 1:-0.466667 2:0.2 3:-0.333333 4:-0.0666667 5:-0.6 6:-0.0666667 7:-0.0666667 8:-0.6 9:0.6 10:0.2 11:-0.2 12:0.0666667 13:-1 14:0.0666667 15:0.0666667 16:0.0666667 
1 1 1 1 1 1 1 1 1 1 1 1 1 1 0 1 1 1 1 1 1 1 1 1 1 1:-0.466667 2:-0.0666667 3:-0.2 4:-0.333333 5:-0.466667 6:-0.0666667 7:0.2 8:-0.733333 9:0.2 10:0.466667 11:0.0666667 12:-0.333333 13:-0.866667 14:0.0666667 15:-0.2 16:-0.333333 
0 1 1 0 1 1 1 1 0 0 1 1 1 1 0 1 0 0 0 1 0 1 1 1 0 1:-0.6 2:0.0666667 3:-0.466667 4:-0.2 5:-0.733333 6:-0.0666667 7:-0.0666667 8:-0.466667 9:0.733333 10:0.2 11:-0.2 12:0.0666667 13:-1 14:0.0666667 15:0.0666667 16:0.0666667 
0 1 0 0 0 1 1 1 0 0 1 1 1 1 0 1 0 0 0 0 0 0 1 1 0 1:-0.6 2:0.2 3:-0.466667 4:-0.2 5:-0.733333 6:-0.0666667 7:-0.0666667 8:-0.466667 9:0.866667 10:0.333333 11:-0.2 12:0.0666667 13:-1 14:0.0666667 15:0.0666667 16:0.0666667 
