svm_type c_svc
kernel_type linear
nr_class 26
total_sv 8770
rho 0.52123 -0.906441 1.41443 0.503074 1.13599 0.931703 0.871415 2.71159 1.40242 -0.352935 1.25546 2.48864 1.22872 2.28516 -1.05754 0.250915 0.370133 -0.796909 0.512855 1.23967 2.36196 0.536847 0.73778 2.60681 0.640637 -0.340159 1.62074 1.12908 0.227987 1.03116 0.61088 2.24092 0.0921666 -0.91061 -0.379747 -0.0023939 1.66436 0.790374 -0.122112 -1.33775 0.345052 -2.02242 -0.362376 0.475998 0.853501 -0.42374 0.81859 1.55839 -1.02219 1.61278 -0.860418 1.03843 1.40956 0.562709 3.61093 1.51787 0.525897 0.776553 0.538328 2.69394 1.4817 -1.0888 0.645203 0.625448 -3.81177 0.288468 1.51969 1.73513 0.68609 1.52121 4.27259 -0.747872 -2.27992 -3.27184 -1.72819 -1.67 -0.29248 -2.40044 -3.18486 -3.03689 -0.539226 0.0457507 -1.72771 -2.03846 -3.10277 -1.45565 -3.86645 -2.20442 -1.18085 -0.601954 -1.92592 -1.2114 0.118925 -1.9574 1.20207 1.0645 1.05987 2.29418 1.66298 -0.0890948 0.600022 0.729356 1.4059 0.562714 -0.0403252 0.224171 -0.639067 -2.85762 0.365773 1.9768 1.68384 1.1087 1.82516 2.65126 -2.1883 0.420135 0.617989 1.65667 0.19631 -1.51977 1.21847 0.486957 1.70035 -0.0869512 -0.77744 -0.641297 -0.0720893 -1.73794 -2.18347 1.96598 0.653324 0.813229 0.496049 0.252058 -1.18803 -0.336403 1.47371 0.429571 -2.27779 -1.919 -0.317938 -0.12331 -0.941686 -1.70691 -2.93721 0.211577 -2.48725 0.369826 0.432142 1.26145 -0.615718 -0.606297 2.07841 -1.17252 0.60993 -0.534141 -0.712563 -0.23612 -0.371716 0.572687 -0.299813 -0.0966729 -0.653173 -0.487769 -0.592777 -2.17861 0.423655 0.171454 -1.08389 0.280421 0.724535 -0.554802 -0.0566032 -2.9084 -1.81784 -0.699368 -0.681064 -0.897737 -2.4558 -3.30243 -0.95908 -4.06943 -0.831559 -0.234933 -0.826569 -0.890594 -1.22545 -0.0327053 -3.19697 -0.797087 -0.500992 -0.422935 0.78136 -0.43983 -1.02077 -1.57751 -3.79536 -1.26107 -0.668575 1.28939 0.432674 -0.82486 0.590933 0.113035 -1.01845 1.79248 0.442027 2.53016 3.20033 0.384962 0.25925 1.17053 -0.198111 -0.153558 1.61489 1.05399 0.0821721 2.18697 1.70736 0.933248 0.598918 2.74254 1.02902 -1.53693 -1.36439 -0.272282 -2.31423 -0.0981035 1.85817 0.904773 -0.289414 2.18381 2.44238 -0.423162 1.04164 0.144141 -0.965351 -1.26491 -0.391514 -3.55483 0.117606 0.607516 1.55531 -1.41604 0.387575 2.02352 -1.37905 -2.02376 -2.34756 -2.97073 -0.553213 -3.27769 -0.129071 -0.695893 -0.567214 -1.86878 -1.08951 0.300145 -1.6849 -2.73837 -2.60909 -0.557085 -3.0533 -0.0842399 0.322908 1.1206 -0.688569 0.320335 1.95583 -1.93429 0.00497524 0.926085 -0.0705648 0.0736721 1.11479 2.28578 0.422589 2.25429 2.16882 1.29466 -0.302668 -4.11892 0.258204 2.36471 2.26936 1.29314 2.99369 2.70126 0.866936 -1.21974 -0.563832 1.63702 2.90917 0.113042 0.504582 0.360383 -0.20175 0.308372 2.33718 2.62869 1.66921 2.75701 3.6507 0.334462 1.48347 0.337788 -0.223501 0.2223 0.108443 -0.183754 -0.465839 -0.900559 0.188613 -0.174207 -1.22897 -1.67799 -0.658035 0.224891 -0.963219 0.562086 1.5303 -0.491292 1.76933 -0.724583 -2.22565
label 26 16 19 8 6 14 18 13 4 22 1 11 5 15 17 12 24 25 9 23 21 20 3 7 2 10
nr_sv 282 253 490 506 347 303 382 217 338 337 177 389 397 491 397 222 397 366 263 171 262 320 282 491 429 261
SV
0 1 0 0 0 0 0 0 0 0 0 0 0 0 0 0 0 0 0 0 0 0 0 0 0 1:-0.733333 2:-0.466667 3:-0.333333 4:-0.6 5:-0.733333 6:-0.0666667 7:0.0666667 8:-0.733333 9:0.2 10:0.466667 11:-0.0666667 12:-0.0666667 13:-0.866667 14:0.0666667 15:-0.333333 16:-0.2 
0 1 0 0 0 0 0 0 0 0 0 0 0 1 0 0 0 0 0 0 0 0 1 0 1 1:-0.466667 2:0.0666667 3:-0.333333 4:-0.2 5:-0.466667 6:0.2 7:0.2 8:-0.2 9:-0.466667 10:-0.0666667 11:-0.333333 12:0.0666667 13:-0.6 14:0.0666667 15:0.333333 16:-0.0666667 
0 1 0 0 0 0 0 0 0 0 0 0 0 0 0 0 0 0 0 0 0 0 0 0 0 1:-0.733333 2:-0.2 3:-0.6 4:-0.466667 5:-0.6 6:0.0666667 7:-0.0666667 8:-0.333333 9:0.2 10:-0.0666667 11:-0.0666667 12:-0.0666667 13:-0.866667 14:0.0666667 15:-0.0666667 16:0.0666667 
0 1 0.7149747099541666 0 0 1 0 1 0 0.8908689428908583 0 0 0 1 1 0 0 1 0 0 0 0 0 1 1 1:-0.333333 2:0.0666667 3:-0.0666667 4:0.333333 5:-0.0666667 6:0.333333 7:-0.333333 8:-0.466667 9:-0.466667 10:0.0666667 11:-0.6 12:-0.2 13:-0.6 14:-0.333333 15:0.0666667 16:0.0666667 
0 0.3343794792011069 0 0 0 0 0 0 0 0 0 0 0 0 0 0 0 0 0 0 0 0 0 0 1 1:-0.0666667 2:0.2 3:-0.333333 4:0.733333 5:-0.333333 6:-0.0666667 7:0.0666667 8:-0.333333 9:-0.6 10:0.466667 11:-0.0666667 12:-0.0666667 13:-0.6 14:0.2 15:0.466667 16:-0.2 
0.428484127360129 1 1 1 0 1 0 0 0 0 1 1 0 0 0.9324610610757346 1 0 1 0 0 0 0 0 1 1 1:-0.6 2:-0.333333 3:-0.333333 4:0.0666667 5:-0.6 6:0.466667 7:-0.333333 8:-0.6 9:-0.333333 10:0.333333 11:-0.733333 12:-0.0666667 13:-0.733333 14:-0.0666667 15:-0.333333 16:0.466667 
0 1 0 0 0 0 0 0 0 0 0 0 0 0 0 0 0 0 0 0 0 0 0 0 0 1:-0.466667 2:0.0666667 3:-0.333333 4:-0.2 5:-0.333333 6:0.0666667 7:0.0666667 8:-0.6 9:0.0666667 10:-0.0666667 11:-0.0666667 12:-0.0666667 13:-1 14:0.0666667 15:0.466667 16:0.0666667 
0 1 0 0 0 0 0 0 0 0 0 0 0 0 0 1 0 0 0 0 0 0 0 1 1 1:-0.733333 2:-0.466667 3:-0.333333 4:-0.6 5:-0.733333 6:-0.0666667 7:0.0666667 8:-0.733333 9:0.2 10:0.466667 11:-0.0666667 12:-0.2 13:-0.866667 14:0.0666667 15:-0.333333 16:-0.0666667 
0 0 0 0 0.5503682368141731 0 0 1 0.8097131820369369 0.709452671875151 1 0 0.02829459616746653 0 0 1 0 0 0 0.908989562944028 1 0 0 0 0 1:0.0666667 2:0.733333 3:0.2 4:-0.0666667 5:-0.2 6:-0.333333 7:0.2 8:-0.733333 9:0.2 10:0.6 11:0.0666667 12:0.0666667 13:-0.2 14:-0.333333 15:0.0666667 16:-0.733333 
0 0 0 0 0 0 0 0 0 0 0 1 0 0 0 0 0 0 0 0 0 0 0 0 0 1:-0.2 2:0.333333 3:0.0666667 4:0.0666667 5:-0.333333 6:0.0666667 7:-0.2 8:-0.733333 9:0.2 10:0.6 11:-0.466667 12:0.466667 13:-0.6 14:-0.0666667 15:0.0666667 16:0.2 
0 0 0 0 0 0 0 0 0 0 0 1 0 0 0 0 0 0 0 0 0 0.2730285309818474 0 0 0 1:-0.6 2:-0.0666667 3:-0.466667 4:-0.333333 5:-0.6 6:-0.2 7:0.0666667 8:-0.333333 9:0.333333 10:-0.0666667 11:-0.0666667 12:0.333333 13:-0.733333 14:0.2 15:0.0666667 16:0.0666667 
0 1 0.05919628797980845 0 0 1 0 1 0 0 1 1 1 1 1 1 0 1 0 1 1 0 1 1 1 1:-0.866667 2:-0.6 3:-0.733333 4:-0.733333 5:-0.866667 6:-0.0666667 7:-0.0666667 8:-0.333333 9:0.0666667 10:-0.2 11:-0.2 12:0.0666667 13:-0.733333 14:0.0666667 15:-0.2 16:0.0666667 
1 1 1 1 1 1 0 1 1 1 1 1 1 0 1 1 1 1 0.446318001708909 1 1 1 0 0 1 1:-0.333333 2:0.2 3:-0.333333 4:-0.466667 5:-0.6 6:-0.333333 7:0.0666667 8:-0.733333 9:0.0666667 10:0.466667 11:0.2 12:0.2 13:-0.6 14:0.2 15:-0.333333 16:-0.333333 
0 1 0 0 0 0 0 0 0 0 0 0 0 0 0 0 0 0 0 0 0 0 0 0 0 1:-0.6 2:0.2 3:-0.466667 4:-0.2 5:-0.6 6:-0.0666667 7:-0.0666667 8:-0.2 9:0.466667 10:-0.2 11:-0.2 12:0.0666667 13:-0.866667 14:0.0666667 15:0.0666667 16:0.0666667 
0 0 0 0 0 0 0 0 0 0 0 0 0 0 0 0.07161159430288896 0 0 0 0 0 0 0 0 0 1:-0.866667 2:-1 3:-0.733333 4:-1 5:-1 6:-0.0666667 7:-0.0666667 8:-0.733333 9:0.333333 10:0.0666667 11:-0.2 12:0.0666667 13:-1 14:0.0666667 15:-0.2 16:0.0666667 
0 1 0 0 0 0 0 0 0 0 0 0 0 0 0 0 0 0 0 0 0 0 0 1 0 1:-0.733333 2:-0.6 3:-0.733333 4:-0.866667 5:-0.866667 6:0.0666667 7:-0.0666667 8:-0.333333 9:0.0666667 10:-0.2 11:-0.2 12:-0.0666667 13:-0.866667 14:0.0666667 15:-0.2 16:0.0666667 
0 1 0 0 0 0 0 0 0 0 0 0 0 0 0 1 0 0 0 0 0 0 0 0 0 1:-0.733333 2:-0.733333 3:-0.6 4:-0.6 5:-0.733333 6:-0.0666667 7:-0.0666667 8:-0.333333 9:0.2 10:-0.2 11:-0.2 12:0.0666667 13:-0.733333 14:0.0666667 15:-0.0666667 16:0.0666667 
0 0 0 0 0 0 0 0 0 0 0 1 0 0 0 0 0 0 0 0 0 0 0 0 0 1:-0.333333 2:-0.0666667 3:-0.2 4:-0.333333 5:-0.6 6:0.0666667 7:-0.0666667 8:-0.733333 9:0.2 10:0.6 11:-0.333333 12:0.333333 13:-0.733333 14:0.2 15:-0.2 16:0.2 
0 0 0 0 0 0 0 0 0 0 0 1 0 0 0 0 0 0 0 0 0 0 0 0 0 1:-0.733333 2:-0.466667 3:-0.466667 4:-0.6 5:-0.733333 6:-0.0666667 7:-0.0666667 8:-0.733333 9:0.2 10:0.466667 11:-0.2 12:0.0666667 13:-0.866667 14:0.0666667 15:-0.333333 16:0.0666667 
0 1 0 0 0 0 0 0 0 0 0 0 0 0 0 0 0 0 0 0 0 0 0 0 0 1:-0.466667 2:0.466667 3:-0.2 4:0.0666667 5:-0.0666667 6:0.0666667 7:-0.0666667 8:-0.733333 9:0.0666667 10:-0.0666667 11:-0.2 12:0.0666667 13:-1 14:0.0666667 15:0.2 16:0.0666667 
0 1 0 1 0 0 0 0.1429778148763186 0 1 0 0 0 0 0 0 0 1 0 0 1 0 0 0 1 1:-0.2 2:0.466667 3:0.0666667 4:0.0666667 5:0.0666667 6:0.333333 7:0.2 8:-0.333333 9:-0.466667 10:-0.0666667 11:-0.333333 12:-0.0666667 13:-0.6 14:0.0666667 15:0.2 16:-0.333333 
0 1 0 0 0 0 0.3078402562614532 0 0 0 0.2133943659781653 1 1 1 1 0 0 0 0 0 0 0.4734187569662027 1 0.9989188769751016 0 1:0.0666667 2:0.6 3:0.0666667 4:-0.2 5:-0.333333 6:0.333333 7:-0.6 8:-0.466667 9:-0.0666667 10:0.6 11:-0.6 12:0.466667 13:-0.6 14:-0.2 15:-0.0666667 16:0.466667 
0 1 0 0 0 0 0 0 0 0 0 0 0 0 0 0 0 0 0 0 0 0 0 0 0 1:-0.466667 2:0.0666667 3:-0.2 4:-0.2 5:-0.466667 6:-0.0666667 7:0.2 8:-0.733333 9:0.2 10:0.466667 11:-0.0666667 12:-0.2 13:-0.866667 14:0.0666667 15:-0.2 16:-0.2 
1 1 1 0 0 0.01462032576592965 0 1 0 1 0 0 0 0 0 0 0 1 0 0 0 0 0 1 1 1:-0.333333 2:-0.0666667 3:-0.0666667 4:0.2 5:-0.2 6:0.333333 7:-0.333333 8:-0.466667 9:-0.466667 10:0.0666667 11:-0.733333 12:-0.2 13:-0.733333 14:-0.0666667 15:-0.0666667 16:0.0666667 
0.3683456533277907 1 1 1 1 1 0 1 0 1 0 0 0.3422444037365103 0 0 1 1 1 0 0 1 0 0 0 1 1:-0.466667 2:0.0666667 3:-0.333333 4:-0.2 5:-0.333333 6:0.0666667 7:0.333333 8:-0.333333 9:-0.466667 10:-0.2 11:-0.333333 12:-0.2 13:-0.6 14:0.0666667 15:0.0666667 16:-0.6 
0 1 0 0 0 0 0 0 0 0 0 1 0 0 0 0 0 0 0 0 0 0 0 0 0 1:-0.333333 2:0.2 3:-0.0666667 4:-0.2 5:-0.333333 6:-0.0666667 7:0.0666667 8:-0.733333 9:0.2 10:0.6 11:-0.2 12:0.0666667 13:-0.866667 14:0.2 15:-0.2 16:0.0666667 
0 1 0 0 0 0 0 0 0 0 0 0 0 0 0.6730134739232863 0 0 0 0 0 0 0 0 0 0 1:-0.6 2:0.2 3:-0.333333 4:-0.0666667 5:-0.333333 6:0.0666667 7:-0.2 8:-0.733333 9:-0.0666667 10:0.0666667 11:-0.2 12:0.0666667 13:-0.866667 14:-0.0666667 15:0.466667 16:0.333333 
0.2731658965346624 1 0 1 0 0 0 0 0 0 0 0.5042208192430223 0 0 0 0 0.6783716185139106 1 0 0 1 0 0 0 1 1:0.2 2:0.466667 3:-0.2 4:1 5:-0.2 6:-0.333333 7:0.466667 8:-0.6 9:-0.6 10:0.6 11:0.0666667 12:-0.2 13:-0.6 14:0.2 15:0.466667 16:-0.333333 
0 0 0 0 0 0 0 0 0 0 0.8706488662136682 1 0 0 0 0 0 0 0 0 0 0 0 0 0 1:-0.333333 2:-0.0666667 3:-0.2 4:-0.333333 5:-0.466667 6:0.0666667 7:-0.333333 8:-0.733333 9:0.2 10:0.466667 11:-0.466667 12:0.333333 13:-0.733333 14:0.0666667 15:-0.2 16:0.333333 
0 0 0 0 0 0 0 0 0 0 0 1 0 0 0 0 0 0 0 0 0 0 0 0 0 1:-0.733333 2:-0.466667 3:-0.466667 4:-0.6 5:-0.733333 6:0.0666667 7:-0.2 8:-0.733333 9:0.2 10:0.466667 11:-0.333333 12:0.2 13:-0.866667 14:0.0666667 15:-0.333333 16:0.2 
0 1 0 0 0 0 0 0 0 0 0 0 0 0 0 1 0 0 0 0 0 0 0 0 0 1:-0.733333 2:-0.333333 3:-0.6 4:-0.466667 5:-0.733333 6:-0.0666667 7:-0.0666667 8:-0.333333 9:0.2 10:-0.2 11:-0.2 12:0.0666667 13:-0.733333 14:0.0666667 15:-0.0666667 16:0.0666667 
0 1 0 1 0 0 0 0 1 0 0 0 0 1 0 0 0 0 0 0 0 0 0.4501535114602835 0 1 1:-0.466667 2:0.2 3:-0.333333 4:-0.0666667 5:-0.333333 6:0.2 7:0.2 8:-0.2 9:-0.466667 10:-0.0666667 11:-0.333333 12:0.0666667 13:-0.466667 14:0.2 15:0.333333 16:-0.2 
0 0.16722624334981 0 0 0 0 0 0 0 0 0 0 0 0 0 0 0 0 0 0 1 0 0 0 0 1:-0.333333 2:0.0666667 3:-0.2 4:-0.2 5:-0.466667 6:-0.0666667 7:0.0666667 8:-0.733333 9:0.2 10:0.466667 11:-0.0666667 12:0.0666667 13:-0.866667 14:0.2 15:-0.2 16:-0.0666667 
0 1 0 0 0 0 0 0 0 0 0 0 0 0 0 0 0 0 0 0 0 0 0 0 0 1:-0.733333 2:-0.866667 3:-0.6 4:-0.733333 5:-0.866667 6:-0.0666667 7:-0.0666667 8:-0.333333 9:0.2 10:-0.2 11:-0.2 12:0.0666667 13:-0.866667 14:0.0666667 15:-0.0666667 16:0.0666667 
0 0 0 0 0 0 0 1 0 0 0.8217668001029745 1 0 0 0 1 0 1 0 0 1 0 0 0 1 1:-0.333333 2:0.333333 3:-0.333333 4:-0.333333 5:-0.6 6:-0.333333 7:0.0666667 8:-0.733333 9:0.2 10:0.466667 11:0.0666667 12:0.0666667 13:-0.6 14:-0.2 15:-0.2 16:-0.333333 
0 1 0 0 0 0 0 1 0 0 0 0 0 0 0 0 0 0 0 0 0 0 0 0 0 1:-0.733333 2:-0.333333 3:-0.6 4:-0.466667 5:-0.6 6:0.0666667 7:-0.0666667 8:-0.333333 9:0.2 10:-0.2 11:-0.2 12:-0.0666667 13:-0.733333 14:0.0666667 15:-0.0666667 16:0.0666667 
0 1 0 0 0 0 0 0 0 0 0 0 0 0 0 1 0 0 0 0 0 0 0 0 0 1:-0.466667 2:-0.0666667 3:-0.333333 4:-0.333333 5:-0.333333 6:0.0666667 7:0.0666667 8:-0.733333 9:-0.0666667 10:-0.0666667 11:-0.2 12:0.0666667 13:-1 14:0.2 15:0.2 16:0.2 
0 1 0 0 0 0 0 0 0 0 0 0 0 0 0 0 0 0 0 0 0 0 0 0 0 1:-0.333333 2:0.466667 3:-0.0666667 4:0.2 5:-0.333333 6:0.0666667 7:-0.2 8:-0.2 9:0.466667 10:-0.0666667 11:-0.333333 12:-0.2 13:-0.733333 14:-0.0666667 15:0.0666667 16:0.0666667 
0 1 0 0 0 0 0 0 0 0 0 0 0 0 0 0.5019347954130179 0 0 0 0 0 0 0 0 0 1:-0.466667 2:0.0666667 3:-0.2 4:-0.2 5:-0.2 6:0.0666667 7:0.0666667 8:-0.733333 9:0.0666667 10:-0.0666667 11:-0.2 12:-0.0666667 13:-1 14:0.0666667 15:0.2 16:0.0666667 
1 1 0 1 0 0 0 0 0.5150911851150828 0 0 0 0 1 0 0 0 0 0 0 0 0 1 1 0 1:-0.333333 2:-0.2 3:-0.466667 4:0.0666667 5:-0.6 6:0.0666667 7:-0.2 8:-0.333333 9:-0.333333 10:0.333333 11:-0.2 12:-0.0666667 13:-0.6 14:0.2 15:0.2 16:0.2 
1 1 1 1 0.001768178121777079 1 0.4026802946343818 1 0 1 1 1 1 1 1 1 0 1 0 0 1 1 1 1 1 1:-0.0666667 2:0.866667 3:-0.0666667 4:0.0666667 5:-0.466667 6:0.333333 7:-0.466667 8:-0.6 9:0.0666667 10:0.6 11:-0.466667 12:0.333333 13:-0.6 14:0.2 15:-0.466667 16:0.466667 
0 0 0 0 0 0 0 0 0 0 0 0 0 0 0 0 0 1 0 0 0 0 0 1 1 1:-0.466667 2:-0.2 3:-0.2 4:0.0666667 5:-0.466667 6:0.733333 7:-0.466667 8:-0.6 9:-0.0666667 10:0.333333 11:-0.733333 12:-0.0666667 13:-0.733333 14:-0.0666667 15:-0.333333 16:0.6 
0 1 0 0.8986778590596193 0 0 0 0 0 0 0 0 0 0 0 0 0 0 0 0 0 0 0 0 0 1:0.2 2:0.2 3:-0.2 4:0.6 5:-0.2 6:-0.2 7:0.2 8:-0.466667 9:-0.733333 10:0.6 11:-0.0666667 12:-0.0666667 13:-0.6 14:0.0666667 15:0.733333 16:-0.2 
0 1 0 0 0 0 0 0 0 0 0 0 0 0 0 0 0 0 0 0 0 0 0 0 0 1:-0.866667 2:-0.6 3:-0.733333 4:-0.733333 5:-0.866667 6:-0.0666667 7:-0.0666667 8:-0.333333 9:0.0666667 10:-0.2 11:-0.2 12:0.0666667 13:-0.866667 14:0.0666667 15:-0.0666667 16:0.0666667 
1 1 0 1 0 0 0 0 0 0 0 1 0 0 0 0 1 0.2024464185146424 0 0.16003303771626 1 0 0 0.9001079678326728 1 1:-0.2 2:0.333333 3:0.2 4:-0.0666667 5:-0.333333 6:-0.333333 7:0.333333 8:-0.466667 9:0.333333 10:0.466667 11:0.333333 12:-0.2 13:-0.866667 14:0.2 15:-0.2 16:-0.333333 
0 1 0 0 0 0 0 0 0 0 0 1 0 0 0 0 0 0 0 0 0.4407980849528421 0 0 0 0 1:-0.733333 2:-0.6 3:-0.733333 4:-0.733333 5:-0.733333 6:-0.0666667 7:-0.0666667 8:-0.333333 9:0.2 10:-0.2 11:-0.2 12:0.0666667 13:-0.866667 14:0.0666667 15:-0.2 16:0.0666667 
0 1 0 0 0 0 0 0 0 0 0 1 0 1 1 0 0 0.3872701539013174 0 0 0 0 1 0 1 1:-0.0666667 2:1 3:-0.0666667 4:0.2 5:-0.333333 6:0.466667 7:-0.6 8:-0.466667 9:-0.2 10:0.6 11:-0.6 12:0.333333 13:-0.6 14:-0.0666667 15:-0.0666667 16:0.466667 
0 1 0 0 0 0 0 0 0 0 0 0 0 0 0 0.4778193428873066 0 0 0 0 0 0 0 0 0 1:-0.466667 2:0.0666667 3:-0.2 4:-0.2 5:-0.2 6:0.0666667 7:0.0666667 8:-0.6 9:0.0666667 10:-0.0666667 11:-0.0666667 12:-0.0666667 13:-0.866667 14:0.0666667 15:0.2 16:0.0666667 
0 1 0 0 0 0 0 0 0 0 0 0 0 0 0 0 0 0 0 0 0 0 0 0 0 1:-0.6 2:0.333333 3:-0.466667 4:0.0666667 5:-0.466667 6:-0.0666667 7:-0.0666667 8:-0.2 9:0.333333 10:-0.2 11:-0.2 12:0.0666667 13:-0.866667 14:0.0666667 15:0.0666667 16:0.0666667 
0 1 0 0 0 0 0 0 0 0 0 0 0 0 0 0 0 0 0 0 0 0 0 0 1 1:-0.466667 2:-0.0666667 3:-0.2 4:0.2 5:-0.466667 6:0.466667 7:-0.466667 8:-0.733333 9:-0.2 10:0.2 11:-0.733333 12:-0.2 13:-0.866667 14:0.0666667 15:-0.2 16:0.2 
0 0 0 0 0 0 0 0 0 0 0 0 0 0 0 1 0 -0 0 0 0 0 0 0 0 1:-0.866667 2:-0.6 3:-0.6 4:-0.733333 5:-0.866667 6:-0.0666667 7:0.0666667 8:-0.866667 9:0.2 10:0.466667 11:-0.0666667 12:-0.0666667 13:-0.866667 14:0.0666667 15:-0.333333 16:-0.0666667 
0 1 0 0 0 0 0 0 0 0 0 0 0 0 0 0 1 0 0 0 1 0 0 0 0 1:-0.466667 2:-0.2 3:-0.2 4:-0.466667 5:-0.6 6:-0.2 7:0.2 8:-0.6 9:0.2 10:0.466667 11:0.2 12:-0.2 13:-0.866667 14:0.2 15:-0.2 16:-0.333333 
0 0 0 0 0 0 0 0 0 0 0 0 0 0 0 0 0 1 0 0 1 0 0 0 0 1:-0.466667 2:0.333333 3:-0.2 4:0.0666667 5:-0.466667 6:-0.2 7:0.2 8:-0.733333 9:0.2 10:0.466667 11:0.0666667 12:-0.0666667 13:-0.733333 14:0.333333 15:-0.0666667 16:-0.2 
0 0 0 0 0 0 0 0 0 0 0 0 0 0 1 0 0 0 0 0 0 0 0 0 0 1:-0.6 2:-0.0666667 3:-0.466667 4:-0.333333 5:-0.466667 6:-0.2 7:-0.2 8:-0.6 9:-0.0666667 10:-0.0666667 11:-0.2 12:0.333333 13:-0.866667 14:-0.0666667 15:0.333333 16:-0.0666667 
0 0 0 0 0 0 0 0 0 0 0 0 0 1 0 0 0 0 0 0 0 0 0 0 1 1:-0.333333 2:-0.2 3:-0.466667 4:0.0666667 5:-0.6 6:0.466667 7:-0.466667 8:-0.6 9:-0.333333 10:0.466667 11:-0.466667 12:0.0666667 13:-0.6 14:0.2 15:-0.0666667 16:0.333333 
0 1 0 0 0 0 0 0 0 0 0 1 0 0 0 0 0 0 0 0 0 0 0 0 0 1:-0.6 2:-0.2 3:-0.466667 4:-0.466667 5:-0.6 6:-0.0666667 7:0.0666667 8:-0.333333 9:0.333333 10:-0.0666667 11:-0.0666667 12:0.2 13:-0.866667 14:0.2 15:-0.0666667 16:0.0666667 
0 1 0 0 0 0 0 0 0 0 0 1 0 1 1 0.5237008081192196 0 0 0 0 0 1 1 0 0 1:-0.733333 2:-0.466667 3:-0.733333 4:-0.6 5:-0.733333 6:-0.0666667 7:0.0666667 8:-0.333333 9:0.0666667 10:-0.2 11:-0.2 12:0.2 13:-0.733333 14:0.0666667 15:-0.0666667 16:0.0666667 
0 1 0 0 0 1 0 0 0 0 0 1 0 1 0.9525843106425138 1 0 0 0 0 0 0 1 1 0 1:-0.866667 2:-0.6 3:-0.733333 4:-0.866667 5:-0.866667 6:-0.0666667 7:-0.0666667 8:-0.333333 9:0.0666667 10:-0.2 11:-0.2 12:0.0666667 13:-0.866667 14:0.0666667 15:-0.2 16:0.0666667 
0 1 0 0 0 0 0 0 0 0 0 0 0 0 0 0 0 0 0 0 0 0 0 0 0 1:-0.2 2:0.333333 3:0.2 4:0.0666667 5:-0.0666667 6:0.2 7:0.2 8:-0.333333 9:-0.466667 10:-0.0666667 11:-0.333333 12:-0.0666667 13:-0.6 14:0.2 15:0.333333 16:-0.333333 
0 1 0 0 0 0 0 0 0 0 0 1 0 1 0 0 0 0 0 0 0 1 0 0 0 1:-0.466667 2:0.2 3:-0.466667 4:-0.2 5:-0.6 6:-0.2 7:0.0666667 8:-0.2 9:0.333333 10:-0.0666667 11:-0.0666667 12:0.333333 13:-0.866667 14:0.2 15:0.0666667 16:0.0666667 
0 1 0 0 0 0 0 0 0 0 1 1 0 0 0 0.7156704511224207 0 0 0 0 1 0 0 0 0 1:-0.0666667 2:0.466667 3:0.2 4:0.0666667 5:-0.0666667 6:-0.0666667 7:-0.0666667 8:-0.733333 9:0.2 10:0.6 11:-0.2 12:0.2 13:-0.733333 14:0.2 15:-0.2 16:0.0666667 
0 1 0 0 0 0 0 0 0 0 0 0 0 1 0 0 0 0 0 0 0 0 0 0.8070742470917176 0 1:-0.333333 2:-0.0666667 3:-0.2 4:-0.333333 5:-0.333333 6:0.2 7:-0.2 8:-0.333333 9:-0.466667 10:-0.0666667 11:-0.333333 12:-0.0666667 13:-0.6 14:0.0666667 15:0.333333 16:-0.2 
0 0.2424838758989659 0 0 0 0 0 0 0 0 0 0 0 0 0 0 0 0 0 0 0 0 0 0 0 1:-0.2 2:0.333333 3:0.0666667 4:-0.0666667 5:-0.333333 6:0.0666667 7:-0.2 8:-0.6 9:0.333333 10:0.6 11:-0.466667 12:0.2 13:-0.866667 14:-0.0666667 15:-0.2 16:0.2 
0 1 0 0 0 0 0 0 0 0 0 0 0 1 0 0 0 0 0 0 0 0 0 0.4488052105055233 1 1:-0.333333 2:0.2 3:-0.0666667 4:-0.0666667 5:-0.2 6:0.333333 7:0.2 8:-0.2 9:-0.466667 10:-0.0666667 11:-0.333333 12:0.0666667 13:-0.6 14:0.0666667 15:0.333333 16:-0.0666667 
0 1 0 0 0 0 0 0 0 0 0 0 0 0 0 0 0 0 0 0 0 0 0 0 0 1:-0.6 2:0.0666667 3:-0.466667 4:-0.2 5:-0.6 6:-0.0666667 7:-0.0666667 8:-0.2 9:0.333333 10:-0.2 11:-0.2 12:0.0666667 13:-0.866667 14:0.0666667 15:0.0666667 16:0.0666667 
0 1 0 0 0 0 0 0 0 0 0 0 0 0 0 0 0 0 0 0 0 0 0 0 0 1:-0.733333 2:-0.333333 3:-0.333333 4:-0.6 5:-0.733333 6:-0.0666667 7:0.0666667 8:-0.733333 9:0.2 10:0.6 11:-0.2 12:0.0666667 13:-0.866667 14:0.2 15:-0.333333 16:-0.0666667 
0 1 0 0 0 0 0 0 0 0 0 0 0 0 0 0 0 0 0 0 0 0 0 0 0 1:-0.6 2:-0.333333 3:-0.6 4:-0.6 5:-0.733333 6:0.0666667 7:-0.0666667 8:-0.333333 9:0.333333 10:-0.2 11:-0.2 12:-0.0666667 13:-0.733333 14:0.0666667 15:-0.0666667 16:0.0666667 
0 0.8985743517259225 0 0 0 0 0 0 0 0 0 0 0 0 0 0 0 1 0 0 0 0 0 0 1 1:-0.466667 2:0.2 3:-0.2 4:-0.0666667 5:-0.466667 6:-0.0666667 7:0.2 8:-0.733333 9:0.2 10:0.466667 11:-0.0666667 12:-0.2 13:-0.866667 14:-0.0666667 15:-0.2 16:-0.2 
0 0 0 0 0 0 0 0 0 0 0 0.8089427151087559 0 0 0 0 0 0 0 0 0 0 0 0 0 1:-0.733333 2:-0.866667 3:-0.6 4:-0.6 5:-0.733333 6:-0.0666667 7:0.0666667 8:-0.333333 9:0.2 10:-0.2 11:-0.2 12:0.2 13:-0.866667 14:0.2 15:-0.0666667 16:0.0666667 
0 0 0 0 0 0 0 0 0 0 0 1 0 0 0 0 0 0 0 0 0 0 0 0 0 1:-0.733333 2:-0.466667 3:-0.466667 4:-0.733333 5:-0.733333 6:-0.0666667 7:-0.0666667 8:-0.733333 9:0.2 10:0.6 11:-0.2 12:0.0666667 13:-0.866667 14:0.0666667 15:-0.333333 16:0.0666667 
1 1 1 0.9669751702888478 0 0.2161864848470302 0.9682412595817209 1 0 1 1 1 1 1 1 0 0 1 0 0 0 1 1 1 1 1:-0.333333 2:0.2 3:-0.2 4:-0.466667 5:-0.6 6:0.333333 7:-0.6 8:-0.6 9:-0.0666667 10:0.6 11:-0.466667 12:0.333333 13:-0.733333 14:0.2 15:-0.466667 16:0.466667 
0 1 0 0 0 0.6456511304336949 0 0 0 0 0 1 0 0.1779617693071317 0 1 0 0 0 0 0 0 1 0.9546722110948734 0 1:-0.866667 2:-0.6 3:-0.733333 4:-0.733333 5:-0.866667 6:-0.0666667 7:-0.0666667 8:-0.333333 9:0.0666667 10:-0.2 11:-0.2 12:0.0666667 13:-0.733333 14:0.0666667 15:-0.0666667 16:0.0666667 
0 1 0 0.7346281799600191 0 0 0 0 0 0 0 0 0 0 0 0 0 0 0 0 1 0 0 0 0 1:-0.333333 2:0.0666667 3:-0.0666667 4:-0.2 5:-0.466667 6:-0.333333 7:0.333333 8:-0.6 9:0.333333 10:0.466667 11:0.2 12:-0.2 13:-0.866667 14:0.2 15:-0.2 16:-0.333333 
0 1 1 0 0 0 0 1 0 1 0 0 1 0 0 0 1 1 0 0 1 0 0 0 1 1:-0.466667 2:-0.0666667 3:-0.333333 4:-0.333333 5:-0.466667 6:0.2 7:0.0666667 8:-0.333333 9:-0.6 10:-0.0666667 11:-0.333333 12:-0.0666667 13:-0.6 14:-0.0666667 15:0.0666667 16:-0.466667 
0 1 0 0 0 0 0 0 0 0 0 0 0 1 0 0 0 0 0 0 0 0 0 0 0 1:-0.0666667 2:0.466667 3:-0.0666667 4:-0.2 5:-0.466667 6:0.2 7:-0.333333 8:-0.6 9:0.0666667 10:0.466667 11:-0.466667 12:0.2 13:-0.6 14:-0.2 15:-0.0666667 16:0.2 
0 1 0 0 0 0 0 0 0 0 0 0 0 0 0 0 0 0 0 0 0 0 0 0 0 1:-0.733333 2:-0.466667 3:-0.333333 4:-0.6 5:-0.733333 6:-0.0666667 7:-0.0666667 8:-0.733333 9:0.2 10:0.6 11:-0.2 12:0.0666667 13:-0.866667 14:0.0666667 15:-0.333333 16:0.0666667 
0 1 0 0 0 0 0 0 0 0 0 0 0 0 0 0 0 0 0 0 0 0 0 0 0 1:-0.733333 2:-0.866667 3:-0.6 4:-0.733333 5:-0.866667 6:-0.0666667 7:-0.0666667 8:-0.333333 9:0.2 10:-0.2 11:-0.2 12:0.2 13:-0.866667 14:0.0666667 15:-0.0666667 16:0.0666667 
0 1 0 0 1 0 1 1 0 1 0 0 0 0 0 0 1 0 0 0 0 0 0 0 0.2780582899057847 1:-0.2 2:0.466667 3:0.0666667 4:0.2 5:0.0666667 6:0.333333 7:-0.0666667 8:-0.333333 9:-0.466667 10:-0.0666667 11:-0.333333 12:-0.0666667 13:-0.466667 14:0.0666667 15:0.333333 16:-0.333333 
0 1 0 0 0 0 0 0 0 0 0 0 0 0 0 0 0 0 0 0 0 0 0 0 0 1:-0.466667 2:0.0666667 3:-0.2 4:-0.2 5:-0.2 6:0.0666667 7:0.0666667 8:-0.6 9:-0.0666667 10:-0.0666667 11:-0.0666667 12:-0.0666667 13:-0.866667 14:0.2 15:0.333333 16:0.0666667 
0 1 0 0 0 0 0 0 0 0 0 0 0 0 0 0 0 0 0 0 0 0 0 0 0 1:0.0666667 2:0.0666667 3:-0.2 4:0.466667 5:-0.333333 6:-0.0666667 7:-0.0666667 8:-0.466667 9:-0.6 10:0.466667 11:-0.2 12:0.0666667 13:-0.6 14:0.2 15:0.466667 16:-0.2 
0 0 0 0 0 0 0 0 0 0 0 0.05521182097549181 0 1 0 0 0 0 0 0 0 0 0 0 1 1:-0.466667 2:-0.333333 3:-0.333333 4:-0.0666667 5:-0.466667 6:0.466667 7:-0.333333 8:-0.466667 9:-0.333333 10:0.333333 11:-0.6 12:0.2 13:-0.733333 14:-0.2 15:-0.2 16:0.333333 
0 1 0 0 0 1 0 0 0 0 1 1 0 0 1 1 0 1 0 0 0 0 1 0 1 1:-0.866667 2:-0.6 3:-0.733333 4:-0.733333 5:-0.866667 6:-0.0666667 7:-0.0666667 8:-0.466667 9:-0.0666667 10:-0.2 11:-0.2 12:0.0666667 13:-0.866667 14:0.0666667 15:-0.2 16:0.0666667 
0 1 0 0 0 0 0 0 0 0 0 0 0 0 0 0 0 0 0 0 0 0 0 0 0 1:-0.6 2:-0.333333 3:-0.6 4:-0.6 5:-0.733333 6:0.0666667 7:-0.0666667 8:-0.333333 9:0.333333 10:-0.2 11:-0.2 12:-0.0666667 13:-0.733333 14:0.0666667 15:-0.0666667 16:0.0666667 
0 1 0 0 0 0 0 0 0 0 0 0 0 0 0 0 0 0 0 0 0 0 0 0 0 1:-0.6 2:-0.333333 3:-0.466667 4:-0.466667 5:-0.6 6:-0.0666667 7:-0.0666667 8:-0.333333 9:0.2 10:-0.2 11:-0.2 12:0.0666667 13:-0.866667 14:0.0666667 15:-0.0666667 16:0.0666667 
0 1 0 0 0 0 0 0 0 0 0 0 0 0 0 0 0 0 0 0 0 0 0 0 0 1:-0.333333 2:0.2 3:-0.2 4:-0.0666667 5:-0.333333 6:0.0666667 7:-0.0666667 8:-0.333333 9:0.333333 10:-0.0666667 11:-0.2 12:0.0666667 13:-0.866667 14:0.0666667 15:-0.0666667 16:0.0666667 
0 1 0 0 0 0 0 0 0 0 0 0 0 0 0 0 0 0 0 0 0 0 0 0 0 1:-0.866667 2:-0.6 3:-0.733333 4:-0.733333 5:-0.866667 6:-0.0666667 7:-0.0666667 8:-0.333333 9:0.0666667 10:-0.2 11:-0.2 12:0.0666667 13:-0.866667 14:0.0666667 15:-0.0666667 16:0.0666667 
0 0 0 0 0 0 0 0 0 0 0 1 0 0 0 0 0 0 0 0 1 0 0 0 0 1:-0.333333 2:0.2 3:-0.2 4:-0.0666667 5:-0.466667 6:-0.2 7:0.0666667 8:-0.6 9:0.333333 10:0.6 11:-0.0666667 12:0.0666667 13:-0.866667 14:0.2 15:-0.2 16:-0.0666667 
0 0 0 0 0 0 0 0 0 0 0 0 0 0 0 1 0 0 0 0 0 0 0 0 1 1:-0.6 2:-0.2 3:-0.333333 4:0.2 5:-0.466667 6:0.466667 7:-0.6 8:-0.733333 9:-0.2 10:0.0666667 11:-0.733333 12:-0.2 13:-0.866667 14:0.0666667 15:-0.2 16:0.2 
0 1 0 0 0 0 0 0 0 0 0 0 0 0 0 0 0 0 0 0 0 0 0 0 0 1:-0.333333 2:0.333333 3:-0.2 4:0.0666667 5:-0.2 6:0.2 7:-0.2 8:-0.333333 9:0.2 10:0.0666667 11:-0.333333 12:-0.0666667 13:-0.866667 14:-0.0666667 15:-0.0666667 16:0.0666667 
0 1 0 0 0 0 0 0 0 0 0 1 0 1 1 0 0.6188266609438757 1 0 0 1 0.1397373900875903 0 0 1 1:-0.6 2:0.333333 3:-0.466667 4:0.0666667 5:-0.333333 6:-0.2 7:0.0666667 8:-0.333333 9:0.2 10:-0.0666667 11:-0.0666667 12:0.2 13:-0.733333 14:0.2 15:-0.0666667 16:0.0666667 
0 1 0 0 0 0 0 1 0 0 0 0 0 0 0 0 0 1 0 0 0 0 0 0 1 1:-0.733333 2:-0.466667 3:-0.466667 4:-0.2 5:-0.6 6:0.466667 7:-0.333333 8:-0.6 9:-0.466667 10:0.2 11:-0.6 12:-0.0666667 13:-0.733333 14:-0.0666667 15:-0.2 16:0.0666667 
0 1 0 0 0 0 0 0 0 0 0 0 0 0 0 0 0 0 0 0 0 0 0 0 0 1:-0.466667 2:0.333333 3:-0.333333 4:0.0666667 5:-0.333333 6:0.0666667 7:-0.0666667 8:-0.2 9:0.333333 10:-0.0666667 11:-0.333333 12:-0.0666667 13:-0.866667 14:-0.0666667 15:0.0666667 16:0.0666667 
0 1 0 0 0 0 0 0 0 0 0 0 0 0 0 1 0 1 0 0 0 0 0 0 1 1:-0.333333 2:0.0666667 3:-0.0666667 4:0.333333 5:-0.2 6:0.466667 7:-0.333333 8:-0.6 9:-0.333333 10:0.2 11:-0.733333 12:-0.0666667 13:-0.733333 14:-0.0666667 15:-0.2 16:0.2 
0 0.9382344193909843 0 0 0 0 0 0 0 0 0 0 0 0 1 0 0 0 0 0 0 0 0 0 0 1:-0.466667 2:-0.0666667 3:-0.333333 4:-0.333333 5:-0.333333 6:-0.0666667 7:-0.2 8:-0.733333 9:-0.0666667 10:-0.0666667 11:-0.2 12:0.2 13:-0.866667 14:-0.0666667 15:0.333333 16:0.0666667 
0 1 0 0 0 0 0 0 0 0 0 1 0 0 0 0 0 0 0 0 0 1 0 0 0 1:-0.6 2:-0.2 3:-0.466667 4:-0.466667 5:-0.6 6:-0.2 7:0.0666667 8:-0.333333 9:0.333333 10:-0.0666667 11:-0.0666667 12:0.333333 13:-0.866667 14:0.2 15:-0.0666667 16:0.0666667 
0 1 0 0 0 0 0 0 0 0 0 0 0 0 0 0 0 0 0 0 0 0 0 0 0 1:-0.333333 2:0.2 3:-0.2 4:-0.0666667 5:-0.466667 6:0.0666667 7:-0.2 8:-0.2 9:0.466667 10:-0.0666667 11:-0.333333 12:-0.2 13:-0.866667 14:-0.0666667 15:0.0666667 16:0.0666667 
0 1 0 0 0 0 0 1 0 1 0 0 0.107430887244688 0 0 0 0 0 0 0 0 0 0 0.5138774805914424 1 1:-0.733333 2:-0.333333 3:-0.466667 4:-0.2 5:-0.466667 6:0.2 7:-0.2 8:-0.333333 9:-0.466667 10:-0.0666667 11:-0.6 12:-0.2 13:-0.733333 14:-0.0666667 15:-0.0666667 16:-0.2 
0 0 0 0 0 0 0 1 0 0 0 0 0 0 0 0 0 0 0 0 1 0 0 0 0 1:-0.0666667 2:0.2 3:-0.0666667 4:-0.333333 5:-0.466667 6:-0.0666667 7:-0.0666667 8:-0.733333 9:0.2 10:0.6 11:-0.2 12:0.0666667 13:-0.6 14:-0.0666667 15:-0.2 16:-0.2 
0 1 0 0 0 0 0 0 0 0 0 1 0 0 0 0 0 0 0 0 0 1 0 0 0 1:-0.466667 2:0.333333 3:-0.333333 4:0.0666667 5:-0.466667 6:-0.2 7:0.0666667 8:-0.2 9:0.333333 10:-0.0666667 11:-0.0666667 12:0.333333 13:-0.866667 14:0.2 15:0.0666667 16:0.0666667 
0 0 0 0 0 0 0 0 0 0 0 1 0 0 0 0 0 0 0 0 1 0 0 0 0 1:-0.0666667 2:0.333333 3:-0.0666667 4:-0.2 5:-0.466667 6:0.0666667 7:-0.2 8:-0.733333 9:0.0666667 10:0.6 11:-0.2 12:0.2 13:-0.6 14:0.0666667 15:-0.2 16:-0.0666667 
0 1 0 0 0 0 0 0 0 0 0 1 0 0 0 0 0 0 0 0 0 0 0 0 0 1:-0.733333 2:-0.333333 3:-0.333333 4:-0.6 5:-0.733333 6:-0.0666667 7:0.0666667 8:-0.733333 9:0.2 10:0.6 11:-0.2 12:0.0666667 13:-0.866667 14:0.2 15:-0.333333 16:0.0666667 
0 1 0 0 0 0 0 0 0 0.4615631364585195 0 0 0 0 0 0 0 1 0 0 0 0 0 0 1 1:-0.6 2:-0.0666667 3:-0.466667 4:-0.333333 5:-0.466667 6:0.2 7:0.2 8:-0.333333 9:-0.6 10:-0.0666667 11:-0.333333 12:-0.0666667 13:-0.6 14:0.0666667 15:0.2 16:-0.466667 
0 0 0 0 0 0 0 0 0 0 0 1 0 0 0 0 0 1 0 0 0 0 0 0 0 1:-0.866667 2:-0.6 3:-0.733333 4:-0.733333 5:-0.866667 6:-0.0666667 7:-0.0666667 8:-0.866667 9:0.0666667 10:0.466667 11:-0.2 12:0.2 13:-0.866667 14:0.2 15:-0.333333 16:0.0666667 
0 1 0 0 0 0 0 0 0 0 0 1 0 0 0 0 0 1 0 0 0 0 0 0 1 1:-0.466667 2:0.2 3:-0.333333 4:-0.0666667 5:-0.333333 6:-0.0666667 7:0.0666667 8:-0.333333 9:0.2 10:-0.0666667 11:-0.0666667 12:0.0666667 13:-0.866667 14:0.0666667 15:-0.0666667 16:0.0666667 
0 0 0 0 0 0 0 0 0 0 0 1 0 0 0 0 0 0 0 0 1 0 0 0 0 1:-0.333333 2:0.2 3:-0.0666667 4:-0.0666667 5:-0.466667 6:-0.0666667 7:0.0666667 8:-0.733333 9:0.333333 10:0.6 11:-0.2 12:0.2 13:-0.733333 14:0.333333 15:-0.2 16:0.0666667 
0 1 0 0 0 0 0 0 0 0 0 0 0 0 1 0 0 0 0 0 0 0 0 0 0 1:-0.466667 2:0.2 3:-0.2 4:-0.0666667 5:-0.2 6:-0.0666667 7:-0.0666667 8:-0.6 9:-0.0666667 10:-0.0666667 11:-0.2 12:0.2 13:-1 14:0.0666667 15:0.2 16:-0.0666667 
0 1 0 0 0 0 0 0 0 0 0 0 0 0 0 1 0 0 0 0 0 0 0 0 0 1:-0.733333 2:-0.333333 3:-0.6 4:-0.466667 5:-0.733333 6:-0.0666667 7:-0.0666667 8:-0.333333 9:0.2 10:-0.2 11:-0.2 12:0.0666667 13:-0.733333 14:0.0666667 15:-0.0666667 16:0.0666667 
1 1 1 0 0 1 1 1 0 1 1 1 1 1 1 0 0 1 0.3654849908099099 0.9343598102974635 0 0 1 1 1 1:-0.466667 2:-0.466667 3:-0.2 4:-0.2 5:-0.6 6:0.6 7:-0.466667 8:-0.466667 9:-0.466667 10:0.466667 11:-0.733333 12:0.2 13:-0.733333 14:-0.0666667 15:-0.466667 16:0.466667 
0 1 0 0 0 0 0 0 0 0 0 0 0 0 0 0 0 0 0 0 0 0 0 0 0 1:-0.6 2:-0.733333 3:-0.466667 4:-0.466667 5:-0.6 6:-0.0666667 7:-0.0666667 8:-0.333333 9:0.2 10:-0.2 11:-0.2 12:0.0666667 13:-0.866667 14:0.0666667 15:-0.0666667 16:0.0666667 
0 1 0 0 0 0 0 0 0 0 0 1 0 0 0 0 0 0 0 0 1 0 0 0 0 1:-0.466667 2:-0.0666667 3:-0.466667 4:-0.333333 5:-0.466667 6:-0.0666667 7:0.0666667 8:-0.333333 9:0.2 10:-0.0666667 11:-0.0666667 12:0.2 13:-0.866667 14:0.2 15:-0.0666667 16:0.0666667 
0 1 0 0 0 0 0 0 0 0 0 1 0 0 0 0 0 0 0 0 0 0 0 0 0 1:-0.733333 2:-0.6 3:-0.6 4:-0.733333 5:-0.733333 6:-0.0666667 7:0.0666667 8:-0.333333 9:0.2 10:-0.2 11:-0.2 12:0.2 13:-0.866667 14:0.0666667 15:-0.0666667 16:0.0666667 
0.06142748768015788 1 0 1 0 0 0 0 0 0 0 0 0 0 0 0 0 0 0 0 1 0 0 1 0 1:-0.333333 2:0.2 3:-0.0666667 4:-0.0666667 5:-0.333333 6:-0.2 7:0.2 8:-0.6 9:0.2 10:0.6 11:0.0666667 12:-0.2 13:-0.6 14:0.333333 15:0.0666667 16:-0.2 
0 0 0 0 0 0 0 0 0 0 0 0 0 1 0 0 0 0 0 0 0 0 0 0 0 1:0.0666667 2:0.0666667 3:-0.333333 4:0.6 5:-0.333333 6:0.333333 7:-0.6 8:-0.466667 9:-0.333333 10:0.6 11:-0.333333 12:0.2 13:-0.6 14:0.0666667 15:0.2 16:0.466667 
0 1 0 0 0 0 0 0 0 0 0 0 0 1 0 0 0 0 0 0 0 0 0 0.2458307229839819 0 1:-0.2 2:-0.0666667 3:-0.333333 4:0.333333 5:-0.466667 6:0.0666667 7:-0.333333 8:-0.333333 9:-0.333333 10:0.466667 11:-0.2 12:-0.0666667 13:-0.6 14:0.2 15:0.2 16:0.0666667 
0 1 0 0 0 0 0 0 0 0 0 0 0 1 0 0 0 0 0 0 0 0 1 1 0 1:-0.333333 2:0.0666667 3:-0.0666667 4:-0.2 5:-0.333333 6:0.2 7:0.0666667 8:-0.2 9:-0.466667 10:-0.0666667 11:-0.333333 12:0.0666667 13:-0.6 14:0.0666667 15:0.333333 16:-0.0666667 
0 1 0 0 0 0 0 1 0 0 0 0 0 0 0 0 0 0 0 0 0 0 0 1 0 1:-0.733333 2:-0.333333 3:-0.6 4:-0.6 5:-0.6 6:0.0666667 7:-0.0666667 8:-0.333333 9:0.2 10:-0.2 11:-0.2 12:-0.0666667 13:-0.733333 14:0.0666667 15:-0.0666667 16:0.0666667 
0 1 0 0 0 0 0 0 0 0 0 1 0 1 1 0 0 0.9541657960482539 0 0 0 0 1 0 0 1:-0.733333 2:-0.333333 3:-0.733333 4:-0.466667 5:-0.733333 6:-0.0666667 7:-0.0666667 8:-0.333333 9:0.0666667 10:-0.2 11:-0.2 12:0.0666667 13:-0.733333 14:0.0666667 15:-0.0666667 16:0.0666667 
0 1 0 0 0 0 0 0 0 0 0 0 0 0 0 0 0.2698122297284504 0 0 0 1 0 0 0 0 1:-0.2 2:0.466667 3:0.0666667 4:0.0666667 5:-0.333333 6:-0.2 7:0.2 8:-0.6 9:0.466667 10:0.466667 11:0.2 12:-0.2 13:-0.733333 14:0.0666667 15:-0.2 16:-0.333333 
0 0 0 0 0 0 0 0 0 0 0 1 0 0 0 0.1561460961760217 0 0 0 0 0 0 0 0 0 1:-0.333333 2:0.2 3:-0.333333 4:-0.466667 5:-0.6 6:0.0666667 7:-0.2 8:-0.733333 9:0.0666667 10:0.466667 11:-0.2 12:0.2 13:-0.6 14:-0.0666667 15:-0.2 16:-0.0666667 
0 1 0 0 0 0 0 0 0 0 0 0 0 0 0 0 0 0 0 0 1 0 0 0 0 1:-0.333333 2:0.0666667 3:-0.0666667 4:-0.2 5:-0.466667 6:-0.2 7:0.2 8:-0.6 9:0.333333 10:0.466667 11:0.2 12:-0.333333 13:-0.866667 14:0.0666667 15:-0.2 16:-0.333333 
0 1 0 0 0 0 0 0 0 0 0 0 0 0 0 0 0 0 0 0 0 0 0 0 0 1:-0.466667 2:0.2 3:-0.333333 4:-0.2 5:-0.333333 6:-0.0666667 7:-0.0666667 8:-0.333333 9:0.2 10:-0.0666667 11:-0.2 12:0.0666667 13:-0.866667 14:0.0666667 15:-0.0666667 16:0.0666667 
1 1 0.2685414857029935 1 0 0 0 0 0 0 0 0 0 0 0 0 1 1 0 0 1 0 0 1 1 1:-0.466667 2:-0.2 3:-0.333333 4:-0.466667 5:-0.6 6:-0.2 7:0.2 8:-0.6 9:0.0666667 10:0.466667 11:0.2 12:-0.2 13:-0.733333 14:0.2 15:-0.2 16:-0.333333 
0 1 0 0 0 0 0 0 0 0 0 1 0 0 0 0 0 0 0 0 0 0 0 0 0 1:-0.733333 2:-0.333333 3:-0.333333 4:-0.6 5:-0.733333 6:-0.0666667 7:0.0666667 8:-0.733333 9:0.2 10:0.6 11:-0.2 12:0.0666667 13:-0.866667 14:0.2 15:-0.333333 16:0.0666667 
0 1 1 1 1 1 0.6466648494421965 1 0 0 1 0 1 0.1851303281360875 0 1 0 0.2843291517923291 0 0.2718858571141347 0 0 0 1 1 1:-0.6 2:-0.466667 3:-0.333333 4:-0.2 5:-0.466667 6:0.2 7:-0.0666667 8:-0.333333 9:-0.2 10:0.0666667 11:-0.6 12:-0.0666667 13:-0.6 14:-0.2 15:-0.2 16:0.0666667 
0 1 0 0 0 0 0 0 0 0 0 1 0 0 0 0 0 0 0 0 0 1 0 0 0 1:-0.466667 2:0.0666667 3:-0.333333 4:-0.2 5:-0.6 6:-0.2 7:0.0666667 8:-0.2 9:0.466667 10:-0.0666667 11:-0.0666667 12:0.333333 13:-0.866667 14:0.2 15:0.0666667 16:0.0666667 
0 0.1172734892989895 0 0 0 0 0 0 0 0 0 0 0 0 0 0 0 0 0 0 0 0 0 0 0 1:-0.733333 2:-0.6 3:-0.466667 4:-0.733333 5:-0.866667 6:0.0666667 7:-0.2 8:-0.733333 9:0.0666667 10:0.466667 11:-0.333333 12:0.2 13:-0.866667 14:0.0666667 15:-0.333333 16:0.0666667 
0 1 0 0 0 0 0 0 0 0 0 0 0 0 0 0 0 0 0 0 0 0 0 0 0 1:-0.6 2:0.0666667 3:-0.466667 4:-0.2 5:-0.466667 6:-0.2 7:-0.0666667 8:-0.6 9:-0.0666667 10:0.0666667 11:-0.2 12:0.2 13:-1 14:0.2 15:0.2 16:-0.0666667 
0 0 0 0 0 0 0 0 0 0 0 1 0 0 0 0 0 0 0 0 0 0 0 0 0 1:-0.466667 2:0.2 3:-0.2 4:-0.2 5:-0.6 6:-0.0666667 7:0.0666667 8:-0.733333 9:0.333333 10:0.466667 11:-0.0666667 12:0.2 13:-0.866667 14:0.2 15:-0.2 16:0.0666667 
0 1 0 1 0 0 0 0 0 0 0 0 0 0 0 0 0 0 0 0 0 1 0 0 0 1:-0.333333 2:-0.2 3:-0.466667 4:0.2 5:-0.6 6:-0.2 7:0.2 8:-0.333333 9:-0.6 10:0.6 11:-0.0666667 12:-0.0666667 13:-0.733333 14:0.2 15:0.333333 16:-0.2 
0 1 1 0.7814059133854854 1 1 0 1 0.2790717927014175 1 1 0 0.6084721506707079 0 1 1 0 1 0.3264547019171162 0 0.5395054057720371 0 0 0 1 1:-0.466667 2:-0.333333 3:-0.2 4:-0.0666667 5:-0.333333 6:0.333333 7:-0.333333 8:-0.6 9:-0.333333 10:-0.0666667 11:-0.6 12:-0.2 13:-0.6 14:-0.0666667 15:-0.2 16:-0.0666667 
0 1 0 0 0 0 0 0 0 0 0 1 0 0 0 0 0 0 0 0 0 0 0 0 0 1:-0.866667 2:-0.866667 3:-0.733333 4:-0.6 5:-0.866667 6:-0.0666667 7:0.0666667 8:-0.333333 9:0.0666667 10:-0.2 11:-0.2 12:0.2 13:-0.866667 14:0.2 15:-0.0666667 16:0.0666667 
0 1 0 0 0 0 0 0 0 0 0 1 0 0.7011167286302175 1 0 0 0 0 0 1 1 1 0 0 1:-0.6 2:-0.0666667 3:-0.466667 4:-0.333333 5:-0.6 6:-0.2 7:0.0666667 8:-0.333333 9:0.2 10:-0.0666667 11:-0.0666667 12:0.333333 13:-0.866667 14:0.2 15:-0.0666667 16:0.0666667 
0 1 0 0 0 0 0 0 0 0 0 1 0 0 0 0 0 0.2184495602926671 0 0 1 0 0 0 0 1:-0.333333 2:0.466667 3:-0.2 4:0.0666667 5:-0.2 6:-0.0666667 7:0.0666667 8:-0.333333 9:0.2 10:-0.0666667 11:-0.0666667 12:0.2 13:-0.866667 14:0.2 15:-0.0666667 16:-0.0666667 
0 0 0 0 0 0 0 0 0 0 0 0 0 0 0 0 0 0 0 0 1 0 0 0 0 1:0.2 2:0.733333 3:0.2 4:-0.0666667 5:-0.2 6:-0.0666667 7:-0.2 8:-0.733333 9:0.2 10:0.6 11:-0.0666667 12:0.2 13:-0.466667 14:-0.2 15:0.0666667 16:-0.2 
0 0 0 0 0 0 0 1 0 0 0 0 0 0 0 0 0 0 0 0 1 0 0 0 0 1:-0.0666667 2:0.733333 3:-0.0666667 4:-0.0666667 5:-0.333333 6:-0.2 7:-0.0666667 8:-0.733333 9:0.2 10:0.466667 11:-0.2 12:0.0666667 13:-0.466667 14:-0.333333 15:0.0666667 16:-0.2 
0 1 0 0 0 0 0 0 0 0 0 0 0 1 0 0 0 0 0 0 0 0 1 1 0 1:-0.466667 2:-0.0666667 3:-0.333333 4:-0.333333 5:-0.466667 6:0.2 7:0.2 8:-0.2 9:-0.466667 10:-0.0666667 11:-0.333333 12:0.0666667 13:-0.6 14:0.2 15:0.333333 16:-0.0666667 
0 1 0 0 0 0 0 0 0 0 0 0 0 0 1 0 0 0 0 0 0 0 0 0 0 1:-0.6 2:-0.2 3:-0.333333 4:-0.466667 5:-0.466667 6:-0.2 7:-0.0666667 8:-0.6 9:-0.0666667 10:-0.0666667 11:-0.2 12:0.2 13:-1 14:0.0666667 15:0.0666667 16:-0.0666667 
0 1 0 0 0 0 0 0 0 0 0 0 0 0 0 0 0 0 0 0 0 0 0 0 0 1:-0.733333 2:-0.733333 3:-0.6 4:-0.6 5:-0.733333 6:-0.0666667 7:-0.0666667 8:-0.333333 9:0.2 10:-0.2 11:-0.2 12:0.0666667 13:-0.866667 14:0.0666667 15:-0.0666667 16:0.0666667 
0 1 0 0 0 0 0 0 0 0 0 0 0 0 0 0 0 0 0 0 0 0 0 0 0 1:-0.733333 2:-0.866667 3:-0.733333 4:-0.866667 5:-0.866667 6:0.0666667 7:-0.0666667 8:-0.333333 9:0.2 10:-0.2 11:-0.2 12:0.0666667 13:-0.866667 14:0.0666667 15:-0.2 16:0.0666667 
0 0 0 0 0 0 0 0 0 0 0 1 0 0 0 0 0 0 0 0 0 0 0 0 0 1:-0.466667 2:-0.2 3:-0.333333 4:-0.466667 5:-0.6 6:0.2 7:-0.333333 8:-0.6 9:0.0666667 10:0.466667 11:-0.466667 12:0.2 13:-0.733333 14:-0.0666667 15:-0.2 16:0.333333 
0 1 0 0 0 0 0 0 0.5343780865103008 0 0 0 0.7582886836392179 1 0 0 1 0 0 0.0819084637504021 1 1 1 0 0.9687611730746712 1:-0.0666667 2:0.0666667 3:-0.333333 4:0.466667 5:-0.466667 6:-0.0666667 7:-0.2 8:-0.2 9:-0.333333 10:0.333333 11:-0.0666667 12:-0.0666667 13:-0.6 14:0.2 15:0.2 16:-0.0666667 
0 1 0 0 0 0 0 0 0 0 0 0 0 0 0 0 0 0 0 0 0 0 0 0 0 1:-0.2 2:0.333333 3:0.2 4:-0.0666667 5:-0.333333 6:-0.0666667 7:0.0666667 8:-0.6 9:0.333333 10:0.6 11:-0.0666667 12:-0.2 13:-0.866667 14:0.0666667 15:-0.2 16:-0.0666667 
0 1 0 0 0 0 0 0 0 0 0 0 0 0 0 1 0 0 0 0 0 0 0 0 0 1:-0.733333 2:-0.866667 3:-0.6 4:-0.733333 5:-0.733333 6:-0.0666667 7:-0.0666667 8:-0.333333 9:0.2 10:-0.2 11:-0.2 12:0.0666667 13:-0.733333 14:0.0666667 15:-0.0666667 16:0.0666667 
0 1 0 0 0 0 0 0 0 0 0 0 0 0 0 1 0 1 0 0 0 0 0 0 1 1:-0.466667 2:-0.333333 3:-0.2 4:0.0666667 5:-0.333333 6:0.466667 7:-0.466667 8:-0.733333 9:-0.333333 10:0.0666667 11:-0.6 12:-0.2 13:-0.866667 14:0.0666667 15:-0.2 16:0.2 
0 1 0 0 0 0 0 0 0 0 0 1 0 0 0 1 0 0 0 0 0 0 0 0 0 1:-0.6 2:-0.466667 3:-0.333333 4:-0.6 5:-0.733333 6:-0.0666667 7:0.0666667 8:-0.733333 9:0.2 10:0.466667 11:-0.2 12:0.0666667 13:-0.866667 14:0.2 15:-0.333333 16:0.0666667 
0 1 0 1 0 0 0 0 0 0 0 0 0 0 0 0 0 1 0 0 1 0 0 0 0.1777846180424747 1:-0.466667 2:-0.0666667 3:-0.2 4:-0.333333 5:-0.466667 6:-0.2 7:0.2 8:-0.733333 9:0.2 10:0.466667 11:0.0666667 12:-0.2 13:-0.866667 14:0.0666667 15:-0.2 16:-0.2 
0 1 0 0 0 0 0 1 0 1 0 0 0 0 0 0 0 0 0 0 0 0 0 0 0 1:-0.333333 2:-0.0666667 3:-0.0666667 4:-0.333333 5:-0.2 6:0.2 7:-0.333333 8:-0.333333 9:-0.466667 10:-0.0666667 11:-0.333333 12:-0.0666667 13:-0.6 14:-0.0666667 15:0.333333 16:-0.333333 
0 1 0 0 0 0 0 0 0 0 0 0 0 0 0 1 0 1 0 0 0 0 0 0 1 1:-0.6 2:-0.333333 3:-0.333333 4:0.0666667 5:-0.466667 6:0.6 7:-0.466667 8:-0.733333 9:-0.333333 10:0.2 11:-0.6 12:-0.0666667 13:-0.866667 14:0.0666667 15:-0.333333 16:0.333333 
0.6096853927076473 1 0 0.9800774353411842 0 0 0 0 0 0 0 1 0 1 1 0 1 1 0 0.8170059289378688 1 1 1 0.4325162309838188 1 1:-0.466667 2:0.466667 3:-0.333333 4:0.0666667 5:-0.2 6:-0.2 7:0.0666667 8:-0.333333 9:0.0666667 10:0.0666667 11:0.0666667 12:0.2 13:-0.866667 14:0.333333 15:-0.0666667 16:0.0666667 
0 1 0 0 0 0 0 0 0 0 0 1 0 0 0 0 0 0 0 0 0.5874963744736876 0 0 0 0 1:-0.2 2:0.333333 3:0.0666667 4:-0.0666667 5:-0.2 6:-0.0666667 7:-0.0666667 8:-0.733333 9:0.2 10:0.6 11:-0.2 12:0.2 13:-0.866667 14:0.2 15:-0.2 16:0.0666667 
0 1 0 0 0 0 0 0 0 0 0 0 0 0 0 1 0 0 0 0 0 0 0 0 0 1:-0.733333 2:-0.333333 3:-0.6 4:-0.6 5:-0.733333 6:-0.0666667 7:-0.0666667 8:-0.333333 9:0.2 10:-0.2 11:-0.2 12:0.0666667 13:-0.733333 14:0.0666667 15:-0.0666667 16:0.0666667 
0 0 0 0 0 0 0 0 0 0 0 1 0 0 0 0 0 0 0 0 0 0 0 0 0 1:-0.466667 2:0.0666667 3:-0.2 4:-0.2 5:-0.6 6:-0.0666667 7:-0.0666667 8:-0.733333 9:0.333333 10:0.6 11:-0.333333 12:0.2 13:-0.733333 14:0.333333 15:-0.2 16:0.2 
1 1 1 1 1 1 0.4015769126745988 1 1 1 1 1 1 0 0 1 1 1 1 1 1 0.1056207062157385 1 1 1 1:-0.466667 2:-0.2 3:-0.2 4:-0.466667 5:-0.466667 6:0.2 7:0.333333 8:-0.333333 9:-0.333333 10:-0.2 11:-0.333333 12:-0.0666667 13:-0.6 14:0.0666667 15:-0.2 16:-0.333333 
0 1 0 0 0 1 0 0 0 0 0 1 1 1 0 1 0 0 0 0 0 0 1 1 0 1:-0.733333 2:-0.6 3:-0.733333 4:-0.866667 5:-0.866667 6:-0.0666667 7:-0.0666667 8:-0.333333 9:0.0666667 10:-0.2 11:-0.2 12:0.0666667 13:-0.866667 14:0.0666667 15:-0.2 16:0.0666667 
0 1 0 0 0 0 0 0 0 0 0 1 0 0 0 0 0 0 0 0 0 0 0 0 0 1:-0.2 2:0.333333 3:0.0666667 4:-0.0666667 5:-0.2 6:-0.0666667 7:-0.0666667 8:-0.733333 9:0.2 10:0.6 11:-0.2 12:0.0666667 13:-0.866667 14:0.0666667 15:-0.2 16:0.0666667 
0 0 0 0 0 0 0 0 0 0 0 0.9037596879792116 0 0.9419398838189827 0 0 0 0 0 0 1 0 0 0 0 1:0.0666667 2:0.866667 3:0.0666667 4:0.0666667 5:-0.333333 6:0.0666667 7:-0.333333 8:-0.733333 9:0.2 10:0.6 11:-0.2 12:0.2 13:-0.6 14:-0.0666667 15:-0.2 16:-0.0666667 
0 0 0 0 0 0 0 0 0 0 0 1 0 0 0 0 0 0 0 0 0 0 0 0 0 1:-0.466667 2:0.0666667 3:-0.333333 4:-0.2 5:-0.466667 6:0.0666667 7:-0.2 8:-0.733333 9:0.2 10:0.466667 11:-0.333333 12:0.2 13:-0.866667 14:0.0666667 15:-0.333333 16:0.2 
0 1 0 0 0 0 0 0 0 0 0 0 0 0 0 0 0 0 0 0 0 0 0 0 0 1:-0.2 2:0.2 3:0.0666667 4:-0.0666667 5:-0.333333 6:-0.0666667 7:-0.0666667 8:-0.733333 9:0.2 10:0.6 11:-0.2 12:0.0666667 13:-0.866667 14:0.0666667 15:-0.2 16:-0.0666667 
0 1 0 0 0 0 0 0 0 0 0 1 0 0 0 0 0 0 0 0 0 0 0 0 0 1:-0.733333 2:-0.333333 3:-0.466667 4:-0.6 5:-0.733333 6:-0.0666667 7:-0.0666667 8:-0.733333 9:0.2 10:0.466667 11:-0.2 12:0.0666667 13:-0.866667 14:0.0666667 15:-0.333333 16:0.0666667 
0 1 0 0 0 0 0 0 0 0 0 1 0 0 0 0 0 0 0 0 0 0 0 0 0 1:-0.466667 2:0.0666667 3:-0.2 4:-0.2 5:-0.466667 6:-0.0666667 7:0.0666667 8:-0.733333 9:0.2 10:0.466667 11:-0.2 12:0.0666667 13:-0.866667 14:0.0666667 15:-0.2 16:0.0666667 
0 1 0 1 0 0 0 0 0 0 0 1 0 0 0 0 0 1 0 0 1 0 0 0 1 1:-0.0666667 2:0.333333 3:0.2 4:0.0666667 5:-0.2 6:-0.0666667 7:0.0666667 8:-0.733333 9:0.2 10:0.6 11:-0.0666667 12:-0.0666667 13:-0.866667 14:0.0666667 15:-0.2 16:0.0666667 
0 1 0 1 0 0 0 0 0 0 0 0 0 0 0 0 0 0 0 0 0 0 0 0 0 1:0.2 2:0.333333 3:-0.2 4:0.866667 5:-0.2 6:-0.2 7:0.333333 8:-0.466667 9:-0.733333 10:0.6 11:-0.0666667 12:-0.2 13:-0.6 14:0.2 15:0.866667 16:-0.2 
0 1 0 0 0 0 0 0 0 0 0 0 0 0 0 0 0 0 0 0 0 0 0 0 0 1:-0.333333 2:0.333333 3:-0.2 4:0.0666667 5:-0.2 6:0.0666667 7:-0.0666667 8:-0.333333 9:0.333333 10:-0.0666667 11:-0.2 12:-0.0666667 13:-0.866667 14:0.0666667 15:-0.0666667 16:0.0666667 
0 1 0 0 0 0 0 0 0 0 0 0 0 0 0 0 0 0 0 0 1 0 0 0 0 1:-0.466667 2:0.333333 3:-0.333333 4:-0.0666667 5:-0.333333 6:-0.0666667 7:0.0666667 8:-0.333333 9:0.2 10:-0.0666667 11:-0.2 12:0.2 13:-0.866667 14:0.2 15:-0.0666667 16:-0.0666667 
0 1 0 0 0 0 0 0 0 0 0 0 0 0 0 0 0 0 0 0 0 0 0 0 0 1:-0.866667 2:-0.6 3:-0.733333 4:-0.733333 5:-0.866667 6:0.0666667 7:-0.0666667 8:-0.333333 9:0.0666667 10:-0.2 11:-0.2 12:-0.0666667 13:-0.866667 14:0.0666667 15:-0.0666667 16:0.0666667 
0 1 0 0 0 0 0 0 0 0 0 0 0 0 0 1 0 0 0 0 0 0 0 0 0 1:-0.733333 2:-0.733333 3:-0.6 4:-0.6 5:-0.733333 6:-0.0666667 7:-0.0666667 8:-0.333333 9:0.2 10:-0.2 11:-0.2 12:0.0666667 13:-0.733333 14:0.0666667 15:-0.0666667 16:0.0666667 
0 1 0 0 0 0 0 0 0 0 0 0 0 0 0 1 0 0 0 0 0 0 0 0 0 1:-0.733333 2:-0.466667 3:-0.6 4:-0.6 5:-0.733333 6:-0.0666667 7:-0.0666667 8:-0.333333 9:0.2 10:-0.2 11:-0.2 12:0.0666667 13:-0.733333 14:0.0666667 15:-0.0666667 16:0.0666667 
0 1 0 0 0 0 0 0 0 0 0 0 0 1 0 0 0 0 0 0 0 0 0 0 0 1:-0.2 2:0.333333 3:0.0666667 4:-0.0666667 5:-0.2 6:0.333333 7:-0.2 8:-0.333333 9:-0.466667 10:0.0666667 11:-0.333333 12:-0.0666667 13:-0.6 14:-0.0666667 15:0.466667 16:-0.0666667 
0 1 0 0 0 0 0 0 0 0 0 0 0 0 0 0 0 0 0 0 0 0 0 0 0 1:-0.866667 2:-0.866667 3:-0.733333 4:-0.733333 5:-0.866667 6:-0.0666667 7:0.0666667 8:-0.333333 9:0.0666667 10:-0.2 11:-0.2 12:0.2 13:-0.866667 14:0.0666667 15:-0.0666667 16:-0.0666667 
0 0 0 0 0 0 0 0 0 0 0 0 0 1 0 0 0 0 0 0 0 0 0 0 0 1:-0.0666667 2:-0.0666667 3:-0.333333 4:0.333333 5:-0.333333 6:0.2 7:-0.466667 8:-0.466667 9:-0.6 10:0.466667 11:-0.2 12:0.2 13:-0.6 14:0.2 15:0.466667 16:0.0666667 
0.03520015273827526 1 0.4935552873030695 1 0 1 0 1 0 0 1 1 0.4124618864406839 1 1 1 0 1 0 0 1 1 1 0 1 1:-0.0666667 2:0.733333 3:-0.0666667 4:-0.0666667 5:-0.466667 6:0.0666667 7:-0.333333 8:-0.733333 9:0.0666667 10:0.466667 11:-0.333333 12:0.2 13:-0.6 14:0.2 15:-0.333333 16:0.2 
0 1 0 0 0 0 0 0 0 0 0 1 0.4976901472071508 0 0 1 0 0 0 0.182658317241604 1 0 1 1 0 1:-0.733333 2:-0.866667 3:-0.733333 4:-0.866667 5:-0.866667 6:-0.0666667 7:-0.0666667 8:-0.333333 9:0.0666667 10:-0.2 11:-0.2 12:0.0666667 13:-0.866667 14:0.0666667 15:-0.2 16:0.0666667 
0 1 0 0 0 0 0.6992227826649018 1 1 0 0 0 0 0 0 0 0 0 0 0 0 0 0 0.9930411411577069 0 1:-0.333333 2:0.0666667 3:-0.0666667 4:-0.2 5:-0.2 6:0.2 7:-0.0666667 8:-0.333333 9:-0.466667 10:-0.0666667 11:-0.333333 12:-0.0666667 13:-0.466667 14:0.0666667 15:0.333333 16:-0.333333 
0 1 0 0 0 0 0 0 0 0 0 1 0 1 0 0 0 0 0 0 0 0 0.07783220051097924 1 0 1:0.0666667 2:0.866667 3:0.0666667 4:0.0666667 5:-0.333333 6:0.466667 7:-0.466667 8:-0.333333 9:0.0666667 10:0.6 11:-0.6 12:0.333333 13:-0.466667 14:-0.466667 15:0.0666667 16:0.6 
0 0 0 0 0 0 0 0 0 0 0 1 0 0 0 0 0 0 0 0 0 0 0 0 0 1:-0.466667 2:0.0666667 3:-0.333333 4:-0.2 5:-0.466667 6:0.0666667 7:-0.2 8:-0.733333 9:0.2 10:0.466667 11:-0.333333 12:0.2 13:-0.733333 14:0.0666667 15:-0.2 16:0.2 
0 0 0 0 0 0 0 0 0 0 0 0 0 0 0 0 0 1 0 0 0 0 0 0 1 1:-0.733333 2:-0.333333 3:-0.466667 4:-0.466667 5:-0.733333 6:-0.0666667 7:0.0666667 8:-0.733333 9:0.2 10:0.466667 11:-0.0666667 12:-0.0666667 13:-0.866667 14:0.0666667 15:-0.333333 16:-0.0666667 
0 1 0 0 0 0 0 0 0 0 0 0 0 0 0 0 0 0 0 0 0 0 0 0 0 1:-0.733333 2:-0.866667 3:-0.6 4:-0.733333 5:-0.733333 6:-0.0666667 7:-0.0666667 8:-0.333333 9:0.2 10:-0.2 11:-0.2 12:0.0666667 13:-0.866667 14:0.0666667 15:-0.0666667 16:0.0666667 
0 1 0 0 0 0 0 0 0 0 0 0 0 0 0 0 0 0 0 0 0 0 0 0 0 1:-0.733333 2:-0.466667 3:-0.6 4:-0.6 5:-0.733333 6:0.0666667 7:-0.0666667 8:-0.333333 9:0.2 10:-0.2 11:-0.2 12:-0.0666667 13:-0.733333 14:0.0666667 15:-0.0666667 16:0.0666667 
0 1 0 0 0 0 0 0 0 0.2387102620050015 0 0 0 0 1 0.9639886213040098 0 1 0 0 0 0 0 0 1 1:-0.333333 2:0.0666667 3:-0.0666667 4:0.333333 5:-0.2 6:0.466667 7:-0.466667 8:-0.6 9:-0.333333 10:0.2 11:-0.733333 12:-0.0666667 13:-0.733333 14:-0.0666667 15:-0.2 16:0.2 
0 1 0 0 0 0 0 0 0 0 0 0 0 0 0 0 0 0 0 0 0 0 0 0 0 1:-0.466667 2:-0.2 3:-0.2 4:-0.466667 5:-0.466667 6:0.2 7:0.2 8:-0.333333 9:-0.466667 10:-0.0666667 11:-0.333333 12:-0.0666667 13:-0.6 14:0.0666667 15:0.2 16:-0.333333 
0 1 0 0 0 0 0 0.4440138493257952 0 1 0 0 0 1 0 0 1 0 0 0 0 0 0.814468424784596 0 1 1:-0.466667 2:-0.0666667 3:-0.333333 4:-0.333333 5:-0.466667 6:0.2 7:-0.0666667 8:-0.333333 9:-0.6 10:-0.0666667 11:-0.333333 12:-0.0666667 13:-0.6 14:0.0666667 15:0.2 16:-0.333333 
0 1 0 0 0 0 0 0 0 0 0 1 0 0 0 0 0 0 0 0 1 0 0 0 0 1:-0.6 2:-0.0666667 3:-0.466667 4:-0.333333 5:-0.6 6:-0.2 7:0.0666667 8:-0.333333 9:0.2 10:-0.0666667 11:-0.0666667 12:0.2 13:-0.866667 14:0.2 15:-0.0666667 16:-0.0666667 
1 1 1 1 1 1 1 1 1 1 1 1 1 0.3493491603996463 0 1 1 1 0.9262502878682415 1 1 1 1 1 1 1:-0.466667 2:0.0666667 3:-0.333333 4:-0.2 5:-0.333333 6:0.0666667 7:0.466667 8:-0.2 9:-0.333333 10:-0.2 11:-0.333333 12:-0.0666667 13:-0.6 14:0.2 15:-0.2 16:-0.466667 
1 1 1 1 0 1 0 1 0 0 1 1 0 1 1 1 0 1 0 0 0 0.3161177516513026 1 1 1 1:-0.333333 2:0.6 3:-0.2 4:-0.2 5:-0.466667 6:0.2 7:-0.333333 8:-0.6 9:0.0666667 10:0.6 11:-0.466667 12:0.2 13:-0.6 14:0.2 15:-0.333333 16:0.466667 
0 1 0 0 0 0 0 0 0 0 0 1 0 0 0 0 0 0 0 0 0 0 0 0 0 1:-0.733333 2:-0.733333 3:-0.6 4:-0.6 5:-0.733333 6:-0.0666667 7:0.0666667 8:-0.333333 9:0.2 10:-0.2 11:-0.2 12:0.2 13:-0.866667 14:0.2 15:-0.0666667 16:0.0666667 
1 1 1 1 0 1 0 1 0 0 0 1 0 1 1 1 0 1 0 0 0 0 1 1 1 1:-0.333333 2:0.333333 3:-0.333333 4:-0.333333 5:-0.6 6:0.466667 7:-0.466667 8:-0.6 9:-0.0666667 10:0.466667 11:-0.466667 12:0.2 13:-0.733333 14:0.2 15:-0.466667 16:0.466667 
0 1 0 0 0 0 0 0 0 0 0 0 0 0 0 0 0 0 0 0 1 0 0 0 0 1:-0.466667 2:-0.0666667 3:-0.2 4:-0.333333 5:-0.6 6:-0.2 7:0.2 8:-0.6 9:0.2 10:0.6 11:0.2 12:-0.0666667 13:-0.866667 14:0.2 15:-0.2 16:-0.333333 
0 0 0 0 0 0 0 0 0 0 0.67430958703814 1 0 0 0 1 0 0 0 0 0 0 0 0 0 1:-0.466667 2:-0.0666667 3:-0.2 4:-0.333333 5:-0.466667 6:0.2 7:-0.2 8:-0.733333 9:0.0666667 10:0.466667 11:-0.466667 12:0.333333 13:-0.733333 14:-0.0666667 15:-0.2 16:0.333333 
0 0 0 0 0 0 0 1 0 0 0 1 0 0.7827497868981265 0 0 0 0.5248209498133682 0 0 1 0 0 0 0.7294739016656669 1:-0.0666667 2:0.866667 3:-0.0666667 4:0.0666667 5:-0.333333 6:-0.2 7:-0.0666667 8:-0.733333 9:0.2 10:0.6 11:-0.0666667 12:0.0666667 13:-0.466667 14:-0.2 15:-0.0666667 16:-0.2 
0 1 0 0 0 0 0 0 0 0 0 1 0 1 1 0 0 0 0 0 0 0 0 0 0 1:0.0666667 2:0.6 3:0.0666667 4:-0.2 5:-0.333333 6:0.0666667 7:-0.333333 8:-0.733333 9:0.0666667 10:0.6 11:-0.2 12:0.333333 13:-0.6 14:-0.0666667 15:-0.0666667 16:0.0666667 
0 1 0 0 0 0 0 0 0 0 0 0 0 0 0 1 0 0 0 0 0 0 0 0 0 1:-0.6 2:-0.333333 3:-0.466667 4:-0.466667 5:-0.6 6:-0.0666667 7:-0.0666667 8:-0.333333 9:0.333333 10:-0.2 11:-0.2 12:0.0666667 13:-0.733333 14:0.0666667 15:-0.0666667 16:0.0666667 
0 1 0 0 0 0 0 0 0 1 0 0 0 0 0 0.5468142001247157 1 0 0 0 1 0 0 0 0 1:-0.466667 2:-0.0666667 3:-0.2 4:-0.333333 5:-0.333333 6:0.2 7:0.2 8:-0.333333 9:-0.466667 10:-0.2 11:-0.333333 12:-0.0666667 13:-0.6 14:0.2 15:0.2 16:-0.466667 
0 1 0 0 0 0 0 1 0 0 0 0 0 0 0 0 0 0 0 0 0 0 0 1 0 1:-0.866667 2:-0.466667 3:-0.733333 4:-0.6 5:-0.733333 6:0.0666667 7:-0.0666667 8:-0.333333 9:0.0666667 10:-0.2 11:-0.2 12:-0.0666667 13:-0.733333 14:0.0666667 15:-0.0666667 16:0.0666667 
0 0 0 0 0 1 0.0664733604202269 1 0 0 1 0 0 1 0 1 0 0 0 0 1 0 0 0 0 1:0.0666667 2:1 3:0.0666667 4:0.0666667 5:-0.2 6:-0.0666667 7:-0.0666667 8:-0.733333 9:0.2 10:0.6 11:-0.0666667 12:0.0666667 13:-0.2 14:-0.333333 15:0.0666667 16:-0.333333 
0 1 0 0 0 0 0 0 0 0 0 0 0 0 0 0 0 0 0 0 0 0 0 0 0 1:-0.733333 2:-0.866667 3:-0.733333 4:-0.733333 5:-0.866667 6:-0.0666667 7:-0.0666667 8:-0.333333 9:0.2 10:-0.2 11:-0.2 12:0.0666667 13:-0.866667 14:0.0666667 15:-0.2 16:0.0666667 
0 1 0 0 0 0 0 0 0 0 0 0 0 0 0 0 0 0 0 0 0 0 0 0 0 1:-0.466667 2:0.0666667 3:-0.333333 4:-0.2 5:-0.333333 6:0.0666667 7:0.0666667 8:-0.6 9:-0.0666667 10:-0.0666667 11:-0.2 12:-0.0666667 13:-0.866667 14:0.2 15:0.333333 16:0.0666667 
0 1 1 1 0 0 0 1 0 1 0 0 1 0 0 1 1 1 0 0.1056115248040837 1 0 0 0 1 1:-0.466667 2:-0.2 3:-0.333333 4:-0.466667 5:-0.466667 6:0.2 7:0.2 8:-0.333333 9:-0.466667 10:-0.2 11:-0.333333 12:-0.0666667 13:-0.6 14:0.0666667 15:0.0666667 16:-0.466667 
0 0 0 0 0 0 0 0 0 0 0 0 0 0 0 1 0 0 0 0 0 0 0 0 0 1:-0.866667 2:-1 3:-0.866667 4:-1 5:-1 6:-0.0666667 7:-0.0666667 8:-0.733333 9:0.2 10:0.0666667 11:-0.2 12:0.0666667 13:-1 14:0.0666667 15:-0.333333 16:0.0666667 
0 0 0 0 0 0 0 0 0 0 0 0 0 0 0 1 0 0 0 0 0 0 0 0 0 1:-0.866667 2:-1 3:-0.866667 4:-1 5:-1 6:0.0666667 7:-0.0666667 8:-0.733333 9:0.2 10:0.0666667 11:-0.2 12:0.0666667 13:-1 14:0.0666667 15:-0.333333 16:0.0666667 
0 0 0 0 0 0 0 0 0 0 0 0 0 1 0 0 0 0 0 0 0 0 0 0 0 1:0.333333 2:1 3:0.333333 4:0.2 5:-0.0666667 6:0.0666667 7:-0.2 8:-0.6 9:0.2 10:0.6 11:-0.2 12:0.2 13:-0.466667 14:-0.333333 15:0.0666667 16:-0.0666667 
0 0 0 0 0 0 0 0 0 0 0 1 0 0 0 0 0 0 0 0 0 0 0 0 0 1:-0.6 2:-0.466667 3:-0.333333 4:-0.6 5:-0.733333 6:0.0666667 7:-0.2 8:-0.733333 9:0.2 10:0.6 11:-0.333333 12:0.2 13:-0.866667 14:0.0666667 15:-0.333333 16:0.2 
0 1 0 0 0 0 0 0 0 0 0 1 0 1 0 1 0 1 0 0 0.268896607559291 0 0 0 1 1:-0.2 2:0.333333 3:-0.2 4:-0.333333 5:-0.6 6:0.2 7:-0.333333 8:-0.733333 9:0.0666667 10:0.466667 11:-0.333333 12:0.2 13:-0.733333 14:0.2 15:-0.333333 16:0.2 
0 1 0 0 0 0 0 0 0 0 0 0 0 0 0 0 0 0 0 0 0 0 0 0 0 1:-0.0666667 2:-0.0666667 3:-0.333333 4:0.466667 5:-0.466667 6:-0.0666667 7:0.0666667 8:-0.333333 9:-0.6 10:0.466667 11:-0.0666667 12:-0.0666667 13:-0.733333 14:0.2 15:0.333333 16:-0.2 
0 1 0 0 0 0 0 0 0 0 0 0 0 0 0 0 0 0.7858529547368968 0 0 0 0 0 0 0 1:-0.2 2:-0.0666667 3:-0.466667 4:0.333333 5:-0.466667 6:0.0666667 7:-0.2 8:-0.466667 9:-0.466667 10:0.466667 11:-0.2 12:-0.0666667 13:-0.733333 14:0.333333 15:0.2 16:0.0666667 
0 1 -0 0 0 0 0 0 0 0 0 0 0 0 0 0 0 0 0 0 0 0 0 1 0 1:-0.733333 2:-0.866667 3:-0.733333 4:-0.733333 5:-0.733333 6:0.0666667 7:-0.0666667 8:-0.333333 9:0.0666667 10:-0.2 11:-0.2 12:-0.0666667 13:-0.866667 14:0.0666667 15:-0.2 16:0.0666667 
0 1 0 0 0 0 0 0 0 0 1 1 0 0 0.614601456047275 1 0 0 0 1 0 0 1 0 0 1:-0.733333 2:-0.866667 3:-0.6 4:-0.733333 5:-0.733333 6:-0.0666667 7:-0.0666667 8:-0.333333 9:0.0666667 10:-0.2 11:-0.2 12:0.2 13:-0.733333 14:0.0666667 15:-0.0666667 16:0.0666667 
0 1 0 0 0 0 0 0 0 0 0 0 0 0 0 1 0 1 0 0 0 0 0 0 0 1:-0.466667 2:0.0666667 3:-0.2 4:-0.2 5:-0.2 6:-0.0666667 7:0.0666667 8:-0.733333 9:-0.0666667 10:-0.0666667 11:-0.2 12:-0.0666667 13:-0.866667 14:0.2 15:0.2 16:0.0666667 
0 0 0 0 0 0 0 0 0 0 0 0 0 0 0 1 0 0 0 0 0 0 0 0 0 1:-0.6 2:-0.6 3:-0.466667 4:-0.466667 5:-0.6 6:-0.0666667 7:-0.0666667 8:-0.333333 9:0.333333 10:-0.2 11:-0.2 12:0.0666667 13:-0.733333 14:0.0666667 15:-0.0666667 16:0.0666667 
0 1 0 0 0 0 0 0 0 0 0 0 0 0 0 0 0 0 0 0 0 0 0 0 0 1:-0.733333 2:-0.6 3:-0.6 4:-0.733333 5:-0.733333 6:-0.0666667 7:-0.0666667 8:-0.333333 9:0.2 10:-0.2 11:-0.2 12:0.0666667 13:-0.866667 14:0.0666667 15:-0.0666667 16:0.0666667 
0 1 0 0 0 0 0 0 0 0 0 0 0 0 0 0 0 0 0 0 0 0 0 0 0 1:-0.466667 2:-0.2 3:-0.333333 4:-0.466667 5:-0.6 6:-0.0666667 7:0.0666667 8:-0.733333 9:0.2 10:0.466667 11:0.0666667 12:-0.2 13:-0.866667 14:0.0666667 15:-0.2 16:-0.2 
0 1 0 0 0 0 0 0 0 0 0 1 0 1 1 0 0 0 0 0 0 1 0.6085316104452794 0 0 1:-0.6 2:-0.0666667 3:-0.466667 4:-0.333333 5:-0.6 6:-0.2 7:-0.0666667 8:-0.333333 9:0.2 10:-0.0666667 11:-0.0666667 12:0.2 13:-0.866667 14:0.2 15:-0.0666667 16:0.0666667 
1 1 1 1 0 1 0 0.4901166128835956 0.9589747063936688 0 1 0 0 0 0 1 0 1 0 0 1 0 0 1 1 1:-0.333333 2:-0.0666667 3:-0.2 4:-0.333333 5:-0.333333 6:0.2 7:0.466667 8:-0.333333 9:-0.466667 10:-0.2 11:-0.333333 12:-0.0666667 13:-0.6 14:0.0666667 15:0.0666667 16:-0.333333 
0 0 0 0 0 0 0 0 0 0 0 1 0 0 0 0 0 0 0 0 0 0 0 0 0 1:-0.0666667 2:0.466667 3:0.2 4:0.0666667 5:-0.2 6:0.0666667 7:-0.2 8:-0.733333 9:0.2 10:0.6 11:-0.333333 12:0.333333 13:-0.733333 14:0.0666667 15:-0.0666667 16:0.2 
0 1 0 0 0 0 0 0 0 0 0 1 0 0 0 0 0 0.6974963886287746 0 0 1 0 0 0 1 1:-0.333333 2:0.0666667 3:-0.2 4:-0.2 5:-0.333333 6:0.2 7:0.466667 8:-0.2 9:-0.2 10:-0.2 11:-0.333333 12:0.2 13:-0.6 14:0.0666667 15:0.0666667 16:-0.333333 
0 1 0 0 0 0 0 0 0 0 0 0 0 0 0 0 0 0 0 0 1 0 0 0 0 1:-0.2 2:0.333333 3:0.0666667 4:0.0666667 5:-0.466667 6:-0.2 7:0.2 8:-0.6 9:0.333333 10:0.466667 11:0.2 12:-0.333333 13:-0.733333 14:0.0666667 15:-0.0666667 16:-0.333333 
0 1 0 0 0 0 0 0 0 0 0 0 0 0 0 1 0 0 0 0 0 0 0 0 0 1:-0.466667 2:0.333333 3:-0.2 4:-0.0666667 5:-0.2 6:0.0666667 7:0.0666667 8:-0.733333 9:0.0666667 10:-0.0666667 11:-0.0666667 12:-0.0666667 13:-0.866667 14:0.0666667 15:0.333333 16:0.0666667 
0 1 0.5333269213628054 0 0 0 0 0 0 0 0 0 0 1 1 0 0 0 0 0 0 0 0 0 1 1:-0.466667 2:-0.333333 3:-0.2 4:-0.0666667 5:-0.466667 6:0.466667 7:-0.466667 8:-0.466667 9:-0.333333 10:0.333333 11:-0.6 12:0.2 13:-0.733333 14:-0.0666667 15:-0.2 16:0.333333 
0 1 0 0 0 0 0 0 0 0 0 0.2702800899480566 0 0 0 0 0 0 0 0 0 0 0 0 0 1:-0.2 2:0.2 3:0.0666667 4:-0.0666667 5:-0.333333 6:-0.0666667 7:-0.0666667 8:-0.733333 9:0.2 10:0.6 11:-0.2 12:0.0666667 13:-0.866667 14:0.2 15:-0.2 16:0.0666667 
0 1 0 0 0 0 0 0 0 0 0 0 0 0.1425325832348067 0 0 0 0 0 0 0 0 0 1 0 1:-0.466667 2:0.0666667 3:-0.2 4:-0.2 5:-0.333333 6:0.2 7:0.333333 8:-0.2 9:-0.333333 10:-0.0666667 11:-0.333333 12:0.0666667 13:-0.6 14:0.2 15:0.333333 16:-0.0666667 
0 1 0 0 0 0 0 0 0 0 0 0 0 0 0 1 0 0 0 0 0 0 0 1 0 1:-0.733333 2:-0.466667 3:-0.6 4:-0.733333 5:-0.733333 6:-0.0666667 7:-0.0666667 8:-0.333333 9:0.2 10:-0.2 11:-0.2 12:0.0666667 13:-0.733333 14:0.0666667 15:-0.0666667 16:0.0666667 
0 1 0 0 0 0 0 0 0 0 0 0 0 0 0 0 0 0 0 0 0 0 0 0 0 1:-0.466667 2:-0.0666667 3:-0.2 4:-0.333333 5:-0.466667 6:-0.0666667 7:0.2 8:-0.733333 9:0.2 10:0.466667 11:0.0666667 12:-0.333333 13:-0.866667 14:0.0666667 15:-0.2 16:-0.333333 
0 1 0 0 0 0 0 0 0 0 0 0 0 0 0 0 0 1 0 0 0 0 0 0 1 1:-0.6 2:-0.466667 3:-0.466667 4:-0.2 5:-0.6 6:0.466667 7:-0.333333 8:-0.6 9:-0.466667 10:0.2 11:-0.6 12:-0.0666667 13:-0.866667 14:-0.0666667 15:-0.2 16:0.2 
0 1 0 0 0 0 0 0 0 0 0 0 0 0 0 0 0 0 0 0 0 0 0 0 0 1:-0.466667 2:-0.2 3:-0.2 4:-0.466667 5:-0.466667 6:-0.0666667 7:0.0666667 8:-0.733333 9:0.0666667 10:0.6 11:-0.0666667 12:0.0666667 13:-0.866667 14:0.2 15:-0.2 16:-0.0666667 
0 1 0 0 0 0 0 0 0 0 0 1 0 0 0 1 0 0 0 0 0 0 0 0 0 1:-0.466667 2:-0.2 3:-0.2 4:-0.466667 5:-0.6 6:0.0666667 7:-0.2 8:-0.733333 9:0.2 10:0.466667 11:-0.333333 12:0.2 13:-0.866667 14:0.0666667 15:-0.333333 16:0.2 
0 1 0 0 0 0 0 1 0 1 0 0 0 0 0.04333118436841745 0 0 0 0 0 0 0 0 0 1 1:-0.6 2:-0.333333 3:-0.333333 4:-0.0666667 5:-0.466667 6:0.2 7:-0.333333 8:-0.466667 9:-0.466667 10:-0.0666667 11:-0.6 12:-0.2 13:-0.733333 14:0.0666667 15:-0.0666667 16:-0.2 
0 1 0 0 0 0 0 0 0 0 0 0 0 0 0 0 0 0 0 0 0 0 0 0 0 1:-0.466667 2:-0.2 3:-0.333333 4:-0.466667 5:-0.6 6:-0.0666667 7:-0.0666667 8:-0.733333 9:0.2 10:0.466667 11:-0.2 12:0.0666667 13:-0.866667 14:0.2 15:-0.2 16:0.0666667 
0 1 0 1 0 0 0 1 0 0 0 1 0 0 0 1 0 1 0 0 1 0 0 0 1 1:-0.2 2:0.6 3:-0.2 4:-0.2 5:-0.466667 6:-0.2 7:-0.0666667 8:-0.733333 9:0.2 10:0.466667 11:-0.0666667 12:0.0666667 13:-0.6 14:-0.0666667 15:-0.2 16:-0.2 
0 1 0 0 0 0 0 0 0 0 0 0 0 0 0 0 0 0 0 0 0 0 0 0 0 1:0.333333 2:0.333333 3:-0.0666667 4:0.866667 5:-0.2 6:-0.0666667 7:0.0666667 8:-0.466667 9:-0.733333 10:0.466667 11:-0.0666667 12:-0.0666667 13:-0.6 14:0.0666667 15:0.733333 16:-0.333333 
0 1 0 0 0 0 0 0 0 0.8200334283526105 0 1 1 1 1 0 0 0 0 0 0 0 1 0.9571683205507964 0 1:-0.0666667 2:0.6 3:-0.0666667 4:-0.2 5:-0.466667 6:0.333333 7:-0.6 8:-0.466667 9:-0.0666667 10:0.6 11:-0.466667 12:0.333333 13:-0.6 14:0.0666667 15:-0.2 16:0.333333 
0.4502129824888967 1 1 0.428556212513531 0 1 0 1 0 0 0 0 1 0 0 0 0 0 0 0 0 0 0 1 1 1:-0.2 2:-0.0666667 3:0.0666667 4:0.2 5:0.0666667 6:0.2 7:0.0666667 8:-0.2 9:-0.333333 10:0.2 11:-0.6 12:-0.2 13:-0.6 14:-0.333333 15:0.0666667 16:-0.0666667 
0 1 0 0 0 0 0 0 0 0 0 0 0 0 0 1 0 0 0 0 0 0 0 0 0 1:-0.733333 2:-0.866667 3:-0.6 4:-0.733333 5:-0.733333 6:-0.0666667 7:-0.0666667 8:-0.333333 9:0.2 10:-0.2 11:-0.2 12:0.0666667 13:-0.733333 14:0.0666667 15:-0.0666667 16:0.0666667 
0 1 0 0 0 0 0 0 0 0 0 0 0 0 0 0 0 0 0 0 0 0 0 0 0 1:-0.733333 2:-0.0666667 3:-0.6 4:-0.333333 5:-0.6 6:-0.0666667 7:-0.0666667 8:-0.333333 9:0.2 10:-0.0666667 11:-0.2 12:0.0666667 13:-0.866667 14:0.0666667 15:-0.0666667 16:0.0666667 
0 1 0 0 0 0 0 0 0 0 0 0 0 0 0 0 0 0 0 0 0 0 0 0 0 1:-0.733333 2:-0.866667 3:-0.6 4:-0.6 5:-0.733333 6:-0.0666667 7:-0.0666667 8:-0.333333 9:0.2 10:-0.2 11:-0.2 12:0.0666667 13:-0.866667 14:0.0666667 15:-0.0666667 16:0.0666667 
0 1 0 0 0 0 0 0 0 0 0 0 0 0 0 0 0 0 0 0 0 0 0 0 0 1:-0.733333 2:-0.733333 3:-0.6 4:-0.6 5:-0.733333 6:-0.0666667 7:-0.0666667 8:-0.333333 9:0.2 10:-0.2 11:-0.2 12:0.0666667 13:-0.866667 14:0.0666667 15:-0.0666667 16:0.0666667 
0.6124625715911838 1 1 0 0 0 0 0 1 0 0 0 0 1 0 0 0 0 0.5295859062010846 0 0 0 0 1 1 1:-0.2 2:0.333333 3:0.2 4:0.0666667 5:-0.0666667 6:0.333333 7:0.2 8:-0.2 9:-0.333333 10:-0.0666667 11:-0.2 12:0.0666667 13:-0.466667 14:0.2 15:0.333333 16:-0.0666667 
0 1 0 0 0 0 0 0 0 0 0 1 0 0 0 0 0 0 0 0 0 0 0 0 0 1:-0.733333 2:-0.733333 3:-0.6 4:-0.6 5:-0.733333 6:-0.0666667 7:0.0666667 8:-0.333333 9:0.2 10:-0.2 11:-0.0666667 12:0.2 13:-0.866667 14:0.2 15:-0.0666667 16:0.0666667 
0 1 0 0 0 0 0 0 0 0 0 0 0 0 0 0 0 0 0 0 0 0 0 0 0 1:-0.733333 2:-0.466667 3:-0.733333 4:-0.6 5:-0.733333 6:0.0666667 7:-0.0666667 8:-0.333333 9:0.2 10:-0.2 11:-0.2 12:-0.0666667 13:-0.866667 14:0.0666667 15:-0.0666667 16:0.0666667 
0 1 0 0 0 0 0 0 0 0 0 1 0 1 0.08166854414780085 0 0 1 0 0 1 1 0 0 0 1:-0.466667 2:0.333333 3:-0.466667 4:-0.0666667 5:-0.333333 6:-0.2 7:0.0666667 8:-0.333333 9:0.2 10:0.0666667 11:-0.0666667 12:0.333333 13:-0.866667 14:0.2 15:-0.0666667 16:0.0666667 
1 1 1 1 1 1 1 1 1 1 0 0 1 0 0 0 1 1 0.5648037026879242 1 1 0 1 1 1 1:-0.6 2:-0.0666667 3:-0.333333 4:-0.333333 5:-0.333333 6:0.0666667 7:0.0666667 8:-0.2 9:-0.6 10:-0.2 11:-0.466667 12:-0.2 13:-0.6 14:0.2 15:0.0666667 16:-0.6 
0 0 0 0 0 0 0 0 0 0 0 1 0 0 0 1 0 0 0 0 1 0 0 0 0 1:0.0666667 2:0.866667 3:0.0666667 4:0.0666667 5:-0.333333 6:-0.0666667 7:-0.0666667 8:-0.733333 9:0.2 10:0.466667 11:-0.0666667 12:0.2 13:-0.466667 14:-0.0666667 15:-0.0666667 16:-0.333333 
0 1 0 0 0 0 0 1 0 1 0 0 0 0 0 0 0 0 0 0 0 0 0 0 0 1:-0.2 2:0.466667 3:0.0666667 4:0.0666667 5:-0.0666667 6:0.333333 7:-0.333333 8:-0.333333 9:-0.333333 10:0.0666667 11:-0.333333 12:-0.0666667 13:-0.466667 14:-0.0666667 15:0.333333 16:-0.333333 
0 1 0 0 0 0 0 0 0 0 0 0 0 0 0 0 0 0 0 0 0 0 0 0 0 1:-0.333333 2:0.466667 3:-0.2 4:0.0666667 5:-0.333333 6:-0.2 7:0.0666667 8:-0.2 9:0.466667 10:-0.0666667 11:-0.0666667 12:0.333333 13:-0.866667 14:0.2 15:0.0666667 16:-0.0666667 
0 1 0 0 0 0 0 0 0 0 0 0 0 0 0 0 0 1 0 0 0 0 0 0 1 1:-0.333333 2:0.333333 3:-0.0666667 4:0.0666667 5:-0.333333 6:-0.0666667 7:0.0666667 8:-0.733333 9:0.2 10:0.466667 11:-0.0666667 12:-0.0666667 13:-0.866667 14:0.0666667 15:-0.2 16:-0.0666667 
0 1 1 0 0 1 0 0.07004352618926132 0 1 1 1 1 1 1 1 0 1 0 0 0 0 0.1462952805450212 1 1 1:-0.466667 2:-0.333333 3:-0.2 4:-0.0666667 5:-0.466667 6:0.466667 7:-0.333333 8:-0.466667 9:-0.466667 10:0.2 11:-0.6 12:0.0666667 13:-0.733333 14:-0.2 15:-0.333333 16:0.2 
0 0 0 0 0 0 0 0 0 0 0 0 0 0 0 0 0 1 0 0 0 0 0 0 0 1:-0.866667 2:-0.6 3:-0.733333 4:-0.866667 5:-0.866667 6:0.0666667 7:-0.0666667 8:-0.866667 9:0.0666667 10:0.466667 11:-0.2 12:0.0666667 13:-0.866667 14:0.0666667 15:-0.333333 16:0.0666667 
0 1 0 1 0 0 0 0 0 0 0 0 0 0 0 0 0 0 0 0 1 0 0 1 0 1:-0.466667 2:-0.2 3:-0.2 4:-0.466667 5:-0.6 6:-0.2 7:0.2 8:-0.6 9:0.2 10:0.466667 11:0.0666667 12:-0.2 13:-0.866667 14:0.2 15:-0.2 16:-0.2 
0 1 0 0 0 0 0 0 0 0 0 0 0 1 1 0 1 0 0.2169988697326997 0 0 0 1 0 1 1:-0.333333 2:-0.2 3:-0.466667 4:0.2 5:-0.466667 6:0.2 7:-0.466667 8:-0.466667 9:-0.6 10:0.466667 11:-0.2 12:0.2 13:-0.733333 14:0.333333 15:0.0666667 16:0.0666667 
0 1 1 1 0 0.7058395487789114 0 0 0 0 1 1 0 1 1 1 0 1 0 0 1 1 0 0 1 1:-0.0666667 2:0.466667 3:-0.0666667 4:-0.2 5:-0.466667 6:0.0666667 7:-0.2 8:-0.733333 9:0.0666667 10:0.466667 11:-0.2 12:0.2 13:-0.6 14:0.2 15:-0.333333 16:0.0666667 
0 0 0 0 0 0 0 0 0 0 0 1 0 0 0 0 0 0 0 0 0 0 0 0 0 1:-0.466667 2:0.0666667 3:-0.2 4:-0.2 5:-0.466667 6:0.0666667 7:-0.2 8:-0.733333 9:0.2 10:0.466667 11:-0.466667 12:0.333333 13:-0.733333 14:-0.0666667 15:-0.0666667 16:0.333333 
0 1 0 0 0 0 0 0 0 0 0 0 0 0 0 0 0 0 0 0 0 0 0 0 0 1:-0.466667 2:0.2 3:-0.333333 4:-0.0666667 5:-0.333333 6:0.0666667 7:-0.0666667 8:-0.333333 9:0.2 10:-0.0666667 11:-0.333333 12:-0.0666667 13:-0.866667 14:-0.0666667 15:-0.0666667 16:0.0666667 
0 1 0 0.7697323578473505 1 0 0 1 1 1 1 1 1 0 0.2647263723266131 1 1 1 0 1 1 1 0 0 1 1:-0.333333 2:0.2 3:-0.333333 4:-0.466667 5:-0.6 6:-0.2 7:-0.0666667 8:-0.733333 9:0.0666667 10:0.466667 11:0.0666667 12:0.2 13:-0.6 14:0.0666667 15:-0.333333 16:-0.333333 
0 1 0 0 0 0 0 0 0 0 0 0 0 0 0 0 0 0 0 0 0 0 0 0 0 1:-0.6 2:-0.0666667 3:-0.333333 4:-0.333333 5:-0.466667 6:0.0666667 7:0.0666667 8:-0.6 9:-0.0666667 10:-0.0666667 11:-0.2 12:0.0666667 13:-0.866667 14:0.0666667 15:0.333333 16:0.2 
0 1 0 0 0 0 0 0 0 0 0 0 0 0 0 1 0 0 0 0 0 0 0 0 0 1:-0.6 2:-0.333333 3:-0.333333 4:-0.2 5:-0.6 6:0.333333 7:-0.6 8:-0.733333 9:-0.2 10:-0.0666667 11:-0.6 12:-0.2 13:-0.866667 14:0.0666667 15:-0.0666667 16:-0.0666667 
0 1 0 0 0 0 0 0 0 0 0 0 0 0 0 0 0 0 0 0 0 0 0 0 0 1:-0.733333 2:-0.466667 3:-0.333333 4:-0.6 5:-0.733333 6:-0.0666667 7:-0.0666667 8:-0.733333 9:0.2 10:0.6 11:-0.2 12:0.0666667 13:-0.866667 14:0.0666667 15:-0.333333 16:0.0666667 
0 1 0 0 0 0 0 0 0 0 0 0 0 0 0 0 0 0 0 0 0 0 0 0 0 1:-0.866667 2:-0.6 3:-0.733333 4:-0.733333 5:-0.866667 6:-0.0666667 7:-0.0666667 8:-0.333333 9:0.0666667 10:-0.2 11:-0.2 12:0.0666667 13:-0.866667 14:0.0666667 15:-0.0666667 16:0.0666667 
0 0 0 0 0 0 0 0 0 0 0 1 0 0 0 0 0 0 0 0 0 0 0 0 0 1:-0.6 2:-0.0666667 3:-0.333333 4:-0.333333 5:-0.6 6:0.0666667 7:-0.0666667 8:-0.733333 9:0.2 10:0.466667 11:-0.333333 12:0.333333 13:-0.866667 14:0.2 15:-0.2 16:0.333333 
0 1 0 1 1 0.9430565636115352 0 1 0 1 0 0 0 0 0 1 0.9788426144541716 0 0 0 1 0 0 0 0 1:-0.2 2:0.2 3:0.0666667 4:-0.0666667 5:0.0666667 6:0.2 7:0.0666667 8:-0.466667 9:-0.466667 10:-0.2 11:-0.466667 12:-0.2 13:-0.466667 14:0.0666667 15:0.333333 16:-0.466667 
0 0 0 0 0 0 0 0 0 0 0 1 0 0 0 0 0 0 0 0 0 0 0 0 0 1:-0.733333 2:-0.333333 3:-0.466667 4:-0.466667 5:-0.733333 6:-0.0666667 7:-0.0666667 8:-0.733333 9:0.2 10:0.466667 11:-0.2 12:0.0666667 13:-0.866667 14:0.0666667 15:-0.333333 16:0.0666667 
0 1 0 0 0 0 0 0 0 0 0 0 0 0 1 1 0 0.6420177970927611 0 0 0 0 0 0 0 1:-0.6 2:-0.2 3:-0.333333 4:-0.466667 5:-0.333333 6:-0.0666667 7:0.0666667 8:-0.733333 9:-0.0666667 10:-0.0666667 11:-0.2 12:0.0666667 13:-1 14:0.0666667 15:0.0666667 16:0.0666667 
1 1 1 1 0.256067256827847 0 0 0.2476327266412077 0 0 0 1 0 0 0 0 1 0 0 0 1 0 0 1 0 1:-0.0666667 2:0.333333 3:0.2 4:0.0666667 5:-0.2 6:-0.2 7:0.2 8:-0.6 9:0.2 10:0.6 11:0.0666667 12:-0.2 13:-0.6 14:0.333333 15:-0.0666667 16:-0.2 
0 1 0 0 0 0 0 0 0 0 0 0.6686194100051762 0 0 0 1 0 0 0 0 0 0 0 0 0 1:-0.866667 2:-0.866667 3:-0.733333 4:-0.733333 5:-0.866667 6:-0.0666667 7:-0.0666667 8:-0.466667 9:0.0666667 10:-0.2 11:-0.2 12:0.0666667 13:-0.866667 14:0.0666667 15:-0.2 16:0.0666667 
0 1 0 0 0 0 0 1 0 0 0 0 0 0 0 0 0 0 0 0 0 0 0 0 1 1:-0.2 2:0.0666667 3:0.0666667 4:0.333333 5:-0.0666667 6:0.466667 7:-0.333333 8:-0.466667 9:-0.333333 10:0.0666667 11:-0.733333 12:-0.2 13:-0.733333 14:-0.0666667 15:-0.0666667 16:0.0666667 
0 1 0 0 0 0 0 0 0 0 0 0 0 0 0 0 0 0 0 0 0 0 0 0 0 1:-0.866667 2:-0.466667 3:-0.733333 4:-0.733333 5:-0.866667 6:-0.0666667 7:0.0666667 8:-0.333333 9:0.0666667 10:-0.2 11:-0.2 12:0.2 13:-0.866667 14:0.0666667 15:-0.0666667 16:-0.0666667 
1 1 0.9492525403363981 1 0 0 0 0 0 0 0 1 0 0.8365496309906182 0 0 0 1 0 0 0 1 1 1 1 1:-0.2 2:-0.2 3:-0.333333 4:0.2 5:-0.466667 6:-0.0666667 7:0.0666667 8:-0.333333 9:-0.6 10:0.466667 11:-0.0666667 12:-0.0666667 13:-0.733333 14:0.2 15:0.2 16:-0.0666667 
0 1 0 0 0 0 0 0 0 0 0 1 0 0 0 1 0 1 0 0 1 0 0 0 1 1:-0.466667 2:-0.2 3:-0.2 4:-0.466667 5:-0.6 6:-0.0666667 7:0.0666667 8:-0.733333 9:0.0666667 10:0.466667 11:-0.0666667 12:0.0666667 13:-0.866667 14:0.2 15:-0.333333 16:-0.0666667 
0 1 1 0 0 1 0 0 0 0 1 1 0 1 1 1 0 1 0 0 0 0 0 1 1 1:-0.466667 2:-0.2 3:-0.2 4:0.0666667 5:-0.466667 6:0.466667 7:-0.466667 8:-0.6 9:-0.333333 10:0.333333 11:-0.733333 12:0.0666667 13:-0.733333 14:-0.0666667 15:-0.333333 16:0.466667 
0 0 0 0 0 0 0 0 0 0 1 0 0 0 0 1 0 0 0 0 0 0 0 0 0 1:-0.2 2:0.2 3:0.2 4:-0.0666667 5:-0.2 6:0.0666667 7:-0.2 8:-0.733333 9:0.2 10:0.466667 11:-0.333333 12:0.2 13:-0.6 14:-0.333333 15:-0.0666667 16:0.0666667 
0 0 0 0 0 0 0 0 0 0 0 1 0 0 0 0 0 0 0 0 0 0 0 0 0 1:-0.733333 2:-0.6 3:-0.466667 4:-0.733333 5:-0.733333 6:-0.0666667 7:0.0666667 8:-0.733333 9:0.2 10:0.6 11:-0.2 12:0.0666667 13:-0.866667 14:0.2 15:-0.333333 16:0.0666667 
0 1 0 0 0 0 0 0 0 0 0 0 0 0 0 0 0 0 0 0 1 0 0 0 0 1:-0.0666667 2:0.333333 3:0.2 4:0.0666667 5:-0.333333 6:-0.0666667 7:0.0666667 8:-0.6 9:0.333333 10:0.6 11:-0.0666667 12:-0.0666667 13:-0.866667 14:0.0666667 15:-0.2 16:-0.0666667 
0 1 0 0 0 0 0 0 0 0 0 0 0 0 0 0 0 0 0 0 0 0 0 0 1 1:-0.733333 2:-0.333333 3:-0.466667 4:-0.6 5:-0.733333 6:-0.0666667 7:0.0666667 8:-0.733333 9:0.2 10:0.466667 11:-0.0666667 12:-0.0666667 13:-0.866667 14:0.0666667 15:-0.333333 16:-0.0666667 
0 1 0 0 0 0 0 1 0 0 0 0 0 0 0 0 0 0 0 0 0 0 0 1 0.9633976353283243 1:-0.6 2:0.2 3:-0.466667 4:-0.0666667 5:-0.466667 6:0.0666667 7:-0.2 8:-0.333333 9:0.2 10:-0.0666667 11:-0.2 12:-0.2 13:-0.733333 14:-0.0666667 15:-0.0666667 16:0.0666667 
0 1 1 0 0 1 0 1 0 0 0 0 0 0 0 0 0 0 0 0 0 0 0 1 1 1:-0.6 2:-0.466667 3:-0.333333 4:-0.2 5:-0.466667 6:0.2 7:-0.0666667 8:-0.333333 9:-0.333333 10:0.2 11:-0.6 12:-0.2 13:-0.733333 14:-0.2 15:-0.2 16:-0.0666667 
0 1 0 0 0 0 0 0 0 0 0 1 0 0 0 0 0 0 0 0 0 0 0 0 0 1:-0.733333 2:-0.0666667 3:-0.6 4:-0.333333 5:-0.6 6:-0.0666667 7:0.0666667 8:-0.333333 9:0.0666667 10:-0.0666667 11:-0.2 12:0.333333 13:-0.866667 14:0.2 15:-0.0666667 16:-0.0666667 
0 1 0 0 0 0 0 0 0 0 0 0 0 0 0 0 0 0 0 0 0 0 0 0 0 1:-0.733333 2:-0.333333 3:-0.6 4:-0.466667 5:-0.733333 6:-0.0666667 7:-0.0666667 8:-0.333333 9:0.2 10:-0.2 11:-0.2 12:0.0666667 13:-0.866667 14:0.0666667 15:-0.0666667 16:0.0666667 
0.4501587388311482 1 0 1 0.6639236943324967 0 0 1 0 0 0 0 0 0 0 0 1 0 0 0 1 0 0 0 0 1:-0.2 2:0.2 3:0.0666667 4:-0.2 5:-0.2 6:0.2 7:0.333333 8:-0.2 9:-0.333333 10:-0.2 11:-0.333333 12:-0.2 13:-0.6 14:0.2 15:0.2 16:-0.466667 
0 1 0.1211573508176133 0.9337591702893011 0 0 0 0 0 0 0 0 0 0 0 0 0 0 0 0 1 0 0 0 1 1:-0.333333 2:0.0666667 3:-0.0666667 4:-0.2 5:-0.2 6:0.2 7:0.2 8:-0.333333 9:-0.466667 10:-0.0666667 11:-0.333333 12:-0.0666667 13:-0.6 14:0.0666667 15:0.2 16:-0.333333 
0 0.9752283963406621 0 0 0 0 0 0 0 0 0 0 0 0 0 1 0 0 0 0 0 0 0 0 0 1:-0.733333 2:-0.733333 3:-0.6 4:-0.6 5:-0.733333 6:-0.0666667 7:-0.0666667 8:-0.333333 9:0.2 10:-0.2 11:-0.2 12:0.0666667 13:-0.733333 14:0.0666667 15:-0.0666667 16:0.0666667 
0 0 0 0 0 0 0 0 0 0 0 1 0 0 0 0 0 0 0 0 0 0 0 0 0 1:-0.733333 2:-0.466667 3:-0.466667 4:-0.6 5:-0.733333 6:-0.0666667 7:0.0666667 8:-0.733333 9:0.2 10:0.466667 11:-0.2 12:0.0666667 13:-0.866667 14:0.2 15:-0.333333 16:0.0666667 
0 1 0 0 0 0 0 0 0 0 0.009516357748021433 1 0 0 0 0.1482579069672121 0 0 0 0 0 1 1 0 1 1:-0.466667 2:-0.2 3:-0.2 4:-0.466667 5:-0.466667 6:0.2 7:0.466667 8:-0.2 9:-0.333333 10:-0.2 11:-0.333333 12:0.2 13:-0.6 14:0.0666667 15:0.2 16:-0.2 
0 1 0 0 0 0 0 0 0 1 0 0 0 0 1 0 0 1 0 0 0 0 0 0 1 1:-0.466667 2:-0.0666667 3:-0.2 4:0.333333 5:-0.2 6:0.333333 7:-0.333333 8:-0.466667 9:-0.466667 10:0.0666667 11:-0.6 12:-0.0666667 13:-0.733333 14:-0.2 15:-0.0666667 16:0.0666667 
0 1 0 0 0 0 0 0 0 0 0 0 0 0 0 0 0 0 0 0 0 0 0 0 1 1:0.2 2:0.333333 3:-0.2 4:0.866667 5:-0.2 6:-0.2 7:0.2 8:-0.333333 9:-0.733333 10:0.6 11:0.0666667 12:-0.0666667 13:-0.6 14:0.0666667 15:0.6 16:-0.333333 
0 1 0 0 0 0 0 0 0 0 0 0 0 0 0 0 0 0 0 0 0 0 0 0 0 1:-0.6 2:-0.0666667 3:-0.333333 4:-0.333333 5:-0.466667 6:-0.0666667 7:-0.0666667 8:-0.733333 9:-0.0666667 10:-0.0666667 11:-0.2 12:0.0666667 13:-1 14:0.2 15:0.2 16:-0.0666667 
-0 1 1 1 0 1 0 0 1 0 1 1 0 1 1 0 1 0.8596972344947544 0 0 0.5257613680728114 1 1 1 1 1:-0.466667 2:-0.0666667 3:-0.333333 4:-0.333333 5:-0.333333 6:-0.333333 7:0.2 8:-0.2 9:-0.466667 10:0.0666667 11:-0.0666667 12:0.2 13:-0.733333 14:0.2 15:-0.0666667 16:0.333333 
-0.903125348511376 1 1 1 0 1 0 0 1 0 1 1 1 1 1 1 1 1 0 0 0 1 1 1 1 1:-0.466667 2:0.2 3:-0.333333 4:-0.0666667 5:-0.333333 6:-0.333333 7:0.0666667 8:-0.2 9:-0.466667 10:0.0666667 11:-0.0666667 12:0.2 13:-0.6 14:0.0666667 15:-0.0666667 16:0.333333 
-0 0 0 0 0 1 0 1 0 0 0 0 1 0 0 0 0 0 0 0 0 0 0 0 0 1:-0.6 2:0.0666667 3:-0.6 4:-0.2 5:-0.733333 6:-0.333333 7:0.2 8:0.333333 9:-0.333333 10:0.0666667 11:-0.2 12:-0.333333 13:-0.733333 14:0.2 15:-0.466667 16:0.0666667 
-0 0 1 1 0 0 0 0 1 0.02720520618432172 0.5456137180122307 1 0 1 0.2332169569263582 1 1 0 1 0 0.7779592104631389 0 1 1 0 1:-0.333333 2:0.0666667 3:-0.2 4:0.333333 5:0.0666667 6:0.2 7:0.2 8:-0.733333 9:-0.6 10:-0.2 11:0.2 12:-0.2 13:0.2 14:0.466667 15:-0.0666667 16:-0.333333 
-0 0 0 0 0 0 0 0 0 0 0 0 0 1 0 0 0 0 0 0 0 0 0 0 0 1:-0.6 2:-0.333333 3:-0.466667 4:0.0666667 5:-0.2 6:0.0666667 7:0.2 8:-0.6 9:-0.866667 10:0.0666667 11:-0.0666667 12:-0.2 13:-0.466667 14:0.333333 15:-0.333333 16:0.0666667 
-0 0 0 1 0 0 0 0 1 0 0 0 0 0 0 0 1 0 0 0 1 0 0 0 0 1:-0.466667 2:0.2 3:-0.333333 4:-0.0666667 5:-0.466667 6:-0.333333 7:0.333333 8:-0.466667 9:-0.333333 10:0.333333 11:0.2 12:-0.466667 13:-0.466667 14:0.333333 15:-0.466667 16:-0.0666667 
-1 1 0 1 0 0 0 1 0 0 0 0 0 0 0 0 1 1 0 0 0 0 0 0 1 1:-0.0666667 2:0.733333 3:-0.2 4:-0.0666667 5:-0.466667 6:0.2 7:0.0666667 8:-0.466667 9:-0.333333 10:0.733333 11:-0.466667 12:-0.466667 13:-0.466667 14:0.333333 15:-0.2 16:-0.2 
-0 0 0 1 0 0 0 0 0 0 0 0 0 0 0 0 0 0 0 0 0 0 0 0 0 1:-0.6 2:-0.0666667 3:-0.466667 4:-0.333333 5:-0.6 6:-0.333333 7:0.466667 8:-0.333333 9:-0.466667 10:0.466667 11:0.0666667 12:-0.466667 13:-0.866667 14:0.333333 15:-0.466667 16:-0.0666667 
-0 1 1 1 0 1 1 1 1 1 1 1 1 1 1 1 0 1 0 1 0 1 1 1 1 1:-0.333333 2:0.333333 3:-0.0666667 4:0.0666667 5:-0.2 6:-0.2 7:-0.2 8:-0.2 9:-0.466667 10:-0.0666667 11:-0.2 12:0.2 13:-0.333333 14:0.0666667 15:-0.0666667 16:0.333333 
-0 0.4117107867106929 1 1 0 0 0 0 0 0 0 0 0 0 0 1 1 0.02924751062218957 0 0 0 0 0 0 1 1:-0.466667 2:-0.466667 3:-0.333333 4:-0.2 5:-0.333333 6:0.2 7:0.333333 8:-0.733333 9:-0.6 10:-0.0666667 11:0.2 12:-0.333333 13:-0.466667 14:0.333333 15:-0.333333 16:-0.333333 
-0 0 0 1 0 0 0 0 0 0 0 0 0 0 0 0 0 0 0 0 0 0 0 0 0 1:-0.466667 2:-0.0666667 3:-0.333333 4:-0.333333 5:-0.733333 6:-0.0666667 7:0.333333 8:-0.6 9:-0.333333 10:0.866667 11:-0.333333 12:-0.6 13:-1 14:0.333333 15:-0.6 16:0.0666667 
-0 0 0 1 0 0 0 0 0 0 0 0 0 0 0 0 0 0 0 0 0 0 0 0 0 1:-0.6 2:-0.0666667 3:-0.333333 4:-0.333333 5:-0.466667 6:-0.333333 7:0.333333 8:-0.466667 9:-0.466667 10:0.333333 11:0.0666667 12:-0.466667 13:-0.866667 14:0.333333 15:-0.6 16:-0.0666667 
-1 1 1 1 0 0 0 0 0 1 0 1 0 0 0 1 1 1 0 0.1887758241260387 1 1 0 0 1 1:-0.733333 2:-0.0666667 3:-0.466667 4:-0.333333 5:-0.733333 6:-0.333333 7:0.466667 8:-0.6 9:-0.2 10:0.466667 11:0.2 12:-0.333333 13:-1 14:0.2 15:-0.6 16:-0.2 
-0 0 1 0 1 0 1 0 1 0 0 0 0.7430916617882882 0 0 0 0 0 1 0 0 0 0 0 0 1:-0.466667 2:-0.333333 3:-0.2 4:-0.2 5:-0.2 6:-0.2 7:0.2 8:-0.466667 9:-0.733333 10:0.0666667 11:-0.0666667 12:-0.2 13:-0.2 14:0.333333 15:-0.466667 16:-0.2 
-0 0 0 1 0 0 0 0 0 0 0 0 0 0 0 0 0 0 0 0 0 0 0 0 0 1:-0.0666667 2:0.466667 3:0.2 4:0.0666667 5:-0.333333 6:-0.2 7:0.6 8:-0.6 9:-0.2 10:0.866667 11:-0.2 12:-0.733333 13:-1 14:0.333333 15:-0.6 16:0.2 
-1 1 1 1 0 1 1 0 1 0 1 1 1 1 1 0 1 0 0 0 0 1 1 1 1 1:-0.2 2:0.333333 3:0.0666667 4:-0.0666667 5:-0.0666667 6:-0.0666667 7:0.0666667 8:-0.0666667 9:-0.466667 10:0.0666667 11:-0.0666667 12:0.2 13:-0.6 14:0.2 15:0.0666667 16:0.2 
-0 1 1 0 0 1 0 1 0 0.9567129107312675 1 1 1 1 1 0.2774938244705095 0 1 0 0 0 0.3143536488650934 1 1 1 1:-0.466667 2:0.333333 3:-0.2 4:-0.0666667 5:-0.2 6:-0.0666667 7:-0.2 8:-0.0666667 9:-0.466667 10:-0.0666667 11:-0.2 12:0.0666667 13:-0.6 14:0.0666667 15:-0.0666667 16:0.333333 
-0 0 0 0 0 0 0 0 0 0 0 0 1 0 0 0 0 0 0 0 1 0 0 0 0 1:-0.466667 2:0.466667 3:-0.333333 4:0.0666667 5:-0.6 6:-0.333333 7:0.333333 8:0.466667 9:-0.333333 10:0.2 11:-0.2 12:-0.333333 13:-0.733333 14:0.333333 15:-0.466667 16:0.0666667 
-0 0 0 1 0 0 0 0 0 0 0 0 0 0 0 0 1 0 0 0 0 0 0 0 0 1:-0.6 2:-0.0666667 3:-0.466667 4:-0.333333 5:-0.6 6:-0.2 7:0.333333 8:-0.2 9:-0.333333 10:0.333333 11:0.0666667 12:-0.466667 13:-0.866667 14:0.333333 15:-0.466667 16:-0.0666667 
-1 1 1 1 1 1 0 1 0 0.1291269531621317 1 0 0.8970451236556501 0 0 1 0 1 0 0 0 0 0 1 1 1:-0.2 2:0.0666667 3:0.0666667 4:-0.2 5:-0.466667 6:0.2 7:0.0666667 8:-0.466667 9:-0.0666667 10:0.6 11:-0.466667 12:-0.333333 13:-0.466667 14:0.0666667 15:-0.333333 16:0.0666667 
-0 0 1 1 0 0 0 0 1 0 0 0 0 0 0 0 1 0 1 0 0 0 0 0 0 1:-0.6 2:-0.333333 3:-0.333333 4:-0.0666667 5:-0.2 6:0.0666667 7:0.466667 8:-0.6 9:-0.866667 10:0.0666667 11:0.0666667 12:-0.2 13:-0.2 14:0.333333 15:-0.466667 16:-0.2 
-0 0 0 1 0 0 0 0 0 0 0 0 0 0 0 0 0 0 0 0 0 0 0 0 0 1:-0.466667 2:0.333333 3:-0.333333 4:0.0666667 5:-0.466667 6:-0.466667 7:0.6 8:-0.2 9:-0.333333 10:0.6 11:0.2 12:-0.6 13:-0.866667 14:0.333333 15:-0.466667 16:-0.2 
-0 1 1 0 0 1 0 0 0 0 0 1 0 1 1 0 0 0 0 0 0 0 1 1 0 1:-0.333333 2:0.333333 3:-0.0666667 4:-0.0666667 5:-0.2 6:-0.0666667 7:-0.0666667 8:0.0666667 9:-0.466667 10:-0.0666667 11:-0.2 12:-0.0666667 13:-0.6 14:0.2 15:0.0666667 16:0.2 
-0 1 0 1 0 0 0 0 0 0 0 0 0 0 0 1 1 1 0 0 1 1 0 0 1 1:-0.466667 2:0.333333 3:-0.333333 4:0.0666667 5:-0.466667 6:-0.333333 7:0.466667 8:-0.6 9:-0.0666667 10:0.466667 11:0.2 12:-0.466667 13:-1 14:0.333333 15:-0.466667 16:-0.0666667 
-0 0 0 0 1 0 0 1 0 0 0 0 0 0 0 0 0 0 0 0 1 0 0 0 0 1:-0.466667 2:0.0666667 3:-0.2 4:-0.2 5:-0.466667 6:-0.2 7:0.2 8:-0.0666667 9:-0.2 10:0.2 11:-0.0666667 12:-0.466667 13:-0.733333 14:0.333333 15:-0.466667 16:-0.2 
-0 1 0 1 0 0 0 0.2810939212669949 0 0 0 0 0 0 0 0 0 1 0 0 0 0 0 0.0618653840144202 1 1:-0.466667 2:0.0666667 3:-0.2 4:-0.2 5:-0.466667 6:0.0666667 7:0.0666667 8:-0.733333 9:-0.2 10:0.733333 11:-0.333333 12:-0.333333 13:-0.733333 14:0.2 15:-0.6 16:0.2 
-1 1 1 0 0 1 0 1 0 0.4411623197398066 0 1 1 1 1 1 1 1 0 0 0 0.1816041769526924 1 1 1 1:-0.466667 2:-0.2 3:-0.333333 4:-0.466667 5:-0.466667 6:0.0666667 7:-0.333333 8:-0.2 9:-0.333333 10:-0.0666667 11:-0.2 12:-0.0666667 13:-0.733333 14:0.2 15:-0.0666667 16:0.2 
-0 0 1 0 1 1 1 1 0 1 1 0 1 1 0 0.9371308447092401 0 0 0.01191534317120702 1 0 0 1 0 0 1:0.0666667 2:0.2 3:-0.2 4:-0.466667 5:-0.6 6:0.0666667 7:-0.0666667 8:-0.333333 9:-0.466667 10:0.466667 11:-0.6 12:-0.2 13:-0.333333 14:0.0666667 15:-0.466667 16:0.0666667 
-0 0 0 1 0 0 0 0 0 0 0 0 0 0 0 0 0 0 0 0 0 0 0 0 0 1:-0.733333 2:-0.6 3:-0.6 4:-0.733333 5:-0.866667 6:-0.333333 7:0.466667 8:-0.6 9:-0.466667 10:0.333333 11:0.0666667 12:-0.6 13:-1 14:0.2 15:-0.6 16:-0.2 
-0 0 0 1 0 0 0 0 0 0 0 0 0 0 0 0 0 0 0 0 0 0 0 0 0 1:-0.733333 2:-0.6 3:-0.6 4:-0.733333 5:-0.733333 6:-0.333333 7:0.333333 8:-0.6 9:-0.466667 10:0.333333 11:0.0666667 12:-0.466667 13:-0.866667 14:0.2 15:-0.6 16:-0.0666667 
-0 0 0 1 0 0 0 0 0 0 0 0 0 0 0 0 0 0 0 0 0 0 0 0 0 1:-0.733333 2:-0.466667 3:-0.6 4:-0.733333 5:-0.733333 6:-0.333333 7:0.333333 8:-0.466667 9:-0.466667 10:0.333333 11:0.0666667 12:-0.466667 13:-0.866667 14:0.333333 15:-0.6 16:-0.0666667 
-0 0 0 1 0 0 0 1 1 0 0 0 0 0 0 0 1 0 0 0 1 0 0 0 0 1:-0.333333 2:0.2 3:-0.2 4:-0.0666667 5:-0.333333 6:-0.0666667 7:0.2 8:-0.333333 9:-0.2 10:0.2 11:0.0666667 12:-0.466667 13:-0.333333 14:0.333333 15:-0.333333 16:-0.0666667 
-0 0 0 0 0 0 0 1 0 0 0 0 0 0 0 0 0 1 0 0 0 0 0 1 0 1:-0.466667 2:-0.0666667 3:-0.333333 4:-0.333333 5:-0.6 6:0.2 7:0.0666667 8:-0.6 9:-0.333333 10:0.6 11:-0.466667 12:-0.466667 13:-0.733333 14:0.2 15:-0.6 16:0.2 
-1 1 1 1 1 1 1 1 1 1 0 1 1 1 1 1 1 1 0 1 1 0 1 1 1 1:-0.466667 2:-0.2 3:-0.2 4:0.0666667 5:0.0666667 6:0.333333 7:0.0666667 8:-0.6 9:-0.6 10:-0.2 11:0.0666667 12:-0.0666667 13:-0.2 14:0.333333 15:-0.2 16:-0.466667 
-0 0 0 0 0 0 0 0 0 0 0 0 0 1 0 0 0 0 0 0 0 0 0 0 0 1:-0.466667 2:-0.2 3:-0.2 4:0.2 5:0.2 6:-0.0666667 7:0.0666667 8:-0.2 9:-1 10:0.0666667 11:-0.2 12:-0.0666667 13:-0.2 14:0.333333 15:-0.2 16:0.466667 
-0 0 0 1 0 0 0 0 0 0 0 0 0 0 0 0 0 0 0 0 0 0 0 0 0 1:-0.2 2:0.6 3:-0.2 4:-0.0666667 5:-0.466667 6:-0.2 7:0.333333 8:-0.6 9:-0.333333 10:0.733333 11:-0.2 12:-0.6 13:-0.6 14:0.333333 15:-0.333333 16:-0.2 
-0 1 1 1 0 0 0 1 0 0 0 0 0 1 0 0 0 1 0 0 0 0 0 1 1 1:-0.466667 2:-0.0666667 3:-0.333333 4:-0.333333 5:-0.6 6:0.333333 7:-0.0666667 8:-0.6 9:-0.333333 10:0.6 11:-0.466667 12:-0.333333 13:-0.733333 14:0.2 15:-0.6 16:0.2 
-0 0 1 0 1 1 1 1 0 0 0 0 1 1 0 0 0 0 1 0.2311480627782254 0 0 0 1 0 1:-0.466667 2:-0.2 3:-0.2 4:0.2 5:0.2 6:0.0666667 7:-0.2 8:-0.333333 9:-0.866667 10:-0.0666667 11:-0.2 12:-0.0666667 13:0.0666667 14:0.0666667 15:-0.2 16:-0.0666667 
-0 1 0 1 0 0 0 1 0 0 0 0 0 0 0 0 0 0 0 0 0 0 0 0 0 1:-0.333333 2:0.0666667 3:-0.0666667 4:-0.2 5:-0.333333 6:0.2 7:0.0666667 8:-0.733333 9:-0.2 10:0.733333 11:-0.333333 12:-0.333333 13:-0.733333 14:0.2 15:-0.6 16:0.2 
-0 1 1 0 0.5539468664535143 1 0 1 0 1 1 0 1 1 0 1 0 1 0 0 0 1 1 0 1 1:-0.0666667 2:0.6 3:-0.2 4:-0.0666667 5:-0.6 6:0.2 7:-0.0666667 8:-0.333333 9:-0.466667 10:0.6 11:-0.6 12:-0.2 13:-0.333333 14:0.2 15:-0.466667 16:0.0666667 
-0 0 0 1 0 0 0 0 0 0 0 0 0 0 0 0 0 0 0 0 0 0 0 0 0 1:-0.6 2:-0.2 3:-0.333333 4:-0.466667 5:-0.6 6:-0.2 7:0.466667 8:-0.6 9:-0.333333 10:0.733333 11:-0.2 12:-0.466667 13:-1 14:0.333333 15:-0.733333 16:0.0666667 
-0 0 1 1 1 0 0 0 1 1 0 0 0 0 0 1 1 0 0 0 0.04910248647019162 0 0 0 0 1:-0.2 2:-0.0666667 3:0.0666667 4:0.2 5:0.0666667 6:-0.0666667 7:0.2 8:-0.733333 9:-0.6 10:-0.0666667 11:0.2 12:-0.2 13:-0.2 14:0.333333 15:-0.2 16:-0.466667 
-0 0 1 0 0 0 0 1 0 0 0 0 1 0 0 0 0 0 0 0 0 0 1 0 0 1:0.0666667 2:0.466667 3:-0.2 4:-0.2 5:-0.6 6:0.2 7:-0.0666667 8:-0.2 9:-0.466667 10:0.733333 11:-0.6 12:-0.2 13:-0.333333 14:0.2 15:-0.466667 16:0.0666667 
-0 0 0.9338959427857526 0 0 0 0 0 1 0 0 0 0 1 0 0 1 0 0 0 0 0 1 0 0 1:-0.333333 2:-0.2 3:-0.0666667 4:0.0666667 5:0.0666667 6:0.0666667 7:-0.2 8:-0.466667 9:-0.6 10:-0.0666667 11:-0.0666667 12:-0.0666667 13:-0.0666667 14:0.6 15:-0.2 16:-0.0666667 
-0 0 1 0 1 0 0 0 1 0 0 0 1 0 0 0 0 0 0 0 0 0 1 0 0 1:0.333333 2:1 3:0.0666667 4:0.0666667 5:-0.466667 6:-0.0666667 7:0.2 8:-0.2 9:-0.6 10:0.466667 11:-0.466667 12:-0.333333 13:-0.333333 14:0.2 15:-0.466667 16:-0.0666667 
-0 0 0 1 0 0 0 0 0 0 0 0 0 0 0 0 0 0 0 0 0 0 0 0 0 1:-0.333333 2:-0.0666667 3:-0.0666667 4:-0.333333 5:-0.466667 6:-0.0666667 7:0.466667 8:-0.466667 9:-0.333333 10:0.733333 11:-0.333333 12:-0.6 13:-0.866667 14:0.333333 15:-0.6 16:0.0666667 
-0 0 0 1 0 0 0 0 0 0 0 0 0 0 0 0 1 0.4568430864428805 0 0 1 0 0 0 0 1:-0.466667 2:0.466667 3:-0.333333 4:0.0666667 5:-0.466667 6:-0.333333 7:0.466667 8:-0.466667 9:-0.2 10:0.466667 11:0.2 12:-0.466667 13:-1 14:0.333333 15:-0.466667 16:-0.0666667 
-0 0 0 0 1 0 0 1 0 0 0 0 0.413037332840524 0 0 0 0 0 0 0.3455553999435154 0 0 0 0 0 1:-0.466667 2:0.333333 3:-0.333333 4:0.0666667 5:-0.333333 6:-0.2 7:0.2 8:-0.2 9:-0.333333 10:0.2 11:-0.0666667 12:-0.466667 13:-0.333333 14:0.333333 15:-0.466667 16:-0.0666667 
-0 1 0 1 0 0 0 0 0 0 0 0 0 0 0 0 0 1 0 0 0 0 0 0 1 1:0.0666667 2:0.866667 3:-0.0666667 4:0.0666667 5:-0.333333 6:-0.0666667 7:0.2 8:-0.466667 9:-0.466667 10:0.6 11:-0.333333 12:-0.466667 13:-0.466667 14:0.2 15:-0.0666667 16:-0.333333 
-0 1 1 0 0 1 0 0 0 0 0 0 0.8119920736065137 1 0 0 0 0 0 0 0 0 1 1 0 1:-0.466667 2:0.333333 3:-0.2 4:0.0666667 5:-0.2 6:-0.0666667 7:-0.0666667 8:0.0666667 9:-0.466667 10:0.0666667 11:-0.2 12:-0.0666667 13:-0.6 14:0.2 15:-0.0666667 16:0.2 
-0 0 0 1 0 0 0 0 0 0 0 0 0 0 0 1 0 1 0 0 0 0 0 0 0 1:-0.6 2:-0.0666667 3:-0.333333 4:-0.333333 5:-0.6 6:0.2 7:0.0666667 8:-0.733333 9:-0.333333 10:0.6 11:-0.466667 12:-0.333333 13:-0.866667 14:0.333333 15:-0.733333 16:0.2 
-0 0 1 1 0 0 0 0 0 0 1 0 1 0 0 0 0 0 0 0 0 1 1 0 0 1:0.0666667 2:0.6 3:-0.2 4:-0.0666667 5:-0.6 6:0.0666667 7:0.0666667 8:-0.333333 9:-0.466667 10:0.6 11:-0.466667 12:-0.2 13:-0.333333 14:0.2 15:-0.466667 16:0.0666667 
-0 0 0 0 0 0 0 0 0.7648474297540595 0 0 0 0 0 0 0 0 0 0 0 0 0 0 0 0 1:0.2 2:0.333333 3:-0.0666667 4:-0.333333 5:-0.6 6:-0.2 7:0.466667 8:-0.2 9:-0.733333 10:0.466667 11:-0.333333 12:-0.333333 13:-0.466667 14:0.333333 15:-0.466667 16:0.0666667 
-0 0 0 1 0 0 0 0 0 0 0 0 0 0 0 0 0 0 0 0 0 0 0 0 0 1:-0.6 2:-0.0666667 3:-0.466667 4:-0.333333 5:-0.6 6:-0.466667 7:0.6 8:-0.2 9:-0.466667 10:0.6 11:0.0666667 12:-0.6 13:-0.866667 14:0.333333 15:-0.6 16:-0.2 
-0 0 0 0 0.5838028543936664 0 0 0 0 0 0 0 0 0 0 0 0 0 0 0 0 0 0 0 0 1:-0.6 2:-0.733333 3:-0.466667 4:-0.466667 5:-0.6 6:-0.2 7:0.2 8:-0.466667 9:-0.333333 10:0.2 11:-0.0666667 12:-0.466667 13:-0.466667 14:0.333333 15:-0.6 16:-0.0666667 
-0 0 0 0 0 0 0 0 0 0 0 0 1 0 0 0 0 0 0 0 0 0 0 0 0 1:-0.733333 2:-0.0666667 3:-0.6 4:-0.466667 5:-0.733333 6:-0.333333 7:0.333333 8:0.2 9:-0.6 10:0.2 11:-0.2 12:-0.333333 13:-0.733333 14:0.333333 15:-0.6 16:0.0666667 
-0 0 0 1 0 0 0 0 0 0 0 0 0 0 0 0 0 0 0 0 0 0 0 0 0 1:-0.2 2:0.2 3:-0.333333 4:-0.466667 5:-0.733333 6:-0.333333 7:0.466667 8:-0.333333 9:-0.6 10:0.733333 11:-0.333333 12:-0.466667 13:-0.466667 14:0.2 15:-0.6 16:0.0666667 
-0 1 1 1 1 1 1 1 1 1 1 1 1 1 1 1 0 1 1 1 0 1 1 1 1 1:-0.466667 2:0.0666667 3:-0.2 4:-0.2 5:-0.333333 6:-0.2 7:-0.0666667 8:-0.333333 9:-0.466667 10:-0.0666667 11:-0.2 12:0.2 13:-0.333333 14:0.0666667 15:-0.2 16:0.333333 
-0 0 0 0 1 0 0 0.5550755711250143 0 0 0 0 1 0 0 0 0 0 0 0 0 0 0 0 0 1:-0.733333 2:-0.2 3:-0.6 4:-0.466667 5:-0.733333 6:-0.333333 7:0.333333 8:0.2 9:-0.466667 10:0.2 11:-0.2 12:-0.333333 13:-0.733333 14:0.2 15:-0.6 16:0.0666667 
-0 0 0 1 0 0 0 0 0 0 0 0 0 0 0 0 0 0 0 0 0 0 0 0 0 1:-0.6 2:0.0666667 3:-0.466667 4:-0.2 5:-0.6 6:-0.333333 7:0.333333 8:-0.333333 9:-0.333333 10:0.333333 11:0.0666667 12:-0.466667 13:-0.866667 14:0.333333 15:-0.466667 16:-0.0666667 
-0 0 1 0 0 1 0 0 0 0 0 0 0 0 0 0 0 0 0 0 0 0 0 0 0 1:-0.6 2:-0.466667 3:-0.333333 4:-0.2 5:-0.2 6:0.0666667 7:0.2 8:-0.333333 9:-1 10:0.0666667 11:-0.2 12:-0.2 13:-0.333333 14:0.2 15:-0.333333 16:0.0666667 
-0 0 0 1 0 0 0 0 1 0 0 0 0 0 0 0 1 0 0 0 1 0 0 0 0 1:-0.466667 2:0.0666667 3:-0.333333 4:-0.2 5:-0.466667 6:-0.333333 7:0.466667 8:-0.466667 9:-0.2 10:0.466667 11:0.2 12:-0.466667 13:-0.466667 14:0.333333 15:-0.466667 16:-0.0666667 
-0 0 0 1 0 0 0 0 0 0 0 0 0 0 0 0 0 0 0 0 0 0 0 1 0 1:-0.733333 2:-0.466667 3:-0.466667 4:-0.6 5:-0.733333 6:0.0666667 7:0.2 8:-0.6 9:-0.466667 10:0.6 11:-0.466667 12:-0.466667 13:-0.466667 14:0.333333 15:-0.466667 16:0.0666667 
-0 1 0 0 0 0 0 1 0 0 0 0 0 0 0 0 0 0 0 0 0 0 0 0 0 1:0.2 2:0.866667 3:0.2 4:0.0666667 5:-0.2 6:0.2 7:-0.0666667 8:-0.466667 9:-0.333333 10:0.733333 11:-0.466667 12:-0.466667 13:-0.333333 14:0.2 15:-0.0666667 16:0.0666667 
-0 0 0 1 0 0 0 0 0 0 0 0 0 0 0 0 0 0 0 0 0 0 0 0 0 1:-0.866667 2:-0.866667 3:-0.733333 4:-0.733333 5:-0.866667 6:-0.333333 7:0.333333 8:-0.466667 9:-0.466667 10:0.333333 11:0.0666667 12:-0.466667 13:-0.866667 14:0.2 15:-0.6 16:-0.0666667 
-1 1 1 1 0 1 0 0 0 0 1 1 1 1 1 1 0 1 0 0 0 1 1 1 1 1:-0.466667 2:-0.2 3:-0.333333 4:-0.466667 5:-0.466667 6:-0.2 7:-0.0666667 8:-0.2 9:-0.466667 10:-0.0666667 11:-0.2 12:0.0666667 13:-0.733333 14:0.2 15:-0.0666667 16:0.333333 
-0 1 1 1 1 1 1 1 1 1 1 1 1 1 1 1 0 0 1 1 1 1 1 1 1 1:-0.2 2:0.2 3:0.0666667 4:-0.0666667 5:-0.0666667 6:-0.0666667 7:-0.0666667 8:-0.333333 9:-0.333333 10:-0.0666667 11:-0.2 12:0.2 13:-0.2 14:0.0666667 15:-0.0666667 16:0.333333 
-0 0 0 1 0 0 0 0 0.38075320932058 0 0 0 0 0 0 1 1 1 0 0.6952220237793741 1 0 1 0 0 1:-0.733333 2:-0.6 3:-0.733333 4:-0.733333 5:-0.866667 6:-0.333333 7:0.2 8:-0.6 9:-0.466667 10:0.2 11:0.0666667 12:-0.333333 13:-0.866667 14:0.2 15:-0.733333 16:-0.0666667 
-0 0 0 1 0 0 0 0 0 0 0 0 0 0 0 0 1 0 0 0 0 0 0 0 0 1:-0.733333 2:-0.866667 3:-0.733333 4:-0.6 5:-0.733333 6:-0.333333 7:0.2 8:-0.466667 9:-0.466667 10:0.2 11:0.0666667 12:-0.333333 13:-0.866667 14:0.333333 15:-0.6 16:-0.0666667 
-0 0 1 1 0 0 0 0 0.842593926644242 0 0 0 0 0 0 0 1 0 0 0 0 0 0 0 0 1:-0.0666667 2:0.0666667 3:0.2 4:0.333333 5:0.466667 6:0.0666667 7:0.0666667 8:-0.6 9:-0.6 10:-0.0666667 11:0.0666667 12:-0.0666667 13:-0.0666667 14:0.466667 15:-0.0666667 16:-0.0666667 
-0 0 0 1 0 0 0 1 1 0 0 0 0 0 0 0 0 0 0 0 1 0 0 0.9284467565990735 0 1:-0.6 2:-0.0666667 3:-0.333333 4:-0.333333 5:-0.6 6:-0.2 7:0.333333 8:-0.6 9:-0.2 10:0.333333 11:0.0666667 12:-0.466667 13:-0.466667 14:0.333333 15:-0.466667 16:-0.0666667 
-0 0 1 0 0 1 0 0.3338141188890718 0 0 1 0.1990180370855741 1 1 0.7271859592291652 0 0 1 0 0 0 0 1 1 0.1600195694201386 1:-0.733333 2:-0.333333 3:-0.6 4:-0.0666667 5:-0.333333 6:0.0666667 7:-0.2 8:-0.333333 9:-0.866667 10:-0.0666667 11:-0.2 12:-0.0666667 13:-0.2 14:0.0666667 15:-0.333333 16:0.2 
-0 0 1 0.8445902581776829 1 0 0 0 1 0 1 0 1 0 0 0 0 0 1 0 0 1 1 0 0 1:-0.2 2:0.333333 3:-0.333333 4:-0.2 5:-0.6 6:-0.333333 7:0.2 8:-0.2 9:-0.6 10:0.333333 11:-0.333333 12:-0.2 13:-0.333333 14:0.2 15:-0.466667 16:-0.0666667 
-0 0 1 0 1 0 0 0 1 1 0 0 1 1 0 0 1 0 1 0.6601916854197922 0 0 0 0 0 1:-0.333333 2:-0.333333 3:-0.0666667 4:0.0666667 5:0.0666667 6:-0.0666667 7:-0.2 8:-0.466667 9:-0.6 10:-0.0666667 11:-0.0666667 12:-0.0666667 13:-0.0666667 14:0.466667 15:-0.333333 16:-0.2 
-0 0 1 0 1 1 0 1 0 0 0 0 1 0 0 0 0 0 0 0 0 0 0.696767066980411 0 0 1:-0.6 2:0.2 3:-0.466667 4:-0.2 5:-0.733333 6:-0.333333 7:0.2 8:0.333333 9:-0.333333 10:0.0666667 11:-0.2 12:-0.333333 13:-0.733333 14:0.2 15:-0.466667 16:0.0666667 
-0 1 0 1 0 0 0 0 0 0 0 0 0 0 0 0 0 0 0 0 0 0 0 0 0 1:-0.333333 2:0.2 3:-0.0666667 4:-0.2 5:-0.333333 6:0.2 7:0.0666667 8:-0.733333 9:-0.333333 10:0.733333 11:-0.333333 12:-0.333333 13:-0.733333 14:0.2 15:-0.6 16:0.2 
-0.5041516270950325 1 1 1 1 1 1 1 1 1 1 1 1 1 1 1 1 0 1 1 1 1 1 1 0 1:-0.2 2:0.466667 3:0.0666667 4:0.0666667 5:0.0666667 6:-0.0666667 7:-0.333333 8:-0.2 9:-0.333333 10:-0.0666667 11:-0.2 12:0.2 13:-0.2 14:0.2 15:0.0666667 16:0.2 
-0 0 0 1 0 0 0 0 0 0 0 0 0 0 0 0 0 1 0 0 0 0 0 0 0 1:-0.466667 2:0.2 3:-0.2 4:-0.2 5:-0.6 6:0.2 7:0.2 8:-0.733333 9:-0.2 10:0.866667 11:-0.333333 12:-0.466667 13:-0.866667 14:0.333333 15:-0.6 16:0.333333 
-0 0 0 1 0 0 0 0 0 0 0 0 0 0 0 0 0 0 0 0 0 0 0 0 0 1:-0.733333 2:-0.866667 3:-0.733333 4:-0.733333 5:-0.866667 6:-0.333333 7:0.2 8:-0.6 9:-0.466667 10:0.2 11:0.0666667 12:-0.466667 13:-0.866667 14:0.2 15:-0.6 16:-0.0666667 
-0 0 0 1 0 0 0 0 0 0 0 0 0 0 0 0 0 0 0 0 0 0 0 0 0 1:-0.6 2:-0.466667 3:-0.6 4:-0.6 5:-0.733333 6:-0.333333 7:0.333333 8:-0.466667 9:-0.466667 10:0.333333 11:0.0666667 12:-0.466667 13:-0.866667 14:0.333333 15:-0.6 16:-0.0666667 
-0 0 1 1 1 1 1 1 1 0 1 1 1 1 1 0 0 0 1 1 0 1 1 1 0 1:-0.333333 2:0.466667 3:-0.2 4:0.0666667 5:-0.0666667 6:-0.2 7:-0.0666667 8:-0.333333 9:-0.466667 10:0.0666667 11:-0.0666667 12:0.0666667 13:0.0666667 14:0.0666667 15:-0.2 16:0.466667 
-0 0 0 1 0 0 0 0 0 0 0 0 0 0 0 0 0 0 0 0 0 0 0 0 0 1:-0.0666667 2:0.6 3:-0.2 4:-0.0666667 5:-0.466667 6:-0.0666667 7:0.333333 8:-0.6 9:-0.333333 10:0.733333 11:-0.333333 12:-0.6 13:-0.6 14:0.466667 15:-0.333333 16:-0.2 
-0 0 0 1 0 0 0 0 0 0 0 0 0 0 0 0 0 0 0 0 0 0 0 0 0 1:-0.733333 2:-0.733333 3:-0.6 4:-0.466667 5:-0.733333 6:-0.333333 7:0.333333 8:-0.466667 9:-0.466667 10:0.333333 11:0.0666667 12:-0.466667 13:-0.866667 14:0.333333 15:-0.6 16:-0.0666667 
-0 1 0.2575128700003929 1 0 0 0 0 0 0 0 0 0 0 0 0 0 0 0 0 0 0 1 1 0 1:-0.333333 2:0.2 3:-0.333333 4:-0.466667 5:-0.6 6:0.333333 7:0.0666667 8:-0.466667 9:-0.466667 10:0.6 11:-0.466667 12:-0.333333 13:-0.466667 14:0.333333 15:-0.333333 16:0.2 
-0 1 1 1 1 1 1 1 1 1 1 1 1 1 1 1 0 0 1 1 0 1 1 1 1 1:-0.333333 2:0.0666667 3:-0.0666667 4:-0.2 5:-0.2 6:-0.0666667 7:-0.2 8:-0.2 9:-0.466667 10:-0.0666667 11:-0.2 12:0.2 13:-0.333333 14:0.0666667 15:-0.0666667 16:0.333333 
-0 0 0 0 0 0 0 0 0 0 0 0 0 1 0 0 0 0 0 0 0 0 0 0 0 1:-0.6 2:-0.2 3:-0.466667 4:0.2 5:0.0666667 6:-0.0666667 7:-0.2 8:-0.2 9:-0.866667 10:-0.0666667 11:-0.2 12:-0.0666667 13:-0.466667 14:0.333333 15:-0.0666667 16:0.466667 
-0 0 0 1 0 0 0 0 0 0 0 0 0 0 0 0 1 0 0 0 0 0 0 0 0 1:-0.733333 2:-0.466667 3:-0.6 4:-0.6 5:-0.733333 6:-0.333333 7:0.333333 8:-0.466667 9:-0.466667 10:0.333333 11:0.0666667 12:-0.333333 13:-1 14:0.333333 15:-0.6 16:-0.0666667 
-0 0 1 1 1 0 1 0 1 1 0 0 0 0 0 0 1 0 0.2777625638898873 1 0 0 0 0 0 1:-0.2 2:-0.0666667 3:0.0666667 4:0.2 5:0.333333 6:0.2 7:0.2 8:-0.6 9:-0.733333 10:-0.2 11:0.0666667 12:-0.0666667 13:-0.2 14:0.333333 15:-0.2 16:-0.466667 
-0 0 1 1 1 0 0 0 0 1 0 0 0 0 0 0 1 0 0 1 0 0 0 0 1 1:-0.333333 2:0.0666667 3:-0.2 4:0.333333 5:0.2 6:0.0666667 7:0.2 8:-0.6 9:-0.733333 10:-0.2 11:0.0666667 12:-0.0666667 13:-0.2 14:0.333333 15:-0.2 16:-0.466667 
-0 0 1 0 0 0 0 0 0 0 0 0 0 1 0 0 0.1405597547013998 0 0 0 0 0 0 0 0 1:-0.6 2:-0.466667 3:-0.466667 4:-0.2 5:-0.2 6:0.0666667 7:0.2 8:-0.466667 9:-1 10:0.0666667 11:-0.0666667 12:-0.0666667 13:-0.333333 14:0.2 15:-0.333333 16:-0.0666667 
-0 0 0 1 0 0 0 0 1 0 0 0 0 0 0 0 1 0 1 0 0 0 0 0 0 1:-0.2 2:-0.2 3:0.0666667 4:0.2 5:0.0666667 6:-0.0666667 7:0.2 8:-0.6 9:-0.733333 10:0.0666667 11:0.0666667 12:-0.2 13:0.0666667 14:0.466667 15:-0.2 16:-0.333333 
-0 1 0 1 0 0 0 0 0 0 0 1 0 0 0.2326763226264169 0 0 0 0 0 0 0 0 1 0 1:-0.466667 2:-0.2 3:-0.2 4:-0.466667 5:-0.466667 6:0.2 7:-0.0666667 8:-0.733333 9:-0.2 10:0.733333 11:-0.333333 12:-0.2 13:-0.866667 14:0.333333 15:-0.6 16:0.333333 
-0 0.4027497466201725 0 1 0 0 0 0 0 0 0 0.8613967359575727 0 0 0 1 1 0 0 0 1 0 0 0 1 1:-0.733333 2:-0.866667 3:-0.6 4:-0.733333 5:-0.866667 6:-0.466667 7:0.333333 8:-0.6 9:-0.333333 10:0.333333 11:0.0666667 12:-0.333333 13:-1 14:0.2 15:-0.6 16:-0.0666667 
-0 0 0 1 0 0 0 0 0 0 0 0 0 0 0 0 0 0 0 0 0 0 0 0 0 1:-0.733333 2:-0.6 3:-0.6 4:-0.733333 5:-0.866667 6:-0.0666667 7:0.2 8:-0.6 9:-0.466667 10:0.733333 11:-0.333333 12:-0.466667 13:-1 14:0.2 15:-0.733333 16:0.2 
-0 0 0 0 0 0 0 0 0 0 0 0 0 0 0 0 0 1 0 0 0 0 0 0 0 1:-0.6 2:-0.2 3:-0.466667 4:-0.466667 5:-0.733333 6:0.2 7:0.2 8:-0.6 9:-0.333333 10:0.733333 11:-0.466667 12:-0.6 13:-0.866667 14:0.333333 15:-0.6 16:0.2 
-0 0 0 1 0 0 0 0 0 0 0 0 0 0 0 0 1 0 0 0 1 0 0 0 0 1:-0.6 2:0.0666667 3:-0.333333 4:-0.2 5:-0.6 6:-0.2 7:0.333333 8:-0.333333 9:-0.2 10:0.333333 11:0.0666667 12:-0.466667 13:-0.866667 14:0.333333 15:-0.466667 16:-0.0666667 
-0 1 1 0 1 1 1 1 1 1 1 0 1 1 1 1 0 0 0.9957211820971194 1 0 0 1 1 0 1:-0.466667 2:-0.2 3:-0.2 4:-0.466667 5:-0.466667 6:0.0666667 7:-0.333333 8:-0.0666667 9:-0.333333 10:-0.2 11:-0.333333 12:-0.0666667 13:-0.6 14:0.0666667 15:-0.466667 16:0.2 
-1 1 1 1 1 1 1 1 1 1 1 1 1 1 1 1 1 1 1 1 1 1 1 1 1 1:-0.466667 2:-0.2 3:-0.333333 4:-0.466667 5:-0.466667 6:-0.0666667 7:-0.333333 8:-0.2 9:-0.333333 10:-0.0666667 11:-0.2 12:0.2 13:-0.333333 14:-0.0666667 15:-0.466667 16:0.0666667 
-0 0 0 0 0 0 0 0 1 0 0 0 0 0 0 0 0 0 0 0 0 0 0 0 0 1:0.2 2:1 3:-0.0666667 4:0.0666667 5:-0.466667 6:-0.333333 7:0.466667 8:-0.2 9:-0.733333 10:0.466667 11:-0.2 12:-0.466667 13:-0.333333 14:0.333333 15:-0.466667 16:-0.0666667 
-0 0 0 0 0 0 0 1 0 0 0 0 0 0 0 0 0.03870372198518192 0 0 0 0 0 0 0 0 1:-0.466667 2:0.466667 3:-0.2 4:0.0666667 5:-0.333333 6:-0.2 7:0.0666667 8:-0.333333 9:-0.2 10:0.2 11:0.0666667 12:-0.466667 13:-0.733333 14:0.333333 15:-0.466667 16:-0.0666667 
-0 0 0 1 0 0 0 0 0 0 0 0 0 0 0 0 0 0 0 0 0 0 0 0 0 1:-0.466667 2:-0.0666667 3:-0.2 4:-0.333333 5:-0.466667 6:-0.0666667 7:0.333333 8:-0.733333 9:-0.2 10:0.733333 11:-0.2 12:-0.466667 13:-1 14:0.333333 15:-0.6 16:0.2 
-0 0 0 1 0 0 0 0 0 0 0 0 0 0 0 0 0 0 0 0 0 0 0 0 0 1:-0.6 2:-0.0666667 3:-0.333333 4:-0.333333 5:-0.6 6:-0.2 7:0.6 8:-0.466667 9:-0.333333 10:0.733333 11:-0.2 12:-0.733333 13:-1 14:0.2 15:-0.6 16:0.0666667 
-0 0 0 1 0 1 0 1 0 0 0 0 0 0 0 0 0 0.7276220279437372 0 0 0 0 0 1 1 1:-0.6 2:-0.333333 3:-0.333333 4:-0.466667 5:-0.6 6:0.0666667 7:0.2 8:-0.6 9:-0.466667 10:0.6 11:-0.466667 12:-0.466667 13:-0.6 14:0.0666667 15:-0.466667 16:0.0666667 
-0 1 1 1 0 0 0 0 1 1 0 0 0 0 0 1 1 0 0 0 1 0 0 0 1 1:-0.466667 2:-0.466667 3:-0.2 4:-0.2 5:-0.2 6:0.2 7:0.466667 8:-0.733333 9:-0.6 10:-0.0666667 11:0.2 12:-0.2 13:-0.466667 14:0.333333 15:-0.333333 16:-0.333333 
-0 0 0 1 0 0 0 0 0 0 0 0 0 0 0 0 0 0 0 0 0 0 0 0 0 1:-0.2 2:0.333333 3:0.2 4:0.0666667 5:-0.333333 6:-0.0666667 7:0.333333 8:-0.733333 9:-0.0666667 10:0.866667 11:-0.2 12:-0.466667 13:-1 14:0.333333 15:-0.733333 16:0.2 
-0 0 0 0 0 0 0 0 0 0 0 0 0 0 0 0 0 1 0 0 0 0 0 0 0 1:-0.733333 2:-0.466667 3:-0.6 4:-0.6 5:-0.733333 6:0.2 7:0.0666667 8:-0.6 9:-0.466667 10:0.6 11:-0.466667 12:-0.6 13:-0.866667 14:0.333333 15:-0.6 16:0.2 
-0 0 0 1 0 0 0 0 0 0 0 0 0 0 0 0 0 0 0 0 0 0 0 0 0 1:-0.333333 2:0.0666667 3:-0.2 4:-0.2 5:-0.333333 6:-0.466667 7:0.466667 8:-0.466667 9:-0.333333 10:0.466667 11:0.2 12:-0.466667 13:-1 14:0.333333 15:-0.466667 16:-0.0666667 
-0 0 0 0 0 0 0 0 0 0 0 0 0 0 0 0 1 0 0 0 0 0 0 0 0 1:-0.2 2:-0.0666667 3:0.0666667 4:0.2 5:0.2 6:-0.2 7:0.0666667 8:-0.466667 9:-0.6 10:0.2 11:0.0666667 12:-0.2 13:-0.2 14:0.466667 15:-0.2 16:-0.2 
-0 0 0 1 0 0 0 1 1 0 0 0 0 0 0 0 1 0 0 1 1 0 0 0 0 1:-0.6 2:0.2 3:-0.333333 4:-0.2 5:-0.466667 6:-0.2 7:0.2 8:-0.6 9:-0.2 10:0.333333 11:0.2 12:-0.466667 13:-0.466667 14:0.333333 15:-0.466667 16:-0.0666667 
-0 0 0 0 0 0 0 0 0.1006855739097854 0 0 0 0 0 0 0 0 0 1 0 0 0 0 0 0 1:-0.2 2:-0.2 3:0.0666667 4:0.0666667 5:0.2 6:-0.2 7:0.2 8:-0.333333 9:-0.6 10:0.0666667 11:0.0666667 12:-0.2 13:-0.2 14:0.6 15:-0.333333 16:-0.0666667 
-0 0 1 0 0 0 0 0 1 0 0 0 0 1 0 0 1 0 1 0 0 0 0.8012561594557661 0 0 1:-0.333333 2:-0.333333 3:-0.0666667 4:-0.0666667 5:0.0666667 6:0.0666667 7:-0.0666667 8:-0.466667 9:-0.733333 10:-0.0666667 11:0.0666667 12:-0.0666667 13:-0.0666667 14:0.6 15:-0.333333 16:-0.0666667 
-0 0 0 1 0 0 0 0 0 0 0 0 0 0 0 0 0 0 0 0 0 0 0 0 0 1:-0.733333 2:-0.466667 3:-0.466667 4:-0.6 5:-0.733333 6:0.0666667 7:0.0666667 8:-0.733333 9:-0.333333 10:0.733333 11:-0.466667 12:-0.466667 13:-0.866667 14:0.333333 15:-0.733333 16:0.2 
-0 0.09047213612610903 1 1 0 0 0 0 0 0 0 1 0 0 0 0 1 0 0 0 0 0 0 1 0.1819399832312055 1:-0.0666667 2:0.0666667 3:0.2 4:0.333333 5:0.466667 6:0.0666667 7:0.333333 8:-0.733333 9:-0.466667 10:-0.0666667 11:0.2 12:-0.2 13:-0.2 14:0.2 15:-0.0666667 16:-0.333333 
-0 1 1 1 0 1 0.002879702781629071 0 1 0 1 1 1 1 0 0 1 0 0 0 1 1 1 1 0 1:-0.2 2:0.2 3:0.0666667 4:-0.2 5:-0.0666667 6:-0.2 7:0.0666667 8:-0.0666667 9:-0.466667 10:0.0666667 11:-0.0666667 12:0.2 13:-0.733333 14:0.2 15:-0.0666667 16:0.2 
-0 0 0 1 1 0 0 1 1 0 0 0 0 0 0 0 1 0 0.2686437151103064 1 1 1 0 0 0 1:-0.466667 2:-0.0666667 3:-0.333333 4:-0.333333 5:-0.466667 6:-0.333333 7:0.333333 8:-0.6 9:-0.2 10:0.333333 11:0.2 12:-0.333333 13:-0.466667 14:0.333333 15:-0.6 16:-0.0666667 
-0 0 1 0 0 0 0 0 0 0 0 0 1 0 0 0 0 0 0 0 0 0 1 0 0 1:0.6 2:0.733333 3:0.2 4:0.0666667 5:-0.466667 6:-0.0666667 7:0.2 8:-0.2 9:-0.466667 10:0.466667 11:-0.466667 12:-0.333333 13:-0.333333 14:0.2 15:-0.333333 16:0.0666667 
-0 0 0 1 0 0 0 0 0 0 0 0 0 0 0 0 0 0 0 0 0 0 0 0 0 1:-0.466667 2:-0.0666667 3:-0.333333 4:-0.333333 5:-0.6 6:-0.333333 7:0.6 8:-0.333333 9:-0.333333 10:0.466667 11:0.2 12:-0.6 13:-1 14:0.2 15:-0.466667 16:-0.2 
-0 1 1 0 0 0 0 1 0 0 1 0 1 1 0 1 0 1 0 0 0 0 1 1 0 1:0.2 2:0.733333 3:0.2 4:-0.0666667 5:-0.2 6:0.466667 7:-0.2 8:-0.6 9:-0.466667 10:0.6 11:-0.466667 12:-0.2 13:-0.333333 14:0.2 15:-0.2 16:0.2 
-0 0 1 0 0 0 0 0 0 0 0 0 0 0 0 0 1 0 0 0 0 0 0 0 0 1:-0.2 2:-0.0666667 3:0.0666667 4:0.333333 5:0.2 6:-0.0666667 7:0.2 8:-0.466667 9:-0.733333 10:-0.0666667 11:0.0666667 12:-0.0666667 13:-0.2 14:0.466667 15:-0.2 16:-0.333333 
-0 0 0 1 0 0 0 0 0 0 0 0 0 0 0 0 0 0 0 0 0 0 0 0 0 1:-0.6 2:-0.866667 3:-0.466667 4:-0.6 5:-0.733333 6:-0.333333 7:0.333333 8:-0.6 9:-0.333333 10:0.2 11:0.0666667 12:-0.466667 13:-0.6 14:0.333333 15:-0.6 16:-0.0666667 
-0 1 0 1 0 0 0 0 0 0 0 0 0 0 0 0.1624483085452638 0 1 0 0 0 0 0 0 1 1:-0.466667 2:0.333333 3:-0.2 4:-0.0666667 5:-0.466667 6:0.0666667 7:0.2 8:-0.733333 9:-0.2 10:0.733333 11:-0.2 12:-0.333333 13:-0.866667 14:0.333333 15:-0.6 16:0.2 
-0 0 0 1 0 0 0 0 0 0 0 0 0 0 0 0 0 0.4199197672645923 0 0 0.827441533824801 0 0 0 0.2189316557729847 1:-0.0666667 2:1 3:-0.0666667 4:0.0666667 5:-0.333333 6:-0.2 7:0.466667 8:-0.6 9:-0.333333 10:0.733333 11:-0.2 12:-0.6 13:-0.6 14:0.2 15:-0.333333 16:-0.333333 
-0 0 0 1 0 0 0 0 0 0 0 0 0 0 0 0 0 0 0 0 0 0 0 0 0 1:-0.733333 2:-0.6 3:-0.466667 4:-0.733333 5:-0.733333 6:-0.0666667 7:0.2 8:-0.6 9:-0.466667 10:0.6 11:-0.333333 12:-0.466667 13:-0.866667 14:0.333333 15:-0.733333 16:0.0666667 
-0 0 0 0 0 0 0 0 0 0 0 0 1 0 0 0 0 0 0 0 0 0 0 0 0 1:-0.6 2:0.0666667 3:-0.466667 4:-0.333333 5:-0.733333 6:-0.333333 7:0.333333 8:0.333333 9:-0.466667 10:0.0666667 11:-0.2 12:-0.333333 13:-0.733333 14:0.333333 15:-0.466667 16:0.0666667 
-0 0 0 0 0 0 0 0 0 0 0 0 0 0 0 0 0 0 0 0 0 0 1 0 0 1:-0.0666667 2:0.333333 3:-0.2 4:-0.333333 5:-0.466667 6:0.333333 7:-0.0666667 8:-0.466667 9:-0.466667 10:0.6 11:-0.466667 12:-0.333333 13:-0.466667 14:0.466667 15:-0.333333 16:0.2 
-0 0 0 1 0 0 0 0 0 0 0 0 0 0 0 0 0 0 0 0 0 0 0 0 0 1:-0.866667 2:-0.6 3:-0.6 4:-0.866667 5:-0.866667 6:-0.0666667 7:0.333333 8:-0.6 9:-0.6 10:0.6 11:-0.333333 12:-0.466667 13:-0.866667 14:0.2 15:-0.733333 16:0.0666667 
-0 0 0 0 0 -0 0 1 0 0 0 0 0 0 0 0 0 0 0 0 0 0 0 1 0 1:-0.733333 2:-0.6 3:-0.733333 4:-0.866667 5:-0.866667 6:-0.2 7:0.333333 8:-0.333333 9:-0.466667 10:0.2 11:-0.0666667 12:-0.466667 13:-0.866667 14:0.2 15:-0.6 16:-0.0666667 
-0 0 1 1 0 0 0 0 0 1 0 0 0 0 0 0 1 0 0 0 0 0 0.3997555144406295 0 0 1:-0.6 2:-0.466667 3:-0.333333 4:-0.2 5:-0.333333 6:0.0666667 7:0.2 8:-0.6 9:-0.733333 10:-0.0666667 11:0.0666667 12:-0.2 13:-0.333333 14:0.333333 15:-0.333333 16:-0.333333 
-0 0 0 0 1 0 0 0 0 0 0 0 0 0 0 0 1 0 0 0 0 0 0 0 0 1:-0.333333 2:0.0666667 3:-0.0666667 4:0.333333 5:0.333333 6:-0.0666667 7:0.0666667 8:-0.466667 9:-0.6 10:-0.0666667 11:-0.0666667 12:-0.0666667 13:-0.2 14:0.466667 15:-0.333333 16:-0.2 
-0 0 0 0 0 0 0 0 0 0 0 0 1 0 0 0 0 0 0 0 0 0 0 0 0 1:0.2 2:0.466667 3:-0.0666667 4:-0.2 5:-0.6 6:0.0666667 7:0.2 8:-0.2 9:-0.466667 10:0.6 11:-0.6 12:-0.333333 13:-0.333333 14:0.333333 15:-0.466667 16:0.0666667 
-0 0 0 0 0 0 0 0 0 0 0 0 1 0 0 0 0 0 0 0 0 0 0 0 0 1:0.2 2:0.866667 3:-0.0666667 4:0.0666667 5:-0.6 6:0.0666667 7:0.0666667 8:-0.0666667 9:-0.466667 10:0.866667 11:-0.6 12:-0.333333 13:-0.333333 14:0.333333 15:-0.466667 16:0.0666667 
-0 0 0 1 0 0 0 0 0 0 0 0 0 0 0 0 0 0 0 0 0 0 0 0 0 1:-0.333333 2:0.333333 3:-0.0666667 4:-0.0666667 5:-0.466667 6:-0.0666667 7:0.466667 8:-0.466667 9:-0.333333 10:0.733333 11:-0.333333 12:-0.6 13:-0.866667 14:0.333333 15:-0.6 16:0.0666667 
